<?xml version="1.0"?>
<opencv_storage>
<opencv_ml_ann_mlp>
  <format>3</format>
  <layer_sizes>
    3780 2 3</layer_sizes>
  <activation_function>SIGMOID_SYM</activation_function>
  <f_param1>1.</f_param1>
  <f_param2>1.</f_param2>
  <min_val>-9.4999999999999996e-01</min_val>
  <max_val>9.4999999999999996e-01</max_val>
  <min_val1>-9.7999999999999998e-01</min_val1>
  <max_val1>9.7999999999999998e-01</max_val1>
  <training_params>
    <train_method>RPROP</train_method>
    <dw0>1.0000000000000000e-03</dw0>
    <dw_plus>1.2000000000000000e+00</dw_plus>
    <dw_minus>5.0000000000000000e-01</dw_minus>
    <dw_min>0.</dw_min>
    <dw_max>50.</dw_max>
    <term_criteria>
      <iterations>3000</iterations></term_criteria></training_params>
  <input_scale>
    8.9882258864206772e+00 -2.1050360836172528e+00
    1.0177546738910461e+01 -1.1206953657583290e+00
    1.2402679871910518e+01 -8.0668987314342888e-01
    1.6910251302455677e+01 -5.9548044481214535e-01
    1.9721534817655687e+01 -8.0554616963689085e-01
    2.3809788030419440e+01 -6.5149821206783243e-01
    1.8164414459041726e+01 -8.1373578072433206e-01
    1.1607393098831457e+01 -1.0731184967362388e+00
    8.3197792994104933e+00 -1.9406657503868738e+00
    8.9187539232919839e+00 -2.2601514932427484e+00
    9.4726810130202637e+00 -1.2095677293420735e+00
    1.2505049276982335e+01 -8.7616605626887811e-01
    1.7085694886029113e+01 -6.4925624351166356e-01
    1.7352347654046877e+01 -8.4684600424720480e-01
    1.9985433854067221e+01 -6.2857343289840883e-01
    1.4850154959391336e+01 -8.2873695531273150e-01
    1.0422685700617997e+01 -1.1267713396346781e+00
    8.4197449062386980e+00 -2.0804284458268389e+00
    8.7645496418334865e+00 -2.3665526623565993e+00
    9.6825889885492540e+00 -1.2561969275496765e+00
    1.0910917609673993e+01 -8.3589364580303693e-01
    1.3490835690830020e+01 -6.4219269280448477e-01
    1.6508657717270289e+01 -7.6051047128989591e-01
    1.9055163195758670e+01 -7.2749267621202707e-01
    1.4480619094673960e+01 -8.6070415895610375e-01
    1.0309005430012746e+01 -1.2534010208811108e+00
    8.1837344744956262e+00 -2.1908531994289659e+00
    8.6156772237155099e+00 -2.4797772846586255e+00
    8.8595544052048911e+00 -1.3344119647726400e+00
    1.1194311622695070e+01 -9.1340689411617593e-01
    1.4287657546850768e+01 -7.0630727561024387e-01
    1.5993922123834080e+01 -8.1187553241815347e-01
    1.7538834570551490e+01 -7.3272906756948075e-01
    1.3669518573390445e+01 -9.4627262884369912e-01
    9.8891947677530787e+00 -1.2971441941279385e+00
    8.4399590501015709e+00 -2.3951739253743054e+00
    9.2121288149323526e+00 -2.1622863098196015e+00
    9.5285680976649942e+00 -1.1049970818642283e+00
    1.3550278481385597e+01 -8.2035578661371478e-01
    1.9222800474206032e+01 -6.1424375118450358e-01
    1.7047673428342520e+01 -7.6543758354323632e-01
    2.7994465556712480e+01 -7.4433951926292030e-01
    1.7962678075389658e+01 -8.5152888400151694e-01
    1.1171798512284507e+01 -1.1166221501990350e+00
    8.6000857427288899e+00 -2.0022801034272097e+00
    9.9839394798929622e+00 -2.6319364494929385e+00
    9.2861175851877906e+00 -1.1716590676914471e+00
    1.3321305987080665e+01 -9.0371189992658518e-01
    1.9907827508381203e+01 -6.8111068331170554e-01
    1.7690605579191150e+01 -8.5113187560571057e-01
    2.8992739818379881e+01 -8.0115162476803103e-01
    1.7176621437210994e+01 -8.5727902818982415e-01
    1.1012640013839889e+01 -1.1978125208064863e+00
    8.8285204624591973e+00 -2.2551401076366582e+00
    8.6684950252442903e+00 -2.3702692083641144e+00
    9.5622738237394564e+00 -1.3024168785094890e+00
    1.2137562870295556e+01 -9.0081852030546428e-01
    1.5558418892715583e+01 -6.4970345382579386e-01
    1.6915641931072891e+01 -7.5573794474968603e-01
    2.2174360920499765e+01 -7.5285849146525263e-01
    1.4129148490085248e+01 -8.6781807047455750e-01
    1.0581879932313079e+01 -1.2295155665896318e+00
    8.1957506126755053e+00 -2.2265969827077408e+00
    9.4387930039516412e+00 -2.8176389444585475e+00
    9.0267258783578175e+00 -1.3263185172817176e+00
    1.1840896819805820e+01 -9.5658488693944099e-01
    1.7326875711922501e+01 -7.5743862109494087e-01
    1.6757718486276566e+01 -8.3012078701902314e-01
    2.1803048001042189e+01 -7.3217834993663311e-01
    1.4053371409642288e+01 -8.6715073602933812e-01
    1.0177161061073051e+01 -1.3250607623991431e+00
    9.2505663728875973e+00 -2.7329999066303903e+00
    9.5784938359588203e+00 -2.3737211901904853e+00
    1.0322384145357519e+01 -1.0827560822949180e+00
    1.5423984039319585e+01 -8.3122894679821913e-01
    2.1815679831768541e+01 -6.0808429412108311e-01
    1.9092398595878763e+01 -7.9870864409451359e-01
    3.0807565386509115e+01 -7.4751497978091375e-01
    1.9706804060364700e+01 -8.4134056809122792e-01
    1.2191855344804333e+01 -1.1625541028550199e+00
    9.0382850355408078e+00 -2.1773566738427523e+00
    9.8396189989663920e+00 -2.6418683501590983e+00
    1.0487023271253724e+01 -1.1856709401870400e+00
    1.5443840849762754e+01 -8.5225878698804902e-01
    2.0736792714290608e+01 -6.2724117664539791e-01
    1.7050631585830413e+01 -8.3171180400786338e-01
    2.4241317790578709e+01 -7.1817673364249113e-01
    1.5647110927215026e+01 -8.5778889570494588e-01
    1.0239764737806123e+01 -1.1758708576620203e+00
    9.7714467343476272e+00 -2.5320400109750363e+00
    9.4315817248050866e+00 -2.7493542824158128e+00
    1.0111761473752891e+01 -1.2593531279041907e+00
    1.3903412310088713e+01 -8.9656179231392596e-01
    1.8837360264501282e+01 -7.0117304851166373e-01
    2.1176743086123800e+01 -8.5936037088996786e-01
    2.6303165188523764e+01 -7.9228528776312690e-01
    1.7417203180537719e+01 -9.0988851539014792e-01
    1.0338712323984936e+01 -1.2237636212126866e+00
    8.9233092079497620e+00 -2.5111638348743019e+00
    1.0074731002333616e+01 -3.1051568828420684e+00
    9.2322538763441635e+00 -1.3043411696174503e+00
    1.2402006064637433e+01 -8.5349310508865783e-01
    1.7731139704509467e+01 -7.2138740461059347e-01
    1.6602867472198575e+01 -7.9895368078987306e-01
    2.0877051120507019e+01 -7.7666452539202291e-01
    1.4347579966527757e+01 -9.0378017882053296e-01
    9.3434769622629403e+00 -1.3177459462331091e+00
    9.5267935443354528e+00 -2.8662843469743264e+00
    9.2959015280301660e+00 -2.2486975187425293e+00
    1.1061422457327893e+01 -1.1123634899450532e+00
    1.9060835167355638e+01 -8.4108085050876025e-01
    2.7323589811272342e+01 -6.8080480836777313e-01
    1.9689999269948853e+01 -7.9845949241624636e-01
    2.6487484818836858e+01 -6.8434793672049776e-01
    1.6021026137602291e+01 -7.6862558548700510e-01
    1.2210998015878845e+01 -1.1293267549924608e+00
    9.1341047473271590e+00 -2.1202889283533031e+00
    9.8250792151314119e+00 -2.5727143157416714e+00
    9.8776112600811476e+00 -1.1663104346106328e+00
    1.3552899188698470e+01 -7.7041673628586060e-01
    1.9903120564922506e+01 -6.3921353894057609e-01
    1.6663063410744549e+01 -7.8778151654663298e-01
    1.8662270954167571e+01 -5.8824858694885096e-01
    1.4219664919498879e+01 -7.8451854871623428e-01
    1.1572764509452931e+01 -1.1528108257019591e+00
    9.0890300388866727e+00 -2.3457040004757146e+00
    9.1247736444733327e+00 -2.6493459521666582e+00
    9.5680995080839466e+00 -1.2633171598950161e+00
    1.4658841738492026e+01 -8.8962344935406090e-01
    1.8876625745933755e+01 -6.8635466601201578e-01
    1.9426912012703173e+01 -7.9044184855919519e-01
    2.3023932202159660e+01 -7.1865513612856946e-01
    1.6907167804269861e+01 -9.3821556989079513e-01
    1.0707742445726330e+01 -1.2305233842627474e+00
    8.6654612398933573e+00 -2.3844810528325660e+00
    9.9396267805402978e+00 -3.0613909462579580e+00
    8.3345844003912450e+00 -1.3350244555692405e+00
    1.0210371769952715e+01 -8.5232809461997860e-01
    1.1911178474543602e+01 -6.0708483460167995e-01
    1.5748000261236559e+01 -8.0380661989323343e-01
    1.7013098577064266e+01 -6.7852844492593301e-01
    1.2856282518022473e+01 -8.5196743656936547e-01
    1.0418591804544107e+01 -1.2906733464634137e+00
    8.4943833582994337e+00 -2.4742665676907420e+00
    9.3424258681798804e+00 -2.2483829324236617e+00
    1.0863725556226422e+01 -1.1210337708149278e+00
    1.5565760093131980e+01 -7.7767821269058701e-01
    2.5217088824465211e+01 -6.3794360602723976e-01
    2.6050546753046493e+01 -8.4544546304071111e-01
    2.8401601275097875e+01 -6.3746372672179985e-01
    1.8666471993757270e+01 -7.6340336739321168e-01
    1.2924035021523155e+01 -1.0877760735153195e+00
    8.7656968804982078e+00 -2.1530846951897717e+00
    9.7325544258062351e+00 -2.5306693768006410e+00
    9.4518287762401272e+00 -1.1401490480134164e+00
    1.3058498220326658e+01 -7.8674125082821922e-01
    2.0833089253248925e+01 -6.3374186431732460e-01
    2.3672128321104267e+01 -8.7934745935061986e-01
    2.7769581100467789e+01 -7.0346109491854958e-01
    1.9406003584660859e+01 -8.9915881549827192e-01
    1.1440223506662690e+01 -1.1321360320907443e+00
    9.1651799217361951e+00 -2.3862759268556526e+00
    9.3712061935669144e+00 -2.7547355681948589e+00
    8.9260236830792472e+00 -1.2986968463587676e+00
    1.1065785694675084e+01 -8.5261676032951539e-01
    1.6209101183997888e+01 -6.5651877542306936e-01
    2.1746640276025513e+01 -8.1419322054591448e-01
    2.2768957815327532e+01 -7.3838666919044238e-01
    1.6595144071554444e+01 -8.5812706941571171e-01
    1.1683793882870001e+01 -1.2339734103516184e+00
    8.4215707107696964e+00 -2.3147528212867261e+00
    9.9693655095036906e+00 -3.0635161423504491e+00
    8.0828526137347296e+00 -1.3680627228079567e+00
    1.0273512702641124e+01 -9.0893167505501360e-01
    1.6556306876840878e+01 -7.4177929468088466e-01
    1.8989797286168407e+01 -8.1235826397185540e-01
    2.0322491149719774e+01 -7.6559136742919132e-01
    1.4941478530052924e+01 -9.2164266663212480e-01
    1.0587555219020722e+01 -1.3075520237189939e+00
    8.6429550784945572e+00 -2.4810722134392873e+00
    9.4780762109826657e+00 -2.2674597098247280e+00
    1.1012223304330210e+01 -1.1037271033858975e+00
    1.4904625644424236e+01 -7.5683849947313986e-01
    2.1583042334705851e+01 -5.9327547576682493e-01
    2.4391702743874962e+01 -8.2046742950672880e-01
    2.7990890169908905e+01 -6.9276428006758517e-01
    1.9290727342905871e+01 -8.4247755956000714e-01
    1.2820841287217634e+01 -1.1587071336015804e+00
    9.1063791023331628e+00 -2.1610442249057766e+00
    9.9452092596997286e+00 -2.5717260224830456e+00
    1.0168232912362203e+01 -1.1015143708215394e+00
    1.4953105431806836e+01 -8.3437233708714909e-01
    2.0138989820440088e+01 -6.6960279500701403e-01
    1.8999857021336609e+01 -8.0338409443043668e-01
    2.2152269163686604e+01 -6.5690253464453130e-01
    1.8535857479696467e+01 -8.9786388393719574e-01
    1.0657604986119450e+01 -1.1756599811798476e+00
    9.4938819038592293e+00 -2.4896132952918837e+00
    9.0194160088295163e+00 -2.6396483698635955e+00
    8.9892450485069144e+00 -1.3332921888589349e+00
    1.2654628011859288e+01 -9.1104020670999653e-01
    1.9119306277015504e+01 -6.9755152501450246e-01
    1.9033400505249350e+01 -7.3249452181835628e-01
    2.1940406617363944e+01 -7.4912696180228044e-01
    1.5840853398527017e+01 -8.8750238711522333e-01
    1.0624941083461218e+01 -1.2535203257653773e+00
    8.5017363837534763e+00 -2.3428174482473723e+00
    9.3369546156809502e+00 -2.8263231569985128e+00
    8.8576638222785622e+00 -1.3356514446162200e+00
    1.2258233956117735e+01 -9.5370996518731366e-01
    1.7283974715507647e+01 -7.4841862989562213e-01
    1.7692215022141689e+01 -8.2206870060675652e-01
    1.8962313628179469e+01 -7.6622504426322247e-01
    1.6225256160151414e+01 -1.0089281846223002e+00
    9.2116436980508389e+00 -1.3191569165268091e+00
    9.3079400467375795e+00 -2.8219336267247939e+00
    9.5439116447747736e+00 -2.2907142825039211e+00
    1.0458056325120305e+01 -1.0247513554001795e+00
    1.5918671684110977e+01 -7.8559754980733232e-01
    2.5883040103721214e+01 -7.1765563132906174e-01
    2.0980653707739464e+01 -7.7377631229358490e-01
    2.4629159150823948e+01 -6.3590831202383236e-01
    2.0533688021948567e+01 -8.3521915718187900e-01
    1.1244319398727377e+01 -1.1345489756484366e+00
    9.4283138000483362e+00 -2.3159166598173049e+00
    1.0206032267716443e+01 -2.6800855534154526e+00
    1.0538901590967637e+01 -1.1455540230028454e+00
    1.5512544969915867e+01 -8.2366361716270542e-01
    2.7131266129414641e+01 -7.6930890841603750e-01
    1.8978031607036268e+01 -7.8147386823881937e-01
    1.9803149109885304e+01 -6.3867945713915397e-01
    1.6372836451266370e+01 -8.0855914482721014e-01
    1.0781172428702012e+01 -1.1635057571494161e+00
    1.0084358882739275e+01 -2.6503125281961797e+00
    8.8815961195683091e+00 -2.5358609009630801e+00
    9.4148941980852836e+00 -1.2552536464994430e+00
    1.3708554171172084e+01 -9.0598521971127088e-01
    1.9521064701903892e+01 -7.5898641788798860e-01
    1.9639259103552270e+01 -8.1304771302959555e-01
    2.0446432891092002e+01 -7.1529400564368861e-01
    1.6487047441426874e+01 -9.1346349647442771e-01
    9.5149077624753655e+00 -1.2692394383535071e+00
    9.2049605296963506e+00 -2.6357103131568338e+00
    9.5270219923317825e+00 -2.8204647158981309e+00
    8.6114756845979201e+00 -1.2352427665440546e+00
    1.2788276519686338e+01 -9.0615542113375191e-01
    1.8392166465160777e+01 -7.5612243765121478e-01
    1.6004637262140978e+01 -7.5054738413424782e-01
    1.8899145294493987e+01 -7.5554279713229078e-01
    1.3653439599914723e+01 -9.0724462546966089e-01
    9.4412420891897870e+00 -1.3596797361424529e+00
    9.6134668924448565e+00 -2.9299872597027727e+00
    1.0032403173472161e+01 -2.5022827569400659e+00
    1.0496259676850254e+01 -1.0773981577610947e+00
    1.6539974923933585e+01 -7.8163674983769571e-01
    2.6466751960113662e+01 -6.4196382805790086e-01
    1.8786397390711038e+01 -6.8847468486589969e-01
    2.3370354029340572e+01 -5.9628761660565555e-01
    1.8275492788145982e+01 -7.9467537381472564e-01
    1.1198854488967038e+01 -1.0955935644880728e+00
    9.7973367612495146e+00 -2.4387998429734639e+00
    1.0655732787290855e+01 -2.8153086733541168e+00
    9.7739205947572732e+00 -1.1564403667867929e+00
    1.6372196531958288e+01 -8.3423994355887188e-01
    2.4495234962844840e+01 -6.5326698481393897e-01
    1.8247878579493854e+01 -7.2815798046752445e-01
    2.5050563328799633e+01 -6.4511074493112153e-01
    1.6526894884529735e+01 -8.5058302821671827e-01
    9.4059845429606348e+00 -1.0843172078544283e+00
    9.8169796101937497e+00 -2.5476571214895758e+00
    9.2165580948320152e+00 -2.6660577528896998e+00
    9.2444095817079486e+00 -1.1681267118428920e+00
    1.6336881670681571e+01 -9.3096021427678610e-01
    2.3153773959967371e+01 -7.3241689518606456e-01
    1.5992656039993525e+01 -6.4611575946162803e-01
    2.1470359633955180e+01 -7.4186280003662297e-01
    1.6516304709272536e+01 -9.2718053467755079e-01
    1.0230107063308170e+01 -1.2747665463290372e+00
    9.0358263898568723e+00 -2.6313998481305014e+00
    9.5653024210092337e+00 -2.8832089873053417e+00
    9.1004996244162903e+00 -1.2516132481281161e+00
    1.4534200602207759e+01 -9.1877634466171709e-01
    1.9904036300905332e+01 -7.0296896429658162e-01
    1.6744493968581320e+01 -6.5040841830258234e-01
    2.1843702466569809e+01 -7.5163048407298683e-01
    1.5533327389929832e+01 -9.4744856678809819e-01
    9.0949813538800566e+00 -1.2765069627593824e+00
    9.8735847381342534e+00 -3.0201601386255836e+00
    9.9276062546093655e+00 -2.5037833537689740e+00
    1.0200610825897593e+01 -1.0834744790116939e+00
    1.7736063353501180e+01 -8.0592247209005607e-01
    2.7103015972829816e+01 -6.7966776842178589e-01
    2.1885999313428162e+01 -7.7370510940508708e-01
    3.0750210037446184e+01 -7.0150787081041288e-01
    1.5933853885676026e+01 -8.1067471569328686e-01
    9.5250367247314554e+00 -1.0364015104715905e+00
    9.8123626006575186e+00 -2.3930524935558259e+00
    1.0266130845056026e+01 -2.7012745320159892e+00
    1.0100882179254013e+01 -1.1299145557982166e+00
    1.8187696808270772e+01 -8.5425846009985129e-01
    2.5519102902230600e+01 -6.6216845596434715e-01
    1.8246462297442399e+01 -7.3487660542736233e-01
    2.4088212941315522e+01 -6.6396672844109328e-01
    1.3916829569148534e+01 -7.8305939516707745e-01
    9.8639884547444385e+00 -1.1362066023148947e+00
    1.0385513178263526e+01 -2.7203089227126003e+00
    8.9821945792938536e+00 -2.6331285214596201e+00
    9.9449454764525989e+00 -1.2030367165150904e+00
    1.5156272306939188e+01 -8.4998307656864125e-01
    2.3213317181541250e+01 -7.2174365682212016e-01
    2.2950233471800743e+01 -7.3449788744526245e-01
    2.8984862172419785e+01 -7.8103360916175835e-01
    1.5250603562539988e+01 -8.8936398947869388e-01
    9.1526889580486639e+00 -1.2065308046855774e+00
    1.0131184058680020e+01 -2.9672216989631992e+00
    9.4481722800853269e+00 -2.8395512612375726e+00
    9.9915304213569733e+00 -1.2845196809746369e+00
    1.4075863484059971e+01 -8.5009259156378592e-01
    1.9905352955179989e+01 -6.7602585821842065e-01
    2.1016491740622449e+01 -7.8235226734149643e-01
    2.5212894636178216e+01 -7.1409832883830526e-01
    1.4988187775136661e+01 -9.5747357527743593e-01
    8.8422736147103009e+00 -1.2936196669243949e+00
    1.0326481305850905e+01 -3.1923858472437452e+00
    9.9495132952040972e+00 -2.5394024799121278e+00
    1.1262557680500569e+01 -1.1214090811834159e+00
    2.2061559939153931e+01 -9.3168044602281674e-01
    3.0605907492099522e+01 -6.6843635488594755e-01
    1.9810150319432445e+01 -7.4739179086293184e-01
    3.0790661770817852e+01 -7.1853720771655172e-01
    1.7150995074188216e+01 -8.0833734718900152e-01
    1.0656600917527834e+01 -1.0702350858388088e+00
    9.9859748900825878e+00 -2.5361114730852661e+00
    1.0379499372562449e+01 -2.8938767859865417e+00
    1.0911672195887339e+01 -1.1204571034924440e+00
    1.9403486434746430e+01 -8.8622592575435866e-01
    2.9349012585214673e+01 -7.2826800128281410e-01
    2.0337323274604930e+01 -8.3481866633340929e-01
    2.4985493401322547e+01 -7.1026503701636889e-01
    1.6095601725074214e+01 -8.5769754322826730e-01
    1.0780859391626755e+01 -1.1677645286474925e+00
    1.1027271941078492e+01 -3.0853472516987317e+00
    9.9116272344932774e+00 -2.8985976943025209e+00
    1.0645887541286854e+01 -1.2484514060266545e+00
    1.6315313331381294e+01 -8.9759349204468153e-01
    2.2002385301159755e+01 -6.6756235561274624e-01
    1.9881085784850182e+01 -7.3800298645162110e-01
    2.2544336670018268e+01 -5.9138968193158636e-01
    1.5569758621816485e+01 -8.7684698255259019e-01
    9.1953818030631762e+00 -1.2081214556940432e+00
    1.0200298256272445e+01 -3.0252624555972916e+00
    1.0499622691157844e+01 -3.2337454358693032e+00
    1.0869888595833780e+01 -1.2985879158010467e+00
    1.5300780579880598e+01 -9.1221907237559452e-01
    2.2402622178498447e+01 -6.9966275385945276e-01
    1.7771495726464355e+01 -7.0452249971153635e-01
    2.2626382773036298e+01 -6.8967932347809691e-01
    1.3773269578994352e+01 -8.7137487642313294e-01
    9.1921415208370068e+00 -1.2675637969683213e+00
    1.1691968096625232e+01 -3.6907782540472294e+00
    1.0334687900535439e+01 -2.7394682275581470e+00
    1.2560751033206733e+01 -1.1694413231415164e+00
    2.2296313613164312e+01 -8.5738117006502357e-01
    2.8434693468028804e+01 -6.4666412218600977e-01
    2.2679985267907067e+01 -8.2506645878672291e-01
    2.2305670717424753e+01 -6.2596400337477831e-01
    1.7249190883312416e+01 -8.1863796477273743e-01
    1.1885181187128813e+01 -1.1463453788578475e+00
    1.1014817730558912e+01 -2.9241881345882894e+00
    1.0235560678295368e+01 -2.8782298574209229e+00
    1.1337156891605529e+01 -1.2154434579732085e+00
    2.0851064749552634e+01 -9.0246335869920113e-01
    2.7879560168936457e+01 -6.8819214384064820e-01
    1.9131823802324725e+01 -7.7156815283016633e-01
    1.9543643400288335e+01 -5.9014882750164455e-01
    1.4371855153195957e+01 -7.6836624255330799e-01
    1.1258424747267535e+01 -1.2301418573997436e+00
    1.0590623816533917e+01 -2.9039000932930166e+00
    1.0073319412312420e+01 -2.9855138381009958e+00
    1.1207670374469680e+01 -1.2827682482737510e+00
    1.8878162730097646e+01 -9.5233855466025896e-01
    2.4981572428418872e+01 -7.0301492415096933e-01
    1.9086942840778139e+01 -7.1334101753854395e-01
    2.1984597407912467e+01 -6.6144096990196277e-01
    1.3703386571006948e+01 -8.0907044778500825e-01
    9.6000026531106464e+00 -1.1896532987788113e+00
    1.1252432372774059e+01 -3.3623129616644696e+00
    1.0441035025192980e+01 -3.2285586114265694e+00
    1.0321087426939156e+01 -1.3744170608644339e+00
    1.5702522751261483e+01 -9.1996598618950942e-01
    2.3622326958426495e+01 -7.4720540487475318e-01
    1.6434937032450009e+01 -7.0529456999375517e-01
    1.7659045913439424e+01 -6.3900104082846643e-01
    1.3323077442000486e+01 -8.6384949132408906e-01
    9.9633784899608724e+00 -1.3277238095888799e+00
    1.1395771165678156e+01 -3.4703967365533246e+00
    1.0545145457564701e+01 -2.7934464113635706e+00
    1.1545342168949167e+01 -1.1558433229050256e+00
    2.1989233762549222e+01 -9.1586246507773261e-01
    3.3478302648434870e+01 -7.4390119349210471e-01
    2.1304013248251362e+01 -8.0875722059314337e-01
    2.2306251742553677e+01 -5.8693631395571566e-01
    1.7661939425556220e+01 -7.9533305508101271e-01
    1.3052818080901954e+01 -1.2870248234955446e+00
    1.0388200939878152e+01 -2.7194141625185733e+00
    1.1139700393708091e+01 -3.1749038730063561e+00
    1.0252548614768569e+01 -1.1702117895909330e+00
    1.5631328175447397e+01 -8.4869827327731473e-01
    2.2871543170146943e+01 -6.4815929150638996e-01
    1.8060886357767583e+01 -8.2444948298861920e-01
    2.6998791983159062e+01 -7.4275906657641388e-01
    2.0495978634483411e+01 -9.5844657246801579e-01
    1.2926461877360104e+01 -1.3805756594506813e+00
    1.0696861279352156e+01 -2.9426246994944383e+00
    1.0283351569168488e+01 -2.9938672103959294e+00
    1.1017970908836745e+01 -1.2967746910445288e+00
    1.7950485401037373e+01 -9.6266162134821653e-01
    2.3528817812230052e+01 -7.1037030122705003e-01
    1.6044303875785776e+01 -6.5338286523829348e-01
    1.9542814762931656e+01 -6.6370279972231983e-01
    1.2623131629936424e+01 -7.9147442389278977e-01
    9.8939096831504649e+00 -1.2400922911285661e+00
    1.0504183483893620e+01 -3.0108468209850936e+00
    1.0863871523840031e+01 -3.3088532093055698e+00
    1.0678670721864638e+01 -1.3850147456926398e+00
    1.4610565554347165e+01 -9.3803210050776009e-01
    2.1051487285626258e+01 -7.5862962001524492e-01
    1.4787608431382887e+01 -7.2095752200856877e-01
    1.7801644116405718e+01 -6.7606459395728102e-01
    1.2865272084427961e+01 -8.8281348962989792e-01
    1.0032077575759036e+01 -1.3909195008651034e+00
    1.1122707170409088e+01 -3.4074952055255441e+00
    1.0803322284026880e+01 -2.8715527913796599e+00
    1.1360055581042669e+01 -1.1628267044865159e+00
    1.6763101009035367e+01 -8.4681461015679216e-01
    2.2488537589620599e+01 -6.1566213904739486e-01
    1.9836605355356536e+01 -8.3848260006828668e-01
    2.2807712896326546e+01 -6.0974854595249239e-01
    2.0680984202302518e+01 -8.8589723975448775e-01
    1.3658074505507395e+01 -1.2940298497503098e+00
    1.0457571025534039e+01 -2.7270511887732973e+00
    1.1781448945311753e+01 -3.3216604736624609e+00
    1.1353607268177566e+01 -1.2899976139533822e+00
    1.6030858179240120e+01 -9.2048636977252241e-01
    2.4985433840558265e+01 -7.8541615785042385e-01
    2.1142188980683517e+01 -9.5670882339728291e-01
    2.0824990572484868e+01 -6.9496064798765200e-01
    1.7167341044920555e+01 -9.0705509175192456e-01
    1.1240834274524838e+01 -1.2668053727646293e+00
    1.1583001541294655e+01 -3.2511339527703358e+00
    1.0988388764163091e+01 -3.2039290005892744e+00
    1.1646169294305952e+01 -1.3757226775620159e+00
    1.5341368958180702e+01 -9.1951325683297502e-01
    2.4503549246872566e+01 -7.9851900118673635e-01
    1.7932232756598271e+01 -7.8088504657568780e-01
    1.8781872036203286e+01 -6.4865683177634903e-01
    1.5148266672120601e+01 -8.6665978337505190e-01
    1.1150736440671118e+01 -1.3419251850174940e+00
    1.1015697315169582e+01 -3.1722069139155056e+00
    1.1513331227198671e+01 -3.5191548145515794e+00
    1.0298697686093348e+01 -1.4273602237364262e+00
    1.4103882630876715e+01 -9.6433628960371554e-01
    2.4567602042330797e+01 -8.5451083836888286e-01
    1.6571940302691686e+01 -8.1374976930132747e-01
    1.7558727480080499e+01 -7.0865498421854078e-01
    1.3383263248382885e+01 -9.3840780677638957e-01
    1.0275439235117128e+01 -1.4785157282848127e+00
    1.1879672303627105e+01 -3.6264113692743938e+00
    1.0325111042113111e+01 -2.6415674253327217e+00
    1.2871665384165789e+01 -1.2213623366999560e+00
    2.3555705286763519e+01 -1.0267530347830083e+00
    2.8431896999736963e+01 -7.3425203143771289e-01
    2.0457169527947759e+01 -8.1507820972042022e-01
    2.1519027143508900e+01 -6.7994484051763660e-01
    1.8796878672585226e+01 -9.3492009896246941e-01
    1.2470766274457638e+01 -1.2640208225785323e+00
    1.0262568160954496e+01 -2.6960693013978765e+00
    1.0870846787766487e+01 -3.0057668749420050e+00
    1.1383817049903003e+01 -1.2486490061798128e+00
    1.8212461273626982e+01 -8.8704126809762840e-01
    1.9127338189550226e+01 -6.0650755997990424e-01
    1.6000248691500591e+01 -7.8060822802051877e-01
    1.9760384410940173e+01 -6.7251233153161349e-01
    1.4265337794623761e+01 -8.5572306513822016e-01
    1.0604239709095470e+01 -1.2814602329975140e+00
    1.1121169667935948e+01 -3.1355365473264314e+00
    1.0876020329702733e+01 -3.1493172045057150e+00
    1.2227013926193679e+01 -1.4513104769148948e+00
    1.9953111768678045e+01 -1.0455692683039963e+00
    2.5591405143582772e+01 -7.5867580934907775e-01
    1.7738686299674434e+01 -7.6735699730238338e-01
    2.0034362090931609e+01 -7.4860791510562097e-01
    1.5434736489780034e+01 -9.6387536585054789e-01
    1.1222197626699318e+01 -1.4199355920415102e+00
    1.0838615544426624e+01 -3.1188521993194454e+00
    1.2040938021776475e+01 -3.7079180637390530e+00
    1.1196208116961081e+01 -1.5304832520327434e+00
    1.7408118455045404e+01 -1.0115146173208249e+00
    1.7779095687174554e+01 -7.1999757411221710e-01
    1.4756585106884115e+01 -7.9000795608730112e-01
    1.5055792038401624e+01 -7.0347809735911149e-01
    1.3077620879764345e+01 -9.2996501457007352e-01
    1.0521154967235304e+01 -1.5025805573247260e+00
    1.1837564057503162e+01 -3.6567296597346646e+00
    1.0595517202727109e+01 -2.6695623801279678e+00
    1.3318392661033288e+01 -1.2716933932362198e+00
    2.1532631328201539e+01 -9.4102034513656729e-01
    2.2631597091337763e+01 -6.5759261437461514e-01
    1.8996625917689148e+01 -8.0485188847923939e-01
    2.0421339187045547e+01 -6.1703833462068303e-01
    1.7916207374389352e+01 -8.7798346929519400e-01
    1.2723741264543788e+01 -1.2745464969966067e+00
    1.0604899548669898e+01 -2.7630509474387450e+00
    1.0951797490905463e+01 -3.0284092186998377e+00
    1.2455662066336821e+01 -1.3345833428195333e+00
    1.7380019140460167e+01 -9.7818388255679711e-01
    1.7302459977085029e+01 -6.6790454344657946e-01
    1.4062320090900307e+01 -7.9568775176873607e-01
    1.7481738714345614e+01 -6.3413528541130282e-01
    1.5709881826608655e+01 -8.6049131659168820e-01
    1.1637838646158880e+01 -1.2939257267819153e+00
    1.1153084210716894e+01 -3.0674789874009445e+00
    1.1079077017616912e+01 -3.1699987440341157e+00
    1.1764711655795164e+01 -1.4591713638783408e+00
    1.6912378040935458e+01 -9.7236545252724005e-01
    1.9101359890256365e+01 -7.4987819757413943e-01
    1.5674402087426969e+01 -7.7117519002944768e-01
    1.6477101938443106e+01 -6.7316149478516796e-01
    1.5156251615928680e+01 -8.9885216085606379e-01
    1.2286625075096723e+01 -1.4601229236122300e+00
    1.0792000254841607e+01 -3.0722253260369614e+00
    1.2051963548114045e+01 -3.6842110595178816e+00
    1.0072195452362921e+01 -1.4328958050821758e+00
    1.2276895487356777e+01 -9.4895082526345687e-01
    1.4109956163611802e+01 -7.6007245883556740e-01
    1.2015096212991258e+01 -7.8494519848264421e-01
    1.4699193555789568e+01 -7.4498296784370033e-01
    1.5365847279371742e+01 -1.0077683205491288e+00
    1.1161886640291588e+01 -1.4433165467560132e+00
    1.1099122031626003e+01 -3.4061471142251767e+00
    8.9005439344416075e+00 -2.0796591806079427e+00
    9.9377150067719793e+00 -1.1373979816033488e+00
    1.0848511638189116e+01 -7.8456907584679825e-01
    1.2846477692639356e+01 -6.3583735773568872e-01
    1.4564023460586355e+01 -6.9566583249414526e-01
    2.0524660484854614e+01 -8.0804792875969056e-01
    1.4846179280993951e+01 -9.0511968819137056e-01
    1.0010032414088869e+01 -1.1565790585083511e+00
    8.6859795257165047e+00 -1.9995760303924084e+00
    9.0647113209120338e+00 -2.3018722599055965e+00
    9.8510537165309380e+00 -1.2772075018214948e+00
    1.1076464530775993e+01 -8.6519352369658631e-01
    1.3214644645810962e+01 -6.7674562399893312e-01
    1.4052882146561663e+01 -7.7644513193358489e-01
    1.8764642581201365e+01 -8.3098817287983961e-01
    1.4483122149607562e+01 -9.9122298725040048e-01
    1.0190946910703046e+01 -1.2541776201765187e+00
    8.8201439970811286e+00 -2.1673706048634109e+00
    8.0414312667785204e+00 -1.7667736060320252e+00
    9.1387359348573103e+00 -1.1369653081845268e+00
    1.1697410794108301e+01 -9.2045319762415045e-01
    1.2233700820418436e+01 -7.2374196691010184e-01
    1.1880564366223826e+01 -7.8990460109933447e-01
    1.5329827480672602e+01 -8.5691840463602986e-01
    1.1963770052176665e+01 -9.9736514982347668e-01
    8.8684694261694030e+00 -1.2323088611662505e+00
    8.2103781343503197e+00 -1.8858608398459411e+00
    8.3937996632882950e+00 -2.0074128364601336e+00
    9.1425012927491487e+00 -1.2789274569299085e+00
    1.1551340021669555e+01 -1.0264387988883537e+00
    1.2571002965727933e+01 -7.9516475335007575e-01
    1.0079099219198749e+01 -8.0299147892647349e-01
    1.4048490506868562e+01 -8.8165433084091716e-01
    1.1477884909227496e+01 -1.0676360530506113e+00
    9.1688052518682799e+00 -1.3911903679544717e+00
    8.5160315844395384e+00 -2.1238614002254654e+00
    9.3271854118992774e+00 -2.2253164951742055e+00
    1.0574839797770432e+01 -1.2055911588452839e+00
    1.3183786180610010e+01 -8.6892299796747119e-01
    1.6732208675189849e+01 -6.7038751116737250e-01
    1.4833612464367224e+01 -7.0583062449139966e-01
    2.2046247611788893e+01 -7.4579207455264429e-01
    1.5548968035055323e+01 -8.8521048613710884e-01
    1.1306604404148173e+01 -1.2010347099174075e+00
    9.2486157651009240e+00 -2.1825721466031633e+00
    9.7567796979431236e+00 -2.5449421585345076e+00
    1.0132426418840447e+01 -1.2855246613559186e+00
    1.2297101537388205e+01 -8.7384178234488774e-01
    1.5637722007984264e+01 -6.8629005935051246e-01
    1.3251999159421972e+01 -6.9827125376513499e-01
    2.0423223238633760e+01 -6.8852558846850642e-01
    1.3981318196111959e+01 -8.3291941902280009e-01
    1.0688798135654746e+01 -1.2827817636910452e+00
    9.3416542372430111e+00 -2.4640297056802010e+00
    8.5881708466742186e+00 -2.0678441374878429e+00
    1.0130549734872559e+01 -1.2887066001272278e+00
    1.2955608392270634e+01 -9.9454011500618567e-01
    1.5068800144053554e+01 -7.9601475455270954e-01
    1.0773855757065675e+01 -7.5626368916905440e-01
    1.6412671338423191e+01 -8.0583041997190297e-01
    1.3338727155131361e+01 -1.0169602020209396e+00
    1.0241188447887644e+01 -1.3451484431575909e+00
    8.3707093854130630e+00 -2.0338727125809295e+00
    8.8572604686585272e+00 -2.3601310377379008e+00
    9.5543379599812681e+00 -1.4203600737506694e+00
    1.1054007741066577e+01 -9.9224697122042704e-01
    1.2651933479371394e+01 -7.9861893620869084e-01
    1.0620077506926084e+01 -8.2952683556189366e-01
    1.5565504575299967e+01 -8.7751021914668614e-01
    1.2859291136438557e+01 -1.0412776548800771e+00
    9.4983548143430667e+00 -1.3440765141537403e+00
    8.4586155925862379e+00 -2.2236388978746584e+00
    9.7136980786899016e+00 -2.3948157580726925e+00
    1.0424826913565104e+01 -1.1785801383204899e+00
    1.4271003110455458e+01 -8.2346227340167732e-01
    1.8497436541661802e+01 -6.7967027466648944e-01
    1.7557467345732103e+01 -6.9347199048911190e-01
    2.5135385472373414e+01 -6.5916202362376808e-01
    1.7924898701951189e+01 -8.2814504465841920e-01
    1.1296610414790619e+01 -1.1275172256285724e+00
    8.9538331246555281e+00 -2.1295432633455000e+00
    1.0097777200433192e+01 -2.7076318051124426e+00
    9.0612087863343529e+00 -1.3046869210141354e+00
    1.3653305242831975e+01 -9.0281571901247193e-01
    1.6789419663242320e+01 -6.9173479293089302e-01
    1.5928234757473357e+01 -6.9605775938109637e-01
    2.2822992838417257e+01 -7.1324897973454882e-01
    1.7647191581829635e+01 -9.0494300856447141e-01
    1.0760265689240176e+01 -1.2121875637257393e+00
    9.0957340541652130e+00 -2.2924833397374491e+00
    8.5684259084713723e+00 -2.1828425617811655e+00
    1.0214119628853581e+01 -1.4356447681904760e+00
    1.1541965216690645e+01 -9.6709309736628235e-01
    1.3851084644976067e+01 -7.9506382604089865e-01
    1.2960890643447266e+01 -8.1496555938360915e-01
    1.7603427165084405e+01 -8.2617204178584891e-01
    1.5502260841648996e+01 -9.9206567530204437e-01
    1.0443524236587782e+01 -1.2031030613322271e+00
    8.1100557592617140e+00 -1.9649769280518388e+00
    9.2812626293054112e+00 -2.5459072836608949e+00
    8.3608383307362644e+00 -1.4829561837497893e+00
    9.1783524560816012e+00 -1.0204633627127526e+00
    1.2114141539378670e+01 -8.6544372910247269e-01
    1.1442127525579799e+01 -8.1015007546826234e-01
    1.5978078414101798e+01 -8.1208474913524320e-01
    1.4515270666416368e+01 -9.6704297647936521e-01
    1.0555134729934778e+01 -1.2817894022386305e+00
    8.0302343764380186e+00 -2.0175854808828722e+00
    9.5031603293293507e+00 -2.2572553031030425e+00
    9.6127419593187007e+00 -1.2259015478926611e+00
    1.4586561490971958e+01 -8.6668905974379529e-01
    1.9315241059192402e+01 -6.8598611595695602e-01
    1.9802870025180962e+01 -7.0554190065767808e-01
    3.0124592390711619e+01 -7.3319466709814396e-01
    1.7219392989068389e+01 -7.4774600824663573e-01
    1.1782914655049508e+01 -1.0704847022085080e+00
    8.4853657998223824e+00 -1.9250947800370093e+00
    9.7993034790263582e+00 -2.5484091547478327e+00
    8.7945309446568825e+00 -1.3368249313608593e+00
    1.0904071371966474e+01 -9.0132779018800091e-01
    1.3394756364333231e+01 -6.4729031760087608e-01
    1.9450081105873139e+01 -7.9435075407841871e-01
    2.1337146450761310e+01 -7.0035451441146446e-01
    1.3510433234422127e+01 -7.2115256081802037e-01
    1.0647123153728041e+01 -1.0996195827182267e+00
    8.3468097503369290e+00 -2.0215307949868646e+00
    8.9349937736690030e+00 -2.2817442212058925e+00
    8.6528964669162196e+00 -1.3843462344019446e+00
    1.0245309647313380e+01 -1.0144707990321327e+00
    1.2740572747719730e+01 -7.9858013403447170e-01
    1.3592230266805236e+01 -7.9157330334080522e-01
    2.0831436396358491e+01 -7.8803429054984375e-01
    1.7623596807523572e+01 -8.9920597322645501e-01
    1.1105924990846752e+01 -1.1195929475428037e+00
    7.6589242337906969e+00 -1.7128605609685703e+00
    9.4861515292532133e+00 -2.5957010159973684e+00
    8.4949336045941930e+00 -1.5822442325365338e+00
    8.7892517941214638e+00 -1.0729967133878449e+00
    1.0727239394452980e+01 -8.0427250600762024e-01
    1.2171027341221100e+01 -8.1615037243027122e-01
    1.6561612255275758e+01 -7.5036233794440588e-01
    1.4513579887594764e+01 -9.1973310613499926e-01
    9.6948812792028551e+00 -1.1489349253172432e+00
    7.8899717246367542e+00 -1.9252356614469901e+00
    9.5173469431679347e+00 -2.3170596066019131e+00
    9.8043763174274368e+00 -1.2840914643218344e+00
    1.2001604207328121e+01 -8.8084869329141890e-01
    1.5088411941995448e+01 -6.1226907350678361e-01
    2.1638569593592422e+01 -6.9637627139788738e-01
    2.5053548921616425e+01 -6.9703846700918737e-01
    1.7679197680590807e+01 -7.5300369238700249e-01
    1.2576250229738044e+01 -1.0947048059949835e+00
    8.2808970586052890e+00 -1.8516315160040369e+00
    1.0695911078056737e+01 -2.8492161758378254e+00
    8.4002796531460628e+00 -1.3262921574403788e+00
    1.1201689282959221e+01 -9.4571188828635999e-01
    1.5052368193153939e+01 -6.5533751667210149e-01
    1.7138361956090883e+01 -6.8263318327291334e-01
    2.0563130379003031e+01 -7.0109169653427528e-01
    1.6664849185269063e+01 -8.6407855800790001e-01
    1.1010538716615855e+01 -1.1474808364034585e+00
    8.5597284776571421e+00 -2.0586021698728918e+00
    9.2137509180617005e+00 -2.3567723522416046e+00
    8.9696777345414400e+00 -1.4580656188426462e+00
    1.0200751480312981e+01 -1.0466451583497844e+00
    1.2322632916931044e+01 -7.3870322564324065e-01
    1.3731919626539273e+01 -7.2231786504662476e-01
    1.8600688091660164e+01 -7.5232163420913400e-01
    1.6854902790353595e+01 -9.0155714299342082e-01
    1.1408881157850143e+01 -1.1501059613031295e+00
    8.1241734872421834e+00 -1.8596793084302765e+00
    9.8339388642025742e+00 -2.7317671751685166e+00
    8.5881782205339636e+00 -1.5432071391192090e+00
    9.3724189573094598e+00 -1.0605327510199696e+00
    1.3003360943557631e+01 -7.9854643714134066e-01
    1.3085551603422841e+01 -7.2869791921097959e-01
    1.6440232404278749e+01 -7.7596989603151079e-01
    1.5758557278024254e+01 -1.0013501999137491e+00
    1.0252612378131621e+01 -1.2556688466133190e+00
    8.1991552618263697e+00 -2.0961289448745757e+00
    1.0319142329978883e+01 -2.5895182963188326e+00
    8.8181426324206740e+00 -1.1991196277833422e+00
    1.3259585440777094e+01 -8.9462884591136538e-01
    1.7374629444243727e+01 -6.2220481749621237e-01
    1.7993622616572946e+01 -6.5895999358666713e-01
    2.1641610541169918e+01 -6.7302740631966829e-01
    1.8831310497046683e+01 -8.3283406662024184e-01
    1.2372030736128428e+01 -1.1342337300108911e+00
    8.6163083117001502e+00 -2.0041090247335882e+00
    1.1234788379307792e+01 -3.0267473600273145e+00
    9.1132284236978585e+00 -1.3211640608678343e+00
    1.3512233509274630e+01 -9.6667438258888971e-01
    1.8437386355726606e+01 -7.4295520390358960e-01
    1.6870049157086207e+01 -7.4214123679497623e-01
    2.0007738758650966e+01 -7.3764683632324057e-01
    1.6823986564901077e+01 -8.7554650631221176e-01
    9.9658620852800937e+00 -1.1335199401260057e+00
    9.6857292621221944e+00 -2.5072489947590375e+00
    9.3220746924893341e+00 -2.4477387978778093e+00
    9.2314242567623985e+00 -1.4779686056125707e+00
    1.1894738621427729e+01 -1.0649028151760456e+00
    1.4283220057404197e+01 -7.4919780323890328e-01
    1.3875711124988216e+01 -7.1211436276572138e-01
    1.6233997497910835e+01 -7.2346110666739782e-01
    1.5991598079189234e+01 -8.8704521871388331e-01
    1.0961936419689788e+01 -1.1921057079863318e+00
    8.0148182433585546e+00 -1.9322939636389147e+00
    1.0630380898032366e+01 -2.9605563699737591e+00
    9.1819410198064730e+00 -1.5626624153258866e+00
    1.1463232072548301e+01 -1.0849419467847303e+00
    1.4470609923594370e+01 -8.5894762378678224e-01
    1.3153032219333054e+01 -8.0855628855408201e-01
    1.5161640165576562e+01 -7.6882208809754338e-01
    1.5356806020840999e+01 -9.8898220691260974e-01
    1.0311158248745505e+01 -1.2882679077524537e+00
    8.6069989066986334e+00 -2.2411719851337200e+00
    1.0981811961666345e+01 -2.7650144782512989e+00
    9.6775596053555972e+00 -1.2035555822524340e+00
    1.4690050571731142e+01 -8.8635843099808076e-01
    1.9243158041983847e+01 -7.1735775255118828e-01
    1.9260152496275875e+01 -7.6369752258752233e-01
    2.1110936758313255e+01 -7.3066295428534800e-01
    1.7951408848991903e+01 -8.8594481352766341e-01
    1.0863096971186250e+01 -1.2191564202361225e+00
    9.7075472157389182e+00 -2.4446823483584925e+00
    1.0573925457296093e+01 -2.7163145527602981e+00
    1.0244855213530217e+01 -1.2508630099498566e+00
    1.3594773230053084e+01 -8.5400897295716749e-01
    1.9266969080003271e+01 -7.1830522760947746e-01
    1.7016395330035945e+01 -6.9859976919739741e-01
    1.7639093025709066e+01 -6.6909720503592529e-01
    1.3941694069844905e+01 -8.1910771539171479e-01
    1.0087494968064023e+01 -1.2869878030200452e+00
    9.7624764452230401e+00 -2.5699410430744543e+00
    1.0056943931393716e+01 -2.7153525554986375e+00
    9.3997223333090574e+00 -1.4323203673978726e+00
    1.4038182339506612e+01 -1.1034438332677536e+00
    1.7455308384336639e+01 -8.4206616982713867e-01
    1.5787655504247555e+01 -8.0738829675377255e-01
    1.8617788399658160e+01 -8.5564018081029491e-01
    1.5130875319958619e+01 -9.7361737238386181e-01
    1.0633277150640600e+01 -1.3174009151484221e+00
    8.6345630985212072e+00 -2.1932798608798540e+00
    1.0575979533306150e+01 -2.9684604223874085e+00
    9.3189350994938316e+00 -1.4145539762292703e+00
    1.2315635417238779e+01 -1.0068939046425773e+00
    1.4973950004115272e+01 -7.9907631509949384e-01
    1.4258841577743492e+01 -7.8718972682886079e-01
    1.7139210856094937e+01 -8.3563247465824364e-01
    1.3819809587304206e+01 -1.0234951384560929e+00
    9.8431552662786714e+00 -1.4339557800604739e+00
    9.2409877750665324e+00 -2.5123304349539031e+00
    9.6024017227307432e+00 -2.3438137286058973e+00
    1.0421392666469028e+01 -1.1101345490800032e+00
    1.6869482565424708e+01 -8.4178511238974429e-01
    2.0987546496488214e+01 -6.5655479817189588e-01
    1.8291067207731896e+01 -6.0553028043728929e-01
    2.0502601273128274e+01 -6.5085872440069614e-01
    1.6192428374990488e+01 -7.9052017109686901e-01
    1.0832019167660167e+01 -1.2108634213834493e+00
    9.7661526144262290e+00 -2.5207786904361491e+00
    1.0084534902957898e+01 -2.6184421904749002e+00
    1.0002090585558959e+01 -1.0970076339505626e+00
    1.5041253198335950e+01 -7.9333940095025135e-01
    1.8121433077185213e+01 -5.7273771623732650e-01
    1.6109936724203504e+01 -5.4734172061213349e-01
    2.4866615097525330e+01 -6.9494133647308798e-01
    1.8732189733712389e+01 -8.8759130401997777e-01
    9.8679569232835167e+00 -1.1883368624946349e+00
    1.0276282632087415e+01 -2.8376581560545060e+00
    9.6723344958475170e+00 -2.6377065297056861e+00
    9.0152159141470527e+00 -1.2429119420576040e+00
    1.4327623203568139e+01 -9.5839672019736843e-01
    1.6424453989764022e+01 -7.5765171028514977e-01
    1.6310736010766714e+01 -7.3085305133251499e-01
    1.8676175950703115e+01 -7.6405434702194386e-01
    1.5152348741573682e+01 -9.6513928699670337e-01
    9.3431875807005564e+00 -1.3171405301896328e+00
    9.0927780470021098e+00 -2.4702253425028782e+00
    1.0190522745071251e+01 -2.8391730846181482e+00
    9.2293337699906779e+00 -1.2270643272899704e+00
    1.3425566979978493e+01 -8.9862172578761268e-01
    1.6339053199183471e+01 -7.0137019451973148e-01
    1.5173077810905786e+01 -6.7294224582703988e-01
    1.9489193970232755e+01 -7.9581714405478554e-01
    1.5583954764041659e+01 -1.0394293967370101e+00
    9.2423096697081952e+00 -1.4344887966988176e+00
    1.0157109722853702e+01 -2.9874271811002244e+00
    9.3828520505193076e+00 -2.3056630437100627e+00
    1.1192963771523047e+01 -1.0365121550166296e+00
    1.6134099629569398e+01 -7.3045771209016064e-01
    2.3606644944681346e+01 -5.8109075993648973e-01
    1.9764166569930133e+01 -5.4064370827830255e-01
    3.3639765678530829e+01 -7.0461484335347091e-01
    2.3780780497805257e+01 -1.0086974800509152e+00
    9.7137266848291635e+00 -1.1407414981841981e+00
    9.5756144246459964e+00 -2.5780215977088163e+00
    9.6730016621045980e+00 -2.4846578233021290e+00
    9.9647845518109595e+00 -1.0597383254148514e+00
    1.6729712121946310e+01 -7.7075445963333411e-01
    2.0543371383842043e+01 -5.8337492604561181e-01
    2.0743305389631296e+01 -6.4380340392748747e-01
    2.6644512868078934e+01 -6.5860488531548245e-01
    1.6923938904562934e+01 -8.9169561215197968e-01
    9.1990467030646386e+00 -1.1840891069372039e+00
    1.0038399116397185e+01 -2.7776612558640958e+00
    9.2582406265092985e+00 -2.4678000044523674e+00
    9.8013977525485263e+00 -1.1140311211383702e+00
    1.6894043456851147e+01 -8.9030929142194537e-01
    1.8515114353776653e+01 -6.4609746082973374e-01
    1.5496476904379870e+01 -6.2862153280846345e-01
    2.3475011822700598e+01 -8.1252198010036047e-01
    1.4240379066433396e+01 -9.3260218208133949e-01
    9.2814316867059681e+00 -1.3384191719021867e+00
    9.1734834337360578e+00 -2.6957016216493330e+00
    9.8086754114744643e+00 -2.7647531176726932e+00
    9.7735789947403351e+00 -1.1593225690286295e+00
    1.5393929625117625e+01 -8.7433669309148732e-01
    1.6888943906347237e+01 -6.6625338483597396e-01
    1.5484700080838506e+01 -6.9268449025983625e-01
    2.0856041735521597e+01 -8.0559256840986737e-01
    1.4009028872908550e+01 -1.0120202885010261e+00
    9.2491595587750339e+00 -1.4572711494711523e+00
    9.8397725073864457e+00 -2.9743406751157253e+00
    9.5538193656663992e+00 -2.3870458398995216e+00
    1.1190987655518915e+01 -1.0601180674635888e+00
    2.0019115465297855e+01 -8.0193639850193632e-01
    2.2487403024101607e+01 -5.6638043263805815e-01
    2.2495491364060189e+01 -6.3623571280888702e-01
    2.5942294374020982e+01 -5.7448841703877518e-01
    1.7963076962717210e+01 -8.5265980514625050e-01
    9.3337117134642984e+00 -1.1151484931015350e+00
    1.0244519746566420e+01 -2.7678086935738477e+00
    1.0017224884674663e+01 -2.6531376036563667e+00
    1.1428519558783188e+01 -1.1245565393579948e+00
    2.0028222989050473e+01 -8.6839389128620070e-01
    2.3570410101297806e+01 -5.8884189782212837e-01
    2.3118571057391812e+01 -6.5807120198669766e-01
    3.2499584752667353e+01 -6.8480262967186023e-01
    1.7623901871380500e+01 -8.8441417627820906e-01
    9.1215746272301477e+00 -1.1543101609943018e+00
    1.0734463567002114e+01 -3.0981549509245396e+00
    9.9063626968482446e+00 -2.7539012111803167e+00
    1.0508889913146760e+01 -1.1921145384505145e+00
    1.9366792353734930e+01 -9.7390038483280139e-01
    2.1327643301653914e+01 -7.4902567743288806e-01
    1.6950992629458270e+01 -6.8615310910885718e-01
    1.9574470415067655e+01 -6.9418971163115750e-01
    1.3609579462512873e+01 -8.8258202773890315e-01
    9.4561718477917616e+00 -1.3801081320496831e+00
    9.8274060905548613e+00 -2.9136228140362594e+00
    1.0135017189608824e+01 -2.8967987773609476e+00
    1.0073968496063342e+01 -1.2272390949310772e+00
    1.7120063029097469e+01 -9.4604483854368238e-01
    1.9794477671151164e+01 -7.0272858860943699e-01
    1.8044718767661706e+01 -7.1139628282110012e-01
    2.7866339023966717e+01 -8.1116202080457311e-01
    1.8415400046670079e+01 -1.0911044773611147e+00
    9.0866148832880480e+00 -1.4176459610362124e+00
    1.1010632375702937e+01 -3.3985298211426520e+00
    9.4202088704601721e+00 -2.3747380304298842e+00
    1.2208364583797554e+01 -1.1139481317392372e+00
    2.3715383002370729e+01 -9.1285833152285001e-01
    2.3619889532893886e+01 -5.6132385140399510e-01
    2.3168255127512666e+01 -6.4899844027963971e-01
    3.4104124377069951e+01 -7.2847699938452726e-01
    1.8382112732699273e+01 -8.2531053824129019e-01
    8.8740123151919370e+00 -1.0591596298298798e+00
    1.0471515376557255e+01 -2.8143721337744414e+00
    9.4328010851676716e+00 -2.5233208147563517e+00
    1.0840127984884729e+01 -1.1746851951378963e+00
    1.8338903384174252e+01 -8.5295307627141681e-01
    2.7801589572465026e+01 -7.3910356059078397e-01
    2.4169417792720154e+01 -7.7231069275282427e-01
    2.6649081668109762e+01 -7.4256269378618378e-01
    1.4161450054803931e+01 -7.7213604553795989e-01
    9.3337401122565264e+00 -1.1307860825206868e+00
    1.0860044323627410e+01 -3.0106509855333567e+00
    9.5130881765398296e+00 -2.6653395034225320e+00
    1.1285285770895426e+01 -1.2083788398703086e+00
    2.0681175098942177e+01 -9.8239401914289248e-01
    2.2054582091141611e+01 -6.7997752968264180e-01
    2.1564794978481771e+01 -7.3456674541009492e-01
    3.1582490074771652e+01 -8.7489424138813399e-01
    1.6428261702411451e+01 -9.1269755986262435e-01
    9.1029619349186426e+00 -1.3059734864508767e+00
    1.1192369828107049e+01 -3.3401309068737666e+00
    9.2147798799634995e+00 -2.6272745209660120e+00
    1.1164479531482977e+01 -1.3545525764630446e+00
    1.8791501763618019e+01 -9.7477591871579639e-01
    2.5250044762041000e+01 -8.3017156555451532e-01
    2.1500509043788178e+01 -8.8159926535125399e-01
    1.9293890668210949e+01 -7.5349783081426447e-01
    1.1745906213167746e+01 -8.7455568845855880e-01
    8.4360420357193444e+00 -1.3545754709542919e+00
    1.1596770771256327e+01 -3.6495493759556492e+00
    9.3790653512562603e+00 -2.4086573645235556e+00
    1.2070695645591250e+01 -1.1811674323172854e+00
    1.8671746485371848e+01 -8.3824211668432269e-01
    2.4688944025795390e+01 -6.6514833143871177e-01
    2.2986529585060168e+01 -6.9647101127619004e-01
    2.0277973005416762e+01 -6.1962552301907070e-01
    1.3410143166077781e+01 -7.4368866854325355e-01
    1.0069366465587446e+01 -1.1311479003456650e+00
    1.0605097226353994e+01 -2.7026442025877171e+00
    9.5188189856585250e+00 -2.5388288331752791e+00
    1.2337636336340864e+01 -1.2792712244646565e+00
    1.8979755420555374e+01 -9.2958806585241527e-01
    2.2355102844139672e+01 -6.8170510644472193e-01
    2.0469928744487035e+01 -7.2860880175910347e-01
    1.8119237367479052e+01 -6.1098352017957869e-01
    1.3831649129968129e+01 -7.9092455976510201e-01
    1.0247570143904914e+01 -1.2370037313457125e+00
    1.0643111177086807e+01 -2.8378466101177628e+00
    9.0317582171572521e+00 -2.4621991544375907e+00
    1.2405296352470790e+01 -1.3680663834184084e+00
    1.8743078406122844e+01 -9.4303702230933262e-01
    2.1557165140563633e+01 -7.4307098115520742e-01
    1.9188644729211259e+01 -7.5807125142607679e-01
    1.7112016478458148e+01 -6.8321638481535840e-01
    1.1466259770800667e+01 -8.6368740489631390e-01
    9.0338315907004247e+00 -1.3483258180947910e+00
    1.0407343502009642e+01 -3.0653616566452282e+00
    9.0566247946055469e+00 -2.5747237583916842e+00
    1.1548736435414410e+01 -1.3749245776638814e+00
    1.8364802207759354e+01 -9.7934490409676023e-01
    2.0792571141800391e+01 -7.3751201485087758e-01
    1.7152075918562680e+01 -7.5223684614038955e-01
    1.5406673668001948e+01 -6.9536980963483297e-01
    1.1511023804834664e+01 -9.1579693021989750e-01
    8.9343764356597273e+00 -1.4367645640770430e+00
    1.1206758383713863e+01 -3.4267479413816790e+00
    1.0458321805847403e+01 -2.6837965385863298e+00
    1.2149893207365549e+01 -1.1953633770904919e+00
    1.8961858431579202e+01 -8.8839116977538968e-01
    2.6590980743061174e+01 -7.2277790236132455e-01
    2.2304814294504098e+01 -7.6455799113658840e-01
    2.0024893392530334e+01 -5.9939488068377622e-01
    1.5316554039834164e+01 -7.5385470588928727e-01
    1.1852830849288287e+01 -1.2459223289063892e+00
    1.0766660220222580e+01 -2.7875386690781379e+00
    1.1572356229677567e+01 -3.2281192491613955e+00
    1.0977950925352310e+01 -1.3478308281368414e+00
    1.7187629918224111e+01 -9.3248259768801944e-01
    2.6680712365234037e+01 -7.5407368395978358e-01
    1.8022638175967813e+01 -7.2028910136864499e-01
    1.9131978389247280e+01 -6.3687400891634549e-01
    1.6519308589851555e+01 -9.0698529585891907e-01
    1.0770739063509048e+01 -1.3153258088000293e+00
    1.1056740782853520e+01 -3.0426188972510406e+00
    9.8350213593090405e+00 -2.7792014999511507e+00
    1.2981780219481189e+01 -1.4256542876616922e+00
    1.9682509324332536e+01 -9.7049102515829211e-01
    2.3647122218645229e+01 -7.4339816281626137e-01
    1.6283989364140066e+01 -7.0980474316618358e-01
    1.6395642382145994e+01 -6.8079171011712214e-01
    1.1861088096773674e+01 -8.5703455886163038e-01
    9.5768067554790690e+00 -1.3248714703367790e+00
    1.1012911764253026e+01 -3.2106105395887852e+00
    1.1030931236018834e+01 -3.3112085043630830e+00
    1.1598543624833551e+01 -1.5534395101079856e+00
    1.8833110460806068e+01 -1.1149854876554355e+00
    2.6409535140129424e+01 -9.2893240963186030e-01
    1.6778726745436540e+01 -8.0993710420776699e-01
    1.5437242638834821e+01 -7.0817358868816938e-01
    1.2002853097609776e+01 -9.2620284126609076e-01
    1.0262885853991282e+01 -1.5194906844029648e+00
    1.1949369158443586e+01 -3.6273925311493489e+00
    1.1743947211296044e+01 -3.1200459436578756e+00
    1.3127747912258563e+01 -1.4211968667071402e+00
    2.4380729188812087e+01 -1.0296766569526505e+00
    2.7104594457161358e+01 -6.6839086737294617e-01
    2.1665059653133195e+01 -7.2749501805453565e-01
    2.3763945035755118e+01 -6.7582148661095764e-01
    2.0874622094149370e+01 -9.6540624159667243e-01
    1.2091845129593102e+01 -1.2533523371221928e+00
    1.0683658926071699e+01 -2.7538845124508433e+00
    1.2047492300169473e+01 -3.4132591356182918e+00
    1.2739093096436561e+01 -1.5514376058201449e+00
    1.9330581884897839e+01 -9.6750181628128284e-01
    1.7040467713355692e+01 -6.3649439519213757e-01
    1.4805705660803770e+01 -6.8373880372854345e-01
    1.5508306736765684e+01 -6.5097601695197260e-01
    1.5714332984543086e+01 -8.7477352522634344e-01
    1.2204562757887111e+01 -1.3792761047831981e+00
    1.1315540303634657e+01 -3.1016213260628565e+00
    1.0931092461618057e+01 -3.1539845083954741e+00
    1.2811158957680739e+01 -1.5286345211235732e+00
    2.0930754779437141e+01 -1.0549953310396663e+00
    2.6939410884548092e+01 -8.6379612374245363e-01
    1.6791138121464833e+01 -7.5271729767192741e-01
    1.8108076896446068e+01 -7.1303528234857005e-01
    1.4820050697380873e+01 -9.3823321408510685e-01
    1.0724499337421397e+01 -1.3500808742520041e+00
    1.1928535830498307e+01 -3.4458095808576199e+00
    1.2513028963705464e+01 -3.8562792927943277e+00
    1.1308964360889062e+01 -1.6521646630682467e+00
    1.7205379935722149e+01 -1.1310682956540870e+00
    1.5644379929330984e+01 -7.6052821988653829e-01
    1.3114165519045809e+01 -7.8795563160463833e-01
    1.3863686597182060e+01 -7.6673221090534205e-01
    1.3749648023136610e+01 -1.0215686365088064e+00
    1.1267195995322039e+01 -1.5781219551700472e+00
    1.1902920028947392e+01 -3.6048102107259083e+00
    1.0903416668223569e+01 -2.6969447996086515e+00
    1.3688692133732046e+01 -1.4161380074569212e+00
    1.9181170533083364e+01 -9.0229035625604426e-01
    1.8721938999093357e+01 -6.7826162602283824e-01
    1.5630571736426404e+01 -6.7128773880772563e-01
    1.6192024938761339e+01 -6.0214918283463703e-01
    1.8012505972734264e+01 -7.8861948647871183e-01
    1.4865012437894610e+01 -1.2632680632811775e+00
    1.0462163051032084e+01 -2.4611949652111278e+00
    1.1939969844544795e+01 -3.2776250777524534e+00
    1.1082493632599549e+01 -1.4424590215963491e+00
    1.4776017766780024e+01 -1.0183186175528987e+00
    1.4281930560607526e+01 -7.6411019852476492e-01
    1.1341113257614191e+01 -7.3666395772222260e-01
    1.3711141113490044e+01 -6.7601055712714442e-01
    1.9156560503631912e+01 -9.2535060881034581e-01
    1.3447618616429299e+01 -1.2807506814002851e+00
    1.1096292139364031e+01 -2.8701013131766802e+00
    1.0327589722182118e+01 -2.8377681760311977e+00
    1.1954746152602890e+01 -1.5928816652403173e+00
    1.7773583343876748e+01 -1.1472652719064209e+00
    1.6259557992205508e+01 -8.7204806103887067e-01
    1.3365122469042950e+01 -8.5410489565068848e-01
    1.3178063901492866e+01 -7.5721116677899825e-01
    1.6252381456683313e+01 -1.0097444520921759e+00
    1.3347478833654474e+01 -1.4548098240942791e+00
    1.0155665909790232e+01 -2.6230177377883259e+00
    1.0100899943431465e+01 -2.9485798540190973e+00
    1.0168104970047878e+01 -1.7430410752666872e+00
    1.1869909468112393e+01 -1.2578807182796123e+00
    1.0539099253911541e+01 -9.7070205027823464e-01
    8.8192786404537227e+00 -1.0195923603298755e+00
    1.0318926937634092e+01 -8.7958489215337421e-01
    1.4719310362331665e+01 -1.0600003311956920e+00
    1.2213818570940608e+01 -1.3696072796070200e+00
    9.6473199993816756e+00 -2.6260082029699592e+00
    8.8363130113051334e+00 -1.6350247617317997e+00
    9.9719217486710328e+00 -1.1914782606150003e+00
    1.1319801685499415e+01 -1.0256019917991648e+00
    1.0769674630518795e+01 -7.8197995136746368e-01
    9.8829044781237663e+00 -9.0476251307716005e-01
    1.2710181744217836e+01 -8.8846694806052573e-01
    1.2080895310017750e+01 -1.1200014533282223e+00
    1.0172873339147754e+01 -1.3454931679760131e+00
    8.5646205743924497e+00 -1.6684675851800379e+00
    8.5593300821662286e+00 -1.8094681636216952e+00
    9.4043940279277667e+00 -1.3716129241162722e+00
    1.1352725834556441e+01 -1.2175126852938145e+00
    1.1002025007225811e+01 -8.8940177313456736e-01
    9.4541636179471329e+00 -9.4673230032694289e-01
    1.1970952764891912e+01 -9.1899994011008368e-01
    1.1956376237907133e+01 -1.1936023172611401e+00
    9.0661121892791243e+00 -1.3405486428062658e+00
    8.2523552455557905e+00 -1.7604603457435990e+00
    8.6214502979472361e+00 -1.4096004629670504e+00
    1.0683011318700917e+01 -1.2324263218556815e+00
    1.1679134447647685e+01 -1.1673622171176052e+00
    1.0051219531151215e+01 -9.0762699626077581e-01
    8.7952465558786326e+00 -1.0965419986404612e+00
    1.0562767217168030e+01 -9.3436107114544076e-01
    1.1987636803439901e+01 -1.2122592901061870e+00
    1.0748829938821519e+01 -1.2630093280637484e+00
    8.9484095010896585e+00 -1.4901975563979191e+00
    8.3034197880348621e+00 -1.5015559767999731e+00
    1.0509059292539856e+01 -1.4297765627272727e+00
    1.0117172511254768e+01 -1.3005595703528630e+00
    9.2500645087179585e+00 -1.0148525992111228e+00
    8.5756852168214053e+00 -1.1972792848474614e+00
    1.0165178221812257e+01 -1.0248495895716638e+00
    1.1723048701208471e+01 -1.3623598104043015e+00
    9.5658151298268415e+00 -1.3824912215913183e+00
    8.2834981653576012e+00 -1.5145999675254362e+00
    8.7370236471808180e+00 -1.7481593749506692e+00
    1.0527627066247261e+01 -1.2803822520550914e+00
    1.2758237502962700e+01 -1.1028953082787476e+00
    1.2789384038259021e+01 -8.7734702203897319e-01
    1.1539715199732141e+01 -9.1471565810118505e-01
    1.5325327809207304e+01 -8.7766116674236183e-01
    1.2929566458753369e+01 -1.0275182265253480e+00
    1.0655392749877569e+01 -1.2744877500477290e+00
    8.3027378163078041e+00 -1.6672928851540667e+00
    8.7744085229630517e+00 -2.0069634349307308e+00
    1.0101124388780832e+01 -1.4540390180014484e+00
    1.0463285149095102e+01 -1.1198654622470796e+00
    1.0214885611078957e+01 -8.8398480522457445e-01
    1.0836158682555798e+01 -1.0015786425748057e+00
    1.3411638452927107e+01 -9.2688516253267883e-01
    1.2669249094481176e+01 -1.1469539572410348e+00
    9.6521494876309859e+00 -1.3194483213914701e+00
    8.2667564672495324e+00 -1.8334307462151223e+00
    8.6378996305747826e+00 -1.4036993747599393e+00
    1.1267969513644774e+01 -1.3223986521067876e+00
    1.0851842638693933e+01 -1.2528810777958972e+00
    9.9523495059033014e+00 -1.0395094354110768e+00
    9.6954338143992196e+00 -1.1302943103712610e+00
    1.2267621477416238e+01 -9.9273549019885932e-01
    1.3454733503152225e+01 -1.2135547430923594e+00
    1.0702668210134572e+01 -1.3177404649479094e+00
    8.4557122173000465e+00 -1.3925277752489615e+00
    8.3437225899671184e+00 -1.5422323021611808e+00
    9.6079648462715941e+00 -1.4325544333459097e+00
    8.9773571109833892e+00 -1.2738904783633263e+00
    8.3494822968043874e+00 -1.1439480404746081e+00
    8.4115469946820678e+00 -1.2139825080118325e+00
    1.1264362180168689e+01 -1.0370485925698052e+00
    1.1669501868304982e+01 -1.1923330475933955e+00
    1.0413156372710748e+01 -1.3798970913385173e+00
    7.9465950696066825e+00 -1.5018905396882531e+00
    9.0640073038320317e+00 -1.8039476062635362e+00
    1.0534876598376700e+01 -1.3938281774943964e+00
    1.0529074145520948e+01 -1.0477135296295026e+00
    1.1679895721283449e+01 -8.7930265018559495e-01
    1.2575110583073799e+01 -9.2032791072982179e-01
    1.5703008766313205e+01 -8.7969315153393113e-01
    1.5541252735204159e+01 -1.0345542234456961e+00
    1.1039852069002835e+01 -1.1534361384712601e+00
    8.2557429769192083e+00 -1.6060651821216061e+00
    9.1974108977800011e+00 -2.0482287640266139e+00
    9.1690166003090141e+00 -1.4925887486683080e+00
    9.4200787767259833e+00 -1.1508038937169305e+00
    1.0536013083545516e+01 -9.2959705258183634e-01
    1.1543626518014040e+01 -9.2339333996414152e-01
    1.3579505646552581e+01 -8.7746008130089959e-01
    1.3770674552395135e+01 -9.9961355528206886e-01
    9.9531104460611939e+00 -1.1809323272335959e+00
    8.0900365579921374e+00 -1.7011477782060977e+00
    8.6574220310651846e+00 -1.4521279231931696e+00
    9.5623553666631302e+00 -1.3585771314874326e+00
    9.7697370116226807e+00 -1.2476324349092576e+00
    9.3442220669780394e+00 -1.1153735720685685e+00
    9.5097205142284764e+00 -1.1108077368035223e+00
    1.2819840297187840e+01 -9.6561648162442459e-01
    1.3839105778507721e+01 -1.0845228729687852e+00
    1.1102024468517342e+01 -1.1284681119287032e+00
    7.9975841207081340e+00 -1.3102235627852061e+00
    8.4473852219453462e+00 -1.7261848834473537e+00
    8.9356652108175982e+00 -1.5042502999940215e+00
    8.8458956148644852e+00 -1.3528945074699419e+00
    8.9087833299526231e+00 -1.2057114176658581e+00
    9.1186108956844691e+00 -1.1211602240159619e+00
    1.2617720394311396e+01 -1.0948860599322650e+00
    1.2569749863207882e+01 -1.0998799042195402e+00
    9.8050840825976131e+00 -1.1822994203328803e+00
    7.9068179906763092e+00 -1.4453110129345927e+00
    9.3891558463278670e+00 -1.8967498986995288e+00
    9.8960993721204566e+00 -1.3925784287609453e+00
    9.8442462746122885e+00 -1.0466256171211699e+00
    1.1845644257967374e+01 -8.8675354128593986e-01
    1.2312607471270164e+01 -8.3117912824115969e-01
    1.7685153944836991e+01 -8.7284701445247792e-01
    1.7030470255500731e+01 -9.3945129264840588e-01
    1.1906950978673313e+01 -1.1372577211241830e+00
    8.1293632886224927e+00 -1.5085506942777649e+00
    9.4758763415119152e+00 -2.1856173074804759e+00
    9.5332100356612415e+00 -1.6811711572708610e+00
    9.5196316412680897e+00 -1.1837372524266776e+00
    1.0709296292870862e+01 -9.2232964167212550e-01
    1.1051320845468306e+01 -8.6339806864489765e-01
    1.4198068920477294e+01 -8.3064284333925331e-01
    1.3743744607640327e+01 -9.6686249247851741e-01
    1.0448720171361675e+01 -1.1798082310478466e+00
    8.4503761040814851e+00 -1.7368368002397063e+00
    8.3112524976623359e+00 -1.5670357546028646e+00
    9.6090061252445729e+00 -1.4444148115522231e+00
    1.0002401806580922e+01 -1.2965299822104157e+00
    1.0097037781296343e+01 -1.1019117366996221e+00
    9.7677897713062780e+00 -9.7950915567660068e-01
    1.3316584623436579e+01 -9.6386543183627593e-01
    1.4126103626150801e+01 -9.8964616892475277e-01
    1.1348066310177730e+01 -1.1124352094049068e+00
    8.0113262639062199e+00 -1.3356378256281558e+00
    8.4020648321666016e+00 -1.8114314857157274e+00
    9.0328605993079663e+00 -1.6132199877644431e+00
    8.8309772220310840e+00 -1.3274237265708237e+00
    9.0354102997677170e+00 -1.1504544643108239e+00
    8.8268850253577966e+00 -1.0360527859076241e+00
    1.1907561259122994e+01 -1.0123924605326995e+00
    1.2902729263589482e+01 -1.1231095380581131e+00
    1.0643336493048475e+01 -1.2315264521893055e+00
    8.1275730134857067e+00 -1.5510077849361825e+00
    9.6839629796617519e+00 -2.0895232709266534e+00
    9.7278321742070393e+00 -1.5557763099808601e+00
    1.0909298781887413e+01 -1.1526863006932597e+00
    1.2557590178183784e+01 -8.6733252492057222e-01
    1.2389034195993370e+01 -8.0016069694136749e-01
    1.6775006266214831e+01 -8.1961871189535240e-01
    1.6015687408774784e+01 -9.7117504640925378e-01
    1.1214065669488436e+01 -1.1243462170772194e+00
    8.7872136526109639e+00 -1.7376343420316607e+00
    9.7959166417174295e+00 -2.3121657792382866e+00
    9.4093772126209796e+00 -1.6371034991161380e+00
    9.9259834179599498e+00 -1.1740586241715525e+00
    1.1261015328122248e+01 -8.9520630558310332e-01
    1.1530751627716954e+01 -8.3040614814007097e-01
    1.5396276459493002e+01 -8.5269011065606182e-01
    1.6620624479809702e+01 -1.0594302742749153e+00
    1.1010677228057927e+01 -1.2712791506262044e+00
    8.9110640274310562e+00 -1.9145331463254895e+00
    8.7594946959094955e+00 -1.7633303599319143e+00
    9.7111822581444827e+00 -1.5511249790776525e+00
    9.7540412142621840e+00 -1.2915737803686620e+00
    1.0329120963490935e+01 -1.1014195505440469e+00
    1.0388057939101310e+01 -1.0016498292341935e+00
    1.3455264667270704e+01 -9.6171199326140888e-01
    1.4576370597625282e+01 -1.1034559993920667e+00
    1.1842944541975767e+01 -1.2457182284147901e+00
    8.4987454026295080e+00 -1.5240581034654574e+00
    8.5508852924087844e+00 -1.8616717957124649e+00
    9.2759052666578850e+00 -1.6431300130796977e+00
    9.4472262871363348e+00 -1.3952655564151037e+00
    9.6460696546390423e+00 -1.1419365767829319e+00
    9.6274079725372701e+00 -1.0489518426631714e+00
    1.2504130308406021e+01 -1.0231309497853320e+00
    1.5226247393942945e+01 -1.2045537687043693e+00
    1.1809080095854929e+01 -1.3638781104527944e+00
    7.9968595735909496e+00 -1.5541432344217541e+00
    9.6354490824156240e+00 -2.1551372813527645e+00
    8.9671180292300949e+00 -1.4295551736354788e+00
    1.1083864205274999e+01 -1.1300226276902510e+00
    1.1873508825394778e+01 -8.5941806954481970e-01
    1.2452237903125843e+01 -8.2432643300495567e-01
    1.4324047010921765e+01 -7.8384950687577726e-01
    1.8250389484738257e+01 -1.0375591855962456e+00
    1.2505026381944651e+01 -1.2843776747541060e+00
    8.6015597163313871e+00 -1.7924360739131073e+00
    1.0474933076385801e+01 -2.5119139873615146e+00
    9.1273659608619830e+00 -1.5226460355118516e+00
    1.0397016069170856e+01 -1.1393586159910913e+00
    1.2640660665207101e+01 -9.3335456623204938e-01
    1.2239087959451714e+01 -8.9901625425894882e-01
    1.4724376350585652e+01 -8.7095421790788241e-01
    1.4119638044669324e+01 -1.0092997633004592e+00
    1.1236391195409080e+01 -1.3503178330362213e+00
    8.8147903375088106e+00 -2.0125534004267567e+00
    8.9892862056528493e+00 -1.8345484770926321e+00
    1.0295449477064738e+01 -1.5937003662074167e+00
    9.9182164440452869e+00 -1.2955589824277354e+00
    1.0223850570550997e+01 -1.0518694020040051e+00
    1.0315109891004147e+01 -1.0097755147196741e+00
    1.3193307046630427e+01 -9.8378855331711301e-01
    1.6007963516826237e+01 -1.1296209861272437e+00
    1.3100982211382370e+01 -1.3907057808789736e+00
    8.2164701212501399e+00 -1.5275488910776958e+00
    9.2763946960251289e+00 -2.1042843573966192e+00
    1.0113924443891738e+01 -1.6366884719232679e+00
    1.0026345914637993e+01 -1.2701632042030246e+00
    1.0460053326617734e+01 -1.0412123472784782e+00
    1.0508192534106469e+01 -1.0542104098064649e+00
    1.2330639972027555e+01 -9.7691843520805821e-01
    1.4531609902075878e+01 -1.1647255036527357e+00
    1.1262073650211333e+01 -1.4637465945268369e+00
    8.6376890982441719e+00 -1.8421452639579872e+00
    1.0358278820413283e+01 -2.4889539384068433e+00
    9.5228990791437305e+00 -1.3955986896631458e+00
    1.1812221814169451e+01 -1.0414190623612301e+00
    1.4907384985077332e+01 -8.4692140477204270e-01
    1.4799829327523346e+01 -8.4018626618863923e-01
    1.5435101001225012e+01 -7.8646617073598046e-01
    1.4606460072298994e+01 -9.5773344395507809e-01
    1.2406320379023917e+01 -1.3719116805285694e+00
    8.7709807956872208e+00 -1.9521710890914086e+00
    1.0666089966734523e+01 -2.7365589959250429e+00
    9.3159220692921991e+00 -1.3990968929450951e+00
    1.2216226741931370e+01 -1.0464292967621311e+00
    1.3098164604230320e+01 -8.2336140734231045e-01
    1.4059928478970571e+01 -8.3540482110170700e-01
    1.5932340692516114e+01 -8.3449447686630329e-01
    1.4963490492004791e+01 -1.0555043571886049e+00
    1.1073817287422965e+01 -1.4295748219964457e+00
    8.9045519396653443e+00 -2.1414777354491350e+00
    9.4084128093412005e+00 -2.0938932978549016e+00
    1.0097650484546167e+01 -1.4464350306479665e+00
    1.1111211025444206e+01 -1.1166352997403746e+00
    1.2510391629514714e+01 -9.4548841460541011e-01
    1.2297839127501705e+01 -9.5740106686946780e-01
    1.3604785933987559e+01 -8.7647492358364210e-01
    1.4972956195395001e+01 -1.0763408094467037e+00
    1.2056589406850243e+01 -1.4428220086605592e+00
    8.4242037254105924e+00 -1.7831716220560585e+00
    9.6905516714741644e+00 -2.4333069939539738e+00
    9.4531258096617350e+00 -1.4789164147294844e+00
    1.0822124690031529e+01 -1.1128402822256038e+00
    1.0978485215507128e+01 -9.3634247302866136e-01
    1.0916934768487485e+01 -9.1407586576983546e-01
    1.2619660602409875e+01 -8.8419536471150884e-01
    1.3094063404022934e+01 -1.1258108090224246e+00
    1.0678424139736547e+01 -1.4930299550714330e+00
    8.5408173587610552e+00 -2.0542417063383938e+00
    1.0490784300082767e+01 -2.3782055570234903e+00
    9.9529707862495815e+00 -1.2327468969145068e+00
    1.3865311926393964e+01 -9.4506946325276808e-01
    1.6088278954077385e+01 -8.0211644024763518e-01
    1.7591902979275460e+01 -7.8177504712029977e-01
    2.0899669868992298e+01 -8.4327537659867469e-01
    1.6454597207239999e+01 -9.6159717449379345e-01
    1.0749888166759217e+01 -1.2861133761972154e+00
    8.6421432275513741e+00 -2.0173439523508025e+00
    1.0613862931938941e+01 -2.6183608733563402e+00
    9.8022042969846161e+00 -1.3256782809587466e+00
    1.2923874142312565e+01 -9.4845296393669098e-01
    1.5586443856208469e+01 -7.6643632104536086e-01
    1.8126582924634075e+01 -8.4372130934412948e-01
    1.8374497962551899e+01 -8.2480821041983288e-01
    1.4526170051916663e+01 -9.8302125979636135e-01
    9.8300013449644972e+00 -1.3862986202508600e+00
    9.7071434902140687e+00 -2.5420327267752802e+00
    9.2529722985746350e+00 -2.2513872183823107e+00
    9.7520237345499723e+00 -1.3550455568499813e+00
    1.1875089108043397e+01 -1.0154448649640944e+00
    1.1961321180015821e+01 -8.2469398848909958e-01
    1.3986303124104131e+01 -8.6961446768983408e-01
    1.4872670672671703e+01 -8.5690246788570457e-01
    1.3727647909136818e+01 -9.8025941897912405e-01
    1.0767138267462443e+01 -1.3145725401952961e+00
    8.1648689389928286e+00 -1.9239134826718696e+00
    1.0566310050270564e+01 -2.9352029616302882e+00
    9.1252952121651134e+00 -1.4562738346190025e+00
    1.1101883720479190e+01 -1.0392631749913976e+00
    1.2075319280054039e+01 -8.3068909259227564e-01
    1.3698445770303159e+01 -9.0659288378538472e-01
    1.5619061565846168e+01 -9.2109271768446388e-01
    1.4574924643893812e+01 -1.0927254030417515e+00
    1.0274145273363906e+01 -1.4983146973687811e+00
    8.8517131378868807e+00 -2.3559472567590123e+00
    1.0038130976846247e+01 -2.2923120553042571e+00
    1.0792205389147046e+01 -1.1522760774458305e+00
    1.7059013949438786e+01 -8.9983805897466074e-01
    1.8047118970182467e+01 -6.7196283112945243e-01
    1.9900958619725493e+01 -7.6443334520644368e-01
    2.4260483262712924e+01 -8.7936025513408611e-01
    1.6588005716975445e+01 -1.0080055288178107e+00
    9.9962471451169641e+00 -1.3109756161319406e+00
    9.1241477448629382e+00 -2.3314019751042618e+00
    1.0307127885838975e+01 -2.5554105762903974e+00
    1.0029375150063279e+01 -1.1263875385841664e+00
    1.6825327735206969e+01 -9.3208754479516265e-01
    1.7933577443386351e+01 -7.1480010808024796e-01
    1.7833547424250138e+01 -7.5344638471380443e-01
    2.0072126870692891e+01 -7.9721237132574929e-01
    1.4233236859641314e+01 -1.0118901312391764e+00
    9.9580423749158875e+00 -1.4271036785583406e+00
    9.4626320501073433e+00 -2.5055893159716596e+00
    1.1017800366978404e+01 -2.9767756542919241e+00
    9.3806452338984165e+00 -1.3280351653478037e+00
    1.5041500911149120e+01 -1.0804668348983160e+00
    1.5628726532900021e+01 -7.9658601842370769e-01
    1.6619922367758377e+01 -8.4756077583856526e-01
    1.7414864833504033e+01 -8.2414764298922760e-01
    1.4465321318611759e+01 -1.0033147458759615e+00
    1.1059309608952443e+01 -1.4921548726946416e+00
    8.8909255555091935e+00 -2.3561438440328235e+00
    1.1685838877317929e+01 -3.2919867763013588e+00
    9.0879384087148001e+00 -1.3782376210838176e+00
    1.4612766412205310e+01 -1.0965866086583120e+00
    1.6740215157073660e+01 -8.9237207032975319e-01
    1.5578490324001031e+01 -8.6574851087343585e-01
    1.5743290091745139e+01 -8.5707695974488241e-01
    1.3267021878315891e+01 -1.0674086252824890e+00
    9.8870245289583281e+00 -1.5689783085951656e+00
    9.9285617122579826e+00 -2.7983810631273043e+00
    1.0632262032252655e+01 -2.5227520967198602e+00
    1.1354216793278319e+01 -1.1605797836209890e+00
    1.9629521563050819e+01 -9.8679249140445269e-01
    2.0492188092151235e+01 -7.5070596499645625e-01
    1.9988424321580727e+01 -7.4417730620087952e-01
    2.4297410534711300e+01 -8.0641360628385006e-01
    1.6118321680189879e+01 -9.7725672631646276e-01
    1.0476897370491605e+01 -1.3700255779399575e+00
    1.0243207123258520e+01 -2.6736586994810749e+00
    1.0367755994289402e+01 -2.6690368516406000e+00
    1.0708383465053098e+01 -1.1854155222787479e+00
    1.7926554903096822e+01 -9.3150748333653477e-01
    2.1582312263854242e+01 -7.5001266705529968e-01
    2.0100769110716239e+01 -7.1851698810118436e-01
    2.9478224130517720e+01 -8.1159112315165061e-01
    1.9006961510867377e+01 -9.9279557062700752e-01
    1.0101547672942512e+01 -1.3967293399524237e+00
    1.0531356024388087e+01 -2.8965462039647152e+00
    1.1006737543619574e+01 -2.9467623540470389e+00
    1.0149404614986903e+01 -1.3571755407752251e+00
    1.6101637908032632e+01 -1.0331626576770658e+00
    1.7095709833728584e+01 -8.3079039913887576e-01
    1.7617245327879512e+01 -8.6411457330312491e-01
    1.7688980159446285e+01 -8.1319402991734335e-01
    1.3606188289237258e+01 -1.0199995857156747e+00
    9.2802294263155893e+00 -1.4510708667010062e+00
    9.9269656162957158e+00 -2.7949747664444962e+00
    1.2258996835380541e+01 -3.4929465372173061e+00
    1.0359320427749944e+01 -1.4075933916648431e+00
    1.4710134816837980e+01 -9.8123698262195991e-01
    1.6772170518040429e+01 -8.0186021282793651e-01
    1.8157681437520484e+01 -8.7900654974597903e-01
    2.0511236161622580e+01 -8.3835862545824025e-01
    1.4459676334568799e+01 -1.0171721368076974e+00
    9.4820967718887630e+00 -1.5820802185335552e+00
    1.1224733010643702e+01 -3.3775251573445444e+00
    1.0562826299554812e+01 -2.6687152375210514e+00
    1.2124315329852209e+01 -1.1918752571157671e+00
    2.0228517420638450e+01 -9.0759615852925524e-01
    2.1457673558988439e+01 -6.4199557419369435e-01
    2.1734229169936739e+01 -6.7335104730240736e-01
    2.8398794909651080e+01 -7.3855591723636205e-01
    1.7299836938178405e+01 -8.7287958345927352e-01
    1.0786875321876609e+01 -1.3970520091220340e+00
    1.1126776480423912e+01 -3.1148159497674972e+00
    1.0376767648183861e+01 -2.7099977771215293e+00
    1.1894861455283563e+01 -1.2593111077617289e+00
    1.9959477408410656e+01 -9.7064579538662865e-01
    2.3549561660805495e+01 -7.5073241530221091e-01
    2.2721692714023760e+01 -8.0694941807663223e-01
    2.0226399743608713e+01 -7.1303124954784047e-01
    1.4027502559922850e+01 -9.2975723976408853e-01
    1.0000303499473757e+01 -1.4789025610996234e+00
    1.2672970940067557e+01 -3.7142895731460706e+00
    1.1651341270901170e+01 -3.1458044971278372e+00
    1.1271541270932154e+01 -1.3150102953843550e+00
    1.6771377913631866e+01 -9.6945621876382015e-01
    1.6996293518026203e+01 -7.1304841843430677e-01
    1.6292596011113570e+01 -7.2053476936396232e-01
    2.0790443661925647e+01 -7.8015619752457810e-01
    1.5451737412456882e+01 -9.7625461716820494e-01
    9.7567099994570103e+00 -1.4690540989764393e+00
    1.1722777267856141e+01 -3.4643398493482636e+00
    1.0753832782900131e+01 -2.9542489878755007e+00
    1.1520573163793401e+01 -1.3035298816084644e+00
    1.7090376331498700e+01 -9.7947627090812839e-01
    1.9480378783435992e+01 -8.0433762354641625e-01
    1.8129885809489625e+01 -8.0267004238619721e-01
    1.7426109527974489e+01 -7.6101792566504101e-01
    1.3452731240594286e+01 -9.9640575689407818e-01
    9.6137645065917354e+00 -1.6048450640590928e+00
    1.1686038626031216e+01 -3.5307871958878878e+00
    9.7051582551184410e+00 -2.3954953426046610e+00
    1.3405173440805589e+01 -1.2523957601789841e+00
    2.2705559385982419e+01 -9.7465868089834196e-01
    2.3789194403237694e+01 -7.2584381072571458e-01
    2.0116497605065604e+01 -7.2472368439019075e-01
    1.8007499215071650e+01 -6.8766361592792025e-01
    1.2863140618737059e+01 -8.9777315699313232e-01
    9.8145217644083012e+00 -1.3859609962965935e+00
    1.1341260516206457e+01 -3.1341232787670048e+00
    9.1693976556607382e+00 -2.3330063416728182e+00
    1.3331580945580841e+01 -1.2923841136560532e+00
    2.1342603192322002e+01 -9.5738826609988203e-01
    2.0774265652776460e+01 -6.8277172650771090e-01
    1.7503344126031507e+01 -7.1217217157465484e-01
    1.5184872634748899e+01 -6.5916730000926749e-01
    1.1106753559373830e+01 -8.9209240235447362e-01
    9.3185882519475811e+00 -1.4110070383883935e+00
    1.0948414574250535e+01 -3.1014973262208629e+00
    9.8609767003328201e+00 -2.5072813952541027e+00
    1.3094020792515598e+01 -1.2669755683625692e+00
    2.1402181795702337e+01 -1.0025819613717555e+00
    2.1906501852291193e+01 -7.6961646059536015e-01
    1.8261951689408818e+01 -7.6652204559191506e-01
    1.5865802465993770e+01 -7.1931175444689621e-01
    1.3080204709669632e+01 -9.9657831650860262e-01
    9.7486740251641244e+00 -1.5835583239767363e+00
    1.1255890943242729e+01 -3.2747877251236117e+00
    9.4059370477151543e+00 -2.4052998145393545e+00
    1.3489264112603205e+01 -1.3217876818117023e+00
    1.9964644228513041e+01 -9.7088977356538886e-01
    1.9782848170350888e+01 -7.4491577423382871e-01
    1.5848557483463431e+01 -7.7903149060896648e-01
    1.5067008604513717e+01 -7.9164095808771096e-01
    1.1470234476846818e+01 -1.0890420841631612e+00
    9.5079274676061321e+00 -1.7700903838433402e+00
    1.1345926903991643e+01 -3.3761162053874916e+00
    9.0210255884917210e+00 -2.1951860166287527e+00
    1.3296615284756703e+01 -1.2184355790570729e+00
    2.1961117058409481e+01 -9.4864482626382374e-01
    2.4328250456838457e+01 -7.2206094633736750e-01
    1.9213077646130099e+01 -7.2052013885527944e-01
    1.7851168098832787e+01 -7.0567096750329894e-01
    1.1453050832177517e+01 -8.7393488338464653e-01
    9.6902642717618743e+00 -1.3845789255047332e+00
    1.0380774912095367e+01 -2.7554520132478189e+00
    9.0644903381749344e+00 -2.2772084712674099e+00
    1.1563903896455162e+01 -1.2672519993858673e+00
    2.1411298551361071e+01 -1.0577796282560517e+00
    2.3804694481717874e+01 -7.8451197469443712e-01
    1.8973193538450534e+01 -7.8427388584476876e-01
    1.6698687429136886e+01 -7.3093133139105448e-01
    1.2057125718938044e+01 -9.6527349607476609e-01
    1.0618313389921324e+01 -1.6012716660778936e+00
    1.0422222503939764e+01 -2.8584700796482232e+00
    9.2136083866041503e+00 -2.0913466085274726e+00
    1.4403148653422612e+01 -1.2099754168331112e+00
    2.1544699561772070e+01 -9.9037219004132626e-01
    2.0614345708482595e+01 -7.7774143341651536e-01
    1.5560707213544891e+01 -7.6303618486180302e-01
    1.3130387014764239e+01 -7.5594001389636545e-01
    9.7730362339646994e+00 -1.0118857489706292e+00
    9.0835801477818023e+00 -1.6529982491933692e+00
    1.0269161182057623e+01 -2.8627956151569753e+00
    8.7039764162490538e+00 -2.0129817881357774e+00
    1.1820300563246102e+01 -1.1919600646507886e+00
    1.9586098423987231e+01 -1.0568316798071036e+00
    1.7606473888737128e+01 -7.8590895535699679e-01
    1.4261306802325112e+01 -8.0974747851470585e-01
    1.2170961159281331e+01 -8.2578166797123143e-01
    8.9697186432943710e+00 -1.0561741399673814e+00
    9.1026273554615447e+00 -1.7700119798118032e+00
    9.6872573914154270e+00 -2.6761799478949051e+00
    9.8195439017158854e+00 -2.3968814520433108e+00
    1.3132001850604883e+01 -1.3195785236900295e+00
    2.3569954862643041e+01 -1.0675348796720576e+00
    2.5136880189803016e+01 -8.1139595214544324e-01
    1.8314351552542888e+01 -7.6426618074265096e-01
    1.8790785787027772e+01 -7.6448680080501408e-01
    1.2583063773615324e+01 -8.9824800689538142e-01
    1.0712648505655373e+01 -1.4423536767666125e+00
    1.1045532572607460e+01 -2.9035353804297617e+00
    1.0345356726537618e+01 -2.7128475714660016e+00
    1.1571031455604542e+01 -1.4604811718434882e+00
    1.6831014765577777e+01 -1.0641429164031777e+00
    1.4833971780016418e+01 -7.7445839395107841e-01
    1.2215736408363334e+01 -7.6685863033546731e-01
    1.3881646735576217e+01 -7.7947692924774925e-01
    1.3994860138357808e+01 -1.0793234746645675e+00
    1.1705329146553909e+01 -1.5950351137526755e+00
    1.0611713021923380e+01 -2.8575971106425326e+00
    1.0058492467937741e+01 -2.2365556804709805e+00
    1.4440133322875116e+01 -1.3209541977302663e+00
    2.2926690863227229e+01 -1.1113677805783242e+00
    1.9372602222827272e+01 -8.2764882092968994e-01
    1.5017138141965319e+01 -8.3723396347850321e-01
    1.3037493842017669e+01 -8.5433095961506289e-01
    9.5705537199418895e+00 -1.0485918395006379e+00
    9.5601237651482176e+00 -1.6148720949972029e+00
    1.0030597405695220e+01 -2.6449392627072230e+00
    9.5996335765675944e+00 -2.3204704821869475e+00
    1.1871958402809804e+01 -1.3531807340813053e+00
    1.6357805918969454e+01 -1.0741489410347578e+00
    1.3407974881455260e+01 -8.3970938453133781e-01
    1.0970561427503315e+01 -8.8525613716005014e-01
    1.1516520551137145e+01 -9.2926786196217026e-01
    1.0097525730509872e+01 -1.1730256725423460e+00
    9.8253618162969740e+00 -1.7539996480268234e+00
    1.0238670045273599e+01 -2.7900084961385807e+00
    1.0105412368212821e+01 -2.1969119362582563e+00
    1.2349070931548123e+01 -1.3412917670990951e+00
    2.0060028205831912e+01 -1.1929409685626877e+00
    1.5943866544421176e+01 -9.2624971680692914e-01
    1.1230827825177760e+01 -8.6019602745187806e-01
    1.2904921761837340e+01 -8.5356346562514784e-01
    1.5757587831191183e+01 -1.0895543614545735e+00
    1.3814256848939646e+01 -1.4007446127029373e+00
    1.0089896508644701e+01 -2.1636992800981010e+00
    9.5339986989207386e+00 -2.2359811173539916e+00
    1.1365276499224610e+01 -1.6102613060821775e+00
    1.4663768557351167e+01 -1.4277820974436910e+00
    9.5411710177572377e+00 -1.1188956967591552e+00
    7.1876022195835736e+00 -1.1698862857005115e+00
    8.4324407275090110e+00 -9.9145397492901810e-01
    1.2772807165892203e+01 -1.0461364673606446e+00
    1.2466730181658354e+01 -1.2547614239750822e+00
    9.2492204950028576e+00 -1.9916383532189417e+00
    9.3880985675869706e+00 -1.7247246478691758e+00
    1.3692996847512184e+01 -1.2565901083677000e+00
    2.0113936649093759e+01 -1.1654083221555280e+00
    1.4275288537398549e+01 -9.6903206189495394e-01
    9.7104199044231407e+00 -9.8863623091574504e-01
    1.0969520458957115e+01 -1.0422850328643651e+00
    1.1121676316342691e+01 -1.1009010390264531e+00
    1.1176214405507990e+01 -1.4144705931117698e+00
    9.2908106839993483e+00 -1.9020859559198171e+00
    8.3490064609335075e+00 -1.4956261122044203e+00
    1.0930159976132510e+01 -1.2183836594239166e+00
    1.2277457765715795e+01 -1.1381104585823911e+00
    9.7684330617452400e+00 -1.2225884846954005e+00
    7.4576096755712289e+00 -1.5501227238806166e+00
    8.1197547086869584e+00 -1.3938794942381720e+00
    1.0659456972335098e+01 -1.1916006324790045e+00
    1.1514399012530459e+01 -1.2988583563999596e+00
    8.7326816163439247e+00 -1.5810631874527385e+00
    9.2278892948161406e+00 -1.3057823904819328e+00
    1.2382987463969560e+01 -1.2280329651828492e+00
    1.3426986205149811e+01 -1.2698982205943146e+00
    1.0347096073665305e+01 -1.0107484385385435e+00
    8.7216646210482729e+00 -1.2396411967208791e+00
    1.0723842004006553e+01 -1.0430913163256026e+00
    1.2454120679933263e+01 -1.2854001250191089e+00
    1.1013215463483700e+01 -1.1826446788132474e+00
    8.7384650257875478e+00 -1.2850444053008703e+00
    9.3831970575092676e+00 -1.4111623585579711e+00
    1.1199597719877165e+01 -1.3637942896899977e+00
    1.1674048733696969e+01 -1.4664612387622031e+00
    8.8325812093395690e+00 -1.1552735047991454e+00
    8.5924842299957067e+00 -1.5007300700128390e+00
    1.0019537709182629e+01 -1.1822397568345622e+00
    1.1746813473502483e+01 -1.4208987385555552e+00
    9.1086121136754574e+00 -1.2176774243628139e+00
    8.3216647261113312e+00 -1.2975035954612684e+00
    9.8182028249505695e+00 -1.2890113834588566e+00
    1.1633706564288754e+01 -1.1770204189352118e+00
    1.2778621886427459e+01 -1.3480831081438169e+00
    9.3524181008392517e+00 -1.1758385972039826e+00
    8.5480624568854164e+00 -1.5366659628212487e+00
    9.2266568786256187e+00 -1.1637042571507201e+00
    1.2124173292784333e+01 -1.3302165667251520e+00
    1.1881879762909263e+01 -1.2158421606127843e+00
    9.7899640346841874e+00 -1.2522825538902762e+00
    9.1783689640616721e+00 -1.2372723694133070e+00
    1.0309446488044010e+01 -1.2702956525845674e+00
    1.0621216042485161e+01 -1.4902908988525065e+00
    8.7710480246032194e+00 -1.4591954382377073e+00
    8.6436719749115092e+00 -1.9149382880035168e+00
    9.2164989396456942e+00 -1.4000415330341944e+00
    1.2235599323892151e+01 -1.5152120956805730e+00
    1.0394551307269415e+01 -1.2291300501159779e+00
    8.9672531892322471e+00 -1.2056402220924445e+00
    9.7428203710338650e+00 -1.2088967017139116e+00
    1.1743781378598072e+01 -1.2048156248562500e+00
    1.1643470109241845e+01 -1.2877969322088278e+00
    9.6878494465426588e+00 -1.1576678566503413e+00
    9.5193938209281459e+00 -1.3923204920288648e+00
    1.0782268341309949e+01 -1.0589274382940588e+00
    1.4258786992214199e+01 -1.2682040722848211e+00
    1.0674092691002739e+01 -1.1255701470501360e+00
    9.0601938050540838e+00 -1.1435663485541208e+00
    9.0159904689422454e+00 -1.3134885681408746e+00
    1.0133336864015764e+01 -1.3523855690111950e+00
    1.0277795837741291e+01 -1.4355245710881883e+00
    8.4953990069181700e+00 -1.3109280214105092e+00
    8.2394560097416125e+00 -1.4589267247476918e+00
    1.0236665023833419e+01 -1.1368926982124199e+00
    1.1594504095096616e+01 -1.2074894139460159e+00
    9.5966810055011749e+00 -1.1423127643464870e+00
    8.2445450804112976e+00 -1.1968078508268436e+00
    9.7577195133689472e+00 -1.0640676838863103e+00
    1.2102000848391050e+01 -1.2113769242952228e+00
    1.1405419978251489e+01 -1.3738549967773133e+00
    9.2181439803646690e+00 -1.3553412373990799e+00
    8.9953550494138472e+00 -1.7267244908275965e+00
    1.0069936899088264e+01 -1.2776949804557196e+00
    1.3792431444248534e+01 -1.3279681882583196e+00
    1.2459028754672286e+01 -1.1380819421525001e+00
    9.8144429541637379e+00 -1.0512169718423938e+00
    9.0672776605934722e+00 -1.1541091163650692e+00
    9.9364047069774930e+00 -1.2190297408383943e+00
    1.0065511906128371e+01 -1.4194888311058331e+00
    8.7405549847068542e+00 -1.5070682540945266e+00
    8.3484180998776925e+00 -1.8305710781761078e+00
    9.0289856983781274e+00 -1.4361335209134027e+00
    1.0616669795214833e+01 -1.2821649228410728e+00
    1.0707085396510260e+01 -1.2197819867526056e+00
    8.5918478483399081e+00 -1.0873342534404373e+00
    8.9063553996583646e+00 -1.1869208719318685e+00
    1.0388598399842781e+01 -1.2590679947196879e+00
    1.0611480010643724e+01 -1.2997497334455426e+00
    9.2768238441131334e+00 -1.2075096453463954e+00
    8.7569695223981920e+00 -1.2896994640894941e+00
    1.1657569657320725e+01 -1.0259913750455760e+00
    1.5354913418393288e+01 -1.1931749962151372e+00
    1.1595852703638430e+01 -1.0443339936320939e+00
    8.4467907859791360e+00 -1.0726591085559432e+00
    8.4850365535581336e+00 -1.4159198902051253e+00
    9.7179530781630561e+00 -1.5339758854156098e+00
    9.9477513200093313e+00 -1.5014646634502391e+00
    8.7448979144184893e+00 -1.3816359158747562e+00
    8.5354134790232550e+00 -1.3322082204796459e+00
    1.1749958151314861e+01 -1.1529821018065354e+00
    1.3263914860181929e+01 -1.1725522846383538e+00
    1.0690641040409634e+01 -1.1392597690427637e+00
    8.2681597104010827e+00 -1.2178511330175037e+00
    9.8275443616766491e+00 -1.0552969324880783e+00
    1.2287439748390581e+01 -1.2195171008952106e+00
    1.2366294091946214e+01 -1.4206569410123333e+00
    9.1879094267242145e+00 -1.4186260853494512e+00
    9.0427525413262639e+00 -1.7022784252905703e+00
    1.0319905183594996e+01 -1.3414316616345139e+00
    1.2528820502853931e+01 -1.2450054308365055e+00
    1.2706469110334888e+01 -1.1395819401419356e+00
    9.4063999942077317e+00 -1.0045325632024384e+00
    9.2330960972000931e+00 -1.1647691007766003e+00
    1.0271431480560318e+01 -1.3367760739128374e+00
    9.7688978062059277e+00 -1.4996342092197219e+00
    8.5436013675858113e+00 -1.5809824103314623e+00
    9.1993497289448385e+00 -1.9051480219554611e+00
    9.8044781726469186e+00 -1.3878336279661534e+00
    1.0939305171031052e+01 -1.2796332006115207e+00
    1.0382545604402114e+01 -1.1497097464612993e+00
    9.4919428286684582e+00 -1.1322474741409889e+00
    8.6592466705890843e+00 -1.3119207356861025e+00
    9.9926224546354323e+00 -1.4150697561994452e+00
    1.0505684562541280e+01 -1.3547148200418153e+00
    9.9673952636987853e+00 -1.2768480153023634e+00
    9.2763455972530391e+00 -1.1824710075230487e+00
    1.3074194650038168e+01 -1.0535276034938530e+00
    1.5549258289945689e+01 -1.1260980189335639e+00
    1.2483046830479395e+01 -1.0676064146370980e+00
    8.7347922559608531e+00 -1.1572609511635867e+00
    8.3844792914407709e+00 -1.4364522487652447e+00
    9.1952916086189393e+00 -1.4534174270060223e+00
    9.2583836429118040e+00 -1.3979032263183420e+00
    8.5963229863339663e+00 -1.2746356016909457e+00
    8.2335491526724436e+00 -1.2394104053918271e+00
    1.0770451477702364e+01 -1.0872613809325384e+00
    1.2135885548994901e+01 -1.0718182467380182e+00
    1.1013722028708568e+01 -1.0774558475189964e+00
    8.2462356625328503e+00 -1.2744515017075762e+00
    9.0269195542142420e+00 -1.0324094387345863e+00
    1.1013877575618309e+01 -1.2129448252890198e+00
    1.0953919370317134e+01 -1.4094985088664067e+00
    9.5673648916332077e+00 -1.4891539490918204e+00
    9.2756666035308033e+00 -1.6346126999397741e+00
    1.0710977695869335e+01 -1.3248430673699267e+00
    1.2260494505756865e+01 -1.2361225898318449e+00
    1.1832224384454836e+01 -1.1081833680853148e+00
    9.9984341125805862e+00 -1.0683321999984907e+00
    8.7800911163637370e+00 -1.1638046379776561e+00
    1.0207851904938440e+01 -1.2617899478993519e+00
    1.0527930282939556e+01 -1.4187173686938450e+00
    9.0784227219070406e+00 -1.5478247869789596e+00
    8.8108435448899591e+00 -1.7499732997015074e+00
    9.7103285417683285e+00 -1.4597407309821755e+00
    1.1099497458077987e+01 -1.3143626535450190e+00
    1.1305122977982714e+01 -1.2256374760433402e+00
    8.9873178792619655e+00 -1.1572144453056403e+00
    8.4995211971767990e+00 -1.3352326476122836e+00
    9.6841924644586665e+00 -1.3684113102876507e+00
    9.8108410623137718e+00 -1.3192411549436556e+00
    9.2271135959837522e+00 -1.1955218743187188e+00
    9.0516351569700575e+00 -1.1545537198723768e+00
    1.2697752951995412e+01 -1.0481716303095279e+00
    1.3460212047807342e+01 -1.0712397285402662e+00
    1.1809483266818596e+01 -1.0805824391026158e+00
    8.3201209740833928e+00 -1.2145199543273655e+00
    8.3825484978639384e+00 -1.4639981439887730e+00
    9.6125470247643676e+00 -1.5161575028026570e+00
    9.8636555844615064e+00 -1.4762841940477671e+00
    9.3650534237314442e+00 -1.2313588218277745e+00
    9.4026638648168532e+00 -1.1995047238105749e+00
    1.0985259704746822e+01 -1.0354803051438315e+00
    1.4059128897707438e+01 -1.2011206587916055e+00
    1.1426097900023546e+01 -1.1808424810489075e+00
    8.3464915551701679e+00 -1.3462722816927846e+00
    8.8669525285727850e+00 -1.1337946381401538e+00
    1.1065416600935054e+01 -1.2412353937540723e+00
    1.1663026708638993e+01 -1.3913172582835216e+00
    9.6642818896337594e+00 -1.4491120941305926e+00
    9.0077353849886173e+00 -1.5648353217607316e+00
    9.6735214937177467e+00 -1.2925018532364330e+00
    1.2568631159224218e+01 -1.2838174941202933e+00
    1.2455006315695721e+01 -1.1465466958029567e+00
    9.1486036131022406e+00 -1.0831780671781843e+00
    8.6066975799111933e+00 -1.2930506819414012e+00
    9.9164752212737426e+00 -1.3291657035199633e+00
    1.0027670443196550e+01 -1.4375707368750061e+00
    8.8787242156699424e+00 -1.3901774847486033e+00
    8.6450763377170148e+00 -1.5327484541043508e+00
    9.4636599492236737e+00 -1.2829975498488708e+00
    1.2036810873761027e+01 -1.2998369634536449e+00
    1.1194881901108415e+01 -1.2026787823959546e+00
    8.9069698759120080e+00 -1.1980395192789020e+00
    8.2817424217623739e+00 -1.4401148625318099e+00
    1.0566036493821645e+01 -1.4769169566201414e+00
    1.0281018418450236e+01 -1.3359450015977947e+00
    9.7410995368589912e+00 -1.0978911778955083e+00
    9.4631156328523431e+00 -1.0780649372968085e+00
    1.2212797243803468e+01 -9.8043129231012449e-01
    1.5796474857271727e+01 -1.1643074565196421e+00
    1.2647598560311190e+01 -1.2570862329945478e+00
    8.5798902675872455e+00 -1.3757823822180428e+00
    8.1847394881052757e+00 -1.6690481144690650e+00
    9.7744705223702635e+00 -1.5086216975631466e+00
    1.0239645343084309e+01 -1.2783961116535991e+00
    1.0308518163711369e+01 -1.1212160710465140e+00
    9.4226748673244494e+00 -1.0766046974430248e+00
    1.1237047361476169e+01 -9.5501342676709267e-01
    1.3400184773864302e+01 -1.1047948981566553e+00
    1.1255796298292850e+01 -1.3459614793043888e+00
    8.3758865458853240e+00 -1.6358038797533567e+00
    8.7668416276103542e+00 -1.3046007345459547e+00
    1.1217664662996333e+01 -1.3734766874704631e+00
    1.0744102490643920e+01 -1.3331661627778999e+00
    9.7317713431758612e+00 -1.2418213183411009e+00
    8.6533102059121063e+00 -1.3000625128409964e+00
    1.0240551427967887e+01 -1.1225150517760647e+00
    1.3152856629738340e+01 -1.2495720800727637e+00
    1.1318040987899220e+01 -1.1847091838275789e+00
    9.0924515210900214e+00 -1.2317044609996202e+00
    8.6030705408684760e+00 -1.5174945509351536e+00
    9.8509468373545435e+00 -1.4399640910936731e+00
    9.8747194914703851e+00 -1.3060821507272644e+00
    9.8296955751910762e+00 -1.2293252752476760e+00
    8.6305468733149517e+00 -1.2793110478743379e+00
    9.5413561995532703e+00 -1.1430818918048884e+00
    1.2238518126402534e+01 -1.3501522575487444e+00
    1.0630020632332187e+01 -1.3462602693698105e+00
    8.5647982926537924e+00 -1.4698897479866853e+00
    8.3708948788479312e+00 -1.6655744204768141e+00
    1.1043756511563243e+01 -1.4076991504115968e+00
    1.0934603315763262e+01 -1.0330899375440337e+00
    1.1831633608164845e+01 -9.6762248304238518e-01
    1.0667815776648826e+01 -9.6346014916335210e-01
    1.2928784031094951e+01 -9.0901268616777287e-01
    1.4789430286384738e+01 -1.0320254763061010e+00
    1.2142629144016173e+01 -1.2790514506451884e+00
    8.1511632198354036e+00 -1.5474920239926313e+00
    8.8181844799256801e+00 -1.9980748788282086e+00
    1.0179297564995036e+01 -1.4753832439336352e+00
    1.0831565978134186e+01 -1.1128794169491234e+00
    1.0900595935934318e+01 -1.0122948684483488e+00
    1.0118887818621330e+01 -9.6211526495582933e-01
    1.1446620990781961e+01 -8.8733025096852158e-01
    1.2797553027941344e+01 -1.0345356867477689e+00
    1.1253681398555818e+01 -1.3441592066376880e+00
    8.2733720738653371e+00 -1.7871426879669268e+00
    8.2620164206756090e+00 -1.4897491028899532e+00
    1.1196621574888898e+01 -1.4416363572687281e+00
    1.1215286108164262e+01 -1.1714039257095477e+00
    1.1046922137718621e+01 -1.1031204370684642e+00
    9.4653980023019599e+00 -1.1679311070076064e+00
    1.0742903641400739e+01 -1.0932832462748772e+00
    1.2989911278389341e+01 -1.2182064556068597e+00
    1.1748114139071301e+01 -1.3168806478561226e+00
    8.2750685955936341e+00 -1.4604375014204583e+00
    8.2044999395901552e+00 -1.7414751232343295e+00
    9.8851364003347850e+00 -1.5009059981152466e+00
    1.0667712844978464e+01 -1.2238346306348027e+00
    9.9140700652483353e+00 -1.0776072318919785e+00
    8.5620259927083353e+00 -1.1170901129091428e+00
    9.5262564289355200e+00 -1.0583755048495136e+00
    1.2671634893626656e+01 -1.2682455518618798e+00
    1.1927110747422731e+01 -1.4574283851090475e+00
    8.1220406511828163e+00 -1.6746862505575126e+00
    8.4194299964118589e+00 -1.8851555193126321e+00
    1.0328049263622090e+01 -1.2828891798217736e+00
    1.2671946388453048e+01 -1.0081236725564147e+00
    1.2228698898756715e+01 -8.7722830250949180e-01
    1.2149591860185845e+01 -8.5959217568597368e-01
    1.4046673109592113e+01 -8.4319535390913347e-01
    1.4565523510802482e+01 -9.3438472714387921e-01
    1.1531552095106797e+01 -1.1692508765203922e+00
    7.9414106775940336e+00 -1.6481744345479530e+00
    9.1165288402725597e+00 -2.3554342595044093e+00
    9.8070637983370563e+00 -1.4116428579483340e+00
    1.1778634729366386e+01 -1.0144816587912446e+00
    1.1753437038203433e+01 -8.2342444878825438e-01
    1.1264263489127108e+01 -8.5087428606826410e-01
    1.2687218987593543e+01 -8.0758210879073578e-01
    1.2833528737466366e+01 -9.1550360755807980e-01
    1.0423571572789989e+01 -1.2862167964042355e+00
    8.4169371407583391e+00 -1.9860275036125414e+00
    8.0225282708220593e+00 -1.6922177663535221e+00
    1.0772279230144154e+01 -1.3862956478408781e+00
    1.2481452305715443e+01 -1.0963906884489405e+00
    1.0540863907163946e+01 -9.4031910197607327e-01
    9.6761982545348495e+00 -9.5286242274458655e-01
    1.1108648324301456e+01 -9.2814620383792945e-01
    1.4995737793139742e+01 -1.1128618556960117e+00
    1.2978148371017689e+01 -1.2585325296215657e+00
    7.9643367664888949e+00 -1.5537984249419523e+00
    8.4678306320751080e+00 -1.9562578099459151e+00
    9.6170625404741088e+00 -1.3933616850511903e+00
    1.1970208209123838e+01 -1.1193368545329303e+00
    9.8042009699281945e+00 -9.2319730040846437e-01
    9.1636390482959982e+00 -9.1892400629611015e-01
    1.0532591935443904e+01 -9.2412272657752226e-01
    1.2604262843845900e+01 -1.0773085031134930e+00
    1.0968139469094524e+01 -1.3251396975035543e+00
    8.4003338071305684e+00 -2.0041224857343707e+00
    9.9112225040674957e+00 -2.4608444496570057e+00
    1.0445634657895457e+01 -1.3444138480521561e+00
    1.4479827430620700e+01 -1.0071675394441784e+00
    1.3003874482817810e+01 -7.3191109926000253e-01
    1.3202570453449017e+01 -7.7361527146455944e-01
    1.4722009256854133e+01 -7.3397925692808130e-01
    1.5735460995970442e+01 -9.0716050805222370e-01
    1.2078086192753144e+01 -1.3405810861309739e+00
    8.7982732867031057e+00 -2.0607577822042669e+00
    1.0903532941418749e+01 -2.8786438772956506e+00
    1.0056837738319910e+01 -1.4060219297062522e+00
    1.4440827526496980e+01 -1.0710257325262689e+00
    1.4415163164051998e+01 -8.5939734116380495e-01
    1.2903536578697631e+01 -8.1255239103524235e-01
    1.3751446962855983e+01 -7.9072998325409760e-01
    1.5317078446930925e+01 -9.7649865051285467e-01
    1.1220419826506282e+01 -1.4541201150513392e+00
    9.7218918751492112e+00 -2.5364779794938705e+00
    8.9212240824619755e+00 -2.0272703635578817e+00
    1.1501887039671491e+01 -1.4609316728293513e+00
    1.3612465774379155e+01 -1.0646701588538221e+00
    1.1472057993562402e+01 -8.4769359205050065e-01
    1.0798480853289572e+01 -8.5678349933246389e-01
    1.2331457221419127e+01 -8.4415763384288756e-01
    1.5126504025812615e+01 -1.0422830904548102e+00
    1.2188266124920686e+01 -1.3666611427525117e+00
    8.4712792612029109e+00 -1.9634415572509041e+00
    9.4439799888549505e+00 -2.3404605029286909e+00
    1.0129068950861127e+01 -1.4509976773420175e+00
    1.2516143282852020e+01 -1.0773729098294615e+00
    1.1456441337497971e+01 -8.8723493384016072e-01
    1.0069496498263366e+01 -8.6317160178463015e-01
    1.1894223164108769e+01 -8.5800223090404149e-01
    1.4025609222873243e+01 -1.0817592677614913e+00
    1.1195225522750130e+01 -1.5324815336637099e+00
    8.8455463482196794e+00 -2.3124134387334028e+00
    1.0708707531194275e+01 -2.5647253824231511e+00
