<?xml version="1.0"?>
<opencv_storage>
<!-- Automatically converted from cascade27x12, window size = 27x12 -->
<cascade27x12s13 type_id="opencv-haar-classifier">
  <size>
    27 12</size>
  <stages>
    <_>
      <!-- stage 0 -->
      <trees>
        <_>
          <!-- tree 0 -->
          <_>
            <!-- root node -->
            <feature>
              <rects>
                <_>
                  2 5 8 4 -1.</_>
                <_>
                  2 7 8 2 2.</_></rects>
              <tilted>0</tilted></feature>
            <threshold>0.0331661105155945</threshold>
            <left_val>-0.8432390093803406</left_val>
            <right_val>0.7835187911987305</right_val></_></_>
        <_>
          <!-- tree 1 -->
          <_>
            <!-- root node -->
            <feature>
              <rects>
                <_>
                  10 8 7 2 -1.</_>
                <_>
                  10 9 7 1 2.</_></rects>
              <tilted>0</tilted></feature>
            <threshold>-0.0123229296877980</threshold>
            <left_val>0.6848598718643189</left_val>
            <right_val>-0.5740396976470947</right_val></_></_>
        <_>
          <!-- tree 2 -->
          <_>
            <!-- root node -->
            <feature>
              <rects>
                <_>
                  4 2 3 4 -1.</_>
                <_>
                  5 2 1 4 3.</_></rects>
              <tilted>0</tilted></feature>
            <threshold>0.0133716501295567</threshold>
            <left_val>-0.3590700030326843</left_val>
            <right_val>0.8641728162765503</right_val></_></_>
        <_>
          <!-- tree 3 -->
          <_>
            <!-- root node -->
            <feature>
              <rects>
                <_>
                  11 1 12 10 -1.</_>
                <_>
                  11 6 12 5 2.</_></rects>
              <tilted>0</tilted></feature>
            <threshold>0.0102542098611593</threshold>
            <left_val>-0.7369992136955261</left_val>
            <right_val>0.4291768074035645</right_val></_></_></trees>
      <stage_threshold>-1.3471720218658447</stage_threshold>
      <parent>-1</parent>
      <next>-1</next></_>
    <_>
      <!-- stage 1 -->
      <trees>
        <_>
          <!-- tree 0 -->
          <_>
            <!-- root node -->
            <feature>
              <rects>
                <_>
                  8 6 11 2 -1.</_>
                <_>
                  8 7 11 1 2.</_></rects>
              <tilted>0</tilted></feature>
            <threshold>0.0170848406851292</threshold>
            <left_val>-0.7684326171875000</left_val>
            <right_val>0.6528592705726624</right_val></_></_>
        <_>
          <!-- tree 1 -->
          <_>
            <!-- root node -->
            <feature>
              <rects>
                <_>
                  3 9 21 2 -1.</_>
                <_>
                  10 9 7 2 3.</_></rects>
              <tilted>0</tilted></feature>
            <threshold>-0.0245138294994831</threshold>
            <left_val>0.5439088940620422</left_val>
            <right_val>-0.7723891735076904</right_val></_></_>
        <_>
          <!-- tree 2 -->
          <_>
            <!-- root node -->
            <feature>
              <rects>
                <_>
                  10 3 6 4 -1.</_>
                <_>
                  12 3 2 4 3.</_></rects>
              <tilted>0</tilted></feature>
            <threshold>-0.0244756303727627</threshold>
            <left_val>0.7537382841110230</left_val>
            <right_val>-0.4520145058631897</right_val></_></_>
        <_>
          <!-- tree 3 -->
          <_>
            <!-- root node -->
            <feature>
              <rects>
                <_>
                  24 2 3 5 -1.</_>
                <_>
                  25 2 1 5 3.</_></rects>
              <tilted>0</tilted></feature>
            <threshold>9.3814637511968613e-003</threshold>
            <left_val>-0.3287380933761597</left_val>
            <right_val>0.7564517855644226</right_val></_></_>
        <_>
          <!-- tree 4 -->
          <_>
            <!-- root node -->
            <feature>
              <rects>
                <_>
                  3 3 4 8 -1.</_>
                <_>
                  3 7 4 4 2.</_></rects>
              <tilted>0</tilted></feature>
            <threshold>0.0337738916277885</threshold>
            <left_val>-0.6048899292945862</left_val>
            <right_val>0.4522910118103027</right_val></_></_>
        <_>
          <!-- tree 5 -->
          <_>
            <!-- root node -->
            <feature>
              <rects>
                <_>
                  19 2 3 3 -1.</_>
                <_>
                  20 2 1 3 3.</_></rects>
              <tilted>0</tilted></feature>
            <threshold>-0.0118006104603410</threshold>
            <left_val>0.8383861780166626</left_val>
            <right_val>-0.3167513906955719</right_val></_></_>
        <_>
          <!-- tree 6 -->
          <_>
            <!-- root node -->
            <feature>
              <rects>
                <_>
                  7 0 12 3 -1.</_>
                <_>
                  7 1 12 1 3.</_></rects>
              <tilted>0</tilted></feature>
            <threshold>-0.0277494806796312</threshold>
            <left_val>0.7351909875869751</left_val>
            <right_val>-0.3030230104923248</right_val></_></_></trees>
      <stage_threshold>-1.4228349924087524</stage_threshold>
      <parent>0</parent>
      <next>-1</next></_>
    <_>
      <!-- stage 2 -->
      <trees>
        <_>
          <!-- tree 0 -->
          <_>
            <!-- root node -->
            <feature>
              <rects>
                <_>
                  10 7 7 4 -1.</_>
                <_>
                  10 9 7 2 2.</_></rects>
              <tilted>0</tilted></feature>
            <threshold>-0.0225788801908493</threshold>
            <left_val>0.5409908890724182</left_val>
            <right_val>-0.7089251875877380</right_val></_></_>
        <_>
          <!-- tree 1 -->
          <_>
            <!-- root node -->
            <feature>
              <rects>
                <_>
                  11 1 6 6 -1.</_>
                <_>
                  13 1 2 6 3.</_></rects>
              <tilted>0</tilted></feature>
            <threshold>-0.0295125804841518</threshold>
            <left_val>0.7050412893295288</left_val>
            <right_val>-0.3912977874279022</right_val></_></_>
        <_>
          <!-- tree 2 -->
          <_>
            <!-- root node -->
            <feature>
              <rects>
                <_>
                  4 2 3 4 -1.</_>
                <_>
                  5 2 1 4 3.</_></rects>
              <tilted>0</tilted></feature>
            <threshold>0.0157178305089474</threshold>
            <left_val>-0.3474946916103363</left_val>
            <right_val>0.8651342988014221</right_val></_></_>
        <_>
          <!-- tree 3 -->
          <_>
            <!-- root node -->
            <feature>
              <rects>
                <_>
                  15 2 3 4 -1.</_>
                <_>
                  16 2 1 4 3.</_></rects>
              <tilted>0</tilted></feature>
            <threshold>9.7456499934196472e-003</threshold>
            <left_val>-0.2391749024391174</left_val>
            <right_val>0.7028563022613525</right_val></_></_>
        <_>
          <!-- tree 4 -->
          <_>
            <!-- root node -->
            <feature>
              <rects>
                <_>
                  9 2 3 4 -1.</_>
                <_>
                  10 2 1 4 3.</_></rects>
              <tilted>0</tilted></feature>
            <threshold>8.8430922478437424e-003</threshold>
            <left_val>-0.3429374992847443</left_val>
            <right_val>0.7371848821640015</right_val></_></_>
        <_>
          <!-- tree 5 -->
          <_>
            <!-- root node -->
            <feature>
              <rects>
                <_>
                  18 3 7 8 -1.</_>
                <_>
                  18 7 7 4 2.</_></rects>
              <tilted>0</tilted></feature>
            <threshold>0.0560866184532642</threshold>
            <left_val>-0.7072728872299194</left_val>
            <right_val>0.4792689085006714</right_val></_></_>
        <_>
          <!-- tree 6 -->
          <_>
            <!-- root node -->
            <feature>
              <rects>
                <_>
                  8 4 3 1 -1.</_>
                <_>
                  9 4 1 1 3.</_></rects>
              <tilted>0</tilted></feature>
            <threshold>3.2049969304352999e-003</threshold>
            <left_val>-0.3586376905441284</left_val>
            <right_val>0.6777573823928833</right_val></_></_>
        <_>
          <!-- tree 7 -->
          <_>
            <!-- root node -->
            <feature>
              <rects>
                <_>
                  20 3 3 4 -1.</_>
                <_>
                  21 3 1 4 3.</_></rects>
              <tilted>0</tilted></feature>
            <threshold>0.0147532802075148</threshold>
            <left_val>-0.3144809901714325</left_val>
            <right_val>0.8175233006477356</right_val></_></_>
        <_>
          <!-- tree 8 -->
          <_>
            <!-- root node -->
            <feature>
              <rects>
                <_>
                  4 3 3 4 -1.</_>
                <_>
                  5 3 1 4 3.</_></rects>
              <tilted>0</tilted></feature>
            <threshold>-0.0131367901340127</threshold>
            <left_val>0.8564432263374329</left_val>
            <right_val>-0.2057029008865356</right_val></_></_></trees>
      <stage_threshold>-1.5937709808349609</stage_threshold>
      <parent>1</parent>
      <next>-1</next></_>
    <_>
      <!-- stage 3 -->
      <trees>
        <_>
          <!-- tree 0 -->
          <_>
            <!-- root node -->
            <feature>
              <rects>
                <_>
                  8 5 11 6 -1.</_>
                <_>
                  8 7 11 2 3.</_></rects>
              <tilted>0</tilted></feature>
            <threshold>0.0834175422787666</threshold>
            <left_val>-0.7180215716362000</left_val>
            <right_val>0.5764424204826355</right_val></_></_>
        <_>
          <!-- tree 1 -->
          <_>
            <!-- root node -->
            <feature>
              <rects>
                <_>
                  10 3 14 8 -1.</_>
                <_>
                  17 3 7 4 2.</_>
                <_>
                  10 7 7 4 2.</_></rects>
              <tilted>0</tilted></feature>
            <threshold>-0.0308472104370594</threshold>
            <left_val>0.4269110858440399</left_val>
            <right_val>-0.6407443284988403</right_val></_></_>
        <_>
          <!-- tree 2 -->
          <_>
            <!-- root node -->
            <feature>
              <rects>
                <_>
                  2 3 8 8 -1.</_>
                <_>
                  2 7 8 4 2.</_></rects>
              <tilted>0</tilted></feature>
            <threshold>0.0781520828604698</threshold>
            <left_val>-0.6789882183074951</left_val>
            <right_val>0.3359273970127106</right_val></_></_>
        <_>
          <!-- tree 3 -->
          <_>
            <!-- root node -->
            <feature>
              <rects>
                <_>
                  20 2 3 4 -1.</_>
                <_>
                  21 2 1 4 3.</_></rects>
              <tilted>0</tilted></feature>
            <threshold>0.0206668991595507</threshold>
            <left_val>-0.3231287896633148</left_val>
            <right_val>0.8141188025474548</right_val></_></_>
        <_>
          <!-- tree 4 -->
          <_>
            <!-- root node -->
            <feature>
              <rects>
                <_>
                  4 2 3 4 -1.</_>
                <_>
                  5 2 1 4 3.</_></rects>
              <tilted>0</tilted></feature>
            <threshold>0.0232759099453688</threshold>
            <left_val>-0.2726207077503204</left_val>
            <right_val>0.8486186861991882</right_val></_></_>
        <_>
          <!-- tree 5 -->
          <_>
            <!-- root node -->
            <feature>
              <rects>
                <_>
                  26 5 1 4 -1.</_>
                <_>
                  26 7 1 2 2.</_></rects>
              <tilted>0</tilted></feature>
            <threshold>2.1449699997901917e-003</threshold>
            <left_val>0.4353064894676209</left_val>
            <right_val>-0.7264909148216248</right_val></_></_>
        <_>
          <!-- tree 6 -->
          <_>
            <!-- root node -->
            <feature>
              <rects>
                <_>
                  10 1 6 6 -1.</_>
                <_>
                  12 1 2 6 3.</_></rects>
              <tilted>0</tilted></feature>
            <threshold>-0.0621382892131805</threshold>
            <left_val>0.7180047035217285</left_val>
            <right_val>-0.2884412109851837</right_val></_></_>
        <_>
          <!-- tree 7 -->
          <_>
            <!-- root node -->
            <feature>
              <rects>
                <_>
                  25 0 2 11 -1.</_>
                <_>
                  25 0 1 11 2.</_></rects>
              <tilted>0</tilted></feature>
            <threshold>0.0203201491385698</threshold>
            <left_val>-0.2428167015314102</left_val>
            <right_val>0.6783813834190369</right_val></_></_></trees>
      <stage_threshold>-1.6863490343093872</stage_threshold>
      <parent>2</parent>
      <next>-1</next></_>
    <_>
      <!-- stage 4 -->
      <trees>
        <_>
          <!-- tree 0 -->
          <_>
            <!-- root node -->
            <feature>
              <rects>
                <_>
                  2 2 8 8 -1.</_>
                <_>
                  2 6 8 4 2.</_></rects>
              <tilted>0</tilted></feature>
            <threshold>0.0822913199663162</threshold>
            <left_val>-0.8029494881629944</left_val>
            <right_val>0.5471534729003906</right_val></_></_>
        <_>
          <!-- tree 1 -->
          <_>
            <!-- root node -->
            <feature>
              <rects>
                <_>
                  10 8 7 2 -1.</_>
                <_>
                  10 9 7 1 2.</_></rects>
              <tilted>0</tilted></feature>
            <threshold>-0.0209311097860336</threshold>
            <left_val>0.5140451192855835</left_val>
            <right_val>-0.4760505855083466</right_val></_></_>
        <_>
          <!-- tree 2 -->
          <_>
            <!-- root node -->
            <feature>
              <rects>
                <_>
                  4 5 3 1 -1.</_>
                <_>
                  5 5 1 1 3.</_></rects>
              <tilted>0</tilted></feature>
            <threshold>6.5033580176532269e-003</threshold>
            <left_val>-0.2995215058326721</left_val>
            <right_val>0.7269318103790283</right_val></_></_>
        <_>
          <!-- tree 3 -->
          <_>
            <!-- root node -->
            <feature>
              <rects>
                <_>
                  24 3 3 8 -1.</_>
                <_>
                  25 3 1 8 3.</_></rects>
              <tilted>0</tilted></feature>
            <threshold>0.0283051598817110</threshold>
            <left_val>-0.2167280018329620</left_val>
            <right_val>0.6828927993774414</right_val></_></_>
        <_>
          <!-- tree 4 -->
          <_>
            <!-- root node -->
            <feature>
              <rects>
                <_>
                  1 8 24 3 -1.</_>
                <_>
                  9 8 8 3 3.</_></rects>
              <tilted>0</tilted></feature>
            <threshold>-0.0335022695362568</threshold>
            <left_val>0.3292149901390076</left_val>
            <right_val>-0.6715961098670960</right_val></_></_>
        <_>
          <!-- tree 5 -->
          <_>
            <!-- root node -->
            <feature>
              <rects>
                <_>
                  8 2 11 8 -1.</_>
                <_>
                  8 6 11 4 2.</_></rects>
              <tilted>0</tilted></feature>
            <threshold>0.0382507406175137</threshold>
            <left_val>-0.7080367207527161</left_val>
            <right_val>0.2791055142879486</right_val></_></_>
        <_>
          <!-- tree 6 -->
          <_>
            <!-- root node -->
            <feature>
              <rects>
                <_>
                  3 2 3 4 -1.</_>
                <_>
                  4 2 1 4 3.</_></rects>
              <tilted>0</tilted></feature>
            <threshold>0.0225993394851685</threshold>
            <left_val>-0.2464295029640198</left_val>
            <right_val>0.8661187291145325</right_val></_></_>
        <_>
          <!-- tree 7 -->
          <_>
            <!-- root node -->
            <feature>
              <rects>
                <_>
                  22 4 3 1 -1.</_>
                <_>
                  23 4 1 1 3.</_></rects>
              <tilted>0</tilted></feature>
            <threshold>6.9877179339528084e-003</threshold>
            <left_val>-0.1659177988767624</left_val>
            <right_val>0.8378329277038574</right_val></_></_>
        <_>
          <!-- tree 8 -->
          <_>
            <!-- root node -->
            <feature>
              <rects>
                <_>
                  2 3 3 2 -1.</_>
                <_>
                  3 3 1 2 3.</_></rects>
              <tilted>0</tilted></feature>
            <threshold>9.9284397438168526e-003</threshold>
            <left_val>-0.2650142014026642</left_val>
            <right_val>0.7896497845649719</right_val></_></_></trees>
      <stage_threshold>-1.7525529861450195</stage_threshold>
      <parent>3</parent>
      <next>-1</next></_>
    <_>
      <!-- stage 5 -->
      <trees>
        <_>
          <!-- tree 0 -->
          <_>
            <!-- root node -->
            <feature>
              <rects>
                <_>
                  1 9 24 2 -1.</_>
                <_>
                  9 9 8 2 3.</_></rects>
              <tilted>0</tilted></feature>
            <threshold>-0.0533494800329208</threshold>
            <left_val>0.4287492036819458</left_val>
            <right_val>-0.6875219941139221</right_val></_></_>
        <_>
          <!-- tree 1 -->
          <_>
            <!-- root node -->
            <feature>
              <rects>
                <_>
                  0 7 27 1 -1.</_>
                <_>
                  9 7 9 1 3.</_></rects>
              <tilted>0</tilted></feature>
            <threshold>5.5892651289468631e-005</threshold>
            <left_val>-0.7541714906692505</left_val>
            <right_val>0.2980875968933106</right_val></_></_>
        <_>
          <!-- tree 2 -->
          <_>
            <!-- root node -->
            <feature>
              <rects>
                <_>
                  10 1 6 5 -1.</_>
                <_>
                  12 1 2 5 3.</_></rects>
              <tilted>0</tilted></feature>
            <threshold>-0.0341042689979076</threshold>
            <left_val>0.5272567868232727</left_val>
            <right_val>-0.3950935900211334</right_val></_></_>
        <_>
          <!-- tree 3 -->
          <_>
            <!-- root node -->
            <feature>
              <rects>
                <_>
                  26 4 1 4 -1.</_>
                <_>
                  26 6 1 2 2.</_></rects>
              <tilted>0</tilted></feature>
            <threshold>2.9099110979586840e-003</threshold>
            <left_val>0.2192344069480896</left_val>
            <right_val>-0.7111142873764038</right_val></_></_>
        <_>
          <!-- tree 4 -->
          <_>
            <!-- root node -->
            <feature>
              <rects>
                <_>
                  3 5 12 4 -1.</_>
                <_>
                  3 7 12 2 2.</_></rects>
              <tilted>0</tilted></feature>
            <threshold>0.0530607402324677</threshold>
            <left_val>-0.5891196727752686</left_val>
            <right_val>0.3408972024917603</right_val></_></_>
        <_>
          <!-- tree 5 -->
          <_>
            <!-- root node -->
            <feature>
              <rects>
                <_>
                  20 1 3 5 -1.</_>
                <_>
                  21 1 1 5 3.</_></rects>
              <tilted>0</tilted></feature>
            <threshold>0.0262314695864916</threshold>
            <left_val>-0.2855429053306580</left_val>
            <right_val>0.7433031797409058</right_val></_></_>
        <_>
          <!-- tree 6 -->
          <_>
            <!-- root node -->
            <feature>
              <rects>
                <_>
                  4 1 3 5 -1.</_>
                <_>
                  5 1 1 5 3.</_></rects>
              <tilted>0</tilted></feature>
            <threshold>0.0297547001391649</threshold>
            <left_val>-0.3307127952575684</left_val>
            <right_val>0.7827643156051636</right_val></_></_>
        <_>
          <!-- tree 7 -->
          <_>
            <!-- root node -->
            <feature>
              <rects>
                <_>
                  25 4 2 7 -1.</_>
                <_>
                  25 4 1 7 2.</_></rects>
              <tilted>0</tilted></feature>
            <threshold>0.0125302495434880</threshold>
            <left_val>-0.2582328021526337</left_val>
            <right_val>0.5294597148895264</right_val></_></_>
        <_>
          <!-- tree 8 -->
          <_>
            <!-- root node -->
            <feature>
              <rects>
                <_>
                  3 0 12 2 -1.</_>
                <_>
                  3 1 12 1 2.</_></rects>
              <tilted>0</tilted></feature>
            <threshold>-0.0247692093253136</threshold>
            <left_val>0.6889855861663818</left_val>
            <right_val>-0.3271745145320892</right_val></_></_>
        <_>
          <!-- tree 9 -->
          <_>
            <!-- root node -->
            <feature>
              <rects>
                <_>
                  9 1 11 8 -1.</_>
                <_>
                  9 5 11 4 2.</_></rects>
              <tilted>0</tilted></feature>
            <threshold>0.0302077196538448</threshold>
            <left_val>-0.6846308708190918</left_val>
            <right_val>0.3233014047145844</right_val></_></_></trees>
      <stage_threshold>-1.3229980468750000</stage_threshold>
      <parent>4</parent>
      <next>-1</next></_>
    <_>
      <!-- stage 6 -->
      <trees>
        <_>
          <!-- tree 0 -->
          <_>
            <!-- root node -->
            <feature>
              <rects>
                <_>
                  1 7 24 4 -1.</_>
                <_>
                  9 7 8 4 3.</_></rects>
              <tilted>0</tilted></feature>
            <threshold>-0.0259168408811092</threshold>
            <left_val>0.3025420904159546</left_val>
            <right_val>-0.7661706209182739</right_val></_></_>
        <_>
          <!-- tree 1 -->
          <_>
            <!-- root node -->
            <feature>
              <rects>
                <_>
                  8 6 12 2 -1.</_>
                <_>
                  8 7 12 1 2.</_></rects>
              <tilted>0</tilted></feature>
            <threshold>0.0241852402687073</threshold>
            <left_val>-0.6344115734100342</left_val>
            <right_val>0.3801903128623962</right_val></_></_>
        <_>
          <!-- tree 2 -->
          <_>
            <!-- root node -->
            <feature>
              <rects>
                <_>
                  1 1 24 6 -1.</_>
                <_>
                  9 1 8 6 3.</_></rects>
              <tilted>0</tilted></feature>
            <threshold>0.0455980114638805</threshold>
            <left_val>-0.5382714271545410</left_val>
            <right_val>0.4932382106781006</right_val></_></_>
        <_>
          <!-- tree 3 -->
          <_>
            <!-- root node -->
            <feature>
              <rects>
                <_>
                  26 3 1 6 -1.</_>
                <_>
                  26 6 1 3 2.</_></rects>
              <tilted>0</tilted></feature>
            <threshold>4.3256771750748158e-003</threshold>
            <left_val>0.1220802962779999</left_val>
            <right_val>-0.6570041775703430</right_val></_></_>
        <_>
          <!-- tree 4 -->
          <_>
            <!-- root node -->
            <feature>
              <rects>
                <_>
                  9 1 9 3 -1.</_>
                <_>
                  12 1 3 3 3.</_></rects>
              <tilted>0</tilted></feature>
            <threshold>-0.0116084702312946</threshold>
            <left_val>0.3917368948459625</left_val>
            <right_val>-0.5166535973548889</right_val></_></_>
        <_>
          <!-- tree 5 -->
          <_>
            <!-- root node -->
            <feature>
              <rects>
                <_>
                  20 2 3 2 -1.</_>
                <_>
                  21 2 1 2 3.</_></rects>
              <tilted>0</tilted></feature>
            <threshold>0.0134270898997784</threshold>
            <left_val>-0.3007675111293793</left_val>
            <right_val>0.7081664800643921</right_val></_></_>
        <_>
          <!-- tree 6 -->
          <_>
            <!-- root node -->
            <feature>
              <rects>
                <_>
                  4 1 3 7 -1.</_>
                <_>
                  5 1 1 7 3.</_></rects>
              <tilted>0</tilted></feature>
            <threshold>0.0273809190839529</threshold>
            <left_val>-0.3454262912273407</left_val>
            <right_val>0.6295176744461060</right_val></_></_>
        <_>
          <!-- tree 7 -->
          <_>
            <!-- root node -->
            <feature>
              <rects>
                <_>
                  20 4 4 6 -1.</_>
                <_>
                  20 7 4 3 2.</_></rects>
              <tilted>0</tilted></feature>
            <threshold>0.0180892404168844</threshold>
            <left_val>-0.8146358132362366</left_val>
            <right_val>0.3814583122730255</right_val></_></_>
        <_>
          <!-- tree 8 -->
          <_>
            <!-- root node -->
            <feature>
              <rects>
                <_>
                  0 7 2 5 -1.</_>
                <_>
                  1 7 1 5 2.</_></rects>
              <tilted>0</tilted></feature>
            <threshold>0.0109668998047709</threshold>
            <left_val>-0.3939116001129150</left_val>
            <right_val>0.5469654202461243</right_val></_></_></trees>
      <stage_threshold>-1.2562420368194580</stage_threshold>
      <parent>5</parent>
      <next>-1</next></_>
    <_>
      <!-- stage 7 -->
      <trees>
        <_>
          <!-- tree 0 -->
          <_>
            <!-- root node -->
            <feature>
              <rects>
                <_>
                  2 5 8 4 -1.</_>
                <_>
                  2 7 8 2 2.</_></rects>
              <tilted>0</tilted></feature>
            <threshold>0.0504240989685059</threshold>
            <left_val>-0.5990768074989319</left_val>
            <right_val>0.3847233951091766</right_val></_></_>
        <_>
          <!-- tree 1 -->
          <_>
            <!-- root node -->
            <feature>
              <rects>
                <_>
                  21 3 3 3 -1.</_>
                <_>
                  22 3 1 3 3.</_></rects>
              <tilted>0</tilted></feature>
            <threshold>-0.0206734891980886</threshold>
            <left_val>0.7877429723739624</left_val>
            <right_val>-0.2970432043075562</right_val></_></_>
        <_>
          <!-- tree 2 -->
          <_>
            <!-- root node -->
            <feature>
              <rects>
                <_>
                  8 1 6 6 -1.</_>
                <_>
                  10 1 2 6 3.</_></rects>
              <tilted>0</tilted></feature>
            <threshold>0.0745665431022644</threshold>
            <left_val>-0.3128677904605866</left_val>
            <right_val>0.7572199702262878</right_val></_></_>
        <_>
          <!-- tree 3 -->
          <_>
            <!-- root node -->
            <feature>
              <rects>
                <_>
                  23 10 4 2 -1.</_>
                <_>
                  23 10 2 2 2.</_></rects>
              <tilted>0</tilted></feature>
            <threshold>4.1320989112136886e-005</threshold>
            <left_val>-0.7190545201301575</left_val>
            <right_val>0.3217211067676544</right_val></_></_>
        <_>
          <!-- tree 4 -->
          <_>
            <!-- root node -->
            <feature>
              <rects>
                <_>
                  9 8 9 4 -1.</_>
                <_>
                  12 8 3 4 3.</_></rects>
              <tilted>0</tilted></feature>
            <threshold>-3.5109560121782124e-004</threshold>
            <left_val>0.2483118027448654</left_val>
            <right_val>-0.7876091003417969</right_val></_></_>
        <_>
          <!-- tree 5 -->
          <_>
            <!-- root node -->
            <feature>
              <rects>
                <_>
                  20 1 2 6 -1.</_>
                <_>
                  20 1 1 6 2.</_></rects>
              <tilted>0</tilted></feature>
            <threshold>-0.0124188596382737</threshold>
            <left_val>0.4751574099063873</left_val>
            <right_val>-0.2961103022098541</right_val></_></_>
        <_>
          <!-- tree 6 -->
          <_>
            <!-- root node -->
            <feature>
              <rects>
                <_>
                  4 2 3 5 -1.</_>
                <_>
                  5 2 1 5 3.</_></rects>
              <tilted>0</tilted></feature>
            <threshold>0.0396118313074112</threshold>
            <left_val>-0.2560747861862183</left_val>
            <right_val>0.8246148824691773</right_val></_></_>
        <_>
          <!-- tree 7 -->
          <_>
            <!-- root node -->
            <feature>
              <rects>
                <_>
                  23 10 4 2 -1.</_>
                <_>
                  23 10 2 2 2.</_></rects>
              <tilted>0</tilted></feature>
            <threshold>3.6165190394967794e-003</threshold>
            <left_val>-0.3012328147888184</left_val>
            <right_val>0.1709824949502945</right_val></_></_>
        <_>
          <!-- tree 8 -->
          <_>
            <!-- root node -->
            <feature>
              <rects>
                <_>
                  11 3 5 6 -1.</_>
                <_>
                  11 6 5 3 2.</_></rects>
              <tilted>0</tilted></feature>
            <threshold>3.5348280798643827e-003</threshold>
            <left_val>-0.9067068099975586</left_val>
            <right_val>0.2389121055603027</right_val></_></_>
        <_>
          <!-- tree 9 -->
          <_>
            <!-- root node -->
            <feature>
              <rects>
                <_>
                  23 10 4 2 -1.</_>
                <_>
                  23 10 2 2 2.</_></rects>
              <tilted>0</tilted></feature>
            <threshold>-3.7129280826775357e-005</threshold>
            <left_val>0.3070513010025024</left_val>
            <right_val>-0.3026917874813080</right_val></_></_>
        <_>
          <!-- tree 10 -->
          <_>
            <!-- root node -->
            <feature>
              <rects>
                <_>
                  3 8 21 4 -1.</_>
                <_>
                  10 8 7 4 3.</_></rects>
              <tilted>0</tilted></feature>
            <threshold>-9.7442032711114734e-005</threshold>
            <left_val>0.2895987927913666</left_val>
            <right_val>-0.9158579707145691</right_val></_></_>
        <_>
          <!-- tree 11 -->
          <_>
            <!-- root node -->
            <feature>
              <rects>
                <_>
                  23 10 4 2 -1.</_>
                <_>
                  23 10 2 2 2.</_></rects>
              <tilted>0</tilted></feature>
            <threshold>-6.2989471480250359e-003</threshold>
            <left_val>-0.7853208184242249</left_val>
            <right_val>-0.0346452407538891</right_val></_></_>
        <_>
          <!-- tree 12 -->
          <_>
            <!-- root node -->
            <feature>
              <rects>
                <_>
                  0 10 4 2 -1.</_>
                <_>
                  2 10 2 2 2.</_></rects>
              <tilted>0</tilted></feature>
            <threshold>3.3149881346616894e-005</threshold>
            <left_val>-0.5874841809272766</left_val>
            <right_val>0.3158516883850098</right_val></_></_>
        <_>
          <!-- tree 13 -->
          <_>
            <!-- root node -->
            <feature>
              <rects>
                <_>
                  3 0 21 8 -1.</_>
                <_>
                  10 0 7 8 3.</_></rects>
              <tilted>0</tilted></feature>
            <threshold>6.0102189308963716e-005</threshold>
            <left_val>-0.5977699160575867</left_val>
            <right_val>0.2555119097232819</right_val></_></_>
        <_>
          <!-- tree 14 -->
          <_>
            <!-- root node -->
            <feature>
              <rects>
                <_>
                  7 0 12 8 -1.</_>
                <_>
                  11 0 4 8 3.</_></rects>
              <tilted>0</tilted></feature>
            <threshold>-2.5823279283940792e-003</threshold>
            <left_val>0.2964783906936646</left_val>
            <right_val>-0.6098361015319824</right_val></_></_></trees>
      <stage_threshold>-1.6982680559158325</stage_threshold>
      <parent>6</parent>
      <next>-1</next></_>
    <_>
      <!-- stage 8 -->
      <trees>
        <_>
          <!-- tree 0 -->
          <_>
            <!-- root node -->
            <feature>
              <rects>
                <_>
                  4 3 3 6 -1.</_>
                <_>
                  4 6 3 3 2.</_></rects>
              <tilted>0</tilted></feature>
            <threshold>2.5683091371320188e-004</threshold>
            <left_val>-0.9898905158042908</left_val>
            <right_val>0.8476840853691101</right_val></_></_>
        <_>
          <!-- tree 1 -->
          <_>
            <!-- root node -->
            <feature>
              <rects>
                <_>
                  10 7 14 4 -1.</_>
                <_>
                  17 7 7 2 2.</_>
                <_>
                  10 9 7 2 2.</_></rects>
              <tilted>0</tilted></feature>
            <threshold>-1.1676960275508463e-004</threshold>
            <left_val>0.5008891820907593</left_val>
            <right_val>-0.9810624122619629</right_val></_></_>
        <_>
          <!-- tree 2 -->
          <_>
            <!-- root node -->
            <feature>
              <rects>
                <_>
                  2 8 10 3 -1.</_>
                <_>
                  7 8 5 3 2.</_></rects>
              <tilted>0</tilted></feature>
            <threshold>-4.7188881580950692e-005</threshold>
            <left_val>0.3001214861869812</left_val>
            <right_val>-0.9467527866363525</right_val></_></_>
        <_>
          <!-- tree 3 -->
          <_>
            <!-- root node -->
            <feature>
              <rects>
                <_>
                  19 1 3 3 -1.</_>
                <_>
                  20 1 1 3 3.</_></rects>
              <tilted>0</tilted></feature>
            <threshold>-5.3726187907159328e-003</threshold>
            <left_val>0.5831459164619446</left_val>
            <right_val>-0.6694673895835877</right_val></_></_></trees>
      <stage_threshold>-0.8526082038879395</stage_threshold>
      <parent>7</parent>
      <next>-1</next></_>
    <_>
      <!-- stage 9 -->
      <trees>
        <_>
          <!-- tree 0 -->
          <_>
            <!-- root node -->
            <feature>
              <rects>
                <_>
                  0 3 1 6 -1.</_>
                <_>
                  0 6 1 3 2.</_></rects>
              <tilted>0</tilted></feature>
            <threshold>4.6133268624544144e-003</threshold>
            <left_val>0.3532499074935913</left_val>
            <right_val>-0.6400871872901917</right_val></_></_>
        <_>
          <!-- tree 1 -->
          <_>
            <!-- root node -->
            <feature>
              <rects>
                <_>
                  17 2 3 5 -1.</_>
                <_>
                  18 2 1 5 3.</_></rects>
              <tilted>0</tilted></feature>
            <threshold>0.0268040299415588</threshold>
            <left_val>-0.2509396076202393</left_val>
            <right_val>0.8516474962234497</right_val></_></_>
        <_>
          <!-- tree 2 -->
          <_>
            <!-- root node -->
            <feature>
              <rects>
                <_>
                  10 8 7 2 -1.</_>
                <_>
                  10 9 7 1 2.</_></rects>
              <tilted>0</tilted></feature>
            <threshold>-0.0145287001505494</threshold>
            <left_val>0.4001815915107727</left_val>
            <right_val>-0.5176138877868652</right_val></_></_>
        <_>
          <!-- tree 3 -->
          <_>
            <!-- root node -->
            <feature>
              <rects>
                <_>
                  20 8 4 1 -1.</_>
                <_>
                  20 8 2 1 2.</_></rects>
              <tilted>0</tilted></feature>
            <threshold>1.7970800399780273e-003</threshold>
            <left_val>0.2216881066560745</left_val>
            <right_val>-0.7363557219505310</right_val></_></_>
        <_>
          <!-- tree 4 -->
          <_>
            <!-- root node -->
            <feature>
              <rects>
                <_>
                  0 2 3 5 -1.</_>
                <_>
                  1 2 1 5 3.</_></rects>
              <tilted>0</tilted></feature>
            <threshold>0.0167571809142828</threshold>
            <left_val>-0.2633808851242065</left_val>
            <right_val>0.6901966929435730</right_val></_></_>
        <_>
          <!-- tree 5 -->
          <_>
            <!-- root node -->
            <feature>
              <rects>
                <_>
                  20 8 4 1 -1.</_>
                <_>
                  20 8 2 1 2.</_></rects>
              <tilted>0</tilted></feature>
            <threshold>-8.2972407108172774e-004</threshold>
            <left_val>-0.7190458178520203</left_val>
            <right_val>0.3150975108146668</right_val></_></_>
        <_>
          <!-- tree 6 -->
          <_>
            <!-- root node -->
            <feature>
              <rects>
                <_>
                  6 4 3 2 -1.</_>
                <_>
                  7 4 1 2 3.</_></rects>
              <tilted>0</tilted></feature>
            <threshold>9.7395880147814751e-003</threshold>
            <left_val>-0.2977237105369568</left_val>
            <right_val>0.7148333787918091</right_val></_></_>
        <_>
          <!-- tree 7 -->
          <_>
            <!-- root node -->
            <feature>
              <rects>
                <_>
                  9 11 9 1 -1.</_>
                <_>
                  12 11 3 1 3.</_></rects>
              <tilted>0</tilted></feature>
            <threshold>-7.9655963927507401e-003</threshold>
            <left_val>-0.7631136178970337</left_val>
            <right_val>0.2498039007186890</right_val></_></_></trees>
      <stage_threshold>-1.2239619493484497</stage_threshold>
      <parent>8</parent>
      <next>-1</next></_>
    <_>
      <!-- stage 10 -->
      <trees>
        <_>
          <!-- tree 0 -->
          <_>
            <!-- root node -->
            <feature>
              <rects>
                <_>
                  12 6 3 1 -1.</_>
                <_>
                  13 6 1 1 3.</_></rects>
              <tilted>0</tilted></feature>
            <threshold>-6.2710461206734180e-003</threshold>
            <left_val>0.7121211886405945</left_val>
            <right_val>-0.2711131870746613</right_val></_></_>
        <_>
          <!-- tree 1 -->
          <_>
            <!-- root node -->
            <feature>
              <rects>
                <_>
                  1 8 26 1 -1.</_>
                <_>
                  1 8 13 1 2.</_></rects>
              <tilted>0</tilted></feature>
            <threshold>0.0206382405012846</threshold>
            <left_val>0.2229187041521072</left_val>
            <right_val>-0.7406073212623596</right_val></_></_>
        <_>
          <!-- tree 2 -->
          <_>
            <!-- root node -->
            <feature>
              <rects>
                <_>
                  7 2 3 5 -1.</_>
                <_>
                  8 2 1 5 3.</_></rects>
              <tilted>0</tilted></feature>
            <threshold>-0.0263016205281019</threshold>
            <left_val>0.7053917050361633</left_val>
            <right_val>-0.2627623081207275</right_val></_></_>
        <_>
          <!-- tree 3 -->
          <_>
            <!-- root node -->
            <feature>
              <rects>
                <_>
                  9 8 16 3 -1.</_>
                <_>
                  9 8 8 3 2.</_></rects>
              <tilted>0</tilted></feature>
            <threshold>-6.6839409992098808e-003</threshold>
            <left_val>0.1545045971870422</left_val>
            <right_val>-0.6536812782287598</right_val></_></_>
        <_>
          <!-- tree 4 -->
          <_>
            <!-- root node -->
            <feature>
              <rects>
                <_>
                  3 8 20 2 -1.</_>
                <_>
                  13 8 10 2 2.</_></rects>
              <tilted>0</tilted></feature>
            <threshold>0.0154189001768827</threshold>
            <left_val>0.2673942148685455</left_val>
            <right_val>-0.7428237199783325</right_val></_></_>
        <_>
          <!-- tree 5 -->
          <_>
            <!-- root node -->
            <feature>
              <rects>
                <_>
                  17 2 3 4 -1.</_>
                <_>
                  18 2 1 4 3.</_></rects>
              <tilted>0</tilted></feature>
            <threshold>-0.0166764501482248</threshold>
            <left_val>0.6565241813659668</left_val>
            <right_val>-0.3040925860404968</right_val></_></_>
        <_>
          <!-- tree 6 -->
          <_>
            <!-- root node -->
            <feature>
              <rects>
                <_>
                  11 7 4 3 -1.</_>
                <_>
                  11 8 4 1 3.</_></rects>
              <tilted>0</tilted></feature>
            <threshold>8.1788077950477600e-003</threshold>
            <left_val>-0.4295820891857147</left_val>
            <right_val>0.4045588970184326</right_val></_></_>
        <_>
          <!-- tree 7 -->
          <_>
            <!-- root node -->
            <feature>
              <rects>
                <_>
                  12 9 11 3 -1.</_>
                <_>
                  12 10 11 1 3.</_></rects>
              <tilted>0</tilted></feature>
            <threshold>0.0300036892294884</threshold>
            <left_val>-0.1780378073453903</left_val>
            <right_val>0.6506670117378235</right_val></_></_>
        <_>
          <!-- tree 8 -->
          <_>
            <!-- root node -->
            <feature>
              <rects>
                <_>
                  2 8 6 1 -1.</_>
                <_>
                  4 8 2 1 3.</_></rects>
              <tilted>0</tilted></feature>
            <threshold>3.0744320247322321e-003</threshold>
            <left_val>0.2374705970287323</left_val>
            <right_val>-0.7425913810729981</right_val></_></_>
        <_>
          <!-- tree 9 -->
          <_>
            <!-- root node -->
            <feature>
              <rects>
                <_>
                  19 8 4 1 -1.</_>
                <_>
                  19 8 2 1 2.</_></rects>
              <tilted>0</tilted></feature>
            <threshold>2.0844719838351011e-003</threshold>
            <left_val>0.1146657988429070</left_val>
            <right_val>-0.8861541152000427</right_val></_></_>
        <_>
          <!-- tree 10 -->
          <_>
            <!-- root node -->
            <feature>
              <rects>
                <_>
                  0 6 1 4 -1.</_>
                <_>
                  0 8 1 2 2.</_></rects>
              <tilted>0</tilted></feature>
            <threshold>1.7833199817687273e-003</threshold>
            <left_val>0.2004863023757935</left_val>
            <right_val>-0.6758605837821960</right_val></_></_></trees>
      <stage_threshold>-1.2583659887313843</stage_threshold>
      <parent>9</parent>
      <next>-1</next></_>
    <_>
      <!-- stage 11 -->
      <trees>
        <_>
          <!-- tree 0 -->
          <_>
            <!-- root node -->
            <feature>
              <rects>
                <_>
                  4 8 4 1 -1.</_>
                <_>
                  6 8 2 1 2.</_></rects>
              <tilted>0</tilted></feature>
            <threshold>1.3977900380268693e-003</threshold>
            <left_val>0.2290088981389999</left_val>
            <right_val>-0.8078359961509705</right_val></_></_>
        <_>
          <!-- tree 1 -->
          <_>
            <!-- root node -->
            <feature>
              <rects>
                <_>
                  7 8 20 2 -1.</_>
                <_>
                  17 8 10 1 2.</_>
                <_>
                  7 9 10 1 2.</_></rects>
              <tilted>0</tilted></feature>
            <threshold>-0.0119042899459600</threshold>
            <left_val>0.2486117929220200</left_val>
            <right_val>-0.5360996127128601</right_val></_></_>
        <_>
          <!-- tree 2 -->
          <_>
            <!-- root node -->
            <feature>
              <rects>
                <_>
                  1 1 3 6 -1.</_>
                <_>
                  2 1 1 6 3.</_></rects>
              <tilted>0</tilted></feature>
            <threshold>-0.0209872499108315</threshold>
            <left_val>0.6363626718521118</left_val>
            <right_val>-0.2526643872261047</right_val></_></_>
        <_>
          <!-- tree 3 -->
          <_>
            <!-- root node -->
            <feature>
              <rects>
                <_>
                  10 5 14 6 -1.</_>
                <_>
                  17 5 7 3 2.</_>
                <_>
                  10 8 7 3 2.</_></rects>
              <tilted>0</tilted></feature>
            <threshold>-0.0246213991194963</threshold>
            <left_val>0.1844096928834915</left_val>
            <right_val>-0.5154170989990234</right_val></_></_>
        <_>
          <!-- tree 4 -->
          <_>
            <!-- root node -->
            <feature>
              <rects>
                <_>
                  7 5 3 1 -1.</_>
                <_>
                  8 5 1 1 3.</_></rects>
              <tilted>0</tilted></feature>
            <threshold>-8.0527653917670250e-003</threshold>
            <left_val>0.6435179710388184</left_val>
            <right_val>-0.2155395001173019</right_val></_></_>
        <_>
          <!-- tree 5 -->
          <_>
            <!-- root node -->
            <feature>
              <rects>
                <_>
                  17 2 3 4 -1.</_>
                <_>
                  18 2 1 4 3.</_></rects>
              <tilted>0</tilted></feature>
            <threshold>-0.0302616097033024</threshold>
            <left_val>0.7036308050155640</left_val>
            <right_val>-0.1309389024972916</right_val></_></_>
        <_>
          <!-- tree 6 -->
          <_>
            <!-- root node -->
            <feature>
              <rects>
                <_>
                  3 1 4 10 -1.</_>
                <_>
                  3 6 4 5 2.</_></rects>
              <tilted>0</tilted></feature>
            <threshold>0.0452624484896660</threshold>
            <left_val>-0.6997377872467041</left_val>
            <right_val>0.2308211028575897</right_val></_></_>
        <_>
          <!-- tree 7 -->
          <_>
            <!-- root node -->
            <feature>
              <rects>
                <_>
                  1 1 26 8 -1.</_>
                <_>
                  14 1 13 4 2.</_>
                <_>
                  1 5 13 4 2.</_></rects>
              <tilted>0</tilted></feature>
            <threshold>0.1095969974994659</threshold>
            <left_val>0.1142413988709450</left_val>
            <right_val>-0.8011661171913147</right_val></_></_>
        <_>
          <!-- tree 8 -->
          <_>
            <!-- root node -->
            <feature>
              <rects>
                <_>
                  1 10 7 2 -1.</_>
                <_>
                  1 11 7 1 2.</_></rects>
              <tilted>0</tilted></feature>
            <threshold>-0.0274526309221983</threshold>
            <left_val>0.6835994124412537</left_val>
            <right_val>-0.2512297034263611</right_val></_></_>
        <_>
          <!-- tree 9 -->
          <_>
            <!-- root node -->
            <feature>
              <rects>
                <_>
                  11 9 6 3 -1.</_>
                <_>
                  11 10 6 1 3.</_></rects>
              <tilted>0</tilted></feature>
            <threshold>-0.0266909692436457</threshold>
            <left_val>0.5721361041069031</left_val>
            <right_val>-0.2064083069562912</right_val></_></_>
        <_>
          <!-- tree 10 -->
          <_>
            <!-- root node -->
            <feature>
              <rects>
                <_>
                  10 1 6 7 -1.</_>
                <_>
                  12 1 2 7 3.</_></rects>
              <tilted>0</tilted></feature>
            <threshold>-0.0758946016430855</threshold>
            <left_val>0.5255299210548401</left_val>
            <right_val>-0.2503930926322937</right_val></_></_>
        <_>
          <!-- tree 11 -->
          <_>
            <!-- root node -->
            <feature>
              <rects>
                <_>
                  9 0 9 1 -1.</_>
                <_>
                  12 0 3 1 3.</_></rects>
              <tilted>0</tilted></feature>
            <threshold>-6.6165467724204063e-003</threshold>
            <left_val>-0.6897134780883789</left_val>
            <right_val>0.2482134997844696</right_val></_></_>
        <_>
          <!-- tree 12 -->
          <_>
            <!-- root node -->
            <feature>
              <rects>
                <_>
                  0 11 2 1 -1.</_>
                <_>
                  1 11 1 1 2.</_></rects>
              <tilted>0</tilted></feature>
            <threshold>1.1873029870912433e-004</threshold>
            <left_val>-0.5099391937255859</left_val>
            <right_val>0.2483956962823868</right_val></_></_></trees>
      <stage_threshold>-1.3393019437789917</stage_threshold>
      <parent>10</parent>
      <next>-1</next></_></stages></cascade27x12s13>
</opencv_storage>
