<?xml version="1.0"?>
<opencv_storage>
<!-- Automatically converted from cascade, window size = 60x20 -->
<Peach_cascade12s60x20v_1_7 type_id="opencv-haar-classifier">
  <size>
    60 20</size>
  <stages>
    <_>
      <!-- stage 0 -->
      <trees>
        <_>
          <!-- tree 0 -->
          <_>
            <!-- root node -->
            <feature>
              <rects>
                <_>
                  17 14 20 6 -1.</_>
                <_>
                  17 17 20 3 2.</_></rects>
              <tilted>0</tilted></feature>
            <threshold>0.0132376896217465</threshold>
            <left_val>-0.8867707252502441</left_val>
            <right_val>0.6765589118003845</right_val></_></_>
        <_>
          <!-- tree 1 -->
          <_>
            <!-- root node -->
            <feature>
              <rects>
                <_>
                  24 2 12 16 -1.</_>
                <_>
                  28 2 4 16 3.</_></rects>
              <tilted>0</tilted></feature>
            <threshold>-0.0562158711254597</threshold>
            <left_val>0.9164503812789917</left_val>
            <right_val>-0.6103336811065674</right_val></_></_>
        <_>
          <!-- tree 2 -->
          <_>
            <!-- root node -->
            <feature>
              <rects>
                <_>
                  0 3 8 14 -1.</_>
                <_>
                  2 3 4 14 2.</_></rects>
              <tilted>0</tilted></feature>
            <threshold>-0.0100562497973442</threshold>
            <left_val>0.7057787775993347</left_val>
            <right_val>-0.4774891138076782</right_val></_></_>
        <_>
          <!-- tree 3 -->
          <_>
            <!-- root node -->
            <feature>
              <rects>
                <_>
                  46 6 6 11 -1.</_>
                <_>
                  48 6 2 11 3.</_></rects>
              <tilted>0</tilted></feature>
            <threshold>0.0128925601020455</threshold>
            <left_val>-0.2996599972248077</left_val>
            <right_val>0.8250923156738281</right_val></_></_></trees>
      <stage_threshold>-1.1495009660720825</stage_threshold>
      <parent>-1</parent>
      <next>-1</next></_>
    <_>
      <!-- stage 1 -->
      <trees>
        <_>
          <!-- tree 0 -->
          <_>
            <!-- root node -->
            <feature>
              <rects>
                <_>
                  24 2 12 16 -1.</_>
                <_>
                  28 2 4 16 3.</_></rects>
              <tilted>0</tilted></feature>
            <threshold>-0.0579390190541744</threshold>
            <left_val>0.8306285142898560</left_val>
            <right_val>-0.6152731776237488</right_val></_></_>
        <_>
          <!-- tree 1 -->
          <_>
            <!-- root node -->
            <feature>
              <rects>
                <_>
                  56 3 4 12 -1.</_>
                <_>
                  56 3 2 12 2.</_></rects>
              <tilted>0</tilted></feature>
            <threshold>-0.0105597199872136</threshold>
            <left_val>0.8035526275634766</left_val>
            <right_val>-0.4697194099426270</right_val></_></_>
        <_>
          <!-- tree 2 -->
          <_>
            <!-- root node -->
            <feature>
              <rects>
                <_>
                  7 14 8 6 -1.</_>
                <_>
                  7 17 8 3 2.</_></rects>
              <tilted>0</tilted></feature>
            <threshold>6.1621451750397682e-003</threshold>
            <left_val>-0.6604179739952087</left_val>
            <right_val>0.4497654139995575</right_val></_></_>
        <_>
          <!-- tree 3 -->
          <_>
            <!-- root node -->
            <feature>
              <rects>
                <_>
                  52 6 8 10 -1.</_>
                <_>
                  54 6 4 10 2.</_></rects>
              <tilted>0</tilted></feature>
            <threshold>-0.0151389203965664</threshold>
            <left_val>0.5753473043441773</left_val>
            <right_val>-0.2837572097778320</right_val></_></_>
        <_>
          <!-- tree 4 -->
          <_>
            <!-- root node -->
            <feature>
              <rects>
                <_>
                  0 6 8 10 -1.</_>
                <_>
                  2 6 4 10 2.</_></rects>
              <tilted>0</tilted></feature>
            <threshold>-0.0166430994868279</threshold>
            <left_val>0.7241104841232300</left_val>
            <right_val>-0.3584186136722565</right_val></_></_>
        <_>
          <!-- tree 5 -->
          <_>
            <!-- root node -->
            <feature>
              <rects>
                <_>
                  46 9 6 7 -1.</_>
                <_>
                  48 9 2 7 3.</_></rects>
              <tilted>0</tilted></feature>
            <threshold>0.0152005404233933</threshold>
            <left_val>-0.2334977984428406</left_val>
            <right_val>0.7414501905441284</right_val></_></_>
        <_>
          <!-- tree 6 -->
          <_>
            <!-- root node -->
            <feature>
              <rects>
                <_>
                  8 8 6 9 -1.</_>
                <_>
                  10 8 2 9 3.</_></rects>
              <tilted>0</tilted></feature>
            <threshold>0.0246725399047136</threshold>
            <left_val>-0.1856289952993393</left_val>
            <right_val>0.9171925783157349</right_val></_></_>
        <_>
          <!-- tree 7 -->
          <_>
            <!-- root node -->
            <feature>
              <rects>
                <_>
                  23 4 20 16 -1.</_>
                <_>
                  23 12 20 8 2.</_></rects>
              <tilted>0</tilted></feature>
            <threshold>-1.5868799528107047e-003</threshold>
            <left_val>-0.8757423758506775</left_val>
            <right_val>0.2908287942409515</right_val></_></_></trees>
      <stage_threshold>-1.4130630493164063</stage_threshold>
      <parent>0</parent>
      <next>-1</next></_>
    <_>
      <!-- stage 2 -->
      <trees>
        <_>
          <!-- tree 0 -->
          <_>
            <!-- root node -->
            <feature>
              <rects>
                <_>
                  12 3 36 12 -1.</_>
                <_>
                  21 3 18 12 2.</_></rects>
              <tilted>0</tilted></feature>
            <threshold>0.0352853201329708</threshold>
            <left_val>-0.6746113896369934</left_val>
            <right_val>0.6401726007461548</right_val></_></_>
        <_>
          <!-- tree 1 -->
          <_>
            <!-- root node -->
            <feature>
              <rects>
                <_>
                  56 2 4 15 -1.</_>
                <_>
                  56 2 2 15 2.</_></rects>
              <tilted>0</tilted></feature>
            <threshold>-0.0189545508474112</threshold>
            <left_val>0.7654796242713928</left_val>
            <right_val>-0.4525805115699768</right_val></_></_>
        <_>
          <!-- tree 2 -->
          <_>
            <!-- root node -->
            <feature>
              <rects>
                <_>
                  0 2 4 15 -1.</_>
                <_>
                  2 2 2 15 2.</_></rects>
              <tilted>0</tilted></feature>
            <threshold>-0.0163615997880697</threshold>
            <left_val>0.7365763187408447</left_val>
            <right_val>-0.3689683079719544</right_val></_></_>
        <_>
          <!-- tree 3 -->
          <_>
            <!-- root node -->
            <feature>
              <rects>
                <_>
                  22 15 20 4 -1.</_>
                <_>
                  22 17 20 2 2.</_></rects>
              <tilted>0</tilted></feature>
            <threshold>0.0111523400992155</threshold>
            <left_val>-0.6176565289497376</left_val>
            <right_val>0.4303613901138306</right_val></_></_>
        <_>
          <!-- tree 4 -->
          <_>
            <!-- root node -->
            <feature>
              <rects>
                <_>
                  0 13 1 6 -1.</_>
                <_>
                  0 16 1 3 2.</_></rects>
              <tilted>0</tilted></feature>
            <threshold>1.0282259900122881e-003</threshold>
            <left_val>0.3578433096408844</left_val>
            <right_val>-0.7873772978782654</right_val></_></_>
        <_>
          <!-- tree 5 -->
          <_>
            <!-- root node -->
            <feature>
              <rects>
                <_>
                  27 1 20 6 -1.</_>
                <_>
                  27 3 20 2 3.</_></rects>
              <tilted>0</tilted></feature>
            <threshold>-0.0107282903045416</threshold>
            <left_val>0.4535022974014282</left_val>
            <right_val>-0.4639844894409180</right_val></_></_></trees>
      <stage_threshold>-1.3024710416793823</stage_threshold>
      <parent>1</parent>
      <next>-1</next></_>
    <_>
      <!-- stage 3 -->
      <trees>
        <_>
          <!-- tree 0 -->
          <_>
            <!-- root node -->
            <feature>
              <rects>
                <_>
                  14 3 6 15 -1.</_>
                <_>
                  16 3 2 15 3.</_></rects>
              <tilted>0</tilted></feature>
            <threshold>0.0225404296070337</threshold>
            <left_val>-0.4293436110019684</left_val>
            <right_val>0.8164196014404297</right_val></_></_>
        <_>
          <!-- tree 1 -->
          <_>
            <!-- root node -->
            <feature>
              <rects>
                <_>
                  52 5 4 11 -1.</_>
                <_>
                  53 5 2 11 2.</_></rects>
              <tilted>0</tilted></feature>
            <threshold>7.9143028706312180e-003</threshold>
            <left_val>-0.2392428070306778</left_val>
            <right_val>0.7569035291671753</right_val></_></_>
        <_>
          <!-- tree 2 -->
          <_>
            <!-- root node -->
            <feature>
              <rects>
                <_>
                  4 4 4 13 -1.</_>
                <_>
                  5 4 2 13 2.</_></rects>
              <tilted>0</tilted></feature>
            <threshold>8.5773020982742310e-003</threshold>
            <left_val>-0.4060573875904083</left_val>
            <right_val>0.7620421051979065</right_val></_></_>
        <_>
          <!-- tree 3 -->
          <_>
            <!-- root node -->
            <feature>
              <rects>
                <_>
                  23 14 20 6 -1.</_>
                <_>
                  23 17 20 3 2.</_></rects>
              <tilted>0</tilted></feature>
            <threshold>0.0186619404703379</threshold>
            <left_val>-0.6827946901321411</left_val>
            <right_val>0.4692920148372650</right_val></_></_>
        <_>
          <!-- tree 4 -->
          <_>
            <!-- root node -->
            <feature>
              <rects>
                <_>
                  3 1 20 6 -1.</_>
                <_>
                  3 3 20 2 3.</_></rects>
              <tilted>0</tilted></feature>
            <threshold>-0.0160824600607157</threshold>
            <left_val>0.5925502181053162</left_val>
            <right_val>-0.3682149946689606</right_val></_></_>
        <_>
          <!-- tree 5 -->
          <_>
            <!-- root node -->
            <feature>
              <rects>
                <_>
                  2 4 56 5 -1.</_>
                <_>
                  16 4 28 5 2.</_></rects>
              <tilted>0</tilted></feature>
            <threshold>9.3878908082842827e-003</threshold>
            <left_val>-0.5515815019607544</left_val>
            <right_val>0.3998452126979828</right_val></_></_>
        <_>
          <!-- tree 6 -->
          <_>
            <!-- root node -->
            <feature>
              <rects>
                <_>
                  9 7 4 10 -1.</_>
                <_>
                  10 7 2 10 2.</_></rects>
              <tilted>0</tilted></feature>
            <threshold>5.1641310565173626e-003</threshold>
            <left_val>-0.4021612107753754</left_val>
            <right_val>0.5205739736557007</right_val></_></_>
        <_>
          <!-- tree 7 -->
          <_>
            <!-- root node -->
            <feature>
              <rects>
                <_>
                  48 5 6 12 -1.</_>
                <_>
                  50 5 2 12 3.</_></rects>
              <tilted>0</tilted></feature>
            <threshold>-0.0253752097487450</threshold>
            <left_val>0.6755608916282654</left_val>
            <right_val>-0.1667681038379669</right_val></_></_></trees>
      <stage_threshold>-1.3720029592514038</stage_threshold>
      <parent>2</parent>
      <next>-1</next></_>
    <_>
      <!-- stage 4 -->
      <trees>
        <_>
          <!-- tree 0 -->
          <_>
            <!-- root node -->
            <feature>
              <rects>
                <_>
                  24 2 12 16 -1.</_>
                <_>
                  28 2 4 16 3.</_></rects>
              <tilted>0</tilted></feature>
            <threshold>-0.0673295333981514</threshold>
            <left_val>0.8429189920425415</left_val>
            <right_val>-0.5882756710052490</right_val></_></_>
        <_>
          <!-- tree 1 -->
          <_>
            <!-- root node -->
            <feature>
              <rects>
                <_>
                  56 2 4 15 -1.</_>
                <_>
                  56 2 2 15 2.</_></rects>
              <tilted>0</tilted></feature>
            <threshold>-0.0187383294105530</threshold>
            <left_val>0.7084295749664307</left_val>
            <right_val>-0.3590062856674194</right_val></_></_>
        <_>
          <!-- tree 2 -->
          <_>
            <!-- root node -->
            <feature>
              <rects>
                <_>
                  0 3 4 14 -1.</_>
                <_>
                  2 3 2 14 2.</_></rects>
              <tilted>0</tilted></feature>
            <threshold>-0.0155992703512311</threshold>
            <left_val>0.6771731972694397</left_val>
            <right_val>-0.3523747920989990</right_val></_></_>
        <_>
          <!-- tree 3 -->
          <_>
            <!-- root node -->
            <feature>
              <rects>
                <_>
                  2 19 56 1 -1.</_>
                <_>
                  16 19 28 1 2.</_></rects>
              <tilted>0</tilted></feature>
            <threshold>7.6334760524332523e-003</threshold>
            <left_val>0.2522616982460022</left_val>
            <right_val>-0.8182858228683472</right_val></_></_>
        <_>
          <!-- tree 4 -->
          <_>
            <!-- root node -->
            <feature>
              <rects>
                <_>
                  5 19 18 1 -1.</_>
                <_>
                  14 19 9 1 2.</_></rects>
              <tilted>0</tilted></feature>
            <threshold>-1.2744499836117029e-003</threshold>
            <left_val>-0.7730342745780945</left_val>
            <right_val>0.3225027024745941</right_val></_></_></trees>
      <stage_threshold>-0.7939929962158203</stage_threshold>
      <parent>3</parent>
      <next>-1</next></_>
    <_>
      <!-- stage 5 -->
      <trees>
        <_>
          <!-- tree 0 -->
          <_>
            <!-- root node -->
            <feature>
              <rects>
                <_>
                  19 2 12 16 -1.</_>
                <_>
                  23 2 4 16 3.</_></rects>
              <tilted>0</tilted></feature>
            <threshold>0.0374088101089001</threshold>
            <left_val>-0.6135122179985046</left_val>
            <right_val>0.6490178108215332</right_val></_></_>
        <_>
          <!-- tree 1 -->
          <_>
            <!-- root node -->
            <feature>
              <rects>
                <_>
                  56 3 4 8 -1.</_>
                <_>
                  56 3 2 8 2.</_></rects>
              <tilted>0</tilted></feature>
            <threshold>-8.0632027238607407e-003</threshold>
            <left_val>0.4947316944599152</left_val>
            <right_val>-0.4679427146911621</right_val></_></_>
        <_>
          <!-- tree 2 -->
          <_>
            <!-- root node -->
            <feature>
              <rects>
                <_>
                  2 14 18 6 -1.</_>
                <_>
                  2 17 18 3 2.</_></rects>
              <tilted>0</tilted></feature>
            <threshold>0.0237643700093031</threshold>
            <left_val>-0.5639147758483887</left_val>
            <right_val>0.4038800001144409</right_val></_></_>
        <_>
          <!-- tree 3 -->
          <_>
            <!-- root node -->
            <feature>
              <rects>
                <_>
                  48 2 4 16 -1.</_>
                <_>
                  49 2 2 16 2.</_></rects>
              <tilted>0</tilted></feature>
            <threshold>8.9896908029913902e-003</threshold>
            <left_val>-0.2620556950569153</left_val>
            <right_val>0.7323495149612427</right_val></_></_>
        <_>
          <!-- tree 4 -->
          <_>
            <!-- root node -->
            <feature>
              <rects>
                <_>
                  8 2 4 16 -1.</_>
                <_>
                  9 2 2 16 2.</_></rects>
              <tilted>0</tilted></feature>
            <threshold>6.6377660259604454e-003</threshold>
            <left_val>-0.3216857910156250</left_val>
            <right_val>0.6744465827941895</right_val></_></_>
        <_>
          <!-- tree 5 -->
          <_>
            <!-- root node -->
            <feature>
              <rects>
                <_>
                  46 4 4 13 -1.</_>
                <_>
                  47 4 2 13 2.</_></rects>
              <tilted>0</tilted></feature>
            <threshold>6.6284299828112125e-003</threshold>
            <left_val>-0.3285732865333557</left_val>
            <right_val>0.7027900815010071</right_val></_></_>
        <_>
          <!-- tree 6 -->
          <_>
            <!-- root node -->
            <feature>
              <rects>
                <_>
                  10 4 4 13 -1.</_>
                <_>
                  11 4 2 13 2.</_></rects>
              <tilted>0</tilted></feature>
            <threshold>8.1050936132669449e-003</threshold>
            <left_val>-0.3329086005687714</left_val>
            <right_val>0.7831522822380066</right_val></_></_></trees>
      <stage_threshold>-1.8592300415039063</stage_threshold>
      <parent>4</parent>
      <next>-1</next></_>
    <_>
      <!-- stage 6 -->
      <trees>
        <_>
          <!-- tree 0 -->
          <_>
            <!-- root node -->
            <feature>
              <rects>
                <_>
                  8 14 16 6 -1.</_>
                <_>
                  8 17 16 3 2.</_></rects>
              <tilted>0</tilted></feature>
            <threshold>0.0144333802163601</threshold>
            <left_val>-0.7726758718490601</left_val>
            <right_val>0.3995057940483093</right_val></_></_>
        <_>
          <!-- tree 1 -->
          <_>
            <!-- root node -->
            <feature>
              <rects>
                <_>
                  38 10 6 4 -1.</_>
                <_>
                  40 10 2 4 3.</_></rects>
              <tilted>0</tilted></feature>
            <threshold>-0.0127977095544338</threshold>
            <left_val>0.7716156840324402</left_val>
            <right_val>-0.3209133148193359</right_val></_></_>
        <_>
          <!-- tree 2 -->
          <_>
            <!-- root node -->
            <feature>
              <rects>
                <_>
                  16 10 6 5 -1.</_>
                <_>
                  18 10 2 5 3.</_></rects>
              <tilted>0</tilted></feature>
            <threshold>-0.0136745404452085</threshold>
            <left_val>0.7632367014884949</left_val>
            <right_val>-0.3188998103141785</right_val></_></_>
        <_>
          <!-- tree 3 -->
          <_>
            <!-- root node -->
            <feature>
              <rects>
                <_>
                  21 4 20 16 -1.</_>
                <_>
                  21 12 20 8 2.</_></rects>
              <tilted>0</tilted></feature>
            <threshold>0.0149505296722054</threshold>
            <left_val>-0.7745181918144226</left_val>
            <right_val>0.3323783874511719</right_val></_></_>
        <_>
          <!-- tree 4 -->
          <_>
            <!-- root node -->
            <feature>
              <rects>
                <_>
                  4 0 6 4 -1.</_>
                <_>
                  6 2 2 4 3.</_></rects>
              <tilted>1</tilted></feature>
            <threshold>-0.0157253295183182</threshold>
            <left_val>0.6216213107109070</left_val>
            <right_val>-0.2963334023952484</right_val></_></_>
        <_>
          <!-- tree 5 -->
          <_>
            <!-- root node -->
            <feature>
              <rects>
                <_>
                  11 19 48 1 -1.</_>
                <_>
                  23 19 24 1 2.</_></rects>
              <tilted>0</tilted></feature>
            <threshold>-2.2133549209684134e-003</threshold>
            <left_val>-0.6269435882568359</left_val>
            <right_val>0.2018181979656220</right_val></_></_>
        <_>
          <!-- tree 6 -->
          <_>
            <!-- root node -->
            <feature>
              <rects>
                <_>
                  7 4 6 7 -1.</_>
                <_>
                  9 4 2 7 3.</_></rects>
              <tilted>0</tilted></feature>
            <threshold>0.0194739308208227</threshold>
            <left_val>-0.2472862005233765</left_val>
            <right_val>0.7396615743637085</right_val></_></_>
        <_>
          <!-- tree 7 -->
          <_>
            <!-- root node -->
            <feature>
              <rects>
                <_>
                  33 0 8 1 -1.</_>
                <_>
                  35 0 4 1 2.</_></rects>
              <tilted>0</tilted></feature>
            <threshold>6.2123790849000216e-004</threshold>
            <left_val>0.1568554937839508</left_val>
            <right_val>-0.8047134876251221</right_val></_></_></trees>
      <stage_threshold>-1.2650569677352905</stage_threshold>
      <parent>5</parent>
      <next>-1</next></_>
    <_>
      <!-- stage 7 -->
      <trees>
        <_>
          <!-- tree 0 -->
          <_>
            <!-- root node -->
            <feature>
              <rects>
                <_>
                  24 2 12 16 -1.</_>
                <_>
                  28 2 4 16 3.</_></rects>
              <tilted>0</tilted></feature>
            <threshold>-0.0785832926630974</threshold>
            <left_val>0.6077982187271118</left_val>
            <right_val>-0.4957531094551086</right_val></_></_>
        <_>
          <!-- tree 1 -->
          <_>
            <!-- root node -->
            <feature>
              <rects>
                <_>
                  26 0 9 1 -1.</_>
                <_>
                  29 0 3 1 3.</_></rects>
              <tilted>0</tilted></feature>
            <threshold>-8.9480087626725435e-004</threshold>
            <left_val>-0.7546681165695190</left_val>
            <right_val>0.2566598951816559</right_val></_></_>
        <_>
          <!-- tree 2 -->
          <_>
            <!-- root node -->
            <feature>
              <rects>
                <_>
                  0 4 6 11 -1.</_>
                <_>
                  2 4 2 11 3.</_></rects>
              <tilted>0</tilted></feature>
            <threshold>-0.0266821291297674</threshold>
            <left_val>0.6597777009010315</left_val>
            <right_val>-0.3145110011100769</right_val></_></_>
        <_>
          <!-- tree 3 -->
          <_>
            <!-- root node -->
            <feature>
              <rects>
                <_>
                  29 19 12 1 -1.</_>
                <_>
                  33 19 4 1 3.</_></rects>
              <tilted>0</tilted></feature>
            <threshold>1.8600790062919259e-003</threshold>
            <left_val>0.1911614984273911</left_val>
            <right_val>-0.8670927882194519</right_val></_></_>
        <_>
          <!-- tree 4 -->
          <_>
            <!-- root node -->
            <feature>
              <rects>
                <_>
                  18 19 20 1 -1.</_>
                <_>
                  23 19 10 1 2.</_></rects>
              <tilted>0</tilted></feature>
            <threshold>1.4473160263150930e-003</threshold>
            <left_val>0.1866831034421921</left_val>
            <right_val>-0.8667047023773193</right_val></_></_>
        <_>
          <!-- tree 5 -->
          <_>
            <!-- root node -->
            <feature>
              <rects>
                <_>
                  29 0 8 1 -1.</_>
                <_>
                  31 0 4 1 2.</_></rects>
              <tilted>0</tilted></feature>
            <threshold>7.0212309947237372e-004</threshold>
            <left_val>0.0999480187892914</left_val>
            <right_val>-0.6982749104499817</right_val></_></_>
        <_>
          <!-- tree 6 -->
          <_>
            <!-- root node -->
            <feature>
              <rects>
                <_>
                  27 0 6 1 -1.</_>
                <_>
                  29 0 2 1 3.</_></rects>
              <tilted>0</tilted></feature>
            <threshold>3.9244789513759315e-004</threshold>
            <left_val>0.1823838055133820</left_val>
            <right_val>-0.8373103737831116</right_val></_></_>
        <_>
          <!-- tree 7 -->
          <_>
            <!-- root node -->
            <feature>
              <rects>
                <_>
                  27 13 6 1 -1.</_>
                <_>
                  29 13 2 1 3.</_></rects>
              <tilted>0</tilted></feature>
            <threshold>1.6582099488005042e-003</threshold>
            <left_val>-0.3113546967506409</left_val>
            <right_val>0.6136382222175598</right_val></_></_></trees>
      <stage_threshold>-1.2244770526885986</stage_threshold>
      <parent>6</parent>
      <next>-1</next></_>
    <_>
      <!-- stage 8 -->
      <trees>
        <_>
          <!-- tree 0 -->
          <_>
            <!-- root node -->
            <feature>
              <rects>
                <_>
                  24 3 12 4 -1.</_>
                <_>
                  27 3 6 4 2.</_></rects>
              <tilted>0</tilted></feature>
            <threshold>-0.0159582700580359</threshold>
            <left_val>0.5808243155479431</left_val>
            <right_val>-0.4613389074802399</right_val></_></_>
        <_>
          <!-- tree 1 -->
          <_>
            <!-- root node -->
            <feature>
              <rects>
                <_>
                  30 0 12 1 -1.</_>
                <_>
                  34 0 4 1 3.</_></rects>
              <tilted>0</tilted></feature>
            <threshold>-1.3270149938762188e-003</threshold>
            <left_val>-0.7226787805557251</left_val>
            <right_val>0.1518498957157135</right_val></_></_>
        <_>
          <!-- tree 2 -->
          <_>
            <!-- root node -->
            <feature>
              <rects>
                <_>
                  0 0 4 6 -1.</_>
                <_>
                  0 0 2 3 2.</_>
                <_>
                  2 3 2 3 2.</_></rects>
              <tilted>0</tilted></feature>
            <threshold>-2.5976719334721565e-003</threshold>
            <left_val>0.5522087216377258</left_val>
            <right_val>-0.3590402901172638</right_val></_></_>
        <_>
          <!-- tree 3 -->
          <_>
            <!-- root node -->
            <feature>
              <rects>
                <_>
                  24 0 12 1 -1.</_>
                <_>
                  27 0 6 1 2.</_></rects>
              <tilted>0</tilted></feature>
            <threshold>-1.5175370499491692e-003</threshold>
            <left_val>-0.8420562744140625</left_val>
            <right_val>0.2125916033983231</right_val></_></_>
        <_>
          <!-- tree 4 -->
          <_>
            <!-- root node -->
            <feature>
              <rects>
                <_>
                  14 10 6 6 -1.</_>
                <_>
                  16 10 2 6 3.</_></rects>
              <tilted>0</tilted></feature>
            <threshold>0.0133849903941154</threshold>
            <left_val>-0.3121024072170258</left_val>
            <right_val>0.5595794916152954</right_val></_></_>
        <_>
          <!-- tree 5 -->
          <_>
            <!-- root node -->
            <feature>
              <rects>
                <_>
                  51 14 9 6 -1.</_>
                <_>
                  51 17 9 3 2.</_></rects>
              <tilted>0</tilted></feature>
            <threshold>3.7407830823212862e-003</threshold>
            <left_val>-0.7147325277328491</left_val>
            <right_val>0.3276262879371643</right_val></_></_>
        <_>
          <!-- tree 6 -->
          <_>
            <!-- root node -->
            <feature>
              <rects>
                <_>
                  7 3 6 14 -1.</_>
                <_>
                  9 3 2 14 3.</_></rects>
              <tilted>0</tilted></feature>
            <threshold>0.0286201909184456</threshold>
            <left_val>-0.3417123854160309</left_val>
            <right_val>0.5444604754447937</right_val></_></_>
        <_>
          <!-- tree 7 -->
          <_>
            <!-- root node -->
            <feature>
              <rects>
                <_>
                  45 7 6 2 -1.</_>
                <_>
                  47 9 2 2 3.</_></rects>
              <tilted>1</tilted></feature>
            <threshold>-0.0106843598186970</threshold>
            <left_val>0.5725967884063721</left_val>
            <right_val>-0.0798538327217102</right_val></_></_>
        <_>
          <!-- tree 8 -->
          <_>
            <!-- root node -->
            <feature>
              <rects>
                <_>
                  4 13 6 1 -1.</_>
                <_>
                  6 13 2 1 3.</_></rects>
              <tilted>0</tilted></feature>
            <threshold>3.3635529689490795e-003</threshold>
            <left_val>-0.2027727961540222</left_val>
            <right_val>0.7332879900932312</right_val></_></_>
        <_>
          <!-- tree 9 -->
          <_>
            <!-- root node -->
            <feature>
              <rects>
                <_>
                  51 14 9 6 -1.</_>
                <_>
                  51 17 9 3 2.</_></rects>
              <tilted>0</tilted></feature>
            <threshold>0.0377081707119942</threshold>
            <left_val>0.0825982913374901</left_val>
            <right_val>-0.7362452149391174</right_val></_></_>
        <_>
          <!-- tree 10 -->
          <_>
            <!-- root node -->
            <feature>
              <rects>
                <_>
                  0 14 9 6 -1.</_>
                <_>
                  0 17 9 3 2.</_></rects>
              <tilted>0</tilted></feature>
            <threshold>4.7931009903550148e-003</threshold>
            <left_val>-0.6278771162033081</left_val>
            <right_val>0.2284422069787979</right_val></_></_></trees>
      <stage_threshold>-1.6100319623947144</stage_threshold>
      <parent>7</parent>
      <next>-1</next></_>
    <_>
      <!-- stage 9 -->
      <trees>
        <_>
          <!-- tree 0 -->
          <_>
            <!-- root node -->
            <feature>
              <rects>
                <_>
                  22 2 15 17 -1.</_>
                <_>
                  27 2 5 17 3.</_></rects>
              <tilted>0</tilted></feature>
            <threshold>-0.0711947381496429</threshold>
            <left_val>0.5267946720123291</left_val>
            <right_val>-0.5578433871269226</right_val></_></_>
        <_>
          <!-- tree 1 -->
          <_>
            <!-- root node -->
            <feature>
              <rects>
                <_>
                  54 0 3 5 -1.</_>
                <_>
                  55 1 1 5 3.</_></rects>
              <tilted>1</tilted></feature>
            <threshold>-5.7584210298955441e-003</threshold>
            <left_val>0.6863818168640137</left_val>
            <right_val>-0.1793064028024674</right_val></_></_>
        <_>
          <!-- tree 2 -->
          <_>
            <!-- root node -->
            <feature>
              <rects>
                <_>
                  5 11 2 4 -1.</_>
                <_>
                  4 12 2 2 2.</_></rects>
              <tilted>1</tilted></feature>
            <threshold>-5.1850429736077785e-003</threshold>
            <left_val>0.6188852190971375</left_val>
            <right_val>-0.2657311856746674</right_val></_></_>
        <_>
          <!-- tree 3 -->
          <_>
            <!-- root node -->
            <feature>
              <rects>
                <_>
                  27 2 20 2 -1.</_>
                <_>
                  27 3 20 1 2.</_></rects>
              <tilted>0</tilted></feature>
            <threshold>-2.8205560520291328e-003</threshold>
            <left_val>0.4494970142841339</left_val>
            <right_val>-0.3291406035423279</right_val></_></_>
        <_>
          <!-- tree 4 -->
          <_>
            <!-- root node -->
            <feature>
              <rects>
                <_>
                  20 19 18 1 -1.</_>
                <_>
                  26 19 6 1 3.</_></rects>
              <tilted>0</tilted></feature>
            <threshold>-2.8917640447616577e-003</threshold>
            <left_val>-0.8645349740982056</left_val>
            <right_val>0.1864213049411774</right_val></_></_>
        <_>
          <!-- tree 5 -->
          <_>
            <!-- root node -->
            <feature>
              <rects>
                <_>
                  27 6 6 1 -1.</_>
                <_>
                  29 6 2 1 3.</_></rects>
              <tilted>0</tilted></feature>
            <threshold>9.6296827541664243e-004</threshold>
            <left_val>-0.2945691049098969</left_val>
            <right_val>0.5013024806976318</right_val></_></_>
        <_>
          <!-- tree 6 -->
          <_>
            <!-- root node -->
            <feature>
              <rects>
                <_>
                  12 3 36 15 -1.</_>
                <_>
                  21 3 18 15 2.</_></rects>
              <tilted>0</tilted></feature>
            <threshold>0.0652469471096992</threshold>
            <left_val>-0.3837865889072418</left_val>
            <right_val>0.4005815088748932</right_val></_></_>
        <_>
          <!-- tree 7 -->
          <_>
            <!-- root node -->
            <feature>
              <rects>
                <_>
                  59 2 1 15 -1.</_>
                <_>
                  59 7 1 5 3.</_></rects>
              <tilted>0</tilted></feature>
            <threshold>-2.1572439000010490e-003</threshold>
            <left_val>-0.7584608197212219</left_val>
            <right_val>0.1619057059288025</right_val></_></_>
        <_>
          <!-- tree 8 -->
          <_>
            <!-- root node -->
            <feature>
              <rects>
                <_>
                  0 14 1 6 -1.</_>
                <_>
                  0 17 1 3 2.</_></rects>
              <tilted>0</tilted></feature>
            <threshold>9.1587321367114782e-004</threshold>
            <left_val>0.1914616972208023</left_val>
            <right_val>-0.6398931145668030</right_val></_></_>
        <_>
          <!-- tree 9 -->
          <_>
            <!-- root node -->
            <feature>
              <rects>
                <_>
                  21 14 20 6 -1.</_>
                <_>
                  21 17 20 3 2.</_></rects>
              <tilted>0</tilted></feature>
            <threshold>0.0177620500326157</threshold>
            <left_val>-0.7231814861297607</left_val>
            <right_val>0.1934752017259598</right_val></_></_>
        <_>
          <!-- tree 10 -->
          <_>
            <!-- root node -->
            <feature>
              <rects>
                <_>
                  19 0 6 1 -1.</_>
                <_>
                  21 0 2 1 3.</_></rects>
              <tilted>0</tilted></feature>
            <threshold>4.6538258902728558e-004</threshold>
            <left_val>0.1338759958744049</left_val>
            <right_val>-0.8341256976127625</right_val></_></_></trees>
      <stage_threshold>-1.3095769882202148</stage_threshold>
      <parent>8</parent>
      <next>-1</next></_>
    <_>
      <!-- stage 10 -->
      <trees>
        <_>
          <!-- tree 0 -->
          <_>
            <!-- root node -->
            <feature>
              <rects>
                <_>
                  24 14 12 4 -1.</_>
                <_>
                  28 14 4 4 3.</_></rects>
              <tilted>0</tilted></feature>
            <threshold>-0.0192466191947460</threshold>
            <left_val>0.5151684284210205</left_val>
            <right_val>-0.4555948078632355</right_val></_></_>
        <_>
          <!-- tree 1 -->
          <_>
            <!-- root node -->
            <feature>
              <rects>
                <_>
                  56 1 4 9 -1.</_>
                <_>
                  56 1 2 9 2.</_></rects>
              <tilted>0</tilted></feature>
            <threshold>-6.6905277781188488e-003</threshold>
            <left_val>0.4037562906742096</left_val>
            <right_val>-0.4800072014331818</right_val></_></_>
        <_>
          <!-- tree 2 -->
          <_>
            <!-- root node -->
            <feature>
              <rects>
                <_>
                  16 4 6 11 -1.</_>
                <_>
                  18 4 2 11 3.</_></rects>
              <tilted>0</tilted></feature>
            <threshold>-0.0326562188565731</threshold>
            <left_val>0.7068644165992737</left_val>
            <right_val>-0.2412505000829697</right_val></_></_>
        <_>
          <!-- tree 3 -->
          <_>
            <!-- root node -->
            <feature>
              <rects>
                <_>
                  45 4 6 16 -1.</_>
                <_>
                  45 12 6 8 2.</_></rects>
              <tilted>0</tilted></feature>
            <threshold>6.4010308124125004e-003</threshold>
            <left_val>-0.6449726223945618</left_val>
            <right_val>0.2490451037883759</right_val></_></_>
        <_>
          <!-- tree 4 -->
          <_>
            <!-- root node -->
            <feature>
              <rects>
                <_>
                  0 1 6 5 -1.</_>
                <_>
                  3 1 3 5 2.</_></rects>
              <tilted>0</tilted></feature>
            <threshold>-4.0473458357155323e-003</threshold>
            <left_val>0.3857113122940064</left_val>
            <right_val>-0.4397684037685394</right_val></_></_>
        <_>
          <!-- tree 5 -->
          <_>
            <!-- root node -->
            <feature>
              <rects>
                <_>
                  34 0 9 1 -1.</_>
                <_>
                  37 0 3 1 3.</_></rects>
              <tilted>0</tilted></feature>
            <threshold>-1.1137280380353332e-003</threshold>
            <left_val>-0.8326364755630493</left_val>
            <right_val>0.1065187975764275</right_val></_></_>
        <_>
          <!-- tree 6 -->
          <_>
            <!-- root node -->
            <feature>
              <rects>
                <_>
                  9 19 24 1 -1.</_>
                <_>
                  15 19 12 1 2.</_></rects>
              <tilted>0</tilted></feature>
            <threshold>1.7228550277650356e-003</threshold>
            <left_val>0.1695659011602402</left_val>
            <right_val>-0.6881383061408997</right_val></_></_>
        <_>
          <!-- tree 7 -->
          <_>
            <!-- root node -->
            <feature>
              <rects>
                <_>
                  59 4 1 12 -1.</_>
                <_>
                  59 7 1 6 2.</_></rects>
              <tilted>0</tilted></feature>
            <threshold>2.2897219751030207e-003</threshold>
            <left_val>0.1011601015925407</left_val>
            <right_val>-0.7879748940467835</right_val></_></_>
        <_>
          <!-- tree 8 -->
          <_>
            <!-- root node -->
            <feature>
              <rects>
                <_>
                  12 0 13 3 -1.</_>
                <_>
                  12 1 13 1 3.</_></rects>
              <tilted>0</tilted></feature>
            <threshold>4.7415061853826046e-003</threshold>
            <left_val>-0.2443380057811737</left_val>
            <right_val>0.5352938771247864</right_val></_></_>
        <_>
          <!-- tree 9 -->
          <_>
            <!-- root node -->
            <feature>
              <rects>
                <_>
                  36 0 20 3 -1.</_>
                <_>
                  36 1 20 1 3.</_></rects>
              <tilted>0</tilted></feature>
            <threshold>-8.8489409536123276e-003</threshold>
            <left_val>0.6905366182327271</left_val>
            <right_val>-0.1437443047761917</right_val></_></_>
        <_>
          <!-- tree 10 -->
          <_>
            <!-- root node -->
            <feature>
              <rects>
                <_>
                  2 1 56 2 -1.</_>
                <_>
                  2 1 28 1 2.</_>
                <_>
                  30 2 28 1 2.</_></rects>
              <tilted>0</tilted></feature>
            <threshold>-0.0102498000487685</threshold>
            <left_val>0.6765682101249695</left_val>
            <right_val>-0.1906878054141998</right_val></_></_></trees>
      <stage_threshold>-1.5430419445037842</stage_threshold>
      <parent>9</parent>
      <next>-1</next></_>
    <_>
      <!-- stage 11 -->
      <trees>
        <_>
          <!-- tree 0 -->
          <_>
            <!-- root node -->
            <feature>
              <rects>
                <_>
                  24 2 12 4 -1.</_>
                <_>
                  28 2 4 4 3.</_></rects>
              <tilted>0</tilted></feature>
            <threshold>-0.0159617401659489</threshold>
            <left_val>0.4392059147357941</left_val>
            <right_val>-0.4930456876754761</right_val></_></_>
        <_>
          <!-- tree 1 -->
          <_>
            <!-- root node -->
            <feature>
              <rects>
                <_>
                  54 0 3 5 -1.</_>
                <_>
                  55 1 1 5 3.</_></rects>
              <tilted>1</tilted></feature>
            <threshold>-5.1320199854671955e-003</threshold>
            <left_val>0.5239160060882568</left_val>
            <right_val>-0.1749694049358368</right_val></_></_>
        <_>
          <!-- tree 2 -->
          <_>
            <!-- root node -->
            <feature>
              <rects>
                <_>
                  7 1 4 3 -1.</_>
                <_>
                  6 2 4 1 3.</_></rects>
              <tilted>1</tilted></feature>
            <threshold>-5.1169479265809059e-003</threshold>
            <left_val>0.6656982898712158</left_val>
            <right_val>-0.2253295034170151</right_val></_></_>
        <_>
          <!-- tree 3 -->
          <_>
            <!-- root node -->
            <feature>
              <rects>
                <_>
                  30 0 8 1 -1.</_>
                <_>
                  32 0 4 1 2.</_></rects>
              <tilted>0</tilted></feature>
            <threshold>6.6469417652115226e-004</threshold>
            <left_val>0.1268784999847412</left_val>
            <right_val>-0.7424014210700989</right_val></_></_>
        <_>
          <!-- tree 4 -->
          <_>
            <!-- root node -->
            <feature>
              <rects>
                <_>
                  28 5 3 11 -1.</_>
                <_>
                  29 5 1 11 3.</_></rects>
              <tilted>0</tilted></feature>
            <threshold>2.5985920801758766e-003</threshold>
            <left_val>-0.2764722108840942</left_val>
            <right_val>0.4973688125610352</right_val></_></_>
        <_>
          <!-- tree 5 -->
          <_>
            <!-- root node -->
            <feature>
              <rects>
                <_>
                  12 4 36 13 -1.</_>
                <_>
                  21 4 18 13 2.</_></rects>
              <tilted>0</tilted></feature>
            <threshold>0.0773615166544914</threshold>
            <left_val>-0.3198804855346680</left_val>
            <right_val>0.4499956071376801</right_val></_></_>
        <_>
          <!-- tree 6 -->
          <_>
            <!-- root node -->
            <feature>
              <rects>
                <_>
                  17 14 10 6 -1.</_>
                <_>
                  17 17 10 3 2.</_></rects>
              <tilted>0</tilted></feature>
            <threshold>5.8487970381975174e-003</threshold>
            <left_val>-0.7351508736610413</left_val>
            <right_val>0.1844491958618164</right_val></_></_>
        <_>
          <!-- tree 7 -->
          <_>
            <!-- root node -->
            <feature>
              <rects>
                <_>
                  59 4 1 16 -1.</_>
                <_>
                  59 8 1 8 2.</_></rects>
              <tilted>0</tilted></feature>
            <threshold>-1.5290590235963464e-003</threshold>
            <left_val>-0.8081129193305969</left_val>
            <right_val>0.2319861948490143</right_val></_></_>
        <_>
          <!-- tree 8 -->
          <_>
            <!-- root node -->
            <feature>
              <rects>
                <_>
                  2 8 3 8 -1.</_>
                <_>
                  3 8 1 8 3.</_></rects>
              <tilted>0</tilted></feature>
            <threshold>-6.7961029708385468e-003</threshold>
            <left_val>0.5496879816055298</left_val>
            <right_val>-0.2496097981929779</right_val></_></_>
        <_>
          <!-- tree 9 -->
          <_>
            <!-- root node -->
            <feature>
              <rects>
                <_>
                  25 0 24 2 -1.</_>
                <_>
                  33 0 8 2 3.</_></rects>
              <tilted>0</tilted></feature>
            <threshold>5.9097060002386570e-003</threshold>
            <left_val>0.1355729997158051</left_val>
            <right_val>-0.5237544775009155</right_val></_></_>
        <_>
          <!-- tree 10 -->
          <_>
            <!-- root node -->
            <feature>
              <rects>
                <_>
                  12 0 24 2 -1.</_>
                <_>
                  18 0 12 2 2.</_></rects>
              <tilted>0</tilted></feature>
            <threshold>7.3646199889481068e-003</threshold>
            <left_val>0.1542108058929443</left_val>
            <right_val>-0.8338242173194885</right_val></_></_>
        <_>
          <!-- tree 11 -->
          <_>
            <!-- root node -->
            <feature>
              <rects>
                <_>
                  2 3 56 5 -1.</_>
                <_>
                  16 3 28 5 2.</_></rects>
              <tilted>0</tilted></feature>
            <threshold>4.9320999532938004e-003</threshold>
            <left_val>-0.6189206838607788</left_val>
            <right_val>0.1558360010385513</right_val></_></_>
        <_>
          <!-- tree 12 -->
          <_>
            <!-- root node -->
            <feature>
              <rects>
                <_>
                  2 0 48 2 -1.</_>
                <_>
                  2 0 24 1 2.</_>
                <_>
                  26 1 24 1 2.</_></rects>
              <tilted>0</tilted></feature>
            <threshold>8.9821284636855125e-003</threshold>
            <left_val>-0.2093555927276611</left_val>
            <right_val>0.6158229112625122</right_val></_></_></trees>
      <stage_threshold>-1.2488789558410645</stage_threshold>
      <parent>10</parent>
      <next>-1</next></_>
    <_>
      <!-- stage 12 -->
      <trees>
        <_>
          <!-- tree 0 -->
          <_>
            <!-- root node -->
            <feature>
              <rects>
                <_>
                  24 0 12 6 -1.</_>
                <_>
                  28 0 4 6 3.</_></rects>
              <tilted>0</tilted></feature>
            <threshold>-0.0163449198007584</threshold>
            <left_val>0.4064765870571137</left_val>
            <right_val>-0.4881555140018463</right_val></_></_>
        <_>
          <!-- tree 1 -->
          <_>
            <!-- root node -->
            <feature>
              <rects>
                <_>
                  42 14 8 4 -1.</_>
                <_>
                  44 14 4 4 2.</_></rects>
              <tilted>0</tilted></feature>
            <threshold>-6.1212298460304737e-003</threshold>
            <left_val>0.5403810143470764</left_val>
            <right_val>-0.3662289977073669</right_val></_></_>
        <_>
          <!-- tree 2 -->
          <_>
            <!-- root node -->
            <feature>
              <rects>
                <_>
                  9 19 40 1 -1.</_>
                <_>
                  19 19 20 1 2.</_></rects>
              <tilted>0</tilted></feature>
            <threshold>5.0473031587898731e-003</threshold>
            <left_val>0.1826649010181427</left_val>
            <right_val>-0.8099442720413208</right_val></_></_>
        <_>
          <!-- tree 3 -->
          <_>
            <!-- root node -->
            <feature>
              <rects>
                <_>
                  42 14 8 5 -1.</_>
                <_>
                  44 14 4 5 2.</_></rects>
              <tilted>0</tilted></feature>
            <threshold>7.3435287922620773e-003</threshold>
            <left_val>-0.0545529201626778</left_val>
            <right_val>0.3829945027828217</right_val></_></_>
        <_>
          <!-- tree 4 -->
          <_>
            <!-- root node -->
            <feature>
              <rects>
                <_>
                  1 1 57 19 -1.</_>
                <_>
                  20 1 19 19 3.</_></rects>
              <tilted>0</tilted></feature>
            <threshold>0.0717761963605881</threshold>
            <left_val>-0.5034973025321960</left_val>
            <right_val>0.2633293867111206</right_val></_></_>
        <_>
          <!-- tree 5 -->
          <_>
            <!-- root node -->
            <feature>
              <rects>
                <_>
                  34 0 9 1 -1.</_>
                <_>
                  37 0 3 1 3.</_></rects>
              <tilted>0</tilted></feature>
            <threshold>1.1727949604392052e-003</threshold>
            <left_val>0.0582296885550022</left_val>
            <right_val>-0.8045393824577332</right_val></_></_>
        <_>
          <!-- tree 6 -->
          <_>
            <!-- root node -->
            <feature>
              <rects>
                <_>
                  0 11 1 9 -1.</_>
                <_>
                  0 14 1 3 3.</_></rects>
              <tilted>0</tilted></feature>
            <threshold>-7.7777617843821645e-004</threshold>
            <left_val>-0.6469643712043762</left_val>
            <right_val>0.1891282945871353</right_val></_></_>
        <_>
          <!-- tree 7 -->
          <_>
            <!-- root node -->
            <feature>
              <rects>
                <_>
                  34 16 10 4 -1.</_>
                <_>
                  34 18 10 2 2.</_></rects>
              <tilted>0</tilted></feature>
            <threshold>7.4286287417635322e-004</threshold>
            <left_val>-0.7204241752624512</left_val>
            <right_val>0.1585558056831360</right_val></_></_>
        <_>
          <!-- tree 8 -->
          <_>
            <!-- root node -->
            <feature>
              <rects>
                <_>
                  4 6 4 4 -1.</_>
                <_>
                  5 6 2 4 2.</_></rects>
              <tilted>0</tilted></feature>
            <threshold>2.7530500665307045e-003</threshold>
            <left_val>-0.2987948954105377</left_val>
            <right_val>0.4182376861572266</right_val></_></_>
        <_>
          <!-- tree 9 -->
          <_>
            <!-- root node -->
            <feature>
              <rects>
                <_>
                  20 3 20 14 -1.</_>
                <_>
                  20 3 10 14 2.</_></rects>
              <tilted>0</tilted></feature>
            <threshold>-0.0580139085650444</threshold>
            <left_val>0.5452442169189453</left_val>
            <right_val>-0.2480278015136719</right_val></_></_>
        <_>
          <!-- tree 10 -->
          <_>
            <!-- root node -->
            <feature>
              <rects>
                <_>
                  0 12 1 6 -1.</_>
                <_>
                  0 14 1 2 3.</_></rects>
              <tilted>0</tilted></feature>
            <threshold>5.6926597608253360e-004</threshold>
            <left_val>0.1818532943725586</left_val>
            <right_val>-0.7669963836669922</right_val></_></_>
        <_>
          <!-- tree 11 -->
          <_>
            <!-- root node -->
            <feature>
              <rects>
                <_>
                  27 5 6 2 -1.</_>
                <_>
                  29 5 2 2 3.</_></rects>
              <tilted>0</tilted></feature>
            <threshold>2.9389970004558563e-003</threshold>
            <left_val>-0.2641746103763580</left_val>
            <right_val>0.4890280961990356</right_val></_></_>
        <_>
          <!-- tree 12 -->
          <_>
            <!-- root node -->
            <feature>
              <rects>
                <_>
                  26 0 4 1 -1.</_>
                <_>
                  27 0 2 1 2.</_></rects>
              <tilted>0</tilted></feature>
            <threshold>-1.5449940110556781e-004</threshold>
            <left_val>-0.7488691806793213</left_val>
            <right_val>0.1237671971321106</right_val></_></_></trees>
      <stage_threshold>-1.3984990119934082</stage_threshold>
      <parent>11</parent>
      <next>-1</next></_></stages></Peach_cascade12s60x20v_1_7>
</opencv_storage>
