<?xml version="1.0"?>
<opencv_storage>
<opencv_ml_ann_mlp>
  <format>3</format>
  <layer_sizes>
    3780 7 3</layer_sizes>
  <activation_function>SIGMOID_SYM</activation_function>
  <f_param1>1.</f_param1>
  <f_param2>1.</f_param2>
  <min_val>-9.4999999999999996e-01</min_val>
  <max_val>9.4999999999999996e-01</max_val>
  <min_val1>-9.7999999999999998e-01</min_val1>
  <max_val1>9.7999999999999998e-01</max_val1>
  <training_params>
    <train_method>RPROP</train_method>
    <dw0>1.0000000000000000e-03</dw0>
    <dw_plus>1.2000000000000000e+00</dw_plus>
    <dw_minus>5.0000000000000000e-01</dw_minus>
    <dw_min>0.</dw_min>
    <dw_max>50.</dw_max>
    <term_criteria>
      <iterations>3000</iterations></term_criteria></training_params>
  <input_scale>
    8.9332936384590571e+00 -1.9031475042516011e+00
    1.0570960386519300e+01 -1.1562265786323513e+00
    1.3279290389397177e+01 -9.1321219842931878e-01
    1.5076782872806591e+01 -7.2664246872853067e-01
    1.5150775177888729e+01 -8.9175994385543711e-01
    1.3470057707963035e+01 -7.0953688603132792e-01
    1.2341812007976268e+01 -9.0255833900233151e-01
    1.0627984363100756e+01 -1.2415015481104077e+00
    8.7063191397121997e+00 -1.9271771413281351e+00
    9.1071577200463629e+00 -2.1540079198487421e+00
    9.7852070342309574e+00 -1.2749295119632778e+00
    1.2924477002012972e+01 -9.7447682192781393e-01
    1.6587862898974901e+01 -7.7615369836498449e-01
    1.5669190109034956e+01 -9.6124407349783447e-01
    1.4528180382603775e+01 -7.3632024715198019e-01
    1.2565238413967002e+01 -9.4200026962609484e-01
    9.7486619697061112e+00 -1.2963899020438043e+00
    9.0090552000997253e+00 -2.1669906009336417e+00
    8.1095698281035613e+00 -1.8533444277606950e+00
    1.0227274010652957e+01 -1.2717349972578242e+00
    1.0943425258139847e+01 -9.3648286680898996e-01
    1.1325535799160967e+01 -8.0463065827556501e-01
    1.1663852562274263e+01 -8.9087836403035137e-01
    1.1490172550749264e+01 -8.1917307329539368e-01
    1.1288112295679683e+01 -9.8965643268972470e-01
    1.0325524915114055e+01 -1.3511746539749725e+00
    7.9433415439631894e+00 -1.8453037461710498e+00
    8.1950202427324399e+00 -2.0714290884306998e+00
    9.3367575656555619e+00 -1.3726459732973197e+00
    1.1201709123061864e+01 -1.0218020101169114e+00
    1.2358341242773013e+01 -8.5541934674640840e-01
    1.2053606705835422e+01 -9.2810792189611202e-01
    1.1763294425838607e+01 -8.3127400258315043e-01
    1.1326791026108619e+01 -1.0518481572924929e+00
    9.9975707507129901e+00 -1.4481121874406173e+00
    8.3281990978366753e+00 -2.1142523084820168e+00
    9.6234906606181347e+00 -2.1725750011497320e+00
    1.0063694728397145e+01 -1.1756571970579175e+00
    1.4199120920096776e+01 -9.0332540485554536e-01
    1.9163872591889675e+01 -7.0591303676449435e-01
    1.6610989588291346e+01 -8.4707320525028840e-01
    1.9880058120403920e+01 -7.3252492670476044e-01
    1.5157466223004334e+01 -9.0390507289140642e-01
    1.0204663795247841e+01 -1.2558664459028501e+00
    9.1387537520649822e+00 -2.1446054472853953e+00
    1.0133811897790455e+01 -2.5733892375525302e+00
    9.8168605936274513e+00 -1.2010690134594473e+00
    1.3568091742442682e+01 -9.1319929105074327e-01
    1.9250062837744647e+01 -7.1863012244550384e-01
    1.7178501425249916e+01 -8.7620963397910578e-01
    2.5432259267779806e+01 -8.3384269698045710e-01
    1.4754415562552875e+01 -8.9721839802817704e-01
    9.8748657093177883e+00 -1.3288432243431683e+00
    9.6475587623508279e+00 -2.4974614956923231e+00
    8.6166858724258670e+00 -2.1470243194906651e+00
    1.0314326564805253e+01 -1.3699039117083534e+00
    1.2616132130022018e+01 -1.0197044813899956e+00
    1.4728787344035787e+01 -7.9560216511555437e-01
    1.3678082558504036e+01 -8.5292694196496366e-01
    1.4986525734129694e+01 -7.9859727427803329e-01
    1.2856623665384646e+01 -9.9035562949193479e-01
    1.0180059560468237e+01 -1.3572088529123441e+00
    8.3798943210634711e+00 -2.1077510164100142e+00
    9.7340947959781374e+00 -2.7240254230602656e+00
    9.5056745536784195e+00 -1.4147085630351284e+00
    1.1713236485528425e+01 -1.0292866891380941e+00
    1.5130791565764810e+01 -8.5089256680374037e-01
    1.4405095525943466e+01 -8.7902227262901589e-01
    1.6019629257416479e+01 -7.9748135821034916e-01
    1.3075678378327625e+01 -1.0174914876089818e+00
    9.8369106438473271e+00 -1.4904903138478762e+00
    9.8800281185450043e+00 -2.7997785439866312e+00
    9.8449914758349024e+00 -2.3399995163282212e+00
    1.1055094743171933e+01 -1.1141291281260139e+00
    1.6737759278468971e+01 -8.5978962163420325e-01
    2.2458075834052956e+01 -6.3831332311304578e-01
    1.8694898446660542e+01 -7.9452844512756826e-01
    2.5740067703817061e+01 -7.3658973777455150e-01
    1.7057641611983126e+01 -9.0166064926338418e-01
    1.0099519902111743e+01 -1.2739922788988101e+00
    9.5903532324580887e+00 -2.3868121967290734e+00
    9.9367857767679837e+00 -2.5439506076334188e+00
    1.0803382233145079e+01 -1.1869867904774494e+00
    1.6200031573568808e+01 -8.6278295480851930e-01
    2.3478799659775710e+01 -6.7350247366660088e-01
    1.9185794199926370e+01 -8.5719800496132803e-01
    2.4415102618053336e+01 -7.5648340932248559e-01
    1.5089852548069551e+01 -9.3761467208417604e-01
    9.7408313760808571e+00 -1.3678286402901478e+00
    1.0498338836107809e+01 -2.7732186738436306e+00
    9.6488822348935184e+00 -2.6461623743085991e+00
    1.0615766452718693e+01 -1.3566278140504195e+00
    1.3264370431949249e+01 -9.5819245589195001e-01
    1.8459094537417851e+01 -8.0725471114104752e-01
    1.8742051410741571e+01 -8.6888614087880067e-01
    2.0356703950599819e+01 -8.2911269595144310e-01
    1.4643270467778814e+01 -9.9560771007581439e-01
    9.7229110669070273e+00 -1.3889251133045513e+00
    9.6205738281037778e+00 -2.6590077155848091e+00
    1.0203921628409150e+01 -2.9397176325810488e+00
    9.6872644488692021e+00 -1.3981249261056665e+00
    1.2211626425548094e+01 -9.5409551217258071e-01
    1.8609836895710799e+01 -8.3918172807021563e-01
    1.7636921265941410e+01 -8.6882817577847749e-01
    1.9622666480878731e+01 -8.8047020542369892e-01
    1.3641805140426108e+01 -1.0324693484985725e+00
    9.2128177125245152e+00 -1.5169275138360363e+00
    1.0377609621562517e+01 -3.0336776184118297e+00
    9.4234177811635167e+00 -2.1941602140364678e+00
    1.1156869523433389e+01 -1.1021594341635725e+00
    1.9122113270816719e+01 -8.4016884504490175e-01
    3.0599180359649914e+01 -7.1371797674959159e-01
    2.2491467417664992e+01 -8.3294498356139379e-01
    2.6859804473208342e+01 -7.3602990918715050e-01
    1.5237041485012227e+01 -8.4291198518514743e-01
    9.9038024912780518e+00 -1.1993666876622089e+00
    9.5253784134466901e+00 -2.3352321438074664e+00
    9.7117395351256466e+00 -2.4467311007375336e+00
    9.9983899179478346e+00 -1.1663952738080232e+00
    1.3903685273555171e+01 -8.0539231290365909e-01
    2.1514037535860460e+01 -6.7543500692187719e-01
    1.8445160591985939e+01 -8.1183365934874430e-01
    2.0308976275376729e+01 -6.5814920817858713e-01
    1.3913749479065530e+01 -8.5491664369545228e-01
    9.9661260244216443e+00 -1.2612030404462575e+00
    9.7244651722039439e+00 -2.5660567150693030e+00
    9.2774931712158715e+00 -2.5198386151459058e+00
    1.0187762143390017e+01 -1.3422260962728036e+00
    1.3871102625804044e+01 -9.3189962560316275e-01
    1.9812875680951208e+01 -7.8392434940909583e-01
    2.0662602594623447e+01 -8.6518036583265323e-01
    2.2536487821940391e+01 -8.5525450503466927e-01
    1.4127053531428025e+01 -9.7009193978506991e-01
    9.3091429675792128e+00 -1.3121943857483256e+00
    9.2511227571718742e+00 -2.5066301605916324e+00
    9.5120473743233926e+00 -2.7108313871825085e+00
    8.8952433874964250e+00 -1.3590325893191464e+00
    1.0717892876786157e+01 -9.0349501099080232e-01
    1.2954655508514115e+01 -6.8574345068360354e-01
    1.7192365667653103e+01 -8.9586934537131646e-01
    1.7514906473975838e+01 -7.8848278256638915e-01
    1.2305283776785858e+01 -9.8673447541265702e-01
    9.2973096748596156e+00 -1.4006420687191861e+00
    9.1401216834593590e+00 -2.6120820867398682e+00
    9.4225532080789183e+00 -2.1930068474044146e+00
    1.0804065892473552e+01 -1.1336146156389839e+00
    1.5039229146468244e+01 -8.0206991461314803e-01
    2.2811093175019426e+01 -6.4099499092726753e-01
    2.5346371940707957e+01 -8.5037084429366527e-01
    2.9599798393531373e+01 -7.0482214906952634e-01
    1.8122971373868250e+01 -8.0846651607875519e-01
    1.1591522855214496e+01 -1.1623484036630005e+00
    9.2205437540289434e+00 -2.2874494937514691e+00
    1.0060605109471753e+01 -2.5883875458858663e+00
    9.2654040902931847e+00 -1.1962315756844031e+00
    1.2584712823709244e+01 -8.1598032559696065e-01
    2.0166388456675818e+01 -6.8525847680572605e-01
    1.9439147861798975e+01 -7.8212705667082139e-01
    2.2484623087800440e+01 -6.4853233752246997e-01
    1.9162865946355208e+01 -9.1341222512352527e-01
    1.1171661296313246e+01 -1.2040974380148386e+00
    9.6715319833293094e+00 -2.5634043997085265e+00
    8.7786728633253475e+00 -2.3598695534744891e+00
    9.5940648573361411e+00 -1.3367657098026746e+00
    1.1685211264713448e+01 -8.9695744253186038e-01
    1.5560088992808440e+01 -7.1207855265894193e-01
    2.1282930104233181e+01 -8.8260173125327757e-01
    2.2483711727121612e+01 -8.0406960570192987e-01
    1.4159946636523696e+01 -9.0584367784640818e-01
    9.9389057855191361e+00 -1.2797267549421396e+00
    8.6511693256506561e+00 -2.3402761203701443e+00
    9.6365182463933223e+00 -2.7991525738171474e+00
    8.5253255794911595e+00 -1.4011155278043643e+00
    1.0905241946977357e+01 -9.4116452934732908e-01
    1.4367451023985211e+01 -7.5950513849954782e-01
    1.7129896595741329e+01 -8.1946042194002633e-01
    1.8158765810521587e+01 -7.7577171324994976e-01
    1.3837743234451034e+01 -9.5443125944158591e-01
    9.6610544570998940e+00 -1.3764119108706951e+00
    8.9856013216780397e+00 -2.5772421651998334e+00
    9.9168634925219674e+00 -2.4051816663903942e+00
    1.0642290481018394e+01 -1.1590246561519326e+00
    1.4885113747927868e+01 -7.7016529889496821e-01
    2.2601143108616665e+01 -6.3504259944031394e-01
    2.2237965856322635e+01 -7.5091186073181215e-01
    2.6150720736136748e+01 -6.6712407449395561e-01
    2.1193267775719576e+01 -8.5433661035402209e-01
    1.2857866530796683e+01 -1.1951084565861740e+00
    9.4826959743105750e+00 -2.3519202469881670e+00
    1.0633704344525674e+01 -2.8045542881702219e+00
    1.0055614957735646e+01 -1.1362648261191712e+00
    1.5058574188715520e+01 -8.2013153621141521e-01
    2.0719798068842469e+01 -6.7766119098699829e-01
    1.9147827811461013e+01 -7.7521985320377540e-01
    2.2114402131438680e+01 -6.4843823384607491e-01
    1.8883888260693240e+01 -8.8462752332672256e-01
    1.0674102357670224e+01 -1.2230479941314436e+00
    1.0194196207363216e+01 -2.7810732488148866e+00
    9.2441394984455503e+00 -2.5953458403428327e+00
    9.3302408912267154e+00 -1.3344686974137563e+00
    1.3474570350005495e+01 -9.1056682850008008e-01
    1.8183365909803964e+01 -7.0827961956745533e-01
    1.7946727726476222e+01 -7.0258292082910256e-01
    2.0742284347477462e+01 -7.4237446478755420e-01
    1.5741147474179778e+01 -8.8143753300283834e-01
    1.0341238794075238e+01 -1.3132756487810733e+00
    8.7179170338121601e+00 -2.4290454907397385e+00
    9.9949428239976505e+00 -2.9788969520839275e+00
    9.2261974181159907e+00 -1.3168678712170656e+00
    1.2817688806461046e+01 -9.4094315229898640e-01
    1.8004888375791744e+01 -7.7189111090479601e-01
    1.8166793202252109e+01 -8.0092309120743443e-01
    1.9217879492215996e+01 -7.7940630903730912e-01
    1.6191442425590644e+01 -1.0086449498059717e+00
    9.4306719752682291e+00 -1.4061916306629756e+00
    1.0080776589814137e+01 -3.0880573463784549e+00
    1.0045830404438821e+01 -2.4835463859547011e+00
    1.0995012321737857e+01 -1.0173850124597219e+00
    1.7520345924617381e+01 -7.6578239750574917e-01
    2.6588627209957998e+01 -6.8361465039469183e-01
    2.2366397040728092e+01 -7.5055813605764765e-01
    2.5270600369466365e+01 -6.2457604264290312e-01
    2.1269661932026882e+01 -8.8705382860949777e-01
    1.0878203397974396e+01 -1.1812181084774016e+00
    9.9617928974262941e+00 -2.6226280306781806e+00
    1.0579567456307737e+01 -2.8097893691430920e+00
    1.1098998292581573e+01 -1.0890667781545866e+00
    1.7596450134432942e+01 -8.1768447890655749e-01
    2.7781001259675985e+01 -7.3373867463062659e-01
    2.0786791302462770e+01 -7.7289771552905095e-01
    2.0323960113183119e+01 -6.3685719433842114e-01
    1.5635050959959322e+01 -8.3546207868907230e-01
    9.9994166477957318e+00 -1.2532523938931426e+00
    1.0932433390811280e+01 -3.0729238821635554e+00
    9.5965911079483313e+00 -2.7065946105612797e+00
    9.9311539692595634e+00 -1.1987845389528360e+00
    1.5168292295327671e+01 -8.9773575530403504e-01
    2.2074388886280413e+01 -7.8318385109700717e-01
    2.1797965631774971e+01 -7.9814668823782908e-01
    2.1263532965992493e+01 -7.2203009787805961e-01
    1.6743731239919772e+01 -9.2371669479608720e-01
    1.0114193301103116e+01 -1.3723367177388222e+00
    9.9159047939502294e+00 -2.9059193415791995e+00
    1.0384671416332109e+01 -3.0504170926075216e+00
    9.1995106588177720e+00 -1.1814229672828840e+00
    1.4064213940195184e+01 -9.1615885854003742e-01
    2.0772885665541072e+01 -7.7896536637623226e-01
    1.8250009051350371e+01 -7.5116157251905780e-01
    2.0214112597214772e+01 -7.6990354499422653e-01
    1.3563853570703740e+01 -8.9867063917429935e-01
    9.4821653127247671e+00 -1.4635454065781668e+00
    1.0871104375326333e+01 -3.4045760051607425e+00
    1.0256618175081011e+01 -2.5322892769995544e+00
    1.1294221887799642e+01 -9.9995005226154232e-01
    1.8821922979933628e+01 -7.6733569769628296e-01
    2.9963985832650774e+01 -6.6507393687941774e-01
    2.1726605192447650e+01 -6.9737211537360710e-01
    2.5370649322883562e+01 -6.3227211026091290e-01
    1.7641721986026969e+01 -8.2041900521399491e-01
    1.0098615325410673e+01 -1.2024628303037506e+00
    1.0421832276134063e+01 -2.8091979286718582e+00
    1.0499637434833216e+01 -2.7091293002740535e+00
    1.0503563744973869e+01 -1.0436756053057046e+00
    1.8506223583233901e+01 -7.9899517060852554e-01
    2.6693296849226858e+01 -6.6482357952393478e-01
    2.0962636105245025e+01 -7.4726542367982951e-01
    2.5027151946486633e+01 -6.7104420723222435e-01
    1.5666359017318987e+01 -8.8434898092354586e-01
    8.9895946048176985e+00 -1.2453914045100840e+00
    1.0260750026263315e+01 -2.8304353859975500e+00
    9.7022149246785414e+00 -2.6969817020061084e+00
    9.9685912226608302e+00 -1.1078961262442626e+00
    1.7464316040347079e+01 -9.2882598380563264e-01
    2.6299603210356853e+01 -7.7614861447328642e-01
    1.8664703783648523e+01 -6.5702765308363753e-01
    2.4107336149976017e+01 -7.6962996291779917e-01
    1.5979095959093806e+01 -9.0572183545050522e-01
    9.5287799390555588e+00 -1.3367090593797804e+00
    1.0098179814407938e+01 -3.0560605379818129e+00
    1.0014239287594604e+01 -2.8973229216128398e+00
    9.6963634254178750e+00 -1.1722519261451836e+00
    1.5919343977094444e+01 -9.2578377944574164e-01
    2.1872998636693232e+01 -7.4955217884435998e-01
    1.9152331108889186e+01 -6.8267730994158216e-01
    2.3077594476861094e+01 -8.0942277164848819e-01
    1.3678437746969365e+01 -9.3038953969364413e-01
    8.8617562583445757e+00 -1.4097709416774888e+00
    1.1038104461043064e+01 -3.4611784474294929e+00
    1.0248263779111747e+01 -2.4859073422105946e+00
    1.1210782036765227e+01 -9.8290295092863200e-01
    1.9897799622727984e+01 -7.7030561938322273e-01
    2.7589180095544947e+01 -6.5880241227594138e-01
    2.3744772600397894e+01 -7.9452264720124666e-01
    2.7485297180703448e+01 -6.8763724871159915e-01
    1.5017874368281092e+01 -8.3379912026575831e-01
    9.3562121817982344e+00 -1.2269465379140789e+00
    1.0149858802119745e+01 -2.7066270044239413e+00
    1.0453266350391967e+01 -2.6404069047942547e+00
    1.0978206103078458e+01 -1.0134533457340895e+00
    2.0310273851725317e+01 -8.1457732620007972e-01
    2.7358648685971055e+01 -6.7679215953349903e-01
    2.0198252226990054e+01 -7.8647581178577608e-01
    2.4360000769022093e+01 -7.0064148486192079e-01
    1.4517506879103156e+01 -8.3090922693070035e-01
    9.2137507319689558e+00 -1.2988029812419615e+00
    1.0795450582102101e+01 -3.0282767152340497e+00
    9.5861697065404172e+00 -2.6804547375259098e+00
    1.0751720647326668e+01 -1.1352178146046841e+00
    1.6278207284781885e+01 -8.5055263919491475e-01
    2.3784158642228491e+01 -7.4800672011397518e-01
    2.4632020211550802e+01 -7.7696716500357976e-01
    2.2960090091056195e+01 -7.3001991845360736e-01
    1.2371161851993110e+01 -8.3751999325514570e-01
    8.9782682560123543e+00 -1.3573746397482653e+00
    1.1302093931417643e+01 -3.4480071399951542e+00
    9.8723380537742678e+00 -2.8410245661247076e+00
    1.0867488752794621e+01 -1.1962528747667522e+00
    1.5333687891227125e+01 -8.4154074964914449e-01
    2.1781986502720304e+01 -7.0908615251612939e-01
    2.2385090658142914e+01 -8.0702261673619058e-01
    2.5165146823371458e+01 -7.8329285166232554e-01
    1.4981017983178992e+01 -9.8798334604987526e-01
    9.0646527781857866e+00 -1.4916304253752286e+00
    1.1594585261154817e+01 -3.6503578828990588e+00
    1.0062163835015314e+01 -2.4096729353441670e+00
    1.2004504401632927e+01 -9.9213895922774809e-01
    2.3724538516391288e+01 -8.4580552366600736e-01
    3.2380881472753750e+01 -6.8495170073374301e-01
    2.1925994522382776e+01 -7.9917525835705261e-01
    2.9581821585685937e+01 -7.3187091582046382e-01
    1.6670113377101003e+01 -8.5434903804922813e-01
    9.4742158890146992e+00 -1.2492034661476814e+00
    1.0393796520067099e+01 -2.8648096133051593e+00
    9.9607329321124229e+00 -2.5501555646353333e+00
    1.1641727796361476e+01 -1.0215740166524510e+00
    1.9357559996619084e+01 -7.9690259428118526e-01
    2.7409750523909477e+01 -6.7052918944514228e-01
    2.1269978069926832e+01 -8.6176170970812527e-01
    2.3996207474717679e+01 -7.3244682762604774e-01
    1.4618752550053651e+01 -8.9840743796937583e-01
    9.1624018379788001e+00 -1.3472655122416193e+00
    1.1487847184829906e+01 -3.3620528385257002e+00
    1.0003280168876731e+01 -2.7556509650351706e+00
    1.1641615523684958e+01 -1.1428186711606991e+00
    1.8167316816546261e+01 -8.8244805389208947e-01
    2.3636871561384069e+01 -7.0090533594222837e-01
    2.2103197340317884e+01 -7.6588809660795609e-01
    2.5118475848019472e+01 -6.9607098709546933e-01
    1.5267033201013007e+01 -8.8453163870379015e-01
    9.0119190720876308e+00 -1.3814819778702794e+00
    1.1074218033127924e+01 -3.3788708953211799e+00
    1.0201972445358216e+01 -2.9145631253847322e+00
    1.1467147517483944e+01 -1.1798205091205887e+00
    1.6339388686420467e+01 -8.8913756389762111e-01
    2.3093768982092882e+01 -7.3972567324590666e-01
    1.9653068246644875e+01 -7.4822336005591450e-01
    2.2924115846013681e+01 -7.6668202174553601e-01
    1.3682987254051318e+01 -9.4019274085459803e-01
    8.7572989284177964e+00 -1.4833223849549972e+00
    1.2381200131636991e+01 -3.9426392282316578e+00
    9.6916333131492713e+00 -2.2788035168969043e+00
    1.3388188974825132e+01 -1.0607147923892990e+00
    2.4137228920843583e+01 -8.3370856850597075e-01
    2.9666740105332359e+01 -6.4244945496320160e-01
    2.3508066530026081e+01 -8.3756962056050965e-01
    2.3450106489857934e+01 -6.7637375988347570e-01
    1.5867043052845949e+01 -8.9571663009841918e-01
    9.1961618713867246e+00 -1.2912074730164449e+00
    1.1413491070367291e+01 -3.1749693671935479e+00
    9.2781752827540327e+00 -2.3061982339905511e+00
    1.2282122742993062e+01 -1.1103162862251619e+00
    2.2122269326399191e+01 -8.6476298539428165e-01
    2.7138972462725903e+01 -6.5006001192855956e-01
    1.9559084767328550e+01 -7.7953546914532990e-01
    2.0230390997001287e+01 -6.2885353411764966e-01
    1.2893303841470996e+01 -8.7517393831929835e-01
    8.6156209209155712e+00 -1.3395641522360526e+00
    1.0779665157382103e+01 -3.0316994961399319e+00
    9.5626072825352804e+00 -2.5501775735907164e+00
    1.1888117674727498e+01 -1.1423688406361305e+00
    2.0122985347560444e+01 -9.1712429846806443e-01
    2.7322858826227709e+01 -7.5189323124188323e-01
    1.9899271734727453e+01 -7.1190486917983753e-01
    2.1965810650733022e+01 -7.1423041578478030e-01
    1.3463457009555180e+01 -8.9260297825503432e-01
    8.5213272987084281e+00 -1.3531188820814299e+00
    1.1712553803083903e+01 -3.5569323874631111e+00
    9.4001064277009299e+00 -2.6198342542170026e+00
    1.0756348716408167e+01 -1.1592898841817325e+00
    1.7398972023477214e+01 -8.7542153659321198e-01
    2.5387612588505728e+01 -7.5770350743220061e-01
    1.6824856633641637e+01 -6.7297312925156239e-01
    1.8224642855517054e+01 -6.9084002634489605e-01
    1.2135818851663096e+01 -9.3557179009234703e-01
    8.5995621666485000e+00 -1.4983189664950054e+00
    1.2163617363131186e+01 -3.7782321138697754e+00
    9.3405414247811276e+00 -2.1515678514938994e+00
    1.2524833033208177e+01 -1.0599774073353521e+00
    2.3237594183218189e+01 -8.6973244943280026e-01
    3.2557374187793336e+01 -7.0409628353039311e-01
    2.2376701804765393e+01 -8.2058186486999174e-01
    2.2543682127404075e+01 -6.4473472833799428e-01
    1.2706135819862805e+01 -8.2940454285831577e-01
    8.7351018460793490e+00 -1.2957205097771844e+00
    1.0410523203057075e+01 -2.7682736145093472e+00
    9.0278322165327740e+00 -2.2218219201459899e+00
    1.1002473534372673e+01 -1.0782268026937361e+00
    1.7024725715167985e+01 -8.1458119784578831e-01
    2.3273341309275040e+01 -6.4887131114407270e-01
    1.9234978119705037e+01 -8.5095771803399423e-01
    2.1645292604109994e+01 -7.3628672262053430e-01
    1.1964989465987907e+01 -8.8115236369461336e-01
    8.7163452537154349e+00 -1.3879554489413011e+00
    1.0605988646634930e+01 -2.9197327244436662e+00
    9.0726553783676014e+00 -2.3118415815759601e+00
    1.1621156006183732e+01 -1.0950536340936976e+00
    1.9739279507887051e+01 -8.8236137223217537e-01
    2.5779009552028505e+01 -7.0390092298521179e-01
    1.8009035494433139e+01 -6.5222213739839174e-01
    1.8381503545668032e+01 -6.6011869858612915e-01
    1.1232493095247678e+01 -8.7274040059512059e-01
    8.5371818395805672e+00 -1.3966646210521940e+00
    1.1260637606201811e+01 -3.2903149278966728e+00
    8.6345092775376973e+00 -2.2546999133702488e+00
    1.1034406348016541e+01 -1.1474897418324779e+00
    1.5898113314569786e+01 -8.3845201223797072e-01
    2.2614038385848431e+01 -7.2588848507931392e-01
    1.6991008603807078e+01 -7.0021673902019099e-01
    1.8512475152413803e+01 -7.1811108128568746e-01
    1.0712187145788306e+01 -9.5162260053730319e-01
    8.5621359616419230e+00 -1.5364313284123745e+00
    1.1735003486749699e+01 -3.5840873662358628e+00
    9.2999801375864468e+00 -2.1615553070928826e+00
    1.2324423674866555e+01 -1.0981334118938879e+00
    1.7997491845279431e+01 -8.2989312636587753e-01
    2.2726494938342146e+01 -6.4720197114353351e-01
    2.0414240140927031e+01 -8.6646138249327387e-01
    1.8742127491122599e+01 -6.5942457348327521e-01
    1.3168175782726198e+01 -8.8754491543309366e-01
    8.8563653295525864e+00 -1.2922476265763467e+00
    1.0590972730615537e+01 -2.7691846282356001e+00
    9.8405929848326767e+00 -2.4621318396715908e+00
    1.2164383858843799e+01 -1.2497806695907148e+00
    1.6228973671037235e+01 -8.9998890794744435e-01
    2.2524725402657978e+01 -7.7256480959053320e-01
    1.9162980126597201e+01 -9.5014178449999320e-01
    1.6350243907937891e+01 -7.0790755292841012e-01
    1.2285115102063513e+01 -9.2269588922599366e-01
    9.0828211102423637e+00 -1.3738709512400398e+00
    1.1452444084639131e+01 -3.1546297261500391e+00
    8.7155846683886882e+00 -2.1668352280627965e+00
    1.2051817278294068e+01 -1.1622785769259336e+00
    1.6769354580725679e+01 -8.6802038012313976e-01
    2.6351193008873857e+01 -7.9966207136942102e-01
    1.9963146619563872e+01 -7.5981938950375427e-01
    1.8648529601043176e+01 -7.0036212419116972e-01
    1.1262956851880402e+01 -9.1582248680150191e-01
    8.8860915186451663e+00 -1.4515587517761670e+00
    1.1543366913549983e+01 -3.3055161499297356e+00
    9.0722784866803323e+00 -2.4042850757621381e+00
    1.0753970105290108e+01 -1.2425119634210997e+00
    1.5420955911929632e+01 -9.4222458118810593e-01
    2.5721621025974983e+01 -8.8280312072610279e-01
    1.8188958291633234e+01 -8.2905534889326205e-01
    1.6456773509720062e+01 -7.5674962312301763e-01
    1.0619113662977052e+01 -9.9580852251854779e-01
    8.9096530426025407e+00 -1.6258643799773342e+00
    1.2282605799868712e+01 -3.6689063896127547e+00
    9.7484964092634652e+00 -2.2475934685220720e+00
    1.3440484343251457e+01 -1.2340210081673857e+00
    2.1857601787634177e+01 -1.0188480988123558e+00
    2.2630309285289403e+01 -7.3170973022271513e-01
    1.7345146667093609e+01 -8.3338553287502093e-01
    1.7153871553529097e+01 -7.2044865859131002e-01
    1.4116882819618645e+01 -9.4687755484826752e-01
    9.7408127226228984e+00 -1.3143963783092485e+00
    1.0697700310973623e+01 -2.7356129380736105e+00
    1.0187240842474099e+01 -2.5760908575251316e+00
    1.1843920720129532e+01 -1.2900181248959250e+00
    1.6303192451726961e+01 -9.2252446209276540e-01
    1.6246864543055487e+01 -6.7596589739142243e-01
    1.3711802513551119e+01 -8.2872470563127743e-01
    1.5717014239849430e+01 -7.3131057378679731e-01
    1.3080995569034108e+01 -9.6693275316897387e-01
    9.5876118723300028e+00 -1.3899564523398515e+00
    1.1407803430551812e+01 -3.0918336017116537e+00
    9.3370542907918388e+00 -2.3666099286307172e+00
    1.2899090273342662e+01 -1.3334897714259542e+00
    2.0758341907430321e+01 -1.0541459886814060e+00
    2.3769869600402771e+01 -7.8722348839902312e-01
    1.7692696742249339e+01 -7.8620096452848276e-01
    1.8098939423019328e+01 -8.1038787013494173e-01
    1.1073149610815227e+01 -9.7552869726218050e-01
    9.3541649829078271e+00 -1.5239832660790611e+00
    1.0910864915428649e+01 -3.0315634688366115e+00
    9.9735862000545783e+00 -2.7427732176970832e+00
    1.1477444108883981e+01 -1.4305082171960695e+00
    1.6829009904559488e+01 -1.0483851502663966e+00
    1.6672299601759697e+01 -7.8368969097618546e-01
    1.4347087722138848e+01 -8.4070286825789231e-01
    1.5000611235965287e+01 -8.3079999915574454e-01
    1.0158924764468981e+01 -1.0169555395588623e+00
    9.4196854517445541e+00 -1.6579338256620688e+00
    1.1421867877590996e+01 -3.3588385399751095e+00
    1.0731895636423598e+01 -2.5635356640271834e+00
    1.4180488384054401e+01 -1.3594793837969619e+00
    1.8792205960497085e+01 -9.5145121472781968e-01
    1.7290659399081306e+01 -6.7371060151470807e-01
    1.5412675434750518e+01 -8.1683782585230214e-01
    1.7330768399250719e+01 -6.9632302491990805e-01
    1.5884647513591716e+01 -9.2833809494333208e-01
    1.1077209332697910e+01 -1.3313119906664539e+00
    1.1105414906015096e+01 -2.8258596454135305e+00
    1.1366032047151998e+01 -3.0337027669435432e+00
    1.2897301809900508e+01 -1.4081931199374114e+00
    1.6142315737932950e+01 -9.8335499310906549e-01
    1.5178225181122970e+01 -7.3069932112750857e-01
    1.3133753128006528e+01 -8.6382841448087977e-01
    1.6379700184139825e+01 -7.3567550491689260e-01
    1.6393416868150016e+01 -9.5895983498855797e-01
    1.1060723327513429e+01 -1.3529853344277634e+00
    1.1934997386513615e+01 -3.2062603519896715e+00
    1.0099232352641634e+01 -2.6061670794776406e+00
    1.2413263998531193e+01 -1.4239802655347698e+00
    1.7220764773624012e+01 -1.0441603664096066e+00
    1.7711128423005608e+01 -8.2044357515195399e-01
    1.4951163223262737e+01 -8.4887865737911072e-01
    1.5802393891925679e+01 -8.0621516025679540e-01
    1.1817067006694559e+01 -9.8378050015529817e-01
    1.0171405537966249e+01 -1.5213586402823938e+00
    1.1067784396704548e+01 -3.0421867256343473e+00
    1.1263160930745125e+01 -3.1950431942112059e+00
    1.0686612810864938e+01 -1.4286605366480887e+00
    1.3162881551896087e+01 -1.0430323787710571e+00
    1.3770863556735423e+01 -8.6869571483969721e-01
    1.1490060454985871e+01 -8.7447392345090957e-01
    1.3059744026758906e+01 -8.5384755269877555e-01
    1.1765811425313824e+01 -1.0464882305092038e+00
    1.0114188464395637e+01 -1.5589229855742224e+00
    1.1498803752775832e+01 -3.3841379981383430e+00
    8.2801631513914256e+00 -1.5879785608976118e+00
    1.0657939541714478e+01 -1.1406725859792910e+00
    1.0726271605492402e+01 -8.8281048117802641e-01
    1.1073705872578129e+01 -8.4024216045481759e-01
    9.7241613643708664e+00 -8.8402901513944721e-01
    1.0338010387894666e+01 -8.5882782850534967e-01
    1.2095800372384593e+01 -1.0337261707530323e+00
    1.0489281517109204e+01 -1.2201524512884199e+00
    8.2534621397769605e+00 -1.5996671613550650e+00
    8.1946215957322224e+00 -1.7454765406144384e+00
    1.0588726168998184e+01 -1.2643569015978455e+00
    1.1208549843189717e+01 -9.5802046867661039e-01
    1.1042454551079043e+01 -8.5381354751465843e-01
    1.0169364145905748e+01 -9.3360475460379333e-01
    1.0154794676766308e+01 -8.6248710762267478e-01
    1.1046955912820062e+01 -1.0354462250183916e+00
    1.0037583072434064e+01 -1.3068061476889041e+00
    8.2677870868403556e+00 -1.7702575012841582e+00
    7.6520494991411931e+00 -1.3117642775315852e+00
    9.8590532026315145e+00 -1.0448072655962033e+00
    1.1863178888700462e+01 -9.7552017743334729e-01
    1.0034359385947651e+01 -8.9384230467668158e-01
    8.5190472165837896e+00 -1.0123103778137235e+00
    9.0988214935526077e+00 -9.7805264059062780e-01
    1.1116960770873243e+01 -1.1297365076798980e+00
    9.5768674380136307e+00 -1.1551475823728292e+00
    7.7082920491124307e+00 -1.3964961638190205e+00
    7.6297744003198753e+00 -1.4149665585882525e+00
    9.8756729508832084e+00 -1.1486766916480196e+00
    1.1825770484237214e+01 -1.0470373120747671e+00
    1.0197831080370715e+01 -9.3132035081998443e-01
    8.2312037241609595e+00 -1.0510382507706051e+00
    8.6114679321500152e+00 -1.0045023762490310e+00
    1.0377639670339663e+01 -1.1798009026985234e+00
    9.5956920038985842e+00 -1.3163437628897385e+00
    7.7359932666648730e+00 -1.5362338449859188e+00
    8.7863954715316623e+00 -1.8603937137306852e+00
    1.1282902361292871e+01 -1.2394532279866459e+00
    1.3372420660107972e+01 -9.9875052229579264e-01
    1.3506146527192584e+01 -8.3719716885688311e-01
    1.1702530261826375e+01 -8.8096029606696158e-01
    1.2334462534020275e+01 -7.9763477501172930e-01
    1.2421286220258551e+01 -9.8041441588870359e-01
    1.0599911928676873e+01 -1.2901199560254706e+00
    8.7774695883789988e+00 -1.8876607967029158e+00
    9.6834483543152317e+00 -2.3476245295024207e+00
    1.0910018606536687e+01 -1.3863702227998924e+00
    1.2220450847358652e+01 -1.0182144387545236e+00
    1.2571220220077908e+01 -8.3915037813581683e-01
    1.1545364789054473e+01 -8.9228476252344102e-01
    1.2756394846879116e+01 -8.1252651807081633e-01
    1.1709819861787421e+01 -1.0084565499628486e+00
    1.0321697485742389e+01 -1.4526256229602457e+00
    9.3987565287319264e+00 -2.3448705330295008e+00
    7.9507478835539791e+00 -1.5232854382471315e+00
    1.0929833524853480e+01 -1.1901926874552828e+00
    1.3143550138857449e+01 -1.0443379719455186e+00
    1.1487794860166982e+01 -9.1943132952272844e-01
    9.0539101729187301e+00 -9.8700930032739431e-01
    1.0055891965922127e+01 -9.1926761920258371e-01
    1.1763470843398535e+01 -1.1417945012780644e+00
    1.0665716046337472e+01 -1.3554782809443533e+00
    7.9347831501716417e+00 -1.5854822940816968e+00
    8.1737723982909873e+00 -1.8202480228028572e+00
    1.0152235170157796e+01 -1.3431126238660269e+00
    1.1371790238290412e+01 -1.0735216054535515e+00
    1.1083551036322673e+01 -9.7141240941735185e-01
    9.2249606196642109e+00 -1.0531970276699072e+00
    1.0129844648829145e+01 -9.8322278759894510e-01
    1.1453500385490443e+01 -1.1918825460397540e+00
    1.0115175657973275e+01 -1.4121727663925330e+00
    8.0828723886091574e+00 -1.8020026924629871e+00
    9.6330285127791875e+00 -2.2067572465166574e+00
    1.1445981056622545e+01 -1.3116558630577830e+00
    1.4068092327049154e+01 -9.9192835937112389e-01
    1.5372903143953691e+01 -8.2549325447195021e-01
    1.4382442182837199e+01 -8.4091267440430062e-01
    1.5189806625609942e+01 -7.7841508742953114e-01
    1.3018524629427857e+01 -9.3876445768357231e-01
    1.0408060227505084e+01 -1.2821884786765005e+00
    9.2917862062698333e+00 -2.1447446101091603e+00
    1.0090427241745443e+01 -2.5405188639718630e+00
    9.7349957072093058e+00 -1.4492328907146497e+00
    1.1664140039627304e+01 -1.0165915070418359e+00
    1.3920337318422412e+01 -8.3568224643122990e-01
    1.3385523886500463e+01 -8.4867624273568609e-01
    1.5197923106655145e+01 -8.2891183404367541e-01
    1.3036083152133990e+01 -9.8123250386650773e-01
    9.9788547139003416e+00 -1.3394599562958474e+00
    9.4194067391439482e+00 -2.2764898804213862e+00
    8.1048292986282213e+00 -1.7134508623305376e+00
    1.0972425123757191e+01 -1.3716209210236916e+00
    1.2548133850505383e+01 -1.0886832379759150e+00
    1.2707950356064631e+01 -9.7479119501713551e-01
    1.0763672040260039e+01 -9.9204607716232429e-01
    1.1270999795487194e+01 -9.1794953175133187e-01
    1.2318536837809566e+01 -1.0611290792161474e+00
    1.1232584693407839e+01 -1.3011929581168704e+00
    7.9881095125850097e+00 -1.6382216460846100e+00
    8.2200442775281992e+00 -1.8905911846397874e+00
    8.7899738139818915e+00 -1.4271202026780174e+00
    9.3885471799494429e+00 -1.1242229517412403e+00
    1.0371586314937087e+01 -9.9059012998468110e-01
    9.6353641935959580e+00 -1.0049875072416730e+00
    1.1110954566179865e+01 -9.5077367120181333e-01
    1.1947172525334290e+01 -1.0605038968469784e+00
    1.0850266235524989e+01 -1.3258712682157996e+00
    7.7675847647448109e+00 -1.6743810892989108e+00
    9.5682536723370504e+00 -2.1409436251504363e+00
    9.9428337629332209e+00 -1.3083663012795252e+00
    1.2247206813596231e+01 -9.4350411746587604e-01
    1.5719505875272644e+01 -8.0275457823325225e-01
    1.5139740809632235e+01 -7.9776310823638863e-01
    1.8151658030688701e+01 -7.6921318807047234e-01
    1.4317034554612144e+01 -8.7935500378036191e-01
    1.0615120494375693e+01 -1.1787432395891098e+00
    8.7512017227244687e+00 -1.9240981935220216e+00
    9.7175641413928968e+00 -2.3849332867800088e+00
    9.5162559252599834e+00 -1.4403302102729516e+00
    1.1293249787881541e+01 -1.0338088566546551e+00
    1.3351684204776317e+01 -7.6966802595407324e-01
    1.5934948207887999e+01 -8.6723114141984137e-01
    1.6995258985027721e+01 -7.8426175536041975e-01
    1.3019243904842345e+01 -8.9467037051075138e-01
    9.7095917751204031e+00 -1.2194463840423806e+00
    8.6957869165792054e+00 -2.0512729916653574e+00
    8.2822554073142527e+00 -1.7717428479565986e+00
    8.7889589562340493e+00 -1.3265320112111287e+00
    1.0144553952146611e+01 -1.1247957138850908e+00
    1.1763819968563920e+01 -9.8216925399412702e-01
    1.0363345245652679e+01 -9.2624396401130094e-01
    1.2221967623824797e+01 -8.1291478732392142e-01
    1.3455573240637735e+01 -9.3282009265437027e-01
    1.1021744965908740e+01 -1.1369439135207937e+00
    7.7789152581059628e+00 -1.4912007011224515e+00
    8.6264829899117341e+00 -2.0814343521173124e+00
    8.4308455261055357e+00 -1.5342998641939483e+00
    8.6166209754733050e+00 -1.1783986802372917e+00
    1.0106913976109825e+01 -9.5128293030707145e-01
    1.0380410675564129e+01 -9.2466179575392293e-01
    1.2834911415901118e+01 -8.3718607380726950e-01
    1.4011727830140199e+01 -1.0116239427851519e+00
    9.9336789060130268e+00 -1.1727182149536568e+00
    7.9939667115817530e+00 -1.7331132258058355e+00
    9.2860296238506983e+00 -2.0960989185597674e+00
    1.0351406448910955e+01 -1.3462015764710875e+00
    1.2503615178366074e+01 -9.6449848499377533e-01
    1.4217341134918733e+01 -6.8540524968914673e-01
    1.8541495546848765e+01 -7.6787845030282087e-01
    1.9139188685757510e+01 -7.1253829931611923e-01
    1.4601887443907255e+01 -8.1505317475431538e-01
    1.0407160273859059e+01 -1.1151182331242866e+00
    8.4760114848510000e+00 -1.8681413118265200e+00
    1.0147213763919973e+01 -2.6213156411554928e+00
    8.9819681150128226e+00 -1.3568358414032340e+00
    1.1726988455655853e+01 -9.7019635325824938e-01
    1.3920160476671063e+01 -6.9114129336565955e-01
    1.5082408867913989e+01 -7.0363160798259239e-01
    1.6511653210118951e+01 -6.9440596154208689e-01
    1.2586321163261642e+01 -8.2332771138542693e-01
    9.6089317486096988e+00 -1.2121805772770227e+00
    8.8252592153889058e+00 -2.1903562843227977e+00
    8.5244654373108055e+00 -1.9537279244500394e+00
    8.6531074196552584e+00 -1.4419214381507213e+00
    9.8670456161266067e+00 -1.1145827221516766e+00
    1.1947195906583076e+01 -8.5634499699594790e-01
    1.2402498451301003e+01 -7.9036966085248939e-01
    1.4526079667558770e+01 -7.3544416316652450e-01
    1.5193934750650596e+01 -9.0038729712091659e-01
    1.1281216432855336e+01 -1.1312800540422556e+00
    8.2533438284759306e+00 -1.6673319050485023e+00
    9.3832592334418017e+00 -2.4782432236854475e+00
    8.5506565003974444e+00 -1.5540577152799331e+00
    9.1166512477809736e+00 -1.0824132879810289e+00
    1.2629910224825258e+01 -8.4294833018805471e-01
    1.2632584993042309e+01 -7.5477945655746725e-01
    1.4765523860407463e+01 -7.7372245527604655e-01
    1.4213293306000427e+01 -9.9164953075243734e-01
    9.9529704483019561e+00 -1.2662426553159536e+00
    8.5398643673214991e+00 -2.0547923384403379e+00
    1.0007817776903176e+01 -2.4461229900822068e+00
    9.3868642929718096e+00 -1.1591639753957286e+00
    1.4164267546255672e+01 -8.5882736220135392e-01
    1.7170759619324652e+01 -6.3150634088376734e-01
    1.6965156806436774e+01 -6.3609710433608146e-01
    1.9065961752979945e+01 -6.5270164768827033e-01
    1.5508087669527470e+01 -7.8613469720946683e-01
    1.0920873476117896e+01 -1.1812398651087119e+00
    8.8543570003925645e+00 -2.1723103312624601e+00
    1.1097862910080172e+01 -2.9600423762834120e+00
    9.6541495011828928e+00 -1.2345478191801227e+00
    1.4596909191306857e+01 -9.1152956153561371e-01
    1.9279710036855089e+01 -7.2447941665731153e-01
    1.6891536076765554e+01 -6.9142980617173955e-01
    1.8929709711065229e+01 -7.1019787793280198e-01
    1.4998843821434020e+01 -8.4218862984134613e-01
    9.5490005433486367e+00 -1.2172716457555666e+00
    1.0348000821259770e+01 -2.8258538679624570e+00
    9.1447736117209768e+00 -2.3528713791332763e+00
    9.1343547974512980e+00 -1.4344921101771986e+00
    1.1788025571218874e+01 -1.0353775786589705e+00
    1.4885334586244287e+01 -7.5453297189316837e-01
    1.4356751278218088e+01 -6.9764202663933639e-01
    1.5765393443641567e+01 -7.1161536857513707e-01
    1.4362004218317040e+01 -8.5458543197274506e-01
    1.0769199323454238e+01 -1.2136043170783062e+00
    8.4617922593553718e+00 -2.0138528905338720e+00
    1.0565370590261697e+01 -2.9411001072525043e+00
    9.2315885654711334e+00 -1.4906558689835909e+00
    1.2170698367306878e+01 -1.0280626940140880e+00
    1.5878459876843467e+01 -8.2087133243925126e-01
    1.4015219019812063e+01 -7.5415021956823702e-01
    1.5594918209216555e+01 -7.4886760781902106e-01
    1.3713134030294798e+01 -9.0990822133393490e-01
    1.0004562570855633e+01 -1.3057394548981855e+00
    9.3812709485094850e+00 -2.5434540405832702e+00
    1.0776263305815952e+01 -2.7196340928742693e+00
    1.0513048606289534e+01 -1.1105138666261680e+00
    1.6588493405841124e+01 -8.3410933835199241e-01
    2.2122713688671801e+01 -6.9372339707848008e-01
    2.1322688236971246e+01 -7.1163006145088714e-01
    2.2500833417137191e+01 -7.0804392818990192e-01
    1.6755401901288476e+01 -8.2827039567950200e-01
    1.0615233294746668e+01 -1.2760229405458310e+00
    1.0196233208961131e+01 -2.7608086898347275e+00
    1.1071653254308860e+01 -2.8991110072450272e+00
    1.0619796013220009e+01 -1.1612553364412166e+00
    1.5093750201747095e+01 -8.3930706445941161e-01
    2.0803940408083662e+01 -7.0319608358126606e-01
    1.8350413109228210e+01 -6.7520517070200037e-01
    1.9137695161689791e+01 -6.5898308009283446e-01
    1.3752903680621477e+01 -7.9110837613140561e-01
    9.8860743503224473e+00 -1.3565649400546029e+00
    1.0642961201620651e+01 -3.0263317400173544e+00
    1.0220071041838114e+01 -2.7931828161090348e+00
    9.8052157170119880e+00 -1.3225061643142013e+00
    1.4890195450527266e+01 -9.7013282831755787e-01
    1.9870075383191914e+01 -7.6530123761085322e-01
    1.7428839563080963e+01 -7.2336211621202684e-01
    1.9643049861504789e+01 -7.5892927460454762e-01
    1.5035213317951790e+01 -8.9312717253536877e-01
    1.0405125112162205e+01 -1.3057903088306007e+00
    9.2950800128270696e+00 -2.5183831329587343e+00
    1.1070762490719151e+01 -3.1719079782797293e+00
    9.6953121640552045e+00 -1.3117976693020217e+00
    1.3345224866356803e+01 -9.1303952315805392e-01
    1.6558579084581151e+01 -7.1466911037159975e-01
    1.5736830759758780e+01 -6.9951351118594929e-01
    1.8795514007498621e+01 -7.5848947258005017e-01
    1.4199773974658568e+01 -9.3509323379685672e-01
    9.6950130313230272e+00 -1.4207372055786256e+00
    1.0127475911771922e+01 -2.9177597710596630e+00
    1.0320840759327949e+01 -2.5005410234752645e+00
    1.1037794496802361e+01 -1.0443034714408985e+00
    1.8017669976902354e+01 -8.4599607581461111e-01
    2.2990972271493192e+01 -6.7381142800346683e-01
    2.0877787606393966e+01 -6.2290741858312393e-01
    2.3666669398847979e+01 -6.6446955655999851e-01
    1.6867486510592620e+01 -7.9188030561931666e-01
    1.0314159121539735e+01 -1.2853035468428680e+00
    1.0366167992457898e+01 -2.9018961433214692e+00
    1.0649761538267160e+01 -2.7527094562952970e+00
    1.0394228942298142e+01 -1.0552282196436240e+00
    1.6647894026677555e+01 -8.3261346986864115e-01
    2.0440526348988879e+01 -6.2461172818480903e-01
    1.8726917013751660e+01 -5.7701870100588448e-01
    2.6950924980772676e+01 -7.5136189198850822e-01
    1.7626662660314722e+01 -8.8169686037858419e-01
    9.6401538761275134e+00 -1.3141894200390327e+00
    1.1066792438757254e+01 -3.2375925877902429e+00
    1.0265370439515628e+01 -2.8445227622882214e+00
    9.5073185475121242e+00 -1.1626413639908273e+00
    1.5173331470511023e+01 -8.8637566649497956e-01
    1.8127300017473033e+01 -6.9697581254615082e-01
    1.7966414362482972e+01 -6.5285034730426128e-01
    2.1041747056746175e+01 -7.0441193675412350e-01
    1.6048942853952767e+01 -8.8405486168915937e-01
    9.6462344888183846e+00 -1.3270316663363755e+00
    9.8998138164750120e+00 -2.8370445030480682e+00
    1.0750358107280313e+01 -3.0462567561280700e+00
    9.3828594726374774e+00 -1.1725461924740377e+00
    1.3975029224583176e+01 -8.5186747921820594e-01
    1.7802906343770616e+01 -6.7395313511163213e-01
    1.7475550248178155e+01 -6.3093482162783388e-01
    2.1777640783067621e+01 -7.4624438377764235e-01
    1.6191516497479391e+01 -9.4220239382211524e-01
    9.6716465814423831e+00 -1.4662408240251894e+00
    1.0945818487501823e+01 -3.3210102552086394e+00
    1.0018786672330755e+01 -2.4411291302984695e+00
    1.1491511207800539e+01 -1.0040490985426405e+00
    1.7586642553246683e+01 -7.5493895297480573e-01
    2.6235716479550611e+01 -6.4450761565808878e-01
    2.2250604497066252e+01 -5.8952337207608219e-01
    3.0465566760985492e+01 -7.2318677686740451e-01
    1.9147470468015023e+01 -9.0610086740555784e-01
    1.0022679514694698e+01 -1.2885423589919589e+00
    1.0266582208040921e+01 -2.9339940343695687e+00
    1.0121427635600389e+01 -2.5997385930485608e+00
    1.0931428150234126e+01 -1.0329551879975476e+00
    1.7934052267210269e+01 -7.7066024095932484e-01
    2.2620521784918335e+01 -6.1149310420626213e-01
    2.2879987820869466e+01 -6.7106536125527727e-01
    2.7716145760066588e+01 -7.1963296938140586e-01
    1.6299997519766084e+01 -8.8149866457523685e-01
    9.8469405679672040e+00 -1.3671579959993050e+00
    1.0722241556238409e+01 -3.1360832159437280e+00
    1.0134245201771407e+01 -2.7479935480675612e+00
    9.9300585612732650e+00 -1.0989102027076982e+00
    1.8093464447178164e+01 -8.7923890826656736e-01
    2.1158797794541286e+01 -6.5264645738759819e-01
    1.8011103922840444e+01 -6.0651973911058799e-01
    2.5556706253632765e+01 -7.7316396785073871e-01
    1.5126676352420931e+01 -8.7412235900407720e-01
    9.7127215660411714e+00 -1.3778110026674888e+00
    9.9221457871664853e+00 -3.0086251613013442e+00
    1.0599620743546014e+01 -3.0100382057671071e+00
    1.0069801735921677e+01 -1.1363928724995460e+00
    1.7258555715760089e+01 -8.7854365512294608e-01
    1.9522416025918332e+01 -6.6108396939949887e-01
    1.7973102972045158e+01 -6.7277865604851605e-01
    2.2567005108935025e+01 -7.8811348639788237e-01
    1.4084007232965734e+01 -9.3545608273161718e-01
    9.3999078458084266e+00 -1.4998266616391822e+00
    1.0802395861223204e+01 -3.3490973871013763e+00
    1.0079893727389072e+01 -2.4883106570875131e+00
    1.2197189300871328e+01 -1.0077561089428524e+00
    2.1037278952269737e+01 -7.9895570653835790e-01
    2.4514605439454446e+01 -6.0320283546411890e-01
    2.4810213287555619e+01 -6.5989733307536458e-01
    2.7533292264798316e+01 -6.6115542994738530e-01
    1.6456012480396755e+01 -8.1520598395758426e-01
    9.7970449851022714e+00 -1.2756596194772154e+00
    1.0860128697046838e+01 -3.1137850978118990e+00
    1.0387362370714701e+01 -2.6725285794201694e+00
    1.2440519412464941e+01 -1.0826102790447127e+00
    2.1121283074899328e+01 -8.6955223767791767e-01
    2.5028654475331550e+01 -6.3843701893233284e-01
    2.4864354727801452e+01 -6.9463466885878500e-01
    3.1622451356208032e+01 -7.5074268808953437e-01
    1.7483222535092061e+01 -9.3846480222516104e-01
    9.1974245567183956e+00 -1.3362937969942354e+00
    1.1336373808315781e+01 -3.3840729519969353e+00
    1.0760199533294454e+01 -2.9935018534159519e+00
    1.0958796043668787e+01 -1.1215613323656344e+00
    2.1180000451483874e+01 -9.4294665534921274e-01
    2.4042750221761793e+01 -7.2632359252889778e-01
    1.9266578549885246e+01 -6.6307671002132895e-01
    1.9497271765085753e+01 -6.7198546077696064e-01
    1.3561127076720545e+01 -8.4828833068640253e-01
    9.4464704380648179e+00 -1.4242069529357049e+00
    1.0837140758110948e+01 -3.3213830071801627e+00
    1.0736027786484300e+01 -3.0767531968696971e+00
    1.0854021738027544e+01 -1.1466460921007176e+00
    1.8360924581980115e+01 -8.7617163431246792e-01
    2.2450139564141004e+01 -6.8523023384400883e-01
    2.0842803978069565e+01 -7.0150263517561140e-01
    2.7900113999614099e+01 -7.9781294968011118e-01
    1.6855818232424401e+01 -1.0148664066989102e+00
    9.1806624641486003e+00 -1.5125318681108795e+00
    1.1899962633023126e+01 -3.7564984957946534e+00
    9.8508256820400604e+00 -2.3391897499184928e+00
    1.3025222535894178e+01 -1.0410784215848041e+00
    2.4633896186844737e+01 -8.8915378529486544e-01
    2.6158497182832804e+01 -5.9901383720913148e-01
    2.4701761216030985e+01 -6.6913244765199498e-01
    3.0684964034667743e+01 -7.1527665601453239e-01
    1.7073860859902421e+01 -8.6504428795861554e-01
    8.9425990454978006e+00 -1.2536137361125386e+00
    1.0992069421590905e+01 -3.1318778918007055e+00
    9.5618187517057045e+00 -2.4013022520273517e+00
    1.1718064623631365e+01 -1.0552029606660613e+00
    2.0461801537664158e+01 -8.2243225362661665e-01
    3.0849499353468243e+01 -7.6143003010730059e-01
    2.3943517452832221e+01 -7.3618852741063778e-01
    2.4612423799179098e+01 -7.4849594574440570e-01
    1.2965798996659215e+01 -8.4407035551028942e-01
    8.8034933214779088e+00 -1.3156778697689651e+00
    1.1089677245363475e+01 -3.2156860544069348e+00
    9.9321190848867396e+00 -2.7127244388672418e+00
    1.2118529346702131e+01 -1.1222508272073608e+00
    2.1807080468485143e+01 -8.9900837783813814e-01
    2.4710768813284009e+01 -6.5567547759406286e-01
    2.3778104439052921e+01 -7.0931951279219163e-01
    3.1653841675123182e+01 -8.3847960457869464e-01
    1.6303268829895504e+01 -9.0834151977112865e-01
    9.3287445695348268e+00 -1.4421807582633723e+00
    1.2069188704113566e+01 -3.7263469253727961e+00
    9.8619765907404275e+00 -2.7731777716125325e+00
    1.1691970675444523e+01 -1.1991707089462134e+00
    2.0423005930183404e+01 -8.9214547003612810e-01
    2.7513270395993175e+01 -7.7821661131995734e-01
    2.2271622011148576e+01 -7.8444201265768576e-01
    1.9805390501787997e+01 -7.3706634493522682e-01
    1.2144790592386656e+01 -8.8498732468236196e-01
    8.6129528731758622e+00 -1.5363140959321395e+00
    1.2529384573914793e+01 -4.0280990476748011e+00
    9.2544191580141408e+00 -2.1441560284754573e+00
    1.2977494485071505e+01 -1.0248089930715352e+00
    2.1100500839674584e+01 -7.7896280607751556e-01
    2.7746828239866073e+01 -6.6911774903593535e-01
    2.2651338868000249e+01 -6.4344466603939954e-01
    1.9719912903490624e+01 -6.2916640541220326e-01
    1.2050868015146602e+01 -8.0305213941889797e-01
    9.2345141641583144e+00 -1.2912068463467385e+00
    1.0645056169719650e+01 -2.8693866361119471e+00
    8.8466854158735551e+00 -2.1167110131024125e+00
    1.3068875953633638e+01 -1.1023809037835108e+00
    1.9536932861450676e+01 -8.1863070536081040e-01
    2.3733691504127897e+01 -6.5129262058273663e-01
    2.1894892123815531e+01 -7.0295725259970077e-01
    1.8327855371251658e+01 -6.3538971896725227e-01
    1.1340483395580996e+01 -8.4775484569227200e-01
    9.2166023046969343e+00 -1.3910339846327919e+00
    1.0810271040240909e+01 -2.9867674209754389e+00
    9.4951800500783641e+00 -2.5140817977577137e+00
    1.2870870363619980e+01 -1.1714012427737803e+00
    2.0805944642491916e+01 -8.6649230555798928e-01
    2.4410575786480432e+01 -7.1632864878387692e-01
    1.9995066770593070e+01 -6.9935104429621664e-01
    1.8331856543858137e+01 -6.9882415708082180e-01
    1.2138127024152102e+01 -8.8831644164406842e-01
    8.8929201396595250e+00 -1.5207463043986627e+00
    1.1154236662571410e+01 -3.4080186089716165e+00
    9.3270306738363722e+00 -2.5455329266211191e+00
    1.2378128499297111e+01 -1.2009997070698224e+00
    2.0238119298639422e+01 -9.2390703870557134e-01
    2.3426270959789168e+01 -7.3522990952830214e-01
    1.8720370321876732e+01 -7.3456725671710243e-01
    1.6394723844722012e+01 -7.1321710294006302e-01
    1.1699994119416139e+01 -9.8111968412686501e-01
    8.7973707383682491e+00 -1.6572201514031593e+00
    1.1854410656616533e+01 -3.7158182106261557e+00
    9.3059593557231501e+00 -2.1150566292170465e+00
    1.3102761066506575e+01 -1.0590010394089859e+00
    1.9798187362579000e+01 -8.1057408493669580e-01
    2.7472651753386064e+01 -6.9896420504126044e-01
    2.3160208235723726e+01 -7.2647506370546944e-01
    2.0371844977122681e+01 -6.5088209448445633e-01
    1.1302837104385040e+01 -8.0420627551352530e-01
    9.6698334181059575e+00 -1.3481801678258698e+00
    1.1019036093297613e+01 -2.9370919538407052e+00
    9.1426151209265942e+00 -2.1947171173082682e+00
    1.1440331132353320e+01 -1.1105053299602197e+00
    1.8897654594870708e+01 -8.6387428425422008e-01
    2.9930308557928196e+01 -7.7802873279968121e-01
    2.0682567730078652e+01 -7.3806363590471258e-01
    2.0218103459170592e+01 -7.1203819538330304e-01
    1.1703782904088172e+01 -8.8896305919514718e-01
    9.2194517556606517e+00 -1.4552841709791506e+00
    1.0717223618466983e+01 -2.9397112210625367e+00
    9.6231578295823681e+00 -2.5938514018690948e+00
    1.3585866985210476e+01 -1.2410478649552261e+00
    2.0769274613766282e+01 -9.2195572709495077e-01
    2.6506132205171294e+01 -7.6670787813650731e-01
    1.8441802600193178e+01 -7.1454273730631179e-01
    1.6739639334810501e+01 -7.0065910297597611e-01
    1.1101372803794771e+01 -9.2168994872532317e-01
    9.0218268437874425e+00 -1.5584296744582418e+00
    1.1586129182835643e+01 -3.4587040656311041e+00
    9.8201274462369703e+00 -2.7093678562462218e+00
    1.1695145937061007e+01 -1.2249951159741208e+00
    1.9733810423360104e+01 -9.6421194671420163e-01
    2.9456143933933316e+01 -8.9973760062872832e-01
    1.9152565955179746e+01 -7.9624581946665052e-01
    1.6943198644007989e+01 -7.4467292935176532e-01
    1.0932235794519874e+01 -1.0033979618152198e+00
    9.3654414892431390e+00 -1.7312452687787461e+00
    1.1970779365692474e+01 -3.6624214486942996e+00
    9.3205686342767766e+00 -2.1039558968721028e+00
    1.3497229019031080e+01 -1.1685325695078332e+00
    2.5130841686776698e+01 -9.3239265970415386e-01
    2.9609396546978044e+01 -6.8558113697713718e-01
    2.4510896287512722e+01 -7.5521868335237408e-01
    2.3740895366210580e+01 -7.5550490055349218e-01
    1.1385952918838207e+01 -8.4540527452636371e-01
    9.1181627274411472e+00 -1.3412821795029144e+00
    9.9902677976042735e+00 -2.5196897737258581e+00
    9.0928258705049299e+00 -2.1817333268816439e+00
    1.2736416890866053e+01 -1.2592451897070789e+00
    2.0850191033864462e+01 -9.3251051150677322e-01
    1.8949747933188608e+01 -6.5189132432450958e-01
    1.6978199248077409e+01 -7.1587848273800303e-01
    1.6987311963060353e+01 -7.7326074728089778e-01
    9.2207448789486630e+00 -8.4750489993540956e-01
    9.1568776653003265e+00 -1.4236483466466794e+00
    1.0048237561377968e+01 -2.6300521389560041e+00
    9.0684404585351182e+00 -2.2951206386080822e+00
    1.2646841463135901e+01 -1.1695906292046427e+00
    2.2278021957806843e+01 -9.0068493662728244e-01
    3.0121011385529119e+01 -8.2200720683567319e-01
    1.8546452788613387e+01 -7.3087663786350487e-01
    1.7619054182468421e+01 -7.3715761997931395e-01
    1.0190426908604831e+01 -9.2171038675059258e-01
    9.1172738365683887e+00 -1.5178227415467058e+00
    1.0449980484292242e+01 -2.9732339090830786e+00
    8.7058932186524736e+00 -2.2710705322322848e+00
    1.0839516475862437e+01 -1.2191479711224564e+00
    1.8365214666723464e+01 -9.5761741189995553e-01
    1.7736505927111956e+01 -7.1093594291137441e-01
    1.4499051010642519e+01 -7.5937505395492999e-01
    1.3373126715869967e+01 -8.2737687911722646e-01
    8.3768405821506420e+00 -9.8706912184206730e-01
    9.0421001762528803e+00 -1.6725655457290476e+00
    9.6733183277811214e+00 -2.7778873041821193e+00
    9.2965386729460260e+00 -1.9610437081439758e+00
    1.3890829786565243e+01 -1.2061024564863465e+00
    2.0724614489001201e+01 -8.8327177483146657e-01
    2.0164822155226524e+01 -7.0447035455933749e-01
    1.7174394939269792e+01 -7.3100761081627064e-01
    1.6831637856205038e+01 -7.5391997544924516e-01
    9.4353520732807024e+00 -8.0248479686939311e-01
    9.6847146959540620e+00 -1.2536557771143604e+00
    1.0029752667091248e+01 -2.3068153746252120e+00
    9.7355635573945012e+00 -2.3543039808560722e+00
    1.1518980296213394e+01 -1.2745423834982181e+00
    1.5975807785748094e+01 -9.9996849478187211e-01
    1.5100098565376921e+01 -8.0034865696211166e-01
    1.1689583528081290e+01 -7.9719271113062651e-01
    1.2820710723539211e+01 -8.1675017098737435e-01
    9.6993111571436987e+00 -9.0067955778054209e-01
    9.2992591198734402e+00 -1.2847075009864874e+00
    1.0621038613484020e+01 -2.6793080565910077e+00
    8.1451039366001599e+00 -1.8457526750446822e+00
    1.1700606263060994e+01 -1.1896412610933869e+00
    1.8765530091659418e+01 -9.6454253973469573e-01
    1.8295888646856302e+01 -7.9966065205545478e-01
    1.5220703793839798e+01 -8.3280651610531697e-01
    1.1986579669788489e+01 -7.9731208692409150e-01
    8.8328297130001800e+00 -9.3348036280403435e-01
    9.4114186944474358e+00 -1.4159441503194805e+00
    9.2143076693845600e+00 -2.2585444382555138e+00
    8.0170466139683310e+00 -1.9311585634012285e+00
    9.6483651976572595e+00 -1.2558848032368115e+00
    1.2418091116212647e+01 -1.0193965657359361e+00
    1.1514782825213755e+01 -8.5010140908477394e-01
    9.6765739944475548e+00 -9.4284966437621021e-01
    9.9540697952914705e+00 -9.5600531554310209e-01
    8.3558867157722325e+00 -1.0334663313780879e+00
    9.1120558138618648e+00 -1.4261353633371727e+00
    9.1180905877491547e+00 -2.3089879819534369e+00
    8.5148348735229256e+00 -1.1875379492297442e+00
    1.0756718173228345e+01 -1.0178191736419908e+00
    1.2273202973951063e+01 -1.0009719716916983e+00
    1.0150272442122972e+01 -9.1038214205500001e-01
    8.0900820171194443e+00 -1.1191614475739919e+00
    8.6031164780090794e+00 -1.0239034364077417e+00
    1.1588682993397850e+01 -1.1705514348363715e+00
    1.0632298493943972e+01 -1.1772113009196836e+00
    8.2666075592127033e+00 -1.2393786456397202e+00
    7.9544655495402701e+00 -1.2602100936749872e+00
    9.7411039453911616e+00 -1.1282489737987782e+00
    1.1777206702527737e+01 -1.1344676556691902e+00
    1.0054661481711255e+01 -1.0080330383726377e+00
    7.9240530378267264e+00 -1.1834743882142791e+00
    8.2577911915285878e+00 -1.0608709691443454e+00
    1.1073615626924621e+01 -1.2327353551827591e+00
    9.6092094674594790e+00 -1.1779644310836159e+00
    7.7432386634224137e+00 -1.2576567440782191e+00
    8.8719078096190671e+00 -1.1325586584005438e+00
    1.1332721672610464e+01 -1.0997422421734295e+00
    1.1999031637969418e+01 -1.1309161824397731e+00
    9.6568959008757762e+00 -1.0661829854035900e+00
    7.8032582505846859e+00 -1.3361439644113042e+00
    8.3226400827637654e+00 -1.1242602610610541e+00
    1.1244214897846502e+01 -1.2576333421471286e+00
    1.1200449180998421e+01 -1.1508540193319081e+00
    9.0011663555311436e+00 -1.1951024480916355e+00
    8.3517872276803136e+00 -1.1746981185420193e+00
    1.0847090558765506e+01 -1.2268391018055718e+00
    1.0413550413844314e+01 -1.2248277789238902e+00
    9.0651506570697755e+00 -1.1866279488609301e+00
    7.9150489400907711e+00 -1.4882362643898266e+00
    7.8673700745634862e+00 -1.2235723247831771e+00
    1.0998513111122667e+01 -1.3966242516916911e+00
    1.0082509747343837e+01 -1.2427236056342481e+00
    8.2715786393379123e+00 -1.1928329237001354e+00
    8.4225867236837875e+00 -1.3008033462432043e+00
    1.1169219832626510e+01 -1.1338655498374068e+00
    1.3197119365560066e+01 -1.0840685453578007e+00
    1.1267262690672130e+01 -1.0021097382567570e+00
    8.8348031528545441e+00 -1.1007626790245424e+00
    9.2334655488544151e+00 -9.7120184634297335e-01
    1.1736474861228997e+01 -1.1060953284487314e+00
    1.1452228460377503e+01 -1.1803203640393791e+00
    8.1128674307416819e+00 -1.2494346782537760e+00
    8.2267810196520319e+00 -1.5170755562465761e+00
    1.0379854369338920e+01 -1.2950264879869338e+00
    1.1163885356895909e+01 -1.1428692117864478e+00
    9.8113364428472991e+00 -1.0378205370663676e+00
    8.8999528242155943e+00 -1.1725176452337944e+00
    9.7204666974237899e+00 -1.0658509989004874e+00
    1.2322482749706646e+01 -1.2591153433591906e+00
    1.0543776544035470e+01 -1.2558087665526692e+00
    8.0843144512004486e+00 -1.4238543645244515e+00
    8.9320337416236359e+00 -1.1721752850135756e+00
    1.1638722439564869e+01 -1.1748100216154942e+00
    1.1343098902926519e+01 -1.2141426069592489e+00
    9.9111089126108318e+00 -1.2234587724883490e+00
    8.4113992590344981e+00 -1.4053151621768314e+00
    8.3915792670556950e+00 -1.1436097501312783e+00
    1.1627441110782268e+01 -1.2574751186968049e+00
    1.1410311189661074e+01 -1.2320259112457370e+00
    8.7112524367273796e+00 -1.1563957931833857e+00
    8.4993502665450560e+00 -1.3158927295496308e+00
    9.9962710024416364e+00 -1.2960486462021792e+00
    9.4894037350463591e+00 -1.2705575478707438e+00
    8.7588089382039467e+00 -1.3388934377379149e+00
    8.0295392799066576e+00 -1.5182456047299733e+00
    8.6325307919718082e+00 -1.2473847989013953e+00
    1.1312466052412283e+01 -1.3365608718753803e+00
    1.0963037268209291e+01 -1.2912715071299226e+00
    8.1301662271022082e+00 -1.2620910439301751e+00
    8.9074999164235606e+00 -1.4350723204920675e+00
    1.1039643063027652e+01 -1.2700607397742247e+00
    1.1306673028510852e+01 -1.0854019724128929e+00
    1.1329914893521927e+01 -1.0326381919335352e+00
    9.9108319160781022e+00 -1.0682314223086560e+00
    1.0157042257031655e+01 -9.3897106830970323e-01
    1.3550215922381421e+01 -1.1126550650808464e+00
    1.1945820151968153e+01 -1.1559303764255826e+00
    8.3515160362407634e+00 -1.3167165713203295e+00
    8.6441728109555651e+00 -1.5683572514905948e+00
    9.4842359826817813e+00 -1.3818596430950025e+00
    9.5187972681272583e+00 -1.2024011154814938e+00
    9.8004109994020006e+00 -1.0618171040657143e+00
    9.3592778753619612e+00 -1.0945097686103584e+00
    1.0268098312606842e+01 -1.0007008215017150e+00
    1.2513627558737781e+01 -1.0896316999331976e+00
    1.0752752771512512e+01 -1.1696329848984148e+00
    8.0791588087151673e+00 -1.3937526870744750e+00
    8.9255814586630855e+00 -1.2646620692448314e+00
    1.0057823815213242e+01 -1.2564236763588141e+00
    1.0097267609685570e+01 -1.2557226137617103e+00
    9.5544172338704350e+00 -1.2853059886800458e+00
    8.4945842235190554e+00 -1.3778609636511265e+00
    9.4119928190211990e+00 -1.1491850958340837e+00
    1.2741167098309360e+01 -1.2126175072618006e+00
    1.1979016916895612e+01 -1.1378986721891595e+00
    8.4912399921791817e+00 -1.1574730159845785e+00
    8.3743001405917834e+00 -1.4531643649966697e+00
    9.1900618363997690e+00 -1.3866143373476740e+00
    9.3745815713430538e+00 -1.4142155583811487e+00
    9.0188113292067733e+00 -1.3964136361840640e+00
    8.4301536714389478e+00 -1.3843296130848972e+00
    9.1601605773100161e+00 -1.2287132979199014e+00
    1.1178597724854573e+01 -1.2037144812799105e+00
    1.0322101961627633e+01 -1.1966127321433537e+00
    8.1690143402023612e+00 -1.2708204647642651e+00
    8.9095299589853383e+00 -1.4672392029868386e+00
    9.8806799902685558e+00 -1.2930444655159299e+00
    9.8363636769943827e+00 -1.1145968370321673e+00
    1.1148561991857248e+01 -1.0428768979279395e+00
    1.0085983832102411e+01 -9.9124595778567459e-01
    1.1967943356977473e+01 -9.1585852831881198e-01
    1.3957476805331266e+01 -9.6156694945292198e-01
    1.2155857415193170e+01 -1.0956713839347749e+00
    8.3051803267811568e+00 -1.2684919420721312e+00
    8.6745183677139348e+00 -1.7287068139368442e+00
    9.2488973098873775e+00 -1.5640104824316530e+00
    9.2567802530267578e+00 -1.2715204298785883e+00
    1.0128290154986759e+01 -1.0695241732554097e+00
    9.5572198064869269e+00 -9.8626139041773198e-01
    1.1764641582272507e+01 -9.2370586300347279e-01
    1.2988382508809439e+01 -1.0009786849147084e+00
    1.1061161845765342e+01 -1.1651877415396126e+00
    8.4224800096197967e+00 -1.4752738793624764e+00
    8.3609268954039013e+00 -1.3352644779195879e+00
    9.6405168214984727e+00 -1.3076952958902071e+00
    1.0159814724811291e+01 -1.3264224560770426e+00
    9.8201717055229700e+00 -1.2631485919032781e+00
    8.8076026250742334e+00 -1.2046487483970132e+00
    1.0202952866550213e+01 -1.0980784090215174e+00
    1.1706078445205236e+01 -1.0408284727644297e+00
    1.1524101887831362e+01 -1.1222119857980930e+00
    8.4180233658689190e+00 -1.2129858490574368e+00
    8.2290753307188425e+00 -1.5487303720875603e+00
    9.1481613575989602e+00 -1.5182971151704574e+00
    9.2612045182877658e+00 -1.4190868666342917e+00
    8.8802093437854790e+00 -1.3095347221769025e+00
    8.4438912020671832e+00 -1.2390669725544063e+00
    9.7785666869792269e+00 -1.1348431956558076e+00
    1.2176145957580927e+01 -1.1999871701671538e+00
    1.1526096346317079e+01 -1.2596084764194087e+00
    8.4865841141883394e+00 -1.4226146906473514e+00
    8.9844637025510092e+00 -1.7654474833252773e+00
    9.3205852707649157e+00 -1.5292130410007370e+00
    1.0334895398713490e+01 -1.2709776612118888e+00
    1.1644583653304805e+01 -1.0044433062315432e+00
    1.1786731139615817e+01 -9.2460024075963143e-01
    1.4381109531290633e+01 -8.6082157604532694e-01
    1.5202255492682863e+01 -9.9126991787302698e-01
    1.1257468196169064e+01 -1.0829755531547005e+00
    8.8228832733521880e+00 -1.5154711896458650e+00
    9.5054391487846939e+00 -2.1514302494301361e+00
    9.2992379014724413e+00 -1.7154363662466898e+00
    9.6900285745125974e+00 -1.2786403095666397e+00
    1.1069753086537180e+01 -1.0058498938831884e+00
    1.1640939452608118e+01 -9.0083754222331236e-01
    1.5048148575722346e+01 -9.0412854172055013e-01
    1.5164603480932167e+01 -1.0546599572537581e+00
    1.0909413461733960e+01 -1.2429998119741339e+00
    9.0244170444334220e+00 -1.7983216496827874e+00
    8.6183915119719465e+00 -1.5652641385765020e+00
    9.8313088278006493e+00 -1.5085737913974329e+00
    1.0206347280215608e+01 -1.4137022193785993e+00
    9.9305449115513511e+00 -1.2524134983497768e+00
    9.8079954773806488e+00 -1.1820545915770071e+00
    1.1606273820881563e+01 -1.0667498938514659e+00
    1.3978612323269996e+01 -1.1641761400593464e+00
    1.2427463555606012e+01 -1.2474667665107950e+00
    8.8032900627441393e+00 -1.4106789169352514e+00
    8.8210117902938503e+00 -1.7723904755887847e+00
    9.6260454392873438e+00 -1.6866902143711944e+00
    9.7442918953391509e+00 -1.5149073379173066e+00
    9.7298605739510826e+00 -1.2613786038026622e+00
    9.5981408829486217e+00 -1.1697328167237320e+00
    1.1203475986427380e+01 -1.0877703220352888e+00
    1.3859992024985539e+01 -1.2272286242772621e+00
    1.2055484403819770e+01 -1.3827978015836533e+00
    8.6044077397267316e+00 -1.5455534744144792e+00
    9.4945073345107041e+00 -2.1340473341156492e+00
    9.1243145749475012e+00 -1.5438329786086618e+00
    1.0969400279219888e+01 -1.2171932015655060e+00
    1.2289362880267980e+01 -9.2459914175560987e-01
    1.3499836783588728e+01 -8.7452492208313970e-01
    1.5451321225916667e+01 -8.4953057798696274e-01
    1.6531033829494454e+01 -1.0138426137140277e+00
    1.1908351924627317e+01 -1.2438539769598955e+00
    8.8103311986148931e+00 -1.7835436705604262e+00
    1.0365701402918180e+01 -2.5335532433055161e+00
    9.3890070602141815e+00 -1.6339295624003900e+00
    1.0945408204499289e+01 -1.2072875074433871e+00
    1.3392229060269122e+01 -9.6903857929725457e-01
    1.3321310776307893e+01 -9.1309661807571763e-01
    1.5685563050975386e+01 -9.0827701513025294e-01
    1.3819417493268871e+01 -1.0096152373130649e+00
    1.1142572441038448e+01 -1.3440156549727029e+00
    9.1795012053320892e+00 -2.1364347668828820e+00
    9.2992975972509111e+00 -1.8168730682585963e+00
    1.0576332156827425e+01 -1.6820326265601213e+00
    1.0397576733033084e+01 -1.4189660340822279e+00
    1.0486978631645043e+01 -1.1595479767731947e+00
    1.0793967003784461e+01 -1.1186915858860345e+00
    1.2731179602623756e+01 -1.0657297463330619e+00
    1.4320180607522918e+01 -1.1249174924151071e+00
    1.3043724088390942e+01 -1.3863694316350210e+00
    8.9537056347582897e+00 -1.5543751832069999e+00
    9.5757200913762599e+00 -2.1354401626581825e+00
    1.0626551884562145e+01 -1.7617830346914036e+00
    1.0301551791700248e+01 -1.3660391903607112e+00
    1.0855770446132073e+01 -1.1438900887544829e+00
    1.1136745437743684e+01 -1.1511836297552092e+00
    1.1948530300938083e+01 -1.0692386175740820e+00
    1.3606335510342786e+01 -1.2189890958484320e+00
    1.1575552611552164e+01 -1.5125255321117312e+00
    9.0053346144899802e+00 -1.8545810500999325e+00
    1.0188051943314747e+01 -2.5092468236965573e+00
    9.7333438674827697e+00 -1.4298703350276329e+00
    1.2602408230722084e+01 -1.0471961022342196e+00
    1.6849062347797936e+01 -8.6812083328736211e-01
    1.6247682211466984e+01 -8.3164665273629201e-01
    1.7369751445494273e+01 -7.9140603211215554e-01
    1.5547733899586222e+01 -9.8216628996143729e-01
    1.2446760487410128e+01 -1.3915369593042453e+00
    9.2298382006535871e+00 -2.1785558644566461e+00
    1.1337333628168267e+01 -3.0079193260100818e+00
    9.6262659765167697e+00 -1.4658897308427432e+00
    1.2588583301919575e+01 -1.0564405047044274e+00
    1.4790465799620877e+01 -8.3527414751620088e-01
    1.5695945603727631e+01 -8.1678813941257122e-01
    1.8029302954065827e+01 -8.3952893775009296e-01
    1.5691302521438155e+01 -1.0662712149366100e+00
    1.0803070149293413e+01 -1.4417022406637081e+00
    9.5209531517579045e+00 -2.4336722317718928e+00
    9.7862543074889885e+00 -2.1382511001752595e+00
    1.0370127767429976e+01 -1.5189553855279307e+00
    1.0961237664653517e+01 -1.1586028001990114e+00
    1.3020412997733738e+01 -1.0256782901373784e+00
    1.3194408235004433e+01 -1.0462838840933857e+00
    1.4477906406998624e+01 -9.9516586825538733e-01
    1.4872364372271271e+01 -1.1781901676701867e+00
    1.2902234579225711e+01 -1.5381157788262274e+00
    8.9704835488196437e+00 -1.8554267406226925e+00
    1.0335887275333464e+01 -2.5881487273364092e+00
    9.7875281607368532e+00 -1.6294339506212085e+00
    1.0624756628009518e+01 -1.1882759118140109e+00
    1.1732977032049249e+01 -1.0247331004651425e+00
    1.1952796500759616e+01 -1.0002532182231503e+00
    1.3932028774752888e+01 -1.0230835023947800e+00
    1.3541991467718214e+01 -1.2691310789321324e+00
    1.1136376117555153e+01 -1.6131762645341789e+00
    9.0933161648436904e+00 -2.1750665138825132e+00
    1.0820172657527317e+01 -2.6311989628781385e+00
    1.0014424108189782e+01 -1.2908504847700089e+00
    1.4302921597169894e+01 -9.6070821447864618e-01
    1.8595940429116869e+01 -8.1437312258716010e-01
    2.0203097541153795e+01 -7.8144765151774598e-01
    2.3406594019016129e+01 -8.3446129768923627e-01
    1.8119257687002783e+01 -9.7478095030326495e-01
    1.1355782576419669e+01 -1.3478766517416894e+00
    9.2924186553579045e+00 -2.2975820679725181e+00
    1.1302796873088345e+01 -2.9413469662119547e+00
    9.8281702390765329e+00 -1.3569925154615017e+00
    1.3268885070680746e+01 -9.5160921219055383e-01
    1.7613392389920552e+01 -7.9491481554527310e-01
    2.0704436143537016e+01 -8.4489239786502124e-01
    2.0325702258731187e+01 -8.2122936654812373e-01
    1.6043217796490413e+01 -1.0007532497574696e+00
    1.0351022961838011e+01 -1.4413985292691227e+00
    1.0292589437164558e+01 -2.7616505926336172e+00
    9.7413976308932426e+00 -2.3663619750837461e+00
    9.8900426312122125e+00 -1.4906117837592612e+00
    1.1786657193414898e+01 -1.0819890628763733e+00
    1.3235558241950216e+01 -9.0710974465756489e-01
    1.5291863441218565e+01 -9.5599459329812742e-01
    1.6019949024323267e+01 -9.5088012413995238e-01
    1.4174027144677160e+01 -1.0812798219290021e+00
    1.1389501006121792e+01 -1.4382332058286205e+00
    8.7038114597613188e+00 -2.0238711291228926e+00
    1.1035896258204614e+01 -3.0068363225381254e+00
    9.5620736488664839e+00 -1.5925166523242447e+00
    1.1249961172576690e+01 -1.1038138959368295e+00
    1.2918409341312426e+01 -9.0930983718018343e-01
    1.4799889074282490e+01 -9.7698304391045243e-01
    1.5888589913338642e+01 -9.8846820356192922e-01
    1.4935108745799813e+01 -1.1947932330014064e+00
    1.0845602112903556e+01 -1.5917822247162010e+00
    9.3000029571764404e+00 -2.4421034705835623e+00
    1.0848535384698737e+01 -2.6457004209125223e+00
    1.0659109995058152e+01 -1.1782638321745511e+00
    1.6101436657735871e+01 -8.7035100063253878e-01
    2.0237603505419983e+01 -7.1362496604831216e-01
    2.2154512173306518e+01 -7.7209723901024618e-01
    2.3961499796892287e+01 -8.2514630575303938e-01
    1.7409557939290334e+01 -9.9415812609008603e-01
    1.0517165046413281e+01 -1.3768225646372811e+00
    9.6933807648493122e+00 -2.5745429928239441e+00
    1.1084634341159981e+01 -2.8734777293963605e+00
    9.9351905003321015e+00 -1.1658039062430643e+00
    1.8181648935374501e+01 -9.5809150341693372e-01
    2.0763128734530895e+01 -7.4557295968999915e-01
    1.9927958836713056e+01 -7.5047148136257524e-01
    2.1425777052021662e+01 -8.1331471565178770e-01
    1.4912258093716117e+01 -9.9697541426768210e-01
    1.0007603308021306e+01 -1.5007417288578455e+00
    1.0347342971980780e+01 -2.8520054470004053e+00
    1.1523792893339948e+01 -3.0641529645845345e+00
    9.9231465856868457e+00 -1.4160937357056889e+00
    1.4203792858587590e+01 -1.0677609867506097e+00
    1.6759911031225563e+01 -8.6018706611781537e-01
    1.7492937699247893e+01 -8.8210178320209831e-01
    1.7789638968597526e+01 -8.8533751484592993e-01
    1.4911705183427758e+01 -1.0755388750433981e+00
    1.1638256907229268e+01 -1.6023278480233980e+00
    9.3228458531348100e+00 -2.4518323513455882e+00
    1.2251132228897653e+01 -3.4432009708026334e+00
    9.6135267961327706e+00 -1.4436350156482787e+00
    1.5549398470770406e+01 -1.1089007447925054e+00
    1.8511221484240803e+01 -9.1845574756659254e-01
    1.6591768757509112e+01 -8.6153782691890124e-01
    1.7517036070464684e+01 -9.2001057463913849e-01
    1.4047405514815546e+01 -1.1017482180296978e+00
    1.0455871024486440e+01 -1.6718963111662291e+00
    1.0389225876302342e+01 -2.9246995425148188e+00
    1.1339273712266898e+01 -2.7815991539027389e+00
    1.1218863439581607e+01 -1.1303539896671257e+00
    2.0650791449476856e+01 -9.5239303781093454e-01
    2.2891537810421468e+01 -7.5251220477471714e-01
    2.2411664367011312e+01 -7.4648708981320822e-01
    2.3188058761527067e+01 -7.7332906584672190e-01
    1.5224296113193441e+01 -9.1264221595380890e-01
    1.0602420785113287e+01 -1.4381200777826770e+00
    1.1082161807023397e+01 -3.0429967172688088e+00
    1.0865380572280570e+01 -2.8722615110977232e+00
    1.1447416636058078e+01 -1.1897499491792696e+00
    1.9484522004246404e+01 -9.2238268349464159e-01
    2.4106450497041759e+01 -7.6711695796977541e-01
    2.2176882252181525e+01 -7.4759869105510768e-01
    2.6212828167831411e+01 -7.7947735848275146e-01
    1.6587581451436218e+01 -9.3624346925194712e-01
    1.0174606775868744e+01 -1.5044421859654615e+00
    1.1508325687743350e+01 -3.3104226240310082e+00
    1.1460539486267553e+01 -3.1104377182402176e+00
    1.0550210230541003e+01 -1.3739302831538680e+00
    1.6828274423888288e+01 -1.0127195842564869e+00
    1.8233516118293696e+01 -8.2702491245832888e-01
    1.7973916475517534e+01 -8.3143037054515623e-01
    1.8974662965051824e+01 -8.2698659282790776e-01
    1.4648252265358373e+01 -1.0219221675104502e+00
    1.0104401265199167e+01 -1.5024472810156952e+00
    1.0487572343239380e+01 -2.9509750318819266e+00
    1.1806039363416611e+01 -3.3381912970140526e+00
    1.0606869092077703e+01 -1.4205885086046246e+00
    1.5626191882382448e+01 -9.9301609002730284e-01
    1.7215786717914003e+01 -7.9668221124789951e-01
    1.7147533141397897e+01 -8.2579270078130973e-01
    2.0615381666981836e+01 -8.4685241113997833e-01
    1.4673704551574314e+01 -1.0216525064014774e+00
    1.0076715638430557e+01 -1.6565838241090358e+00
    1.1346283288178874e+01 -3.3888674661055536e+00
    1.1220999554157446e+01 -2.8306142708867545e+00
    1.3210660601500397e+01 -1.1832362947221295e+00
    2.1701445296394223e+01 -8.8893998898450566e-01
    2.4627785549555576e+01 -6.5918177524868937e-01
    2.3939184635478203e+01 -6.8602839436957519e-01
    2.7409669141093037e+01 -7.3002854890212843e-01
    1.6342440402528510e+01 -8.5635089359393624e-01
    1.0629061845643459e+01 -1.4786243177861409e+00
    1.2012494124814877e+01 -3.5331001011427725e+00
    1.1102176856223629e+01 -2.9234497763942233e+00
    1.2765075823419526e+01 -1.2074362238159619e+00
    2.1194773803459238e+01 -9.1277151586978711e-01
    2.6404516174206872e+01 -7.3133461450986093e-01
    2.3519982690888050e+01 -7.3768833904256959e-01
    2.1657197687227040e+01 -7.2538890948765633e-01
    1.4177584692857589e+01 -9.1299774042067006e-01
    9.6862763045504572e+00 -1.5607431624866761e+00
    1.3319591671561488e+01 -4.0476580362256129e+00
    1.1082606005124223e+01 -2.9761262907588790e+00
    1.1994693942826439e+01 -1.3562589442141491e+00
    1.6682983188829798e+01 -9.4954511463175784e-01
    1.7502735335353961e+01 -7.0460671429265220e-01
    1.6649175130419515e+01 -7.0591550278977178e-01
    1.9851236165440746e+01 -7.4473387737412378e-01
    1.5218532752012116e+01 -9.4881632593471310e-01
    1.0269694524082563e+01 -1.5379470208228214e+00
    1.1501620521827483e+01 -3.3913283397644989e+00
    1.0977216441126091e+01 -3.0027666104426820e+00
    1.2282561270780208e+01 -1.3675584132450322e+00
    1.7390222087596726e+01 -9.6072423806314566e-01
    2.0017656262874496e+01 -7.6601306154589810e-01
    1.9458690517131888e+01 -7.9021542419275037e-01
    1.8851500670953349e+01 -7.6438970563201214e-01
    1.3835408667803060e+01 -9.7472884857285680e-01
    1.0206290925109741e+01 -1.7048178174345792e+00
    1.2080630237148014e+01 -3.6707595902024144e+00
    1.0341875855231404e+01 -2.5455626812223637e+00
    1.4430589817842773e+01 -1.1599042312025190e+00
    2.4854315567338599e+01 -8.9807940691557786e-01
    2.7266189174903417e+01 -6.8857737702256594e-01
    2.0876413014609920e+01 -6.5726721813926925e-01
    1.9550663548301330e+01 -6.7506000544702316e-01
    1.3762485720193821e+01 -8.8165183350793142e-01
    9.5859249300904228e+00 -1.4987490887956982e+00
    1.1629244857613292e+01 -3.4219165970682539e+00
    9.6461747340924635e+00 -2.4388389551274079e+00
    1.4380855423061391e+01 -1.1808223558673936e+00
    2.3233119982180206e+01 -8.9198464291208801e-01
    2.3305480033175463e+01 -6.5947158352253243e-01
    1.8921549825113576e+01 -6.7477562457132756e-01
    1.5800013877640598e+01 -6.3632637893133737e-01
    1.1846082234535737e+01 -9.2194679753033659e-01
    8.9185540416450362e+00 -1.5585494060148721e+00
    1.1254490325357754e+01 -3.3502779015685116e+00
    9.9047071350631004e+00 -2.4935290698562844e+00
    1.3899573883324438e+01 -1.2969951505190251e+00
    2.2143149551311673e+01 -9.6601459795800226e-01
    2.4093743575275003e+01 -7.4854923427735709e-01
    1.9043147211781850e+01 -7.2297652822776448e-01
    1.7240721377970374e+01 -7.0666927537433810e-01
    1.3702724430452916e+01 -9.5592406098348726e-01
    1.0168410628320478e+01 -1.6284287365944481e+00
    1.1236031641985136e+01 -3.2933187707087272e+00
    9.5355842427829653e+00 -2.3989503030749706e+00
    1.3923840255291775e+01 -1.3113615051362661e+00
    1.9560827117070662e+01 -9.1604925073337429e-01
    1.8654909950221956e+01 -6.5645588653716092e-01
    1.5310391855949355e+01 -6.8995725018777687e-01
    1.5213943253005613e+01 -7.3875428326877768e-01
    1.1995749713191286e+01 -1.0424585289197681e+00
    9.6457892209585427e+00 -1.7983887742448896e+00
    1.1537375346345460e+01 -3.4522603115477364e+00
    9.5172169549096601e+00 -2.2197744471252325e+00
    1.4443947619436107e+01 -1.0909481496458555e+00
    2.4016927872130800e+01 -8.8246382289646619e-01
    2.7070215322007297e+01 -6.9039130706972218e-01
    2.1341159465700795e+01 -6.7972064493364492e-01
    1.9191924892980094e+01 -7.0028885629345650e-01
    1.1938078672336742e+01 -9.0958764616160737e-01
    9.3222316391634319e+00 -1.5789065052048632e+00
    1.0920329937334056e+01 -3.0586665888524545e+00
    9.3784446981964695e+00 -2.2219367094883000e+00
    1.2138487372102464e+01 -1.0743912115522778e+00
    2.1599343147246717e+01 -8.9517351526889166e-01
    2.5482745212791805e+01 -7.3181355582315688e-01
    2.1609621251291824e+01 -7.5777614682090688e-01
    1.8841703866991505e+01 -7.5659260852082000e-01
    1.1472384808643120e+01 -1.0437392625045885e+00
    9.2710339578255176e+00 -1.7468948910834665e+00
    1.0976045010328797e+01 -3.1246134310734566e+00
    9.4630554424499600e+00 -2.1315168488330674e+00
    1.4215745751102956e+01 -1.1869414990268163e+00
    2.0883059159703247e+01 -9.3416702820008535e-01
    2.0447120173992229e+01 -7.0796208733229093e-01
    1.6987469982453415e+01 -7.1726160017106277e-01
    1.4693688274943257e+01 -7.3901165878964603e-01
    1.0645099974026870e+01 -9.8692089155544072e-01
    9.1520206071124139e+00 -1.6969792098980216e+00
    1.0602589487526112e+01 -2.9735552853483131e+00
    9.0688025701216191e+00 -2.0452019592532333e+00
    1.2015435081653964e+01 -1.1815362890850261e+00
    1.6934267556826775e+01 -9.3116691677789476e-01
    1.8603738056486318e+01 -7.8484193068918395e-01
    1.5853235908884526e+01 -8.0037479056518557e-01
    1.3636059861829823e+01 -8.4673139160213495e-01
    9.3075371668516631e+00 -1.0983232427184371e+00
    9.0774643405524245e+00 -1.8827038588150748e+00
    1.0288847855080007e+01 -2.8719361632983187e+00
    9.4158370270178615e+00 -1.9926480741666277e+00
    1.3383213793611819e+01 -1.0635812888989022e+00
    2.3637613723289377e+01 -8.8353517608598275e-01
    2.6191318261561626e+01 -7.5043528216065802e-01
    1.9733712704213922e+01 -7.2840864813010808e-01
    1.8707513516280240e+01 -7.9093793403303214e-01
    1.0537541923171181e+01 -1.0114684017680835e+00
    9.3402559364716424e+00 -1.6314353472779930e+00
    1.0968324568118907e+01 -2.8987954636764850e+00
    8.6546084553080611e+00 -1.8660970787885778e+00
    1.1620211976452660e+01 -1.1268961647188103e+00
    1.7895338109552910e+01 -9.0117600248246288e-01
    1.5839981495866061e+01 -7.1169322901119458e-01
    1.3243936381384732e+01 -7.3557602495660956e-01
    1.3026629974482985e+01 -8.3695400812655329e-01
    9.5338140433516045e+00 -1.1234523158303669e+00
    9.4744636552901635e+00 -1.6669180679847651e+00
    9.5879042047745919e+00 -2.4485775499986633e+00
    9.5427081569940420e+00 -1.8683003613740727e+00
    1.4002869873369347e+01 -1.2099838488622696e+00
    1.8538174526559771e+01 -9.4442188814954575e-01
    1.7445622314901527e+01 -7.9624585022731609e-01
    1.4700222934937630e+01 -8.2141648567084191e-01
    1.2689898883970992e+01 -8.8609220899198271e-01
    9.2372320156532499e+00 -1.1470955731772017e+00
    9.1473820578776035e+00 -1.7371920986193541e+00
    9.6824117692328215e+00 -2.4392126269948480e+00
    8.4121535489926700e+00 -1.6629385845050135e+00
    1.2065890895072076e+01 -1.1915525174588457e+00
    1.5498127894072452e+01 -1.0362295010773328e+00
    1.3112971272911700e+01 -8.8099113799748741e-01
    1.1083846818850917e+01 -9.5405390598143802e-01
    1.0568701774930668e+01 -1.0538872546509261e+00
    8.6824410665193454e+00 -1.3300221728893038e+00
    9.1400505441407631e+00 -1.8343907183578323e+00
    9.0467326303797932e+00 -2.2302357735217635e+00
    8.9792083083946093e+00 -1.6073788294042008e+00
    1.2873067807512269e+01 -1.0891886677402942e+00
    2.0670497692905311e+01 -1.0098100311561071e+00
    1.6478341505458815e+01 -8.2467692469322140e-01
    1.1917313128761066e+01 -8.1205649892429355e-01
    1.2064277779436432e+01 -9.2548241918203578e-01
    9.1029024001408470e+00 -1.0677083803453138e+00
    9.5020251741324024e+00 -1.3894065881801798e+00
    9.4629641909091351e+00 -1.9596080202020500e+00
    8.5177285504818521e+00 -1.6495041114738269e+00
    1.1156082277802707e+01 -1.2152282675677133e+00
    1.4423539743900443e+01 -1.1219257145618011e+00
    1.0213240279934730e+01 -9.5064575513211003e-01
    7.7480102365614867e+00 -1.0280120635076613e+00
    8.7955197751684260e+00 -1.0491130541528539e+00
    8.9907569299069152e+00 -1.1075097759682970e+00
    9.3071839182873362e+00 -1.3136534072395365e+00
    8.9520093446653988e+00 -1.8049901954387260e+00
    9.2324648461008980e+00 -1.4087115775959884e+00
    1.3766767800952774e+01 -1.1270435781190802e+00
    1.7915687333255573e+01 -1.0915739398770337e+00
    1.3556056438675698e+01 -9.8583939303789014e-01
    9.7675364231851685e+00 -1.0518770062275178e+00
    9.8908973215645943e+00 -1.1515788776939511e+00
    8.5694553823677477e+00 -1.2367402652417463e+00
    9.5456792254725542e+00 -1.4843480131030400e+00
    9.1060470084588907e+00 -1.7002338564809341e+00
    8.5916453546051184e+00 -1.3179229085171034e+00
    1.0948934015592897e+01 -1.0771387297631358e+00
    1.2750774059575955e+01 -1.0996552842584157e+00
    1.0231205260045737e+01 -1.1820947313127592e+00
    7.7745367456787884e+00 -1.4366978469202871e+00
    8.4409545644985542e+00 -1.4633007860081091e+00
    8.9146210883703443e+00 -1.3166551702573295e+00
    9.7872133866020761e+00 -1.3544623751987155e+00
    8.9841101901621467e+00 -1.4999873965977473e+00
    9.5250248196763181e+00 -1.0844266929235700e+00
    1.2744961859162339e+01 -1.1009195005725578e+00
    1.3441867634307432e+01 -1.2002848644831521e+00
    9.7068573642648612e+00 -1.1291873214615338e+00
    8.0580383666537756e+00 -1.4443187629892473e+00
    8.6801004892624007e+00 -1.1973174626951404e+00
    1.2568492966967300e+01 -1.2957715727854129e+00
    1.1668511009122421e+01 -1.0686564044780844e+00
    9.0344829891297724e+00 -1.0735271162314686e+00
    9.5068058150258352e+00 -1.1327454664418006e+00
    1.1622453294193061e+01 -1.1812306467185008e+00
    1.1809555635537986e+01 -1.3243471508651357e+00
    8.9027474680769849e+00 -1.2921648582925547e+00
    8.2230985534321608e+00 -1.7527348330661490e+00
    8.4307595521620531e+00 -1.3745177916565656e+00
    1.1770182174952065e+01 -1.4156036284850519e+00
    9.8934143932950427e+00 -1.0889998821315594e+00
    8.5877691469826996e+00 -1.0605835967046302e+00
    1.0355789616486664e+01 -1.0796515795675319e+00
    1.2588959270008635e+01 -1.0597980007687946e+00
    1.3176364857514860e+01 -1.2229198052209871e+00
    9.3819089377876637e+00 -1.2679987166629105e+00
    8.4062807509829671e+00 -1.7450034112285762e+00
    8.2738952093632889e+00 -1.3148961732919124e+00
    1.1822815816213316e+01 -1.2584453636255302e+00
    1.2643202977825739e+01 -1.0813516688859679e+00
    1.0402440005758818e+01 -1.0649716461283993e+00
    9.7217307828766018e+00 -1.0312243466927018e+00
    1.1077380840452552e+01 -1.1102027998915935e+00
    1.0977584640671887e+01 -1.3068046048986122e+00
    8.9248996601633817e+00 -1.5005573573430668e+00
    8.8224641319350283e+00 -2.1543455940591345e+00
    8.4929293275382083e+00 -1.5575744729003671e+00
    1.1882939060119654e+01 -1.4325403936344392e+00
    1.1029880780442348e+01 -1.1015080524462508e+00
    9.4666410997864823e+00 -1.0142928250743311e+00
    1.0281860568328057e+01 -1.0200735532715375e+00
    1.2582896225497912e+01 -1.0628668203234690e+00
    1.2259317400059899e+01 -1.1998156363207721e+00
    1.0273960646429600e+01 -1.3216991855958451e+00
    8.6798196059249442e+00 -1.6396626231765234e+00
    8.3593113419224103e+00 -1.2397096611815548e+00
    1.3969269641314915e+01 -1.3450899158330347e+00
    1.1632677735825586e+01 -1.0444666450296585e+00
    9.7365266617320767e+00 -9.8786388693843630e-01
    9.4148827379336240e+00 -1.0990890782817280e+00
    1.0639378682280949e+01 -1.1529150022936094e+00
    1.0723610379594424e+01 -1.3047159057197499e+00
    9.0925363636030507e+00 -1.4311257894620084e+00
    8.2000845420823314e+00 -1.7535488563180686e+00
    8.5968157265156560e+00 -1.3673748005207103e+00
    1.1879053347680182e+01 -1.3396610447577466e+00
    1.0367501907580882e+01 -1.0554233192202178e+00
    8.8575922981475657e+00 -1.0325631914586104e+00
    1.0564795509159547e+01 -9.3226119230168092e-01
    1.2992831653967061e+01 -1.0501758908035748e+00
    1.1945026529747297e+01 -1.2200524966326225e+00
    9.6553099022181108e+00 -1.4104519937249720e+00
    8.9732189091633288e+00 -1.9652950156355686e+00
    8.6850795232319928e+00 -1.4110470213380448e+00
    1.2507449757788962e+01 -1.2921726969478469e+00
    1.3013434006472369e+01 -1.0752789608424989e+00
    1.0581972098613686e+01 -9.3668786183549202e-01
    9.7717545416276668e+00 -1.0036334567051126e+00
    1.0666561629925196e+01 -1.0505576033732456e+00
    1.0636345141856301e+01 -1.2555330080759941e+00
    9.2218082731895858e+00 -1.5210614449517714e+00
    8.9095728462664940e+00 -2.1337508092807682e+00
    8.6834622455236197e+00 -1.6826485523242072e+00
    1.0543682149696570e+01 -1.3859669003887882e+00
    1.1192624440846775e+01 -1.1619840383087889e+00
    9.4577899408299295e+00 -9.9178084244012765e-01
    9.4915350196918542e+00 -1.0188380957245158e+00
    1.1144490158357788e+01 -1.1121012889698350e+00
    1.1182310978822230e+01 -1.2300366045698428e+00
    9.6878497050753190e+00 -1.3094764648260075e+00
    8.3882168934431665e+00 -1.5553864392020122e+00
    9.0030179598914355e+00 -1.2349790451171343e+00
    1.4731361180457736e+01 -1.3315640602512235e+00
    1.2675583736063283e+01 -1.0257666257332541e+00
    9.2177464715863699e+00 -9.5033363297078832e-01
    8.8112908236530405e+00 -1.2021412033945718e+00
    9.9110250017212991e+00 -1.2951651194975324e+00
    1.0438790756965979e+01 -1.4067586074788405e+00
    9.4002551984811582e+00 -1.5053570056759089e+00
    8.5078894406086647e+00 -1.5831333644736170e+00
    8.9731628136079387e+00 -1.3198822888213040e+00
    1.2169319107641671e+01 -1.2899117558515401e+00
    1.1058569682090168e+01 -1.1228739554381038e+00
    8.8134056097273259e+00 -1.1025226146077587e+00
    1.0794028118504043e+01 -9.4969818031787590e-01
    1.3274203814588198e+01 -1.0766742363408128e+00
    1.2696341590865034e+01 -1.2587133364083958e+00
    9.4886486484302495e+00 -1.3954941811727122e+00
    9.2228859326292021e+00 -1.9145699811784813e+00
    9.2601785694159009e+00 -1.5450119704448813e+00
    1.1342964027872954e+01 -1.3378612061336534e+00
    1.3248862079345056e+01 -1.1622756554804012e+00
    1.0245478683705445e+01 -9.5195964290157498e-01
    9.9754091965956349e+00 -1.0651249629527497e+00
    1.0822545651078402e+01 -1.1385949643901436e+00
    1.0156458937872955e+01 -1.3027890318054833e+00
    8.8811409670339252e+00 -1.4948390668067313e+00
    9.6220260010975895e+00 -2.0916584817452897e+00
    9.0257258929959150e+00 -1.6129777956912437e+00
    1.0239269002441397e+01 -1.4201866358332162e+00
    1.0564580588764924e+01 -1.2127608732378674e+00
    1.0040764323407908e+01 -1.1257024947154510e+00
    9.0989757418367532e+00 -1.1451166243761384e+00
    1.0326646551443929e+01 -1.2211990083817810e+00
    1.0873923501727768e+01 -1.2758597553707980e+00
    1.0481374515171893e+01 -1.3770192858092027e+00
    8.9539276916562525e+00 -1.4053713548942843e+00
    9.6704523550110668e+00 -1.1985023602492748e+00
    1.3372268034588581e+01 -1.2157701744828404e+00
    1.2875289153906003e+01 -1.0972776069219567e+00
    9.5163866186542894e+00 -1.0907018758095310e+00
    8.6335645703672395e+00 -1.2545196837228538e+00
    9.6752372628003336e+00 -1.2909293061586802e+00
    9.9761722496960150e+00 -1.3376697310164549e+00
    9.1536556397664874e+00 -1.3852090312800169e+00
    8.3045195276597905e+00 -1.4393060618505860e+00
    9.0297832289822271e+00 -1.2606268878171143e+00
    1.0984386180046485e+01 -1.1927722807927226e+00
    1.1997370143454482e+01 -1.1315870739337259e+00
    8.8644979511201125e+00 -1.1886891135049324e+00
    9.8024116369882499e+00 -9.9084508710421726e-01
    1.1733110196232253e+01 -1.0824786651876874e+00
    1.1483853780087758e+01 -1.2460122630806281e+00
    1.0052354855492478e+01 -1.4063630222530796e+00
    9.5994943042586893e+00 -1.7596552526917983e+00
    9.3950823889326909e+00 -1.4941990711358542e+00
    1.0630853906407625e+01 -1.3518804005812863e+00
    1.1161183972581693e+01 -1.1296822953003962e+00
    1.0179659157791942e+01 -1.0650370340130031e+00
    8.9792169954174543e+00 -1.1129117328549807e+00
    1.0797815651432296e+01 -1.1553676779352324e+00
    1.1126776301320351e+01 -1.2619129308523085e+00
    9.5465899374670755e+00 -1.4427453534089809e+00
    9.0288944062809389e+00 -1.8012486076693579e+00
    9.0134966441520437e+00 -1.6733896060778179e+00
    9.8380676288188109e+00 -1.4660176143431765e+00
    1.1103287038260358e+01 -1.2667538460192707e+00
    8.9480329607161337e+00 -1.1279618188816454e+00
    8.9165204603653425e+00 -1.2266336368575872e+00
    1.0212011423293301e+01 -1.2499140648467206e+00
    1.0659908133319240e+01 -1.2990954262496639e+00
    9.9588549033006455e+00 -1.3127205525347450e+00
    9.1905452544640127e+00 -1.3595916883510457e+00
    1.0404282184254273e+01 -1.2005405993124074e+00
    1.2461942381992101e+01 -1.2090363199247369e+00
    1.2601205055372532e+01 -1.1436815812191663e+00
    8.8614060239795567e+00 -1.1637809656258133e+00
    8.8902057830635286e+00 -1.3862289175591356e+00
    1.0114251886535268e+01 -1.4005984163230643e+00
    1.0480043645123452e+01 -1.4450596850330812e+00
    9.8582860845727538e+00 -1.3226967968756729e+00
    9.5526073979991217e+00 -1.3599612732487734e+00
    1.0171784342633076e+01 -1.1961629189922640e+00
    1.2867701183429197e+01 -1.3268026486451256e+00
    1.1261473231043661e+01 -1.2456128030703091e+00
    8.8947488680350713e+00 -1.3402828102549187e+00
    9.0580450745589083e+00 -1.1395578028969924e+00
    1.1963836829763332e+01 -1.1902277347065127e+00
    1.2349641835255365e+01 -1.2457776653340642e+00
    1.0160574839534469e+01 -1.3548403735612347e+00
    9.5514473691219255e+00 -1.6317220574500191e+00
    9.5283475884266302e+00 -1.5230968852165139e+00
    1.0714228683486946e+01 -1.4112392641673910e+00
    1.1161003604136859e+01 -1.2214976697649604e+00
    8.9710206429937589e+00 -1.1368025236897694e+00
    8.9813673496325244e+00 -1.3673621099729889e+00
    1.0659510618901431e+01 -1.2882789807574100e+00
    1.0537914502812916e+01 -1.2783479710703196e+00
    9.4374641944598725e+00 -1.3272210683309902e+00
    9.0067576325401983e+00 -1.5473914158918800e+00
    9.3950267917105723e+00 -1.4563712504894308e+00
    1.0446177606047369e+01 -1.4715815156946945e+00
    1.0164494809076068e+01 -1.3558474050638254e+00
    8.8653634594382460e+00 -1.3548573130915691e+00
    8.9476754642433054e+00 -1.4144027356363860e+00
    1.1087715017729833e+01 -1.4050661170950505e+00
    1.0933719980348403e+01 -1.3255920294426460e+00
    1.0564241684430076e+01 -1.2075943241794116e+00
    1.0154100448014464e+01 -1.2357654563192384e+00
    1.1493985111002935e+01 -1.1339422997938136e+00
    1.4221888075603093e+01 -1.2664045542772235e+00
    1.2975146602567630e+01 -1.3601462563464837e+00
    9.1299003457977843e+00 -1.4011266577286581e+00
    8.6760904257674927e+00 -1.6452174024068145e+00
    1.0379201523488653e+01 -1.4840942302792408e+00
    1.0780482841599813e+01 -1.2935422572220954e+00
    1.1281298199830752e+01 -1.2364156151309591e+00
    1.0171914008871020e+01 -1.2047340643093591e+00
    1.0640477738797397e+01 -1.0899324902356338e+00
    1.2804587156172188e+01 -1.2611859414640518e+00
    1.1629847890883035e+01 -1.4915924907422882e+00
    8.7467533504705024e+00 -1.6520552670895772e+00
    9.0191043442179613e+00 -1.4349586514215593e+00
    1.2247872574737109e+01 -1.3664416979271876e+00
    1.1527164768765010e+01 -1.2191916213488487e+00
    1.0520880563684955e+01 -1.2317790538692952e+00
    9.3803916030665011e+00 -1.3444142288204990e+00
    1.0277697291573354e+01 -1.2834877313789832e+00
    1.0950606994181108e+01 -1.3449011449908257e+00
    1.0141772652701585e+01 -1.3366541501176252e+00
    8.7720110911443356e+00 -1.4135702375330086e+00
    8.7362287069954068e+00 -1.6221968636944333e+00
    1.0706725799934722e+01 -1.4022844685275668e+00
    1.0571525990007233e+01 -1.1994900907850579e+00
    1.0556320228622834e+01 -1.1937731787524983e+00
    9.2922054758869983e+00 -1.2869425286167624e+00
    1.0093035239699541e+01 -1.2581848545215848e+00
    1.1079031981670049e+01 -1.4506131122212320e+00
    9.8227807153416666e+00 -1.5407740383377526e+00
    8.5390524758171953e+00 -1.6619124148934916e+00
    8.9659989159973765e+00 -1.6694488243783348e+00
    1.1653217056377077e+01 -1.4156746720378708e+00
    1.1423506454430132e+01 -1.0942253078149253e+00
    1.3331673102734724e+01 -1.0941946286612616e+00
    1.1596758215497820e+01 -1.0757661622450359e+00
    1.2932361148320309e+01 -1.0556878560086447e+00
    1.4214446038565551e+01 -1.2044017869841646e+00
    1.2392503668054689e+01 -1.4438063672140009e+00
    8.6568391284857285e+00 -1.6049283963553156e+00
    9.2306145815392870e+00 -2.0311575532252597e+00
    1.0762186649032731e+01 -1.5691584112448642e+00
    1.1346503599005827e+01 -1.2108570903537608e+00
    1.2101251949146574e+01 -1.1073922024311595e+00
    1.0681639018836446e+01 -1.0541960098713747e+00
    1.1770838589050252e+01 -1.0586959148003807e+00
    1.1639383016348278e+01 -1.2008562627812325e+00
    1.0995330843651379e+01 -1.5237084358358757e+00
    8.8072796480487323e+00 -1.9025488196851486e+00
    8.4642637039098219e+00 -1.5670037300930153e+00
    1.2073422850618000e+01 -1.3668330196267351e+00
    1.2158804955433922e+01 -1.1029514457216467e+00
    1.1888505114590931e+01 -1.0546031310766393e+00
    1.0298093703976051e+01 -1.1392188601030580e+00
    1.0784788730649760e+01 -1.1119586235335250e+00
    1.1848045058105832e+01 -1.3131131723517224e+00
    1.0344430979631502e+01 -1.4693760939506888e+00
    8.2187769395605663e+00 -1.6079291283274020e+00
    8.5550769153247526e+00 -1.8180133581547073e+00
    1.0491664725264249e+01 -1.4458056783581354e+00
    1.1619343446564745e+01 -1.1802980732854367e+00
    1.1033588840430941e+01 -1.0477393183936721e+00
    9.5876248232247221e+00 -1.0948901463052332e+00
    1.0333701063787473e+01 -1.1375349695599171e+00
    1.1295109245637224e+01 -1.3485528613438162e+00
    1.0416168977158687e+01 -1.6023873423879527e+00
    8.4414462934559431e+00 -1.8766009922464382e+00
    8.9456589704771741e+00 -1.9331720443962803e+00
    1.0785305539241278e+01 -1.3792700932386048e+00
    1.3030193328410457e+01 -1.0915897056299644e+00
    1.3614976114671972e+01 -9.6367604471250157e-01
    1.3033036163011456e+01 -9.5552259988873967e-01
    1.4247004872154072e+01 -1.0005064614355939e+00
    1.2971432427960135e+01 -1.0892518317684805e+00
    1.1225131856401374e+01 -1.3605684817471997e+00
    8.5895253516230721e+00 -1.7804591100724358e+00
    9.5119512640323070e+00 -2.3757198279662668e+00
    1.0513481837123942e+01 -1.5608786288519461e+00
    1.2691118185945488e+01 -1.1483183457646851e+00
    1.2328038722635617e+01 -9.1315887251566663e-01
    1.2109936608180261e+01 -9.2747219129234915e-01
    1.3067168256148534e+01 -9.3818861826387601e-01
    1.2047887558917219e+01 -1.0657965265565248e+00
    1.0422940096989764e+01 -1.4747655554135073e+00
    9.1051487447333184e+00 -2.1411024411270976e+00
    8.4924041033867219e+00 -1.7859479730112608e+00
    1.1389070275437431e+01 -1.3693670030251428e+00
    1.3747500489684972e+01 -1.1036082801513454e+00
    1.2181423937796902e+01 -9.3243452346842970e-01
    1.1060120652872532e+01 -9.4798829690523245e-01
    1.2141909234518478e+01 -1.0168998522648789e+00
    1.2286221214990761e+01 -1.1455870517609632e+00
    1.0720351063332348e+01 -1.3670132018104917e+00
    8.4324743643031077e+00 -1.7850036818190955e+00
    9.1134197785301527e+00 -2.1410361062247372e+00
    1.0397519140971166e+01 -1.4383434883578849e+00
    1.3421547306355766e+01 -1.1634475860894347e+00
    1.1058273923351027e+01 -9.0791711945387699e-01
    1.0283392581835585e+01 -9.0940227117227579e-01
    1.1533071386207931e+01 -9.8513584181878211e-01
    1.1908331060919613e+01 -1.1636082078823851e+00
    1.0215823948289179e+01 -1.4846324780144022e+00
    9.2496228173330479e+00 -2.3085937459343917e+00
    1.0291268278590366e+01 -2.5128749744864027e+00
    1.1279863688439226e+01 -1.4810788020894783e+00
    1.5614082180366717e+01 -1.1318844240972061e+00
    1.4423920614746896e+01 -8.2978202516903699e-01
    1.4517847026730626e+01 -8.3478775989022846e-01
    1.6093914530381397e+01 -8.6287190514361811e-01
    1.4179748132312014e+01 -9.9549556772201764e-01
    1.1675434464058888e+01 -1.4943576324244974e+00
    9.5052618550241554e+00 -2.2608688792241507e+00
    1.1560917570882559e+01 -3.0604222473824416e+00
    1.0973979295442300e+01 -1.5659116994569189e+00
    1.5070839088110022e+01 -1.1284556757434310e+00
    1.6211675980915135e+01 -9.1984294748229689e-01
    1.4619863462698452e+01 -8.5501338408186911e-01
    1.5347740657272954e+01 -8.7093115070378158e-01
    1.4429015939134167e+01 -1.0276769246483988e+00
    1.1094302206703180e+01 -1.5802354007286914e+00
    1.0370375093884881e+01 -2.7141149326619129e+00
    9.6063661251514620e+00 -2.2545481419469491e+00
    1.2191201324842194e+01 -1.5443839858970829e+00
    1.5239772407151980e+01 -1.1308773931568181e+00
    1.2830906543670370e+01 -8.4527291183667552e-01
    1.1985161582458034e+01 -8.5305180007765569e-01
    1.3780421846729894e+01 -9.0445058449693216e-01
    1.3477246583996219e+01 -1.0514377163446835e+00
    1.1162975935767635e+01 -1.4659719655013037e+00
    9.4692962825211762e+00 -2.3237942391202817e+00
    1.0393984164099889e+01 -2.6728808016857450e+00
    1.0749215794332516e+01 -1.5952846340660176e+00
    1.3783113566839308e+01 -1.1421703333752231e+00
    1.3153623450365105e+01 -9.1696382285587319e-01
    1.1575980408352448e+01 -8.7305174512472850e-01
    1.3488444200054909e+01 -9.0186198556737096e-01
    1.4386791450731980e+01 -1.1292733125783196e+00
    1.0884433956291046e+01 -1.5913352797983469e+00
    1.0138284132521642e+01 -2.7372271014576284e+00
    1.1091960089376141e+01 -2.7679649338096870e+00
