<?xml version="1.0"?>
<opencv_storage>
<opencv_ml_ann_mlp>
  <format>3</format>
  <layer_sizes>
    3780 15 3</layer_sizes>
  <activation_function>SIGMOID_SYM</activation_function>
  <f_param1>6.6666666666666663e-01</f_param1>
  <f_param2>1.7159000000000000e+00</f_param2>
  <min_val>-9.4999999999999996e-01</min_val>
  <max_val>9.4999999999999996e-01</max_val>
  <min_val1>-9.7999999999999998e-01</min_val1>
  <max_val1>9.7999999999999998e-01</max_val1>
  <training_params>
    <train_method>RPROP</train_method>
    <dw0>1.0000000000000000e-03</dw0>
    <dw_plus>1.2000000000000000e+00</dw_plus>
    <dw_minus>5.0000000000000000e-01</dw_minus>
    <dw_min>0.</dw_min>
    <dw_max>50.</dw_max>
    <term_criteria>
      <iterations>3000</iterations></term_criteria></training_params>
  <input_scale>
    1.0422003293224247e+01 -2.8102563698782470e+00
    1.4717765279397483e+01 -1.1883304097525111e+00
    1.3513858974299556e+01 -7.0129486242783845e-01
    1.7422715357382160e+01 -6.0594259027548925e-01
    3.8737394368366083e+01 -1.2776010222020604e+00
    5.9105034933369176e+01 -1.3882551066385616e+00
    3.4763376521996420e+01 -1.2354048188233921e+00
    1.2930002459042685e+01 -1.2247959374655095e+00
    1.1428801571758283e+01 -3.4228872358872890e+00
    1.2925882285138936e+01 -3.9389799215781927e+00
    1.2590914050522723e+01 -1.1860664587185425e+00
    2.3601702707244996e+01 -1.0879168630720506e+00
    2.7652030765496431e+01 -8.3262967462262627e-01
    3.9987168044426213e+01 -1.6922535214375731e+00
    3.1454293120480642e+01 -9.6882448957266665e-01
    3.3885256748556600e+01 -1.3050410224662867e+00
    1.0984995738332081e+01 -1.2844338735469987e+00
    1.5108812464066949e+01 -4.8655754233132660e+00
    1.1782598734630438e+01 -3.3041407303274672e+00
    1.3999326857566681e+01 -1.5193965100984321e+00
    1.3428857202186844e+01 -8.4721529855474931e-01
    2.1701528407095211e+01 -8.5905715003897776e-01
    2.9944312423375727e+01 -1.0307677662601764e+00
    4.1939491855862542e+01 -1.3741870408615913e+00
    2.3469406956392294e+01 -1.1499186049447618e+00
    1.5462542949086584e+01 -1.9498737807607827e+00
    1.1898470000745657e+01 -3.3823269921349541e+00
    1.6762393550927520e+01 -5.2512645079025511e+00
    1.0079457884539311e+01 -1.3002768748721303e+00
    1.1608239471397622e+01 -8.7824535555781236e-01
    2.8431665206360169e+01 -1.0116555482694654e+00
    4.5969031761550802e+01 -1.4284509602320790e+00
    3.8415625008659724e+01 -1.1590662270688814e+00
    2.0317837407416196e+01 -1.0851365071386818e+00
    1.0589761955441029e+01 -1.5398770573172724e+00
    1.6431780552328505e+01 -5.1655952944525865e+00
    1.1482986775262138e+01 -3.2193472987419045e+00
    1.6841844949680358e+01 -1.3650010981217018e+00
    3.0810934161814338e+01 -1.0816007161045607e+00
    4.6417891384145392e+01 -9.6509127639288395e-01
    2.8634178381367647e+01 -1.0812781320592397e+00
    4.8014745076957126e+01 -1.2691009241784168e+00
    4.8064058340784626e+01 -1.7930614956476476e+00
    1.1071202688384833e+01 -1.2393731515010580e+00
    1.1771944011721303e+01 -3.4777022387760974e+00
    1.0521842487913734e+01 -3.0040467872987984e+00
    1.5442771392855850e+01 -1.5709996831307471e+00
    4.6548844789907776e+01 -1.5683433466989729e+00
    5.0913512868325448e+01 -1.0953427856673905e+00
    3.1346711259478038e+01 -1.1679084439811469e+00
    4.6917806895582999e+01 -1.1927877853491964e+00
    2.7332017624401551e+01 -1.3681503119000327e+00
    1.0639918094569234e+01 -1.6172319415336733e+00
    1.6236728929914261e+01 -5.2039127902980775e+00
    1.1429093279411065e+01 -3.1448244385598736e+00
    1.0341556864303413e+01 -1.1753534461005073e+00
    1.2264514356551254e+01 -7.5816910306149621e-01
    4.0278616426339838e+01 -9.7915630570410062e-01
    3.0746495770270236e+01 -1.0002805596527378e+00
    3.0995449324518791e+01 -7.4188744469276924e-01
    1.6059127889757153e+01 -8.1129703484051019e-01
    1.0531343613625861e+01 -1.3032326176003679e+00
    1.1386453983257258e+01 -3.3208950281427621e+00
    1.1242447045923557e+01 -3.2646720898327199e+00
    8.4078940220906002e+00 -1.1034782452141412e+00
    1.5226675689697078e+01 -9.0902229682453672e-01
    3.8522270886368212e+01 -1.0063325316786789e+00
    2.8266075730747904e+01 -1.0317300803076450e+00
    2.8277681728393709e+01 -7.4709645357602938e-01
    2.3697487891554381e+01 -1.2577429245338927e+00
    1.0206735731341748e+01 -1.4467410257130839e+00
    1.3800659066808922e+01 -4.3940388079497810e+00
    1.0109145816101512e+01 -2.5903695583303898e+00
    1.4509291454136488e+01 -1.1190340102334018e+00
    2.5643737831800770e+01 -9.2997069227988283e-01
    4.9684101429087626e+01 -9.6943981506845900e-01
    3.3994932201618091e+01 -1.2316407759646775e+00
    6.0182181271314057e+01 -1.2920748032256908e+00
    3.1468129232404284e+01 -1.2925001851604123e+00
    1.3522966754009564e+01 -1.6020337641361329e+00
    1.6428860392850694e+01 -5.1685611262532714e+00
    1.3222536975577869e+01 -3.8100568690974654e+00
    1.1748258461038517e+01 -1.2101257129286958e+00
    1.6646893263271416e+01 -9.2386680099500673e-01
    3.0481022759624576e+01 -7.7346261036015118e-01
    3.0926352342627325e+01 -1.3646596914972347e+00
    4.1718419393471564e+01 -1.1811272829892308e+00
    3.5817772723944451e+01 -1.6384365236530021e+00
    1.7034970040415836e+01 -2.0078486764164669e+00
    2.0007377610478805e+01 -6.2676458455850153e+00
    1.2844486897007933e+01 -3.6912803202213844e+00
    1.0508103575900437e+01 -1.0829401028291106e+00
    2.5521483790514825e+01 -1.0897149253299276e+00
    3.3761025800373211e+01 -1.0246569314917267e+00
    2.9700262876393861e+01 -1.0933919501985956e+00
    4.6599777170375255e+01 -1.1395316165923290e+00
    3.1919251259279424e+01 -1.3400271932531562e+00
    1.0185103753429392e+01 -1.2476929943152708e+00
    1.3295207825055293e+01 -4.2277174217426987e+00
    1.9285446452386751e+01 -5.9925565329208368e+00
    1.2086157315581470e+01 -1.4224624569766617e+00
    2.0044693152556736e+01 -1.0378675494020329e+00
    2.4109757794239645e+01 -8.7251854115222294e-01
    1.7644836275809489e+01 -8.9108708104379342e-01
    4.0009581368929723e+01 -1.2157773647319321e+00
    2.1218146485396698e+01 -1.1558549366789241e+00
    1.0715094264723854e+01 -1.5944038197433530e+00
    2.0488914272073316e+01 -6.9070042908848190e+00
    1.2159293109177300e+01 -3.3901564336333996e+00
    1.2737837610804554e+01 -1.1083886883490515e+00
    2.3986597636724021e+01 -1.0032454525023577e+00
    3.4957822746815729e+01 -6.9579222408448516e-01
    2.9871815883568448e+01 -1.1342961224515264e+00
    6.1350790491953838e+01 -1.0975826991870945e+00
    4.4269019056575324e+01 -1.6384408980122369e+00
    1.5762535229874462e+01 -1.7645197648234079e+00
    1.8570999018053691e+01 -5.7668089695264628e+00
    1.2724343806945805e+01 -3.5093604793285809e+00
    1.2933459518334246e+01 -1.2109989273735668e+00
    3.1778328148655461e+01 -1.2814797069179544e+00
    3.2776110477974314e+01 -7.7338607932643577e-01
    2.2740819623070877e+01 -9.6526658489542294e-01
    5.4612016780660127e+01 -1.1226066761531155e+00
    4.0081795371206276e+01 -1.3758268664407376e+00
    1.2632643857488016e+01 -1.5911704134444156e+00
    1.9334677004127805e+01 -6.4020647383805658e+00
    1.3369108744194319e+01 -3.8580253463811678e+00
    1.4473970453863799e+01 -1.4560540212281359e+00
    2.6456229658222764e+01 -1.0511492087712000e+00
    3.4820527550823691e+01 -7.8043312095026907e-01
    2.2419926392067225e+01 -8.3479364738293926e-01
    4.1537240898575156e+01 -8.8027612576297232e-01
    2.9493386715763698e+01 -1.2012384951408555e+00
    1.1170124817308576e+01 -1.5170832149330449e+00
    1.8026292105060449e+01 -5.9463738682284157e+00
    1.7410372689333318e+01 -5.2565304815875793e+00
    1.1871100538135313e+01 -1.2265431557991797e+00
    1.3470190903669089e+01 -6.7072046786471606e-01
    1.9919971251306468e+01 -6.6514583967026453e-01
    2.1385032428289399e+01 -9.1118313334972267e-01
    2.4812380140283448e+01 -7.8255612699995780e-01
    3.9475336885610830e+01 -1.3325426625292616e+00
    1.5902333856050637e+01 -2.1667221098792360e+00
    1.9712862975569255e+01 -6.8218557223825282e+00
    1.0081704982840529e+01 -2.6454041366971475e+00
    1.2318748787873467e+01 -1.1480625847219259e+00
    2.2531667776410142e+01 -1.0259721080681534e+00
    3.9728065560812922e+01 -7.6204926301408649e-01
    4.6097865872546130e+01 -1.4244507608037695e+00
    4.0607947500025823e+01 -9.9213992454537214e-01
    4.7462739027540806e+01 -1.4512876050387500e+00
    1.2476401457119300e+01 -1.4807105152706832e+00
    1.8111734696198514e+01 -5.9534430665077975e+00
    9.3978906866329766e+00 -2.4371849647252453e+00
    1.2518028602915486e+01 -1.0346775368595433e+00
    2.1585869346435111e+01 -1.0671897789993310e+00
    2.8991374115837981e+01 -7.5312845576415122e-01
    3.5428506633330244e+01 -1.4650304146922337e+00
    2.6831258310995661e+01 -7.9804189259875746e-01
    2.8248318111332971e+01 -1.4858203055633157e+00
    9.4277159674130981e+00 -1.4314926443241625e+00
    1.5585861338903909e+01 -5.1093206485396285e+00
    1.6413646582612902e+01 -4.4975295296133275e+00
    1.1204383037616955e+01 -1.0596059116443737e+00
    1.6395751316081196e+01 -8.1530425038632803e-01
    3.5115911698881156e+01 -7.5876406552120179e-01
    2.9248699534494726e+01 -9.3984117796375422e-01
    3.0776395950202907e+01 -9.9690943237832352e-01
    3.4005856693132962e+01 -1.4029105215786286e+00
    1.3896374671403434e+01 -1.8085196014802227e+00
    1.1832163864234554e+01 -3.7751055930116202e+00
    1.4192997391316188e+01 -3.9646870193739363e+00
    9.4896700587838492e+00 -1.1270318054292390e+00
    1.5869274823125341e+01 -9.9664500507015763e-01
    2.6082676854042116e+01 -9.6438174641257324e-01
    2.9350751232800324e+01 -1.0412860660522187e+00
    3.1226718449309626e+01 -1.0693097426621954e+00
    2.2136044581157261e+01 -1.6035436814222375e+00
    1.1359728818884324e+01 -1.8851135946876967e+00
    2.1100063695723616e+01 -6.6513097559337107e+00
    8.4848816474872617e+00 -1.9542845945933627e+00
    1.5010012051002661e+01 -8.7910158235721847e-01
    3.3698265027780238e+01 -9.6723253989190117e-01
    5.5419332091039209e+01 -1.0948490274789584e+00
    6.0522551077447957e+01 -1.9722087925683918e+00
    4.3291480819080988e+01 -9.9666581530643639e-01
    2.7445397058831315e+01 -1.3589917867430183e+00
    1.0494895542344775e+01 -1.5297818787984263e+00
    1.1851285378167878e+01 -3.6248414198862973e+00
    8.5797761753018413e+00 -2.0617872829258852e+00
    1.3251247174471962e+01 -1.0510693081698299e+00
    2.8479422846365221e+01 -7.9925320141862444e-01
    3.4578496027635616e+01 -8.1555491355988297e-01
    4.8205757590063108e+01 -1.6035666209483068e+00
    3.7123451175537724e+01 -8.6270974584839122e-01
    1.9055196806919540e+01 -1.1943793052974379e+00
    1.0744800620497186e+01 -2.0414403216324062e+00
    1.6253720464943797e+01 -5.2452337309391384e+00
    1.1269359135820674e+01 -2.9265707234026683e+00
    9.5176930757725025e+00 -1.1159042982685166e+00
    2.4919400720764717e+01 -1.0642549403451169e+00
    2.8161301940852404e+01 -9.6898269324474973e-01
    2.8380067056192097e+01 -8.7183529081470446e-01
    5.8920325763172293e+01 -1.1702065174448018e+00
    2.8276865231007509e+01 -1.5560181261288961e+00
    1.0083127697088804e+01 -1.7126668936807872e+00
    1.7641630103556675e+01 -5.3061365565453178e+00
    1.0866150448784380e+01 -3.1347584702811941e+00
    1.1761147275267886e+01 -1.3090046732023728e+00
    2.1088600601237868e+01 -1.0834692019966567e+00
    2.3148854367160581e+01 -8.5498800545041775e-01
    2.4614714111738454e+01 -8.1002522750769979e-01
    4.3752625643882517e+01 -1.0298992509337483e+00
    1.9209559743743338e+01 -1.0991645948188957e+00
    9.7210386814869807e+00 -2.0510099749069814e+00
    2.3969201510264142e+01 -7.6386887770611134e+00
    8.5320169652749414e+00 -1.9199876610450499e+00
    2.2612671015105573e+01 -1.3121328226254925e+00
    5.3371107094602735e+01 -1.1129239092810710e+00
    5.9328463429285215e+01 -1.0746565405792325e+00
    3.5852437364492701e+01 -1.1889956410684517e+00
    5.2786299445713240e+01 -1.0986269557271719e+00
    2.9954479363903420e+01 -1.4750410064749033e+00
    1.1037661599865318e+01 -1.9136399259033994e+00
    1.8758064095957717e+01 -5.6396982214753661e+00
    8.8769818319532714e+00 -2.1884098514000931e+00
    1.3133285403834206e+01 -1.1140527674489740e+00
    2.5698793750681016e+01 -8.0456464929839078e-01
    4.9693845463607566e+01 -9.4988334526180362e-01
    2.4122242396825929e+01 -1.0008117338372937e+00
    4.1300615310473994e+01 -1.0828041658454184e+00
    3.3761832236870234e+01 -1.5891373318872861e+00
    1.1246875993970031e+01 -2.2820109922458087e+00
    1.5188711502824297e+01 -4.8515326442278637e+00
    1.0514100553346285e+01 -2.7459248787178221e+00
    1.2810904443117815e+01 -1.0416156989865308e+00
    3.3359215505676815e+01 -1.2124999208211462e+00
    4.5447093859164895e+01 -8.9050839035972451e-01
    2.6309761691795014e+01 -7.5956295887835212e-01
    3.1148796355546153e+01 -9.2335773043239233e-01
    2.3639683976971288e+01 -1.3359657004587753e+00
    1.0816360225040899e+01 -2.2719245584551424e+00
    1.8742991611387303e+01 -5.7442483104494926e+00
    1.1858479740178391e+01 -3.1756697249829147e+00
    1.5246907054050224e+01 -1.3790342881890709e+00
    2.9455880644000860e+01 -1.0087163832323607e+00
    6.1476240492858558e+01 -9.8979194448728292e-01
    1.3659919974459140e+01 -4.9381092497701778e-01
    3.6504897040608277e+01 -1.1250998498782270e+00
    2.1174648414878678e+01 -1.4761071877579435e+00
    1.1883475911462215e+01 -2.8370047771794784e+00
    3.7199445213743282e+01 -1.2259248269913195e+01
    1.0256274812502816e+01 -2.0434162184731899e+00
    1.0185020226282175e+01 -9.3837642420497180e-01
    2.1472057396938542e+01 -7.9244749186064867e-01
    5.2283915046493213e+01 -8.6056848188207757e-01
    5.2607434828682067e+01 -1.5681922627876352e+00
    6.0327507734823094e+01 -1.4307153397194381e+00
    2.5775022333853347e+01 -1.3845663439894129e+00
    1.1995837699542887e+01 -2.5113127769242167e+00
    1.2968848736420890e+01 -3.7218909756800609e+00
    9.6635875517128742e+00 -1.9334529631795077e+00
    1.4143650304047554e+01 -1.2351991233498871e+00
    3.0454996708528114e+01 -1.3007837734667573e+00
    4.1421538963741561e+01 -1.1364691228188213e+00
    2.6396627441103611e+01 -1.2498454503692789e+00
    2.9018538898309526e+01 -1.0245875919505931e+00
    1.3158140076235549e+01 -1.2362952550617423e+00
    1.2494811693896050e+01 -3.1847809093331834e+00
    1.3749676757499151e+01 -3.9026825667797742e+00
    1.0277300027243417e+01 -2.3712213022791415e+00
    1.6737528261456614e+01 -1.3779928619711421e+00
    3.0430798956848438e+01 -1.0030032876754622e+00
    5.4217039330349984e+01 -7.8930602118140114e-01
    3.2887661564896369e+01 -6.8867756760347942e-01
    2.9948373280789827e+01 -9.7839931101172739e-01
    1.3202692865769272e+01 -1.0670732226860400e+00
    1.1401733756945312e+01 -2.4970169262660500e+00
    1.8761410910880290e+01 -5.8561792695512205e+00
    8.3102983015735212e+00 -1.7969103834314271e+00
    1.3423956653416996e+01 -1.0577051263651973e+00
    2.4613787285681759e+01 -9.3093515973974283e-01
    3.0818789824691994e+01 -7.3672645483722699e-01
    4.6790844395370740e+01 -1.1653201442188115e+00
    2.5555692490522446e+01 -1.0752732078940797e+00
    1.1313720604893764e+01 -1.1404490177142765e+00
    1.4488919422258391e+01 -3.9278707135026671e+00
    2.7583314966487592e+01 -9.0182176744546112e+00
    1.0697925828199761e+01 -1.8696570111236199e+00
    1.6542647634855456e+01 -1.3804870231584130e+00
    1.7877447641738350e+01 -9.0690835445750373e-01
    1.8951706944712303e+01 -8.1721294443822368e-01
    3.7369515409589816e+01 -1.8735014827576135e+00
    2.4771496923522879e+01 -1.1971345719996915e+00
    9.8640208459723873e+00 -1.2700477228337119e+00
    1.1588415855863619e+01 -2.7942529054242571e+00
    1.0937464592710564e+01 -2.7591352825966093e+00
    1.2546349253765120e+01 -2.0647295433571480e+00
    1.3823899107827943e+01 -1.1701228330856872e+00
    3.2540251101107579e+01 -1.3665935846616029e+00
    3.6941892154812003e+01 -1.1747211842869065e+00
    2.5517831003074917e+01 -1.4623775611230256e+00
    1.9200064310550115e+01 -1.0045684034794815e+00
    1.1185282410177290e+01 -1.3811062347882435e+00
    1.0587737776149661e+01 -2.0899930337035411e+00
    9.4437946433872515e+00 -2.1015721929850986e+00
    8.0233008937724435e+00 -1.7454229042563492e+00
    1.5697235881043783e+01 -1.1369489370721328e+00
    2.9074994003842029e+01 -9.3709926032311930e-01
    2.2128118417423487e+01 -7.1955789074092513e-01
    4.6082288422737271e+01 -1.3179277656538102e+00
    3.5895575647667357e+01 -1.2645108950787149e+00
    1.2451194621636049e+01 -1.2958706793923900e+00
    1.4072602008651875e+01 -3.8095021357201433e+00
    1.4585893098722975e+01 -4.6151409044268119e+00
    1.0153724364662802e+01 -2.0137068223976939e+00
    2.2531265010465727e+01 -1.5008667334498991e+00
    3.4778059053517900e+01 -1.1496530701508072e+00
    3.1866409800159701e+01 -9.6410184377308439e-01
    3.6944091809780524e+01 -1.4325990901771151e+00
    3.8039626853360389e+01 -1.4342750821515025e+00
    1.0209013062310332e+01 -1.4588427280874616e+00
    1.3228622556059406e+01 -3.8268200138120867e+00
    1.9943895974721617e+01 -6.4806905920261277e+00
    1.0420782802201305e+01 -1.8195449985387735e+00
    1.5287005266797772e+01 -1.3030648235242801e+00
    3.6737593606349542e+01 -1.5693135625991681e+00
    4.2736203514428468e+01 -1.0062562795585368e+00
    1.9719574318746254e+01 -1.2102413019466711e+00
    3.7104868704375839e+01 -1.4270300461521555e+00
    1.5546530920072042e+01 -1.6989487196209019e+00
    8.7394338883890708e+00 -1.6284510546838562e+00
    1.0251834907913500e+01 -2.2908540642614126e+00
    9.5624477148676252e+00 -1.8530573142104232e+00
    1.8479554695571782e+01 -1.3783624899018980e+00
    2.9664191877559134e+01 -1.5023169488550061e+00
    2.2309267690411801e+01 -7.5007076657742477e-01
    2.8944122196497254e+01 -1.7447792798166855e+00
    2.2114734292398420e+01 -1.1073292529577392e+00
    1.1975570675576305e+01 -1.3210318209102330e+00
    8.8252167696777430e+00 -1.5234824087696182e+00
    9.7258225909253877e+00 -2.2746720814661971e+00
    1.1035539431710260e+01 -2.4210896561134190e+00
    2.1443468039293425e+01 -1.6175443988072473e+00
    2.7143971058046887e+01 -1.2683316142657599e+00
    2.1354756976649533e+01 -7.9629990605513656e-01
    2.2708146809038166e+01 -1.1976719387804666e+00
    2.6550343171182437e+01 -1.1332508178981939e+00
    1.0741332195182403e+01 -1.5883788703823529e+00
    1.1007920120170789e+01 -3.0245838477957432e+00
    1.6633053959283522e+01 -5.2988729966727615e+00
    1.0004391920972328e+01 -2.5270637884064930e+00
    1.5491961553905009e+01 -1.2953840693955840e+00
    2.0169274837470418e+01 -1.2606153157905344e+00
    1.7209177934772590e+01 -8.7018445328753202e-01
    2.2613493889371949e+01 -1.3840681859782109e+00
    1.5044051672383773e+01 -8.5467023508568085e-01
    1.2260625222311972e+01 -1.6095484764801948e+00
    1.0227094967491496e+01 -2.6277218342130788e+00
    1.4050277574017937e+01 -4.3447064965105096e+00
    1.1147816045214979e+01 -2.1619373402026567e+00
    2.1159828976722505e+01 -1.4253034051391860e+00
    2.3579749522635932e+01 -1.2171785379665658e+00
    3.3134035889919829e+01 -8.5998262145644555e-01
    2.2953327141790776e+01 -1.2661076055780445e+00
    1.8943322344505624e+01 -7.7357534060541844e-01
    1.2254292808797176e+01 -1.1179391081838006e+00
    9.1050028608932667e+00 -1.4433667198414208e+00
    1.1657576583282756e+01 -2.7308908885673104e+00
    1.2454480320525066e+01 -2.5065033323225010e+00
    1.8700939612661607e+01 -1.6112011967298343e+00
    2.6731262174703968e+01 -1.3703514971787611e+00
    2.3975857059808614e+01 -6.8384148126459154e-01
    1.5232509499201678e+01 -1.0547571335566459e+00
    2.8722525707216910e+01 -9.6625607248326806e-01
    1.0670897986461465e+01 -1.0836675323547305e+00
    9.7039978152368676e+00 -1.7118865723803851e+00
    1.3251573325202914e+01 -3.1443198746241721e+00
    9.0864788058846724e+00 -2.1968015177404530e+00
    1.5696721142698371e+01 -1.3701235769729310e+00
    2.1107139843466253e+01 -1.3944692085176493e+00
    2.0071134385262535e+01 -9.3888840903536752e-01
    1.3856287580038455e+01 -1.1098994091612964e+00
    1.5865927011921514e+01 -7.4381812540487424e-01
    1.1004960923942562e+01 -1.3771156154044568e+00
    1.0671237837702348e+01 -2.6031591726628398e+00
    1.3698359918704940e+01 -4.3035861718692647e+00
    9.4297312270329829e+00 -2.3672295124827287e+00
    1.1256897611522991e+01 -1.3055993883330970e+00
    2.3204633156193655e+01 -1.4412318631548331e+00
    1.5575061926916648e+01 -8.0194702981651678e-01
    1.1808259546551051e+01 -1.1632650372422413e+00
    1.9674736964335725e+01 -1.0775694442037682e+00
    1.0643620625531312e+01 -1.4020938718607765e+00
    1.1056930682861424e+01 -2.6400928219473543e+00
    1.2966334224581319e+01 -3.6847516506089240e+00
    1.3824774982892086e+01 -2.8756912723885391e+00
    1.8364689314279943e+01 -1.7011990290987968e+00
    3.2468878326873572e+01 -1.6246968279554557e+00
    3.4549698452542678e+01 -8.3888381058150807e-01
    2.0942032903959113e+01 -1.6663110237094012e+00
    3.1929631208000544e+01 -1.1191638578470695e+00
    1.4058283981238896e+01 -1.3433652577675232e+00
    1.1966908431306051e+01 -1.8791977798970143e+00
    1.5375423536771702e+01 -3.4462115961093520e+00
    1.1835375779235935e+01 -2.7334493741022001e+00
    1.0473384536667707e+01 -1.1200139115986172e+00
    1.4095816181192925e+01 -1.0496034009680881e+00
    2.7512067458084825e+01 -8.3060809862902174e-01
    1.9207101629646267e+01 -1.5383083020509813e+00
    3.0484234875318247e+01 -9.4474654139435066e-01
    1.6505799173480515e+01 -1.1851220676632317e+00
    1.3701736507347496e+01 -1.5322612950680625e+00
    1.3341206341935838e+01 -2.9972487788389159e+00
    1.2445464448817702e+01 -3.0626785421096989e+00
    1.4895019845481007e+01 -1.6201888989954640e+00
    1.9565171338369488e+01 -1.2334466637344546e+00
    2.3638934485930928e+01 -9.4296859255096643e-01
    9.0308339973310190e+00 -9.7344876454120310e-01
    1.8652816600852550e+01 -1.1887182096104463e+00
    8.5816406540268630e+00 -1.4711857233894650e+00
    9.5879957409876617e+00 -2.2136990085451007e+00
    1.5695175015213717e+01 -4.2579492419143126e+00
    1.0999397117032718e+01 -2.7462423086612362e+00
    1.2572151327459224e+01 -1.4028219215720983e+00
    1.9784429349498645e+01 -1.4456008559368141e+00
    2.8692504420713625e+01 -8.9928778430014644e-01
    9.5748563816195364e+00 -1.0785014087325004e+00
    1.1958181623616852e+01 -8.4663837674950859e-01
    9.9233429217336475e+00 -1.7308127273582909e+00
    8.7766345046928649e+00 -1.8640922686077530e+00
    1.7408396739428348e+01 -5.1250447727909068e+00
    1.2687204262420101e+01 -2.7973737464195096e+00
    1.8808312358186001e+01 -1.6263203987394004e+00
    1.9376846557833485e+01 -1.2610675678773258e+00
    3.3212495268421272e+01 -8.5800209215259582e-01
    2.5676179497422225e+01 -1.8321332760056557e+00
    2.2012417925993891e+01 -7.1613478668426056e-01
    1.6370788523256081e+01 -1.0177246343401236e+00
    1.5157400616079867e+01 -1.4222698260596769e+00
    1.4656326748782499e+01 -3.4382433279131011e+00
    1.0646515851576101e+01 -2.6793473750369099e+00
    1.7236556375159878e+01 -1.7333666254570022e+00
    1.9896909794492984e+01 -1.3270859012471095e+00
    4.1676504796251038e+01 -9.4528795816798394e-01
    2.9742021053703631e+01 -1.9076250799386059e+00
    2.5123842479309562e+01 -9.3462802641440468e-01
    1.5533563729821731e+01 -1.2433998741147494e+00
    1.4217116253693186e+01 -1.6024536352888576e+00
    1.3191586706652112e+01 -3.5405593960516004e+00
    1.4522795550001081e+01 -3.3523365834998851e+00
    1.4058610121188821e+01 -1.4441930344214262e+00
    2.2712154826427458e+01 -1.8661323291601311e+00
    2.1306441746895814e+01 -1.0195679681266996e+00
    1.2855155364709212e+01 -1.2475326615387228e+00
    1.2876958446172267e+01 -9.0469758651848353e-01
    1.1935385452348275e+01 -1.4219808730157162e+00
    9.2409404971991442e+00 -1.8385748696966282e+00
    1.5768731628665472e+01 -4.5317684457580096e+00
    1.3123586692860661e+01 -3.9067369272187862e+00
    1.0246626144820343e+01 -1.3880687982689182e+00
    9.1025827377852000e+00 -1.0923820344241648e+00
    1.7947872300675918e+01 -9.3466446549348048e-01
    1.2198446638015456e+01 -1.2809517192453954e+00
    1.2032957320792944e+01 -8.4438373033835556e-01
    1.2667047173454526e+01 -1.5756048981026098e+00
    1.3599595061410202e+01 -2.6758290008864800e+00
    1.7268306047263820e+01 -5.4377274559795010e+00
    9.7315559596726544e+00 -2.2924835008294080e+00
    1.9168098538721303e+01 -1.5695437207272325e+00
    3.2469643360856260e+01 -1.3854968045349620e+00
    4.3523545825799374e+01 -7.9777904821710677e-01
    2.1078004254793314e+01 -1.2456202161388528e+00
    1.1953477787564882e+01 -5.2975992625079027e-01
    2.0940854337485217e+01 -1.3035332546071865e+00
    1.5961278710039048e+01 -1.5280808855912165e+00
    1.0534032290377240e+01 -2.3936066284860917e+00
    1.0025646714449133e+01 -2.6472051703178856e+00
    1.2583125475207092e+01 -1.1331163469799583e+00
    3.6063328186192116e+01 -1.3745367244040108e+00
    2.0886793000032529e+01 -6.9377019010277907e-01
    1.1145689279952503e+01 -1.0233595698592199e+00
    1.2100578505187119e+01 -5.2780729698753015e-01
    1.4297143488166506e+01 -9.4939601817581343e-01
    1.3843378645806251e+01 -1.6555650872887302e+00
    1.2356782398190603e+01 -3.2025955141690545e+00
    1.0840301535168791e+01 -2.9320439988277993e+00
    1.4161665907153376e+01 -1.6431100926834814e+00
    1.6300355417186502e+01 -1.2096738239408533e+00
    3.0234710520987910e+01 -9.2553937727568647e-01
    1.4338331561406402e+01 -1.2634083741992075e+00
    1.5267817039788598e+01 -8.9964082180854343e-01
    1.1471882342148232e+01 -1.4371057069879758e+00
    1.2210252340163347e+01 -1.8726460962194009e+00
    1.2154296855969072e+01 -3.4851600885303742e+00
    1.2282416785413021e+01 -3.5243867694193871e+00
    1.3138445776222429e+01 -1.5481994050911727e+00
    2.6942389141293884e+01 -1.5933396366883645e+00
    2.2360911761617722e+01 -8.4258630026474846e-01
    1.0855357724841159e+01 -1.2382211601180968e+00
    1.0220893662509795e+01 -7.9546715390492428e-01
    9.6550894675092316e+00 -1.2749192844285564e+00
    1.0943316389257708e+01 -1.8810368035369458e+00
    1.1504645192805590e+01 -3.5139685897098807e+00
    1.2783356732506615e+01 -2.8199535400368392e+00
    2.0839941984574274e+01 -1.3154790043424809e+00
    2.7343124299338964e+01 -1.0508465803467995e+00
    3.4881842389116919e+01 -8.5951060219064745e-01
    1.7296686589283528e+01 -1.2173731401866728e+00
    1.0838082286509350e+01 -5.7647659238801230e-01
    1.9225637210446251e+01 -1.1876507010556632e+00
    2.2636921842541550e+01 -2.2220808333325404e+00
    1.3716793013306395e+01 -3.4149169857512356e+00
    9.9804274211590247e+00 -2.3615375895257467e+00
    1.9032564713719943e+01 -1.5383412284543709e+00
    2.6164640180518823e+01 -1.3973213633888908e+00
    3.3662201454719842e+01 -8.8255046255063252e-01
    1.2057340615630560e+01 -1.0226652761800421e+00
    1.0782067993545629e+01 -6.2071850615889235e-01
    1.6816348696689637e+01 -1.3261109447904438e+00
    1.7735082070612862e+01 -2.3730725508304280e+00
    1.1763898128524987e+01 -2.9270262382315528e+00
    1.3049801173263660e+01 -3.3541082865492395e+00
    1.1701731723306514e+01 -1.3601701660622045e+00
    2.0110230788867835e+01 -1.2756142822130199e+00
    2.8836570376936464e+01 -8.9646050181711145e-01
    1.2696536553208519e+01 -1.1373429208594803e+00
    1.0897079336275985e+01 -7.5110128992861558e-01
    1.0872111817037389e+01 -1.1299197918493387e+00
    1.5570802114511928e+01 -2.4221387495336715e+00
    1.2272956469714281e+01 -3.5822644696542869e+00
    1.0286238777995209e+01 -3.0727595940176169e+00
    9.6894469742097016e+00 -1.6162105012899781e+00
    1.7024125940711002e+01 -1.4328417017397568e+00
    1.8832658032173409e+01 -8.4564378715611854e-01
    1.3251757334660400e+01 -1.2061719162994857e+00
    9.9042306108034452e+00 -7.9596179556743540e-01
    1.3153307763763761e+01 -1.5422625091003683e+00
    1.3378559059546211e+01 -2.6044811788167714e+00
    1.0467196135909735e+01 -3.2353414848257480e+00
    1.0297406134141642e+01 -2.8203484140012360e+00
    1.4360971147980941e+01 -1.5606332306284307e+00
    1.7080945058218834e+01 -9.2990201069187517e-01
    1.9736328433208637e+01 -6.9281697480972593e-01
    5.2626743555900433e+01 -1.5841575720139265e+00
    4.1531475197206113e+01 -1.2989673720697137e+00
    1.2947608784831527e+01 -7.0306514487038441e-01
    1.0629899143342147e+01 -1.3726901999222048e+00
    1.2766797086165056e+01 -3.4139351706263330e+00
    1.5517941771801894e+01 -4.7315435558620003e+00
    1.1918192060567478e+01 -1.7121525293723043e+00
    1.4865331892934952e+01 -1.1269787655908863e+00
    3.7735558586077076e+01 -1.2263142072652811e+00
    4.8353159120211210e+01 -1.4547683789883261e+00
    2.9452852391064873e+01 -9.7765123247354846e-01
    1.8580637178339096e+01 -9.5978321401229671e-01
    9.5223338776670019e+00 -1.3726407055593883e+00
    1.2450341406655836e+01 -3.6628696960878262e+00
    1.0207159258991497e+01 -2.1809556975656292e+00
    1.3052779629098803e+01 -1.5045830994041651e+00
    1.3997440332963876e+01 -1.2305572730398768e+00
    2.3890537385606670e+01 -1.1964527501324373e+00
    2.1983982117973401e+01 -1.1387175974052310e+00
    1.0573371923547597e+01 -8.5649108067881241e-01
    1.2183056489797952e+01 -9.8850923025306570e-01
    9.8226667507618846e+00 -1.2984723230422235e+00
    9.8285442765694775e+00 -2.2391971692689152e+00
    1.3411861343179440e+01 -3.5203579115420238e+00
    9.0197741996789667e+00 -1.4544063611450957e+00
    1.3730305105900857e+01 -1.4299709893651340e+00
    2.5008475934193420e+01 -1.4577752842158720e+00
    1.8684496362510401e+01 -1.3287530803611345e+00
    1.1412868783607935e+01 -9.9357729650691173e-01
    1.7576175498215985e+01 -1.3865532032554642e+00
    1.0722696598323239e+01 -1.7271752297316356e+00
    1.2393607487853540e+01 -3.4356615131008210e+00
    1.0550233557792437e+01 -2.8310553116654411e+00
    1.2645456778068306e+01 -1.3883021149338688e+00
    1.3040459150332280e+01 -7.6134738146014502e-01
    3.7577157192596530e+01 -9.3283606785277473e-01
    3.6321326123143592e+01 -1.0061374123759137e+00
    2.8737163212096561e+01 -5.8582156859490664e-01
    2.9741273571287554e+01 -1.0075209099543216e+00
    9.6907788544624189e+00 -1.1477521992738529e+00
    1.0926675330631724e+01 -3.0076737579828636e+00
    1.0369562033496226e+01 -2.8828148568280199e+00
    1.3251181348763613e+01 -1.2504421445828884e+00
    1.3351901157948413e+01 -7.1119742609606840e-01
    3.5772527914719959e+01 -8.0670833098745820e-01
    3.0530285338346740e+01 -8.8619176987300219e-01
    1.9976331101957616e+01 -4.9181922087905827e-01
    2.9590816422538250e+01 -1.0704333470595191e+00
    1.2035678358250220e+01 -1.3744654156612546e+00
    1.6247102087535580e+01 -4.9433584623257198e+00
    1.5020420613585108e+01 -3.8933881736486029e+00
    1.2039628560330959e+01 -1.4272042116591965e+00
    1.3301300703581022e+01 -9.2212714375278548e-01
    2.0727768712859049e+01 -9.8088910184403577e-01
    1.5063229223622326e+01 -9.6544020810277942e-01
    2.2868572640281563e+01 -9.5342184142739483e-01
    2.3050412970808861e+01 -1.1989168329767170e+00
    1.1441896472531555e+01 -1.5916375301420183e+00
    1.3414522613859768e+01 -3.8069109477429883e+00
    1.3985668065944308e+01 -4.2982769205708991e+00
    1.4701556154636529e+01 -1.5398062930195906e+00
    1.8621886489537061e+01 -1.1870383497658850e+00
    2.1357027321790181e+01 -1.0061341113515043e+00
    1.2546946572709137e+01 -8.6136688126100680e-01
    1.3435596677419994e+01 -6.1131913026406515e-01
    1.8500304791133832e+01 -1.2429682187696636e+00
    1.0326178120513930e+01 -1.6369472798897988e+00
    2.4274349459687066e+01 -8.1049576937533452e+00
    1.0655009451725336e+01 -2.7917552571657582e+00
    1.3487832669397811e+01 -9.9700728537882355e-01
    2.3129732128505850e+01 -8.1962472815355736e-01
    2.4684397731667858e+01 -6.2751147737541058e-01
    3.6196915054869820e+01 -9.8575153000761928e-01
    2.9305229940258442e+01 -6.0952963926775128e-01
    2.7794009551013897e+01 -9.1745640310692977e-01
    9.3608950318366304e+00 -1.0716677859818071e+00
    1.5539133249979555e+01 -4.7019158402915107e+00
    1.1871687980093842e+01 -3.1767230623532678e+00
    1.5931648716921833e+01 -1.3062285705859207e+00
    3.4015843267356928e+01 -1.1268630688891144e+00
    1.8308767158238087e+01 -6.2815346364721558e-01
    1.5184991857354616e+01 -7.1212252938573317e-01
    3.0218031807870489e+01 -7.6114728439534962e-01
    2.8773537071966299e+01 -1.0502883766345108e+00
    1.0194645607977654e+01 -1.4502306313428870e+00
    1.6730010103405203e+01 -5.1117496842923451e+00
    1.0407421966979181e+01 -2.8968143290591000e+00
    2.0084431738567286e+01 -1.7295127466525608e+00
    2.8686699866317074e+01 -1.4497883167189405e+00
    2.3862949186297843e+01 -8.6711108409622584e-01
    1.5946768646300180e+01 -8.5406679831019472e-01
    1.8321020451582751e+01 -6.9127404149850691e-01
    1.8544069346788877e+01 -1.0518764973921082e+00
    1.1658944803523816e+01 -1.7196118137564194e+00
    1.5776379009385733e+01 -5.1085461090125799e+00
    9.6224154522436010e+00 -2.7044537740048895e+00
    1.5203463397107354e+01 -1.4150884050444998e+00
    1.8084957972173079e+01 -1.0357732485229798e+00
    1.8272952522586071e+01 -8.6437510422538355e-01
    1.4292113454703381e+01 -8.7343885171506896e-01
    1.7731422305308172e+01 -6.5237715963085940e-01
    2.1880754098900233e+01 -1.1659428646972367e+00
    9.4077898586717907e+00 -1.6447052079984887e+00
    1.7046321818820868e+01 -5.5883956724424566e+00
    1.2083122845759663e+01 -3.0281737236205979e+00
    2.2199980878450656e+01 -1.4682338325371214e+00
    3.4074813504910203e+01 -1.0517295059132623e+00
    2.7366177595403780e+01 -6.1444028755830915e-01
    1.8317891155051296e+01 -6.9464959459626141e-01
    5.3129691115085095e+01 -9.4135502137052163e-01
    4.5799215805245488e+01 -1.2681858310780010e+00
    1.3167363785849625e+01 -1.6012506208511648e+00
    1.2231402491652270e+01 -3.6047508857937118e+00
    1.2697929597640647e+01 -3.4983380273461653e+00
    1.6334674610887038e+01 -1.4263170118211572e+00
    2.1060816608886554e+01 -1.0848351455626222e+00
    2.2740806019198899e+01 -6.6004555945253174e-01
    3.1019157867701100e+01 -9.6986059436660854e-01
    4.9896904791573078e+01 -1.0094996074338474e+00
    5.4199124646718474e+01 -1.6538947404737490e+00
    1.3608872858482920e+01 -1.9596621463660091e+00
    1.5754370788306183e+01 -4.6607562627381931e+00
    9.9563740229064894e+00 -2.5531016973367779e+00
    1.7106108705791698e+01 -1.3792483316646731e+00
    2.5237287190555232e+01 -1.2495388987489116e+00
    2.2636261880077438e+01 -9.1105457517335908e-01
    1.5240205369964906e+01 -8.7817008173210032e-01
    3.4264035999352402e+01 -1.0055441788631521e+00
    2.6465262803422757e+01 -1.3555693445315256e+00
    8.5408731099870163e+00 -1.5307014876611387e+00
    1.6800628441563124e+01 -5.5412817954390885e+00
    1.1030687783463843e+01 -2.9527062667436388e+00
    1.5013118454793529e+01 -1.7112582823805615e+00
    1.4939211772236003e+01 -1.1911124780467770e+00
    1.9302313796066574e+01 -8.5640761755284756e-01
    1.4673040908861809e+01 -9.2712067583484759e-01
    2.1620809016990648e+01 -9.4389263495629838e-01
    1.7653230854860151e+01 -1.2708571182782804e+00
    7.9081749864805921e+00 -1.7545684318109014e+00
    1.9886196850376603e+01 -6.5033365529056075e+00
    1.2965407676981371e+01 -3.0446029997888018e+00
    1.5056382122538107e+01 -1.2523475054898356e+00
    2.6515335293769276e+01 -1.0918075249992327e+00
    3.3197227805619107e+01 -6.7430162449954745e-01
    5.9586409254466211e+01 -1.1064247409668364e+00
    5.2639402997381943e+01 -1.2428989385333489e+00
    4.9630021552177467e+01 -1.7726636844300885e+00
    1.6785542056931231e+01 -2.1529351200995031e+00
    1.3597990421137732e+01 -3.9775043686281513e+00
    1.4394432152488026e+01 -3.5258556820693761e+00
    9.3038990431537840e+00 -9.9260626220040626e-01
    1.9150897345765333e+01 -9.7011714202777688e-01
    2.8858590695681936e+01 -8.0142875293309734e-01
    4.0344438634988471e+01 -1.0419085526463960e+00
    4.7558966865001231e+01 -1.4244673107114219e+00
    2.8521181066538780e+01 -1.5423708382653269e+00
    1.2150841499820087e+01 -1.8698616299065465e+00
    1.4660656747135805e+01 -4.2631977542607915e+00
    9.8967488914907218e+00 -2.5193355958831916e+00
    1.3698228377852343e+01 -1.3986128654452863e+00
    1.5756638232945001e+01 -1.0580424048582842e+00
    3.1628544964617511e+01 -1.0800340413370215e+00
    2.9541731792882569e+01 -1.0762397465086266e+00
    2.4534374132416353e+01 -9.6439173204627959e-01
    2.0817116530375763e+01 -1.1980261380549768e+00
    8.4845855509395509e+00 -1.6160996080611099e+00
    1.4779161372502873e+01 -4.7399538584055136e+00
    1.1223161001362499e+01 -3.1740805242472026e+00
    1.1270108617116273e+01 -1.3554990138004084e+00
    1.2647001240865132e+01 -1.0189268649854939e+00
    2.2056797024633298e+01 -9.9719885952979559e-01
    2.9694191717206355e+01 -1.1467002910969284e+00
    2.1875335463608771e+01 -9.4157522023063345e-01
    2.0010050354692005e+01 -1.3494390823874296e+00
    8.3345722444028159e+00 -1.7234266741559179e+00
    1.9055966056521765e+01 -6.4075787180563051e+00
    1.3284761668940330e+01 -2.8841288503045068e+00
    9.8777921975364329e+00 -9.3513759504032501e-01
    2.1297712624504456e+01 -1.0324707781912354e+00
    2.6874286363791754e+01 -8.1459144687344642e-01
    8.9771264381494049e+01 -1.8644844096502695e+00
    7.3580137008481415e+01 -1.3867759316514625e+00
    2.5254944668573668e+01 -1.0961785526181436e+00
    1.2207854343643781e+01 -1.6909481605843515e+00
    1.2889667105647566e+01 -3.6755408947543771e+00
    1.4104637736124587e+01 -3.3914223298315034e+00
    1.2031205293326375e+01 -1.0795824195552897e+00
    1.7247080819918583e+01 -1.0052661847142554e+00
    2.5810192036848743e+01 -9.5146165811521366e-01
    5.5822928541640195e+01 -1.2804403736409993e+00
    5.0829847291063118e+01 -1.1322137346092063e+00
    2.3202782859268861e+01 -1.0323738450666822e+00
    8.9385805914473302e+00 -1.6443897341768845e+00
    1.6573581129247483e+01 -4.9293763731826559e+00
    1.2744816415329975e+01 -3.6951760419065169e+00
    1.5413972964897100e+01 -1.3815364712538407e+00
    1.9025762349021058e+01 -1.1751864621686936e+00
    2.0080035330624018e+01 -8.0749272910387382e-01
    3.1348528605282372e+01 -9.3027921423289983e-01
    3.8455860770900671e+01 -1.1060542912156548e+00
    2.4390279288493907e+01 -1.2700637695674293e+00
    9.1942114737904248e+00 -1.6262625874431607e+00
    1.8669053350973520e+01 -6.0625672718214307e+00
    1.4223378342172545e+01 -4.2418779734113370e+00
    1.2056430818528185e+01 -1.2410531140580048e+00
    1.6165157273429578e+01 -1.0059334621182663e+00
    1.9839998830769371e+01 -9.3851611627744103e-01
    2.4127701663408054e+01 -9.2909331950011087e-01
    3.7819701134859784e+01 -1.1813858080153095e+00
    2.4908837505050045e+01 -1.3356858255963537e+00
    9.7591929499159793e+00 -1.9463520655058721e+00
    2.0799420291614737e+01 -6.9116515654638553e+00
    1.3607759096690046e+01 -3.1404536020268106e+00
    1.3863894067495117e+01 -1.0744198616925698e+00
    3.1393878842403264e+01 -1.2499977031614058e+00
    5.7503177723732058e+01 -1.2365002279933064e+00
    5.3583864899215321e+01 -9.7996523087133880e-01
    3.0432733712359383e+01 -9.4810270647523720e-01
    2.9506164233500197e+01 -1.3352591734653543e+00
    1.1603042343281084e+01 -1.9505541109255660e+00
    2.5632693703594061e+01 -7.6675383940840618e+00
    1.5054848327980606e+01 -3.8001634008831418e+00
    1.5104735027998794e+01 -1.4187948493346809e+00
    3.7984980691090129e+01 -1.4359658970069842e+00
    5.1789974940785562e+01 -1.2420599620502490e+00
    7.0970960790086906e+01 -1.2002334291909809e+00
    4.8948583165118180e+01 -1.7409764787762705e+00
    2.0516085777907190e+01 -1.3271787060646587e+00
    1.2538823347780328e+01 -2.3175381043916650e+00
    2.2621056649267612e+01 -6.8014429209685927e+00
    1.4640603908973080e+01 -4.2612922053776163e+00
    1.8205078130976784e+01 -1.8480704360960805e+00
    3.5689288230199729e+01 -1.5369765862000895e+00
    3.2919232470164516e+01 -1.2776815475895038e+00
    2.9503327615647130e+01 -1.0078911995128816e+00
    3.2267527015171389e+01 -1.2260001150201902e+00
    4.1398802814990695e+01 -1.9338458322564731e+00
    1.1869351121399021e+01 -2.1416566675287956e+00
    2.3507642254281585e+01 -7.6599213250244738e+00
    1.8780598176225517e+01 -5.6439491300055646e+00
    1.9537042467047289e+01 -2.4341799060999354e+00
    2.7945050206241625e+01 -1.6160342804398296e+00
    2.2651030353215049e+01 -1.2209002065932255e+00
    2.2471803104664499e+01 -8.9804284795929201e-01
    2.8077249260335847e+01 -1.5594205094494240e+00
    2.1326793478782935e+01 -1.7630453646163240e+00
    9.3288577932722720e+00 -1.9950113103982259e+00
    2.2950189976152114e+01 -7.4411003204186308e+00
    1.6243063919308089e+01 -3.7627447385974353e+00
    1.8145693809175079e+01 -1.3672329062226833e+00
    4.2485938962010621e+01 -1.4488943272967620e+00
    6.0916297629004788e+01 -1.4516791564934035e+00
    7.6269009026175937e+01 -1.3790416715029687e+00
    3.9045052720743335e+01 -1.2518576705482083e+00
    2.2853746724124512e+01 -1.5475879211772792e+00
    1.2351826803531120e+01 -2.1037895533284585e+00
    1.5616084199312073e+01 -4.6994440174078340e+00
    1.2969403780351634e+01 -2.6466912063083807e+00
    1.6864590148781875e+01 -1.1593216194618299e+00
    3.6869883369081080e+01 -1.2106519308665638e+00
    5.4100830784959655e+01 -1.1611585654781214e+00
    4.2796223288159560e+01 -9.0198065333228450e-01
    3.2026677859348915e+01 -1.0921327436137573e+00
    1.8438451125243628e+01 -1.5156386762251532e+00
    1.0420218637431706e+01 -2.2414425107906770e+00
    1.9354813854073651e+01 -5.8718350590275517e+00
    1.3051182499215964e+01 -3.5782426585752791e+00
    1.6748610018239479e+01 -1.6626886417468112e+00
    2.7063755459625117e+01 -1.5193700646656259e+00
    2.3578564509715132e+01 -1.2218836084521312e+00
    2.2238878679208383e+01 -1.0052296247307619e+00
    2.9653932040412926e+01 -1.4812147972168483e+00
    1.6060156457488912e+01 -1.4734384113890926e+00
    1.0132413955478974e+01 -2.0465053069294088e+00
    1.8662171452153682e+01 -6.0339117349246054e+00
    1.2019006005093548e+01 -3.0536720657653937e+00
    1.5620172454629147e+01 -1.3497731309553176e+00
    2.7676350809435615e+01 -1.3082164494260544e+00
    3.7460010451518514e+01 -1.4816326387220629e+00
    2.8315084242549343e+01 -1.1731761021813909e+00
    3.2888600549885666e+01 -1.4691191684627916e+00
    1.8762352410776749e+01 -1.7251056257419819e+00
    1.0185472203143657e+01 -2.4478217923716539e+00
    1.8953010072285949e+01 -6.2854865471040000e+00
    1.2567916360619538e+01 -2.1216128244610317e+00
    2.2805502504842529e+01 -1.2499233701649639e+00
    3.4135903887928748e+01 -9.0162816208025121e-01
    4.0180852873228019e+01 -8.2198187821761426e-01
    5.4004062658533790e+01 -1.1474464948197673e+00
    3.6435485183207923e+01 -1.1628565954311183e+00
    1.9895714385003622e+01 -1.6573220825916353e+00
    1.1806664487928545e+01 -2.9669513754777430e+00
    1.5723977189306055e+01 -4.9992855515844399e+00
    1.1324439839304418e+01 -1.7169702068377801e+00
    3.9746308463680840e+01 -1.6808551715089792e+00
    4.2561686821929172e+01 -1.0262189402732287e+00
    3.8064612726250310e+01 -8.1141388585499630e-01
    4.0921047854108750e+01 -1.0453170639488532e+00
    3.0487779046123759e+01 -1.0844570985242470e+00
    1.4596063114346650e+01 -1.4764463149479994e+00
    1.2104758614117411e+01 -3.3302223437009633e+00
    1.2834156975337981e+01 -3.9646551001206971e+00
    9.9997584174625622e+00 -2.1401938919715939e+00
    1.7744701114243611e+01 -1.3505067520587988e+00
    2.8636662469701456e+01 -1.0301168401800311e+00
    2.6940345999724261e+01 -8.7592505919729580e-01
    2.2620890019958043e+01 -9.7436470827609545e-01
    2.4644836134773627e+01 -1.2079608197853646e+00
    1.6867772463758151e+01 -1.6046400066229380e+00
    1.3108536821590285e+01 -3.2065566367333473e+00
    1.4872338213389074e+01 -4.7980404506971368e+00
    9.4965779677243614e+00 -1.9204780779077391e+00
    1.9632392946686949e+01 -1.1962827863395191e+00
    2.7227289664458095e+01 -1.0177897146760764e+00
    2.7981273530912866e+01 -8.4178156000810644e-01
    1.9267940899046994e+01 -8.1250070165299426e-01
    1.6348548757097678e+01 -9.2951785150806865e-01
    1.7718866972496674e+01 -1.7194569261648804e+00
    1.3902247787968502e+01 -3.4360295356918358e+00
    1.3649623067244530e+01 -4.4333703388667400e+00
    1.0207713410420885e+01 -1.6265905564135161e+00
    3.8656328013995569e+01 -1.6231908865662235e+00
    4.5733627352162763e+01 -1.2038914864327483e+00
    2.8034388160643172e+01 -7.7735355860742594e-01
    3.7563755778187804e+01 -1.0098521119794135e+00
    2.7168368821696269e+01 -1.0015919091567171e+00
    1.6833447603935060e+01 -1.5330517710100842e+00
    9.0869408746057623e+00 -2.3883306077262523e+00
    1.1927567927676481e+01 -3.6216973840152740e+00
    1.0906924489193774e+01 -2.0159241635697063e+00
    2.2569855107513551e+01 -1.1693172421831486e+00
    3.8956648129108402e+01 -1.2762639945535132e+00
    2.9340555658202319e+01 -9.5944825692675484e-01
    3.3550334192779538e+01 -1.0826701773238099e+00
    2.2776106091175347e+01 -8.3409680060520552e-01
    2.0316820592872887e+01 -1.6239373768154719e+00
    7.8400088881628518e+00 -1.8606171983877513e+00
    1.0624154186941388e+01 -3.3433703881810244e+00
    8.9846340034886563e+00 -1.7371835883926710e+00
    1.7556414888902772e+01 -1.0679512042448329e+00
    2.9651021890359669e+01 -1.1165195738098621e+00
    2.4623154110520467e+01 -8.9139415635873409e-01
    2.5133123870428264e+01 -9.9560890548145364e-01
    1.5555730768137737e+01 -8.7933684878360963e-01
    1.4059167356056845e+01 -1.2951995720982152e+00
    1.0544155694018290e+01 -2.2509571471666514e+00
    1.5047493661482042e+01 -5.1271285321296327e+00
    8.9700575112435548e+00 -1.7600171355487579e+00
    1.2752302808349755e+01 -8.2199757903868542e-01
    3.1135122884592924e+01 -1.3336491639346064e+00
    2.7791266111850419e+01 -1.1557630504101946e+00
    2.4864527184830759e+01 -1.0385975755239254e+00
    2.9870990977790807e+01 -1.1352939940699731e+00
    2.0702539576509043e+01 -1.3824510434347188e+00
    9.2327107145427814e+00 -1.9277958667556689e+00
    1.0855651810867588e+01 -3.5797655657676928e+00
    1.0031373110901797e+01 -1.6881188535140852e+00
    3.4549249002829981e+01 -1.5813627951535441e+00
    5.4839418852156626e+01 -1.5715019087993323e+00
    3.1676348163923791e+01 -8.4882895299485639e-01
    2.2082150173867159e+01 -9.7783156269746319e-01
    1.7457861310694543e+01 -6.5024424178033990e-01
    1.4402395671022401e+01 -1.2220824282786509e+00
    7.9240270911165300e+00 -2.0121973491175900e+00
    1.0062373473175189e+01 -2.9613197663228576e+00
    9.9055214131944389e+00 -1.8643545661701184e+00
    2.9429747212785948e+01 -1.8798456758835447e+00
    5.1853581045420725e+01 -1.4911583809274254e+00
    4.0314585120948337e+01 -1.1130227065646938e+00
    2.0821536084782611e+01 -1.0456467634718676e+00
    3.1390443277269945e+01 -1.2170305879669709e+00
    1.1207970744265445e+01 -1.2352244138339026e+00
    8.1832811441706141e+00 -2.0359763608769579e+00
    8.5200127690751000e+00 -2.2269898515666635e+00
    8.6743488620801958e+00 -1.5420839946842491e+00
    1.8972622608277405e+01 -9.7360378600840036e-01
    2.3910868387861576e+01 -9.5036784964175136e-01
    2.6498643052022157e+01 -9.2281573755469881e-01
    2.7936555995509334e+01 -1.2793192553020694e+00
    2.4202756032423490e+01 -1.0558656183807658e+00
    1.1641641386498831e+01 -9.7988603603932178e-01
    8.8424535009540648e+00 -1.9128240719874705e+00
    1.0575676521238986e+01 -3.1733135225275153e+00
    9.2211096930966541e+00 -1.7070799983461376e+00
    1.3433890157829319e+01 -1.0339736289845396e+00
    3.5489978581747600e+01 -1.1628389916854001e+00
    2.4407535296017045e+01 -8.0827297669918363e-01
    2.3452034443324447e+01 -1.1703825463621746e+00
    2.4676676006519667e+01 -1.1271628711699788e+00
    1.0553104573506653e+01 -1.2157451080016513e+00
    1.0051726072921157e+01 -2.5872290559628324e+00
    1.0445642211327373e+01 -3.3185757842673524e+00
    1.0732357337618003e+01 -1.9980588563101651e+00
    3.0439232078669558e+01 -2.0897192945869798e+00
    3.2101613208136115e+01 -1.2120536992548034e+00
    3.5130643153687650e+01 -1.0535421644738909e+00
    1.1408893305171134e+01 -7.2388286420067982e-01
    2.9297328944008736e+01 -1.2187572775941617e+00
    1.0596982555098004e+01 -1.3017397646193523e+00
    8.0695234125877207e+00 -1.7161116742436053e+00
    9.9835839629721868e+00 -2.2612083516967663e+00
    1.1261338990561804e+01 -1.9884636504179225e+00
    2.3808702277313717e+01 -1.5993781965349481e+00
    3.5374683980609824e+01 -1.3577834690230615e+00
    3.8713970760264210e+01 -9.8565248883019507e-01
    1.3958616707983090e+01 -9.4536029001952315e-01
    1.3411463837334489e+01 -7.4254710501260524e-01
    1.1076369876218985e+01 -1.4087872553074465e+00
    8.1037482646480736e+00 -1.6192714797518144e+00
    1.0775721729875746e+01 -2.3702179099829226e+00
    8.2874818957910890e+00 -1.6032682794253468e+00
    1.0621640388796481e+01 -1.0468397657998105e+00
    2.1390437666806754e+01 -9.9723537535968632e-01
    1.6935066350291468e+01 -7.3523656540347004e-01
    2.5231925630786304e+01 -1.2021914798257847e+00
    2.2293520803074998e+01 -1.0245321344306193e+00
    9.4352688429336595e+00 -1.2318090357567408e+00
    1.0202771884496034e+01 -2.4991887824995014e+00
    9.9769161134117041e+00 -2.9628585782116641e+00
    8.8488244149229338e+00 -1.7101344948214656e+00
    1.0255779151960349e+01 -1.0519605316078426e+00
    1.9057063945886735e+01 -9.9756244259628180e-01
    1.6427384217766996e+01 -7.0776751994430842e-01
    2.2839867799727259e+01 -1.4599019608790946e+00
    2.7833683654408777e+01 -1.3950090606829448e+00
    1.1522399207352393e+01 -1.5114063956673975e+00
    1.0318349387720255e+01 -2.8193135832691247e+00
    1.2962047459478031e+01 -3.8655634218513586e+00
    1.0130590676779553e+01 -1.6743242704679098e+00
    2.1752493088706856e+01 -1.3746877363756103e+00
    4.1125238153484418e+01 -1.8095377583129522e+00
    3.3817900243819558e+01 -1.0674157847216035e+00
    1.6918848557909950e+01 -1.0444474072077869e+00
    1.3097535545820408e+01 -8.1490534007219595e-01
    1.4324248050323062e+01 -1.3203721920447105e+00
    9.3013201349140449e+00 -1.6848145837887336e+00
    1.0602163122822942e+01 -2.2686390132235550e+00
    1.2629950036418830e+01 -2.8789968883230896e+00
    1.1857056764018935e+01 -1.2365632768040329e+00
    1.6423538186946161e+01 -1.2313605034507056e+00
    1.8510225048196766e+01 -8.0421323117745036e-01
    1.5365593894494081e+01 -1.1815585177692625e+00
    9.9497903500304723e+00 -7.2730896789051280e-01
    2.0884074390092540e+01 -1.8257906230888337e+00
    1.1783195551909063e+01 -1.9537065411805361e+00
    1.3432742594588673e+01 -3.1749372595957968e+00
    8.8099972220494678e+00 -1.8035143808125977e+00
    1.3418426409115670e+01 -1.2599711444914343e+00
    2.6630160764742687e+01 -1.2841326221196390e+00
    2.3493522198857249e+01 -8.6240033995368459e-01
    2.3748099619324847e+01 -1.4006721720243640e+00
    2.0029564256190650e+01 -1.0957949275417249e+00
    1.2984512772057899e+01 -1.6028985240160720e+00
    9.7755854893390275e+00 -2.4082291810029286e+00
    1.3384418528614852e+01 -4.2079532117510512e+00
    8.5750862244240302e+00 -2.1064738889848176e+00
    1.0604472513766538e+01 -1.3197282309774603e+00
    2.0110867320216585e+01 -1.3375238299567604e+00
    3.7681137619804737e+01 -1.3303243794552766e+00
    2.2813216467454726e+01 -1.5070892357971646e+00
    9.9386795868920590e+00 -8.3848471792559109e-01
    1.1322960394875611e+01 -1.4241114490783007e+00
    8.9403546638481632e+00 -2.0245485644093963e+00
    1.3268684474520491e+01 -3.9860428467888056e+00
    1.3008829170587303e+01 -3.0693197919485224e+00
    2.1908014126312185e+01 -2.1954824378425832e+00
    3.4869174200621750e+01 -1.7026352879149655e+00
    2.9632467697128945e+01 -8.9752952063689995e-01
    1.9515683333421475e+01 -1.2751486056279751e+00
    1.5855129628461802e+01 -8.6478012913329705e-01
    1.7851194800399686e+01 -1.5626288441378167e+00
    1.6397448696782160e+01 -2.0101703246190188e+00
    1.1671631783077586e+01 -2.5386446716743154e+00
    1.4193022003298763e+01 -3.6629511875752843e+00
    1.9972264431609059e+01 -2.2014893085271621e+00
    2.7585080621596035e+01 -1.3674604370609207e+00
    1.9023167276283694e+01 -7.6353327233628943e-01
    1.4071726153262066e+01 -1.1206993418855971e+00
    1.0977039714798423e+01 -8.5964549986470851e-01
    1.3291886879352852e+01 -1.2914898714686991e+00
    1.4203808601012073e+01 -1.7016157891299957e+00
    1.3043791539382564e+01 -3.0824148773172464e+00
    9.6570383227991066e+00 -2.5195079046905207e+00
    1.1754618493417709e+01 -1.6600957327563917e+00
    3.6629733332917652e+01 -1.9186324763572169e+00
    4.1420229836691171e+01 -1.0521196805902528e+00
    3.2632837694116731e+01 -1.7556448222191652e+00
    1.4672999707536659e+01 -1.0158931765323063e+00
    1.0189260392285284e+01 -1.2037246390573382e+00
    9.5515295483061351e+00 -1.6947641238086326e+00
    1.2625923777248930e+01 -3.4498536987816988e+00
    1.5430692097901865e+01 -4.7239448684752778e+00
    1.1307439011164650e+01 -1.8368995572750042e+00
    2.2039234785499570e+01 -1.5179600751771318e+00
    1.6457252491298235e+01 -7.5237842177123959e-01
    1.6287779725893980e+01 -1.1860841033238612e+00
    1.2154358822055384e+01 -1.0801528396893372e+00
    1.1825767103810103e+01 -1.4745874677543234e+00
    1.5295786726790629e+01 -2.8043703235930115e+00
    2.0896357104664681e+01 -6.6452254544904257e+00
    1.4795762404243666e+01 -3.1666669838240993e+00
    2.1017727416384513e+01 -2.1837732747952168e+00
    4.5118726139717971e+01 -2.3711078640881045e+00
    3.1495971500005094e+01 -1.0121982288702336e+00
    1.6810373117725653e+01 -1.1934234391428931e+00
    1.3810741136737979e+01 -8.3025628724010359e-01
    1.3649052706343396e+01 -1.0251673082858552e+00
    1.5295391222618560e+01 -1.5811747372375704e+00
    1.1574988405405547e+01 -2.4301650619354485e+00
    1.3963406427904172e+01 -3.5694209253004163e+00
    9.4107819275964353e+00 -1.5636867324890547e+00
    2.0935916750637038e+01 -1.5433184469521997e+00
    2.1817972905600190e+01 -9.9666410256537508e-01
    1.5790113167585904e+01 -1.5472038029435840e+00
    1.3307916505236488e+01 -9.1566179239038092e-01
    1.3860140062119907e+01 -1.1583074332208037e+00
    1.5159186606739539e+01 -1.7863945112475323e+00
    1.2098451501326450e+01 -2.7815994379492008e+00
    1.3198636346200034e+01 -3.5811710651430255e+00
    1.4585968068981536e+01 -2.3563412011757334e+00
    1.9073631722415026e+01 -1.6606852777341008e+00
    2.8099046988308860e+01 -1.3861672086112677e+00
    2.1559129161615154e+01 -1.6554997716501776e+00
    1.1519816350789204e+01 -1.1743316082933863e+00
    1.4060562734544265e+01 -1.5242895838962502e+00
    1.5185950697041934e+01 -1.9851214668064769e+00
    1.2199493862909469e+01 -2.9514419650836285e+00
    1.1352408887594830e+01 -3.0838644945785352e+00
    1.3312331083685130e+01 -2.7772405082982363e+00
    2.0029127720582231e+01 -2.2542405373175427e+00
    1.8089665892914041e+01 -1.3851965463875842e+00
    1.1966763860184761e+01 -1.7198917793453659e+00
    9.4731438720635719e+00 -1.3852001163578520e+00
    1.0765199917331467e+01 -1.5987531231810250e+00
    1.3782853338973339e+01 -1.9981440054018560e+00
    9.5763829283219692e+00 -2.3719902758950120e+00
    1.0436135699976308e+01 -2.0178074913949584e+00
    1.5264868758157490e+01 -1.7677342939387830e+00
    1.3812900044575249e+01 -1.4696278925598092e+00
    1.5164350754968767e+01 -1.1853106469964745e+00
    1.4787497129791495e+01 -1.1684268877191331e+00
    1.0510183690595586e+01 -1.0782782189172206e+00
    1.1444220650879913e+01 -1.2170119240215649e+00
    1.1073829786436372e+01 -1.5316945485670841e+00
    9.2335795870793742e+00 -1.8552145203367361e+00
    1.0364637723260056e+01 -2.5559559063404795e+00
    9.8807898738642113e+00 -1.6032285856876647e+00
    1.2858984008832527e+01 -1.4969625832264093e+00
    1.3036852069096186e+01 -1.1004922807791100e+00
    1.2498303980254546e+01 -1.2534016441353382e+00
    8.4342044053014202e+00 -1.1099593056340500e+00
    1.4931895171326550e+01 -1.6120832406435659e+00
    8.7152298106378208e+00 -1.5429637225433730e+00
    9.5356184839650826e+00 -2.3609372951131680e+00
    9.5562195691504268e+00 -1.4969888973825407e+00
    1.1797082548108925e+01 -1.3496937533400513e+00
    1.5341597059932520e+01 -1.4129938269193423e+00
    1.1983310407464401e+01 -1.1662621410008829e+00
    1.2032438105491748e+01 -1.5083600521896401e+00
    9.3535716833509586e+00 -9.3274806543327071e-01
    1.3801059112520543e+01 -1.2697243880614208e+00
    1.2550686022805898e+01 -1.3695668139306265e+00
    1.1386181390548412e+01 -1.6501469076272013e+00
    8.8171019620819617e+00 -1.8786822414357569e+00
    9.8090714296264157e+00 -1.3883581375042053e+00
    1.0072968457162641e+01 -1.1447566441190984e+00
    1.3137631355906597e+01 -1.1854978210008782e+00
    1.1399473553256000e+01 -1.2887654458172766e+00
    9.0686104100386871e+00 -8.9945275883809572e-01
    1.9939720399122798e+01 -1.7078981851757133e+00
    1.0047355868746582e+01 -1.4150182354397072e+00
    8.4614302868328704e+00 -1.8041422194517547e+00
    1.3549157672740252e+01 -3.1748332124855150e+00
    1.9186456967680684e+01 -1.9002749369553316e+00
    1.9057444751003189e+01 -1.2717713545409453e+00
    1.3095039329976951e+01 -9.0054250533681834e-01
    1.0627107083883745e+01 -9.9430520698016955e-01
    1.4994731776575456e+01 -1.0775914508464020e+00
    1.7051356826049240e+01 -1.2724399974908807e+00
    1.2315705205041324e+01 -1.6103641767163512e+00
    1.0046340265662780e+01 -2.5096770777656126e+00
    1.5797755504315766e+01 -4.6011310583665184e+00
    1.6579634209925789e+01 -1.7793335159793935e+00
    1.4436301344557998e+01 -1.1071813722647739e+00
    1.1822943952424898e+01 -8.8263749037280170e-01
    8.4566557094288974e+00 -9.6694182893208769e-01
    1.3916954837128905e+01 -9.0354337008400765e-01
    1.4581287859313198e+01 -1.2904102446056969e+00
    1.1653926099317347e+01 -1.9272138967678800e+00
    1.5625002103467779e+01 -4.7237444198504797e+00
    8.0555316078173611e+00 -1.5972187849171406e+00
    1.1109735563342063e+01 -1.1978805793486749e+00
    1.5112389798131078e+01 -1.1377565653385089e+00
    1.3423082966333581e+01 -9.0113367182636384e-01
    1.1295735037539030e+01 -9.3145191414671391e-01
    1.3552135529906803e+01 -9.7895807184198824e-01
    2.2399374382600385e+01 -1.4676553951696238e+00
    1.5641860644854459e+01 -1.6512260160691719e+00
    7.8803035699237993e+00 -1.6296777208803375e+00
    8.5987224952083565e+00 -2.0321176882280345e+00
    1.4166709134557053e+01 -1.7129723691654215e+00
    1.4664812830241647e+01 -1.1448632562433563e+00
    1.1029414064727325e+01 -9.2409579034169209e-01
    8.2964214125498188e+00 -9.3966514747582874e-01
    1.2691835735895577e+01 -8.8014680832969205e-01
    1.3212653080571501e+01 -1.1301160975354727e+00
    1.6735552316289471e+01 -2.1050167446258157e+00
    8.9921565533298136e+00 -2.3592199598841392e+00
    1.0943648775440314e+01 -2.6654235204106485e+00
    1.5072856643152956e+01 -1.3084449111343075e+00
    1.2830633087038915e+01 -8.7600642297839704e-01
    1.8461615208988462e+01 -9.2592658687476692e-01
    1.2373854812715454e+01 -9.2204677217299991e-01
    2.2688993923242226e+01 -9.8866282859128773e-01
    2.0340807631562591e+01 -1.2024361930489467e+00
    1.1677724442081770e+01 -1.5453788418890615e+00
    1.3299707645693722e+01 -3.8182787123640978e+00
    9.2145899702667009e+00 -2.1897165164133776e+00
    1.4183371962465621e+01 -1.1971189503937851e+00
    1.2693380593067584e+01 -8.6953207411055999e-01
    1.5048074506357240e+01 -8.6083478365981125e-01
    1.6223343454890998e+01 -1.0935461014470382e+00
    1.6751476769208004e+01 -8.5073020163298829e-01
    1.8212804124429432e+01 -1.1543134581711179e+00
    9.5156332676911433e+00 -1.5806627213966162e+00
    1.3999149999828949e+01 -4.3391270631659822e+00
    8.5050056701538335e+00 -1.8579390709593782e+00
    1.2275700473065150e+01 -1.3203339217723458e+00
    1.3004945883766494e+01 -9.2310866644913148e-01
    1.4457928980678901e+01 -9.6085620289489182e-01
    9.8971934824627130e+00 -9.4859546947559126e-01
    1.7685780797092956e+01 -8.9294565598188325e-01
    1.9323484411909579e+01 -1.1546072154896299e+00
    1.4884919129341778e+01 -1.4508891357363398e+00
    7.7458406301933005e+00 -1.7585144965818573e+00
    8.2938794048709088e+00 -1.8653462502808100e+00
    1.1035296917539000e+01 -1.4144587470066934e+00
    1.0151107098059413e+01 -1.0826975233388312e+00
    9.4757453463762182e+00 -9.7061618368674263e-01
    8.1920812026063228e+00 -1.0301422519595222e+00
    1.1935187095793987e+01 -8.9785677010204534e-01
    1.8090766152592405e+01 -1.2436333820409919e+00
    7.7855776482305270e+00 -1.1053147166350070e+00
    8.3014441091145041e+00 -1.9907936746456742e+00
    8.5313246332578654e+00 -1.6382279059909832e+00
    1.7808726946153563e+01 -1.2013854690536652e+00
    2.2483899371874017e+01 -1.0464372249116238e+00
    2.6702922636906852e+01 -1.1124975756048867e+00
    2.2000687446914071e+01 -1.2015942030629729e+00
    2.8659776389438818e+01 -1.1197053926696205e+00
    4.6578945850831310e+01 -1.8755995230166180e+00
    8.1914502796222273e+00 -1.2247026848303233e+00
    1.2120294628834037e+01 -3.5936467064245829e+00
    8.4208118432494388e+00 -1.8328044750800048e+00
    1.3628865237037791e+01 -1.2274068916727401e+00
    1.4158834242490775e+01 -9.1088034036922993e-01
    2.4307502199133893e+01 -1.1035451771055678e+00
    1.1492175674216078e+01 -8.8663148888070642e-01
    1.9687764665183259e+01 -1.0159399044784769e+00
    2.9725133990539437e+01 -1.5756592143503816e+00
    6.8372700263056805e+00 -1.1689287486718709e+00
    1.1419976407641025e+01 -3.4277923265041275e+00
    8.0294414698266934e+00 -1.6440349409617168e+00
    1.4272611106687140e+01 -1.5759279753541544e+00
    1.1227422315640700e+01 -9.6898314107565398e-01
    1.2254939099393903e+01 -9.2906650072695740e-01
    1.3172260025490541e+01 -1.0776089050774422e+00
    1.8500843242775279e+01 -1.0998486053231664e+00
    3.8266615459971483e+01 -1.6731847721754887e+00
    6.9748808015954875e+00 -8.7125716666665920e-01
    7.7131044111063005e+00 -1.8630702791418134e+00
    8.5474123032966389e+00 -1.9066030715004698e+00
    1.2016992373211210e+01 -1.7028780367982359e+00
    1.0971832130272606e+01 -9.7584641598583355e-01
    1.1707599611936635e+01 -9.6782271774572703e-01
    1.0594363840557207e+01 -1.0818698247163450e+00
    1.5594888881440195e+01 -1.2058928217821505e+00
    2.1542624554070777e+01 -1.4142371039920603e+00
    6.4599517065354028e+00 -9.9635571743396900e-01
    9.1771668677155720e+00 -2.5732604755353972e+00
    8.0218175949878248e+00 -1.6284646886205223e+00
    1.4971748401797127e+01 -1.0665797614520112e+00
    1.5774881941475584e+01 -7.7507343033815568e-01
    2.8176533147167099e+01 -1.0187604482259145e+00
    1.8051209625202372e+01 -8.2335904780875258e-01
    3.6080914969438467e+01 -9.8427424819412612e-01
    3.6400432161616095e+01 -1.2522650255710595e+00
    7.0610796829669402e+00 -1.0625537193710592e+00
    9.8541371203730410e+00 -2.7796246293059252e+00
    9.3298905609866782e+00 -2.2968132926814846e+00
    1.2824266265547752e+01 -1.2185033072278262e+00
    1.3699716140045487e+01 -9.0812537794212711e-01
    1.5752641470592673e+01 -9.1553625255109516e-01
    2.8869428925021573e+01 -1.0650548353552580e+00
    3.7865603588068403e+01 -9.4097842356674510e-01
    2.8371146669006123e+01 -1.1280813572414310e+00
    7.3137374472321159e+00 -1.2033242350588176e+00
    1.0435211640974199e+01 -3.0642605659407676e+00
    8.0973839025017895e+00 -1.6345079621728154e+00
    1.2021935047674333e+01 -1.3896221566930398e+00
    1.2485694243900690e+01 -8.8652824289615850e-01
    1.4001322502485600e+01 -9.7357816380573714e-01
    1.9189877820653802e+01 -1.1374172332605399e+00
    3.3123232322875353e+01 -1.2725691014251743e+00
    2.7474712066595703e+01 -1.3341939911074039e+00
    7.7878529662531211e+00 -1.1022281858679297e+00
    1.2368769415883794e+01 -3.2881854058174409e+00
    8.7550501736121387e+00 -1.9315332147828728e+00
    1.3545204646215961e+01 -1.8834787577136141e+00
    1.0174843679799523e+01 -1.1072564666365379e+00
    9.4443384181962564e+00 -1.0413998911985667e+00
    1.3651552122895859e+01 -1.0267289617798738e+00
    3.4748882321238014e+01 -1.2986148079174444e+00
    1.9002334700938611e+01 -1.1808341722473827e+00
    8.2239977299416118e+00 -1.5475702762215870e+00
    1.5768945741660163e+01 -4.9585576258915536e+00
    9.4160654097658938e+00 -2.3228460151891497e+00
    1.1097373621099216e+01 -9.6309945754929260e-01
    1.7846896197401492e+01 -8.8112335280587262e-01
    1.7037207301860313e+01 -7.1004867319377130e-01
    2.1883359261189511e+01 -5.8981137612546486e-01
    4.6389097309893913e+01 -8.2252522219791779e-01
    3.5918456201923185e+01 -1.0979646779090864e+00
    7.9440857126152711e+00 -1.1821687449088027e+00
    1.3642852541846224e+01 -4.0276119663365035e+00
    1.0828511291955955e+01 -2.7930207079448759e+00
    1.2489683286979972e+01 -1.0240084036443935e+00
    4.3336435793610555e+01 -1.3011392712955845e+00
    2.3890070391395433e+01 -7.7718227520525818e-01
    1.7884532995671769e+01 -5.5751200316952554e-01
    2.4968746054751538e+01 -6.5501370947511361e-01
    2.8412798775649215e+01 -1.0792591559221845e+00
    9.7335997409115222e+00 -1.6191008517095860e+00
    2.4976733305202664e+01 -7.9014544922795187e+00
    8.6988631394598297e+00 -1.9361208753349286e+00
    1.2518593701149756e+01 -1.5597546062510286e+00
    1.1936929511166131e+01 -1.1859015073538812e+00
    1.4149749476264590e+01 -9.7904834548560626e-01
    1.8616213940857033e+01 -8.3839439641816615e-01
    3.7419988409668136e+01 -9.7957131650410545e-01
    2.4324373602333488e+01 -1.1108731426409573e+00
    8.9760450754047287e+00 -1.4309708477836789e+00
    1.4386592923871399e+01 -4.2751747781077762e+00
    9.5181870385212566e+00 -2.3849429250374965e+00
    1.1813440701585764e+01 -1.4372201499140040e+00
    1.6715710080938173e+01 -1.2212174326385949e+00
    2.0020449705134261e+01 -9.9581708759974441e-01
    2.2453961138558910e+01 -8.2998587218791686e-01
    2.3029347512158857e+01 -9.0407968562580976e-01
    1.5873265431148527e+01 -8.1182038245373922e-01
    7.9770677909818781e+00 -1.3993961117124849e+00
    1.4965499585479895e+01 -4.6048432821346177e+00
    1.2827959110440689e+01 -3.4541687014362479e+00
    1.4264563377125418e+01 -1.1708308905516895e+00
    4.1874551336105675e+01 -1.0403731733234254e+00
    2.6423362836751352e+01 -7.8307603137760495e-01
    1.8860938602162527e+01 -6.3927557862044559e-01
    1.7129011845852602e+01 -6.3818882633252028e-01
    3.1229666969062905e+01 -1.1158620217061124e+00
    1.2908754710806864e+01 -1.9195351785471535e+00
    3.3307534032850583e+01 -1.0306405684483291e+01
    1.7159226034360049e+01 -5.0223315912708637e+00
    1.8470784472344203e+01 -1.8803411609826179e+00
    3.3779034900936821e+01 -1.3324782388735907e+00
    3.8414779203626921e+01 -1.2883424402724641e+00
    2.7344948876238369e+01 -9.8477006960681046e-01
    2.6260036221582521e+01 -1.0382738601374115e+00
    2.7992551611432180e+01 -1.5248580273536785e+00
    1.1174069073313518e+01 -1.8159606095554000e+00
    2.1764108743336955e+01 -6.4683264422444466e+00
    1.1620871906178678e+01 -3.0834876338991775e+00
    1.1289088991872129e+01 -1.4559588408472435e+00
    1.4173997962953027e+01 -9.0407841517888887e-01
    2.6279671017038797e+01 -1.0883400980806361e+00
    1.8542394661668133e+01 -8.2040655249101957e-01
    1.8751659105698945e+01 -8.9971245973036640e-01
    1.9351139998162065e+01 -9.2292156869291819e-01
    9.3663909488734802e+00 -1.3699394588752483e+00
    1.4944660775596651e+01 -4.3733058830368865e+00
    1.5239436305315081e+01 -4.4549898746298355e+00
    9.7028789326532188e+00 -1.5687806753044771e+00
    1.4079259308501168e+01 -1.0969711257695189e+00
    3.1587384864784848e+01 -1.2649086356887820e+00
    2.1110863335696148e+01 -8.9906028176136155e-01
    2.0775439216582267e+01 -9.6977777261382314e-01
    1.6967245447970992e+01 -1.0788940140780623e+00
    1.1302777987443250e+01 -1.5033069286231475e+00
    1.5258655848647516e+01 -4.5122835923064502e+00
    1.7496994834699969e+01 -4.7244253406833705e+00
    1.4568386756758350e+01 -1.4007706727371407e+00
    3.3390312859434289e+01 -1.4184413652629091e+00
    4.1652443329463608e+01 -1.3552392024890882e+00
    2.4376812532104186e+01 -9.1650505481656630e-01
    3.8006498051282122e+01 -1.4427778382694882e+00
    2.1132698215378799e+01 -1.3364339394105689e+00
    1.3885833235033680e+01 -2.0495361392259306e+00
    1.4364131988402708e+01 -4.0914569406958945e+00
    1.3254194808632539e+01 -3.4080919744291158e+00
    1.3697798316095840e+01 -1.1933183298237426e+00
    3.0353795214741851e+01 -1.1496639101830577e+00
    2.7683798997854350e+01 -8.9674653686710837e-01
    3.1340072409483270e+01 -1.1007694897320066e+00
    3.9413647669503213e+01 -1.3983624674352375e+00
    2.7142886116295692e+01 -1.5955865724911267e+00
    1.2682835754972610e+01 -1.9962473202015221e+00
    1.7738285338089135e+01 -5.2110907522469301e+00
    1.5290400607142061e+01 -4.6786260562280058e+00
    8.3667482208728305e+00 -1.2597529813665795e+00
    1.5959936632626647e+01 -9.7197013651976827e-01
    4.7249724948563411e+01 -1.4981185822191994e+00
    4.4973559210695264e+01 -1.2680237489435289e+00
    2.5846103835620347e+01 -9.7739513452427940e-01
    2.3265340715097093e+01 -1.3897308854709154e+00
    1.1784495716881048e+01 -1.5505654294237687e+00
    1.1881946105485454e+01 -3.4742687299867079e+00
    2.4867594450240272e+01 -8.3550739712525086e+00
    8.3756536026677679e+00 -1.1319931434291020e+00
    3.4725523594184246e+01 -1.4202579494425767e+00
    3.4767831925302318e+01 -1.1336914672162295e+00
    3.9010197154999055e+01 -1.1280692085607644e+00
    2.9793911350293712e+01 -1.0270049011344478e+00
    1.8897417093017658e+01 -1.2550277055931998e+00
    1.1499241015045930e+01 -1.6306675026326414e+00
    1.4779946276442681e+01 -4.5158332237022725e+00
    1.2217923722981448e+01 -2.8025585966037658e+00
    1.9172418053743826e+01 -1.2493427545789690e+00
    3.5962076126179568e+01 -1.0685604321512701e+00
    3.2481985998770107e+01 -7.3967825346084903e-01
    3.5710873853010987e+01 -9.9913501072121091e-01
    4.2609541629362973e+01 -1.3564125903416429e+00
    2.9175416930853409e+01 -1.7169561625136420e+00
    1.3719129894955593e+01 -2.1526363784901554e+00
    2.2934883964066298e+01 -6.7142775032594271e+00
    1.0801423914995988e+01 -2.4339949927452147e+00
    2.2353789630991155e+01 -1.3366818248112367e+00
    3.6056864448381013e+01 -1.1107813776290405e+00
    3.8915642268223444e+01 -8.1145497984741832e-01
    3.0170699584232107e+01 -7.4368628407867876e-01
    4.0125920407002681e+01 -1.2638220755531351e+00
    2.4857848512736400e+01 -1.5854524520842519e+00
    1.1538533893992135e+01 -1.9675463625922034e+00
    2.4388669236688639e+01 -7.5600355245849107e+00
    2.3767224015040167e+01 -8.0483601096795514e+00
    9.9388112700110529e+00 -1.1093947109192606e+00
    4.1580063134552724e+01 -1.6311121239007331e+00
    3.8785664970334174e+01 -1.1456593650987994e+00
    4.0946201084404869e+01 -1.2414280446140140e+00
    4.4417651601911288e+01 -1.4152328110273815e+00
    1.4242917077155841e+01 -1.1396545697658631e+00
    1.0609740159597203e+01 -1.5681621621354322e+00
    1.3111574565759154e+01 -4.0344402430010771e+00
    1.5951875477174656e+01 -5.1373993865649989e+00
    1.3192143534526062e+01 -1.6013639812712150e+00
    2.7289587265481750e+01 -1.2373368811656071e+00
    3.1737544724201587e+01 -1.1171795709651113e+00
    2.6866297184920725e+01 -9.8696339443308745e-01
    3.5659531984722641e+01 -1.1425651561192034e+00
    1.4579142111708430e+01 -1.2151841792838169e+00
    8.9549083771012796e+00 -1.5684683832815982e+00
    1.9970057835280265e+01 -6.5294380701311923e+00
    1.0079676147375690e+01 -2.2732389765968204e+00
    2.2795905314355057e+01 -1.2665778825398111e+00
    4.8384969342487629e+01 -1.3372658886588649e+00
    5.0193464003218189e+01 -1.0531144268891679e+00
    5.3261714900928354e+01 -1.0747347950426147e+00
    4.2673597144023034e+01 -1.1715559984912116e+00
    2.5816796497037799e+01 -1.4242627451577590e+00
    1.1741507708989934e+01 -1.6494592200280636e+00
    1.8217616852352677e+01 -5.5645990168689208e+00
    1.0780941576118853e+01 -2.3729957028883737e+00
    1.7153940712617526e+01 -9.3581970229950662e-01
    4.0543016679085085e+01 -1.2033400647192751e+00
    4.2772615241131284e+01 -1.1512793817146463e+00
    5.9463538278705457e+01 -1.5357552235311176e+00
    3.6665054497047365e+01 -9.1258815838957152e-01
    1.7172455079414650e+01 -8.7159035941811425e-01
    9.9257443949989099e+00 -1.3540950140063874e+00
    1.8786162137901101e+01 -6.0252345120767901e+00
    1.3047948515604737e+01 -4.2416471668126672e+00
    1.4122758705227385e+01 -1.4293907737776899e+00
    3.0171186801152349e+01 -1.2160226259947435e+00
    3.1515319586241887e+01 -1.0497269628418155e+00
    3.4956938070864560e+01 -9.5948517750178963e-01
    3.0039513384557218e+01 -8.5893050109635150e-01
    2.2670668031735623e+01 -1.2775394785990153e+00
    8.7157193329793472e+00 -1.4413216033146465e+00
    2.4389281481754555e+01 -8.5360420911609083e+00
    1.2025201413955829e+01 -3.6829323511373819e+00
    1.8179090713234309e+01 -1.3921918694014506e+00
    3.1728945625537229e+01 -1.1516138560609208e+00
    2.4984130587835644e+01 -9.5637772813082289e-01
    4.1286014275762888e+01 -1.3164787536107787e+00
    3.4262657840783042e+01 -1.2036649602713922e+00
    2.9346422082394302e+01 -1.5162818372324010e+00
    9.7481466629197389e+00 -1.5464277745591899e+00
    2.8510663819396580e+01 -1.0100062396346406e+01
    1.1242417418611428e+01 -2.1115629036338772e+00
    1.5724240855773076e+01 -7.3273030606478751e-01
    2.3539349008109667e+01 -6.8341405548028189e-01
    3.1633751741409583e+01 -7.7332606515478897e-01
    3.7905034089396558e+01 -1.1487474316268582e+00
    3.0332519338006840e+01 -9.1678741249120688e-01
    1.4017396950897886e+01 -7.5960543851501394e-01
    1.0276509919888341e+01 -1.5470240801116633e+00
    1.3739065978787851e+01 -4.2302153757944057e+00
    1.1754221546493703e+01 -2.2454548013871949e+00
    1.2859207096383219e+01 -9.0682892999973386e-01
    3.7640382402857384e+01 -1.0690473528445645e+00
    2.7265078523647517e+01 -6.9462052308647437e-01
    2.6904922574368545e+01 -8.3557435824447013e-01
    2.1301885702901586e+01 -7.2081414413241873e-01
    1.3888564222373025e+01 -1.0046656671464604e+00
    1.0340452277554549e+01 -2.1254262627207337e+00
    1.6122670816802550e+01 -4.9271581041257582e+00
    1.1295139511891303e+01 -3.1228952104626697e+00
    2.0132015552320773e+01 -1.1728792702184532e+00
    3.8070757930254047e+01 -1.2725983490372705e+00
    2.0928751165353717e+01 -8.2370745672830836e-01
    3.1861473199463973e+01 -1.1407655126262310e+00
    2.6900188539943613e+01 -9.6443469893263090e-01
    2.3723677097057173e+01 -1.3685364275375731e+00
    1.0799294478917304e+01 -1.8754107699645879e+00
    2.1914268535693068e+01 -7.7753592432790279e+00
    1.1747995278944577e+01 -3.3144595271933244e+00
    1.3977508654482971e+01 -1.0828399155588395e+00
    2.2514348611223514e+01 -1.0809146316022751e+00
    1.9181634054945487e+01 -8.0609486874984593e-01
    2.9420237914799547e+01 -1.0807687660600447e+00
    3.5134057861857585e+01 -1.1494365050268356e+00
    2.3185327116652886e+01 -1.6497519347175438e+00
    1.0213673669382798e+01 -2.2545820720335050e+00
    1.9836227601769327e+01 -6.9935926593004032e+00
    1.1714596879655728e+01 -2.0550521046728480e+00
    1.1190898361282246e+01 -8.4708501577910000e-01
    2.9925728282988253e+01 -9.5374257961859932e-01
    1.9325015850243624e+01 -6.2429486078980234e-01
    3.7968859480218562e+01 -1.0096717093747551e+00
    1.9590697553748839e+01 -6.0822977319743154e-01
    1.2391003121571931e+01 -1.0704871191737115e+00
    8.5270245385476091e+00 -1.7335491900963249e+00
    1.1620325987169661e+01 -3.1089027751285334e+00
    1.0863553344181344e+01 -1.7849667045972295e+00
    1.3449795097524593e+01 -1.0049351261422668e+00
    1.6508695237827656e+01 -6.8291253962829457e-01
    1.4022839566140558e+01 -5.9160287165359904e-01
    2.2373896319375984e+01 -9.5864997366019988e-01
    2.3885186175672800e+01 -8.7201682225615862e-01
    1.1868742214882118e+01 -1.2304629755435361e+00
    8.4784961705210957e+00 -1.7183459047638161e+00
    1.0707668115931725e+01 -2.7519634750315998e+00
    1.1611359025257430e+01 -2.9827318438008503e+00
    1.3969052677207904e+01 -1.1822116502484508e+00
    1.8537292247616023e+01 -8.9069305104461971e-01
    2.1524030190971033e+01 -8.1590269357457235e-01
    3.0079018944676758e+01 -1.0254740038915700e+00
    2.8930632533272611e+01 -9.7287446412032474e-01
    2.4082840416292186e+01 -1.8143752044148880e+00
    1.1023204177021801e+01 -2.2962154436191802e+00
    1.5521567911646214e+01 -5.1218193898443332e+00
    1.1238243895063151e+01 -2.8409881079767909e+00
    1.9489042356588957e+01 -1.5313025083120535e+00
    2.4496528626084810e+01 -1.0339306298730926e+00
    1.5817200859352864e+01 -7.2753087610485190e-01
    2.7948296719724446e+01 -1.1540048100097893e+00
    2.0666538592886603e+01 -9.5227595952617039e-01
    1.2222179804368320e+01 -1.3320629579532377e+00
    1.0560432297761649e+01 -2.6663397028288687e+00
    1.5732225199337723e+01 -5.1790223041441159e+00
    1.0549552034599049e+01 -1.6567430492275279e+00
    1.5717401380488147e+01 -1.0215141475691667e+00
    2.8272594563444216e+01 -9.0586620332471390e-01
    2.4687962119295143e+01 -7.2125594106321333e-01
    4.9051692063049373e+01 -1.5018284764144487e+00
    2.4878333961375240e+01 -7.2603425440173397e-01
    1.1806743318202917e+01 -1.2200662678870835e+00
    8.6477852664572801e+00 -1.8023363330832274e+00
    1.0901624487781948e+01 -2.6563452871032540e+00
    9.5133503430490904e+00 -1.5902639543126340e+00
    1.2945600291594017e+01 -9.7032149956101199e-01
    2.7441542725355045e+01 -1.0092431945356064e+00
    5.4573343077798235e+01 -1.0649953512278199e+00
    4.6411499984750279e+01 -1.3748592628562741e+00
    1.5250299909161681e+01 -6.9862511794304416e-01
    1.0834478574118739e+01 -1.5168397153499773e+00
    8.8729949478028924e+00 -2.1248780977432324e+00
    1.1036638399225316e+01 -2.5476388142310835e+00
    9.7806873580716864e+00 -2.1802054537912112e+00
    2.0403001624296284e+01 -1.3816482932762013e+00
    3.0678461549832239e+01 -1.1212486032423739e+00
    2.4789240492605987e+01 -8.6121509624874082e-01
    3.5665993048658009e+01 -1.2494827821413537e+00
    2.0382616564535699e+01 -9.0740747296415492e-01
    1.0599233530854384e+01 -1.3561646618910932e+00
    1.0996038933264373e+01 -2.7457807548803421e+00
    1.2579111454846677e+01 -3.8139731725142960e+00
    1.0623499325282939e+01 -2.3815977585530574e+00
    2.0110402308953109e+01 -1.6425998256278771e+00
    2.6058186588539684e+01 -1.2289538252696408e+00
    2.8105976195092030e+01 -1.0259786330300069e+00
    3.7789160728436656e+01 -1.3978949952704145e+00
    3.1801203195860431e+01 -1.4180427305116510e+00
    8.0265587237620810e+00 -1.5454220459343460e+00
    1.0461851569515963e+01 -3.0077627667683511e+00
    1.0965833451452893e+01 -3.0428260656005022e+00
    8.8640939724831309e+00 -1.6190946689559294e+00
    1.3134491408747975e+01 -1.0865671061287718e+00
    3.0751249425011746e+01 -1.0639724510169759e+00
    7.8527704912225559e+01 -1.0814004704991294e+00
    4.8201885526731395e+01 -1.4717334675245781e+00
    2.2344679029504874e+01 -1.0313259271645121e+00
    9.1098774431326461e+00 -1.1849636814889351e+00
    8.8983837327687798e+00 -1.8149634905348426e+00
    1.0882720642688373e+01 -2.3214751923825339e+00
    1.0384881444084398e+01 -2.3085058372465692e+00
    1.4442472812615501e+01 -1.5773742411331402e+00
    3.9141573259520534e+01 -1.8532056618199371e+00
    4.5745520733861206e+01 -9.1585654749869039e-01
    2.5179865108895218e+01 -1.0089318912482876e+00
    1.6669189738753360e+01 -9.9227475550103872e-01
    1.0000337725288411e+01 -1.2171019771292830e+00
    1.1706543348061288e+01 -2.0544718122445569e+00
    1.0945919683892889e+01 -2.5918376994862049e+00
    1.0957537783235466e+01 -2.0953012554120352e+00
    1.9357126537710503e+01 -1.4622568070742537e+00
    3.2523272929351677e+01 -1.3890879520852335e+00
    3.0898172329799714e+01 -9.6425080501167715e-01
    3.2923181680688522e+01 -1.3907045190459213e+00
    2.0020177171459522e+01 -1.2732583159891215e+00
    8.2270238178413919e+00 -1.6435287002739496e+00
    1.1608657368228959e+01 -3.0752695881737355e+00
    1.2483965103509696e+01 -3.0762408578171931e+00
    1.0614851917234443e+01 -2.3094515526311099e+00
    1.8669542316117571e+01 -1.6475317277148978e+00
    2.2617552034805911e+01 -1.4387902562811308e+00
    3.6558762865407495e+01 -1.1421665769185048e+00
    2.0580626869014434e+01 -1.2082856615626756e+00
    1.3480872782627896e+01 -1.2027839693046023e+00
    8.1931254858228986e+00 -1.7712678869275791e+00
    1.0612345061818713e+01 -2.6877985723632047e+00
    1.2386772839094515e+01 -3.3713618205256184e+00
    1.2860384222045832e+01 -2.5333938076438627e+00
    1.4865721183645100e+01 -1.6696433765000049e+00
    2.1794183888141514e+01 -1.4826654836656021e+00
    4.5069741583334448e+01 -1.5019814844274948e+00
    3.0582942394405695e+01 -1.7121799152153478e+00
    1.3204168235011524e+01 -1.2530792694909021e+00
    9.9204737714403084e+00 -1.3442242044809145e+00
    1.4914457366138777e+01 -2.0308173512002496e+00
    1.4903983749614248e+01 -2.8621130294928712e+00
    1.1504211490903751e+01 -2.4477137191794873e+00
    1.2267804909651348e+01 -1.7218158978430438e+00
    2.4301371910242583e+01 -2.1027846155819785e+00
    1.8780633035161781e+01 -1.2061061242583031e+00
    9.5582701928871749e+00 -1.3066006811095359e+00
    9.6360152484692776e+00 -1.6693014103328621e+00
    1.0526794312980686e+01 -1.8447565111703268e+00
    1.1332742900515305e+01 -1.8621402219891419e+00
    1.2757529137764054e+01 -2.5363625637730558e+00
    1.2634543857221958e+01 -2.2025705805511651e+00
    1.5517791066084255e+01 -1.4628066156079618e+00
    1.9534683122948937e+01 -1.4983031650986833e+00
    3.2301470362316792e+01 -1.4161930825005782e+00
    1.8571443071302706e+01 -1.5266321729188170e+00
    1.0730045338052745e+01 -1.3659902504610559e+00
    9.4391553998960109e+00 -1.7681968908445407e+00
    1.1839432608732503e+01 -2.2640613583680316e+00
    1.4311612073293535e+01 -3.0129011995846673e+00
    1.1898574637790981e+01 -1.8265954897375136e+00
    1.1266306269135331e+01 -1.1795303011846603e+00
    1.6900528666944421e+01 -1.4462538195065493e+00
    1.9735610001651704e+01 -1.4192380923879624e+00
    1.0281420666022695e+01 -1.7549652269094462e+00
    9.8189381919972831e+00 -2.0052371040983963e+00
    1.2735477694411594e+01 -2.7206533703387015e+00
    1.2449067695417870e+01 -2.4683613200591066e+00
    1.1909951069894470e+01 -2.0883033772622732e+00
    1.4154156858827772e+01 -1.5831146364206510e+00
    1.3740795323573066e+01 -1.4489544313940739e+00
    1.5605649544789708e+01 -1.5079568170684257e+00
    1.0845233513828155e+01 -1.4016256834194156e+00
    1.0016416543500812e+01 -1.9699128130539805e+00
    9.5324945360730400e+00 -1.3700037557265508e+00
    1.5796699788988526e+01 -1.7083575970443066e+00
    2.2255658538741137e+01 -1.9516597178566450e+00
    1.8326999599253369e+01 -1.9081925289126793e+00
    9.6234392499991479e+00 -1.7957227715855237e+00
    1.1046626544888520e+01 -1.6373436000185295e+00
    1.3812721637801131e+01 -1.6683937304994323e+00
    1.1453678801052860e+01 -1.4197894794677421e+00
    1.1398384435413734e+01 -2.0059301461673837e+00
    1.0166001375423257e+01 -1.2028692199386859e+00
    1.8010462065869326e+01 -1.9282249303469265e+00
    1.3699948372895971e+01 -1.5328698933835090e+00
    1.0057437062179275e+01 -1.4778191537492229e+00
    1.3671319122034850e+01 -1.3602822216815049e+00
    1.7289152554713421e+01 -1.3778958092159488e+00
    2.0676801163296044e+01 -1.8666777924900275e+00
    1.1012857347109188e+01 -1.7465219464139774e+00
    9.8930150233995988e+00 -2.3850623655331282e+00
    8.4651066392038121e+00 -1.6894237711123021e+00
    1.0793868601200471e+01 -1.6235774449782139e+00
    1.3409582111172847e+01 -1.3291470986328768e+00
    1.4675116303170922e+01 -1.5196183922759561e+00
    1.0033187789656273e+01 -1.2568477903995148e+00
    1.1088068411425573e+01 -1.4700999473789582e+00
    1.0111337458609086e+01 -1.4653430596358352e+00
    1.0348000288984920e+01 -1.7066520000658401e+00
    1.0635276996783343e+01 -2.7435392988304241e+00
    1.2188795187499604e+01 -1.9534600009418996e+00
    1.3275924418186424e+01 -1.8323934464432465e+00
    1.1234570303944034e+01 -1.3519734040923059e+00
    8.7302759573264055e+00 -1.2323281303171929e+00
    7.5960065191453090e+00 -1.5204508799382537e+00
    1.2084550819157359e+01 -1.6408547334338577e+00
    1.8515647644903343e+01 -1.7174176611618874e+00
    1.1656175809723598e+01 -1.1227172518822208e+00
    1.3183022776929690e+01 -1.6184622291040378e+00
    1.1113514726089139e+01 -1.0661439575134193e+00
    2.3694129255079062e+01 -2.1121068496646371e+00
    1.4268492554418085e+01 -1.4919678991708005e+00
    8.5305980001687463e+00 -1.2848986751267826e+00
    9.0959658108439978e+00 -1.9478046000518905e+00
    9.8735925459526896e+00 -1.8157657781386778e+00
    1.2113940928743576e+01 -1.6300139233035833e+00
    1.0804049879077196e+01 -1.2941750944355521e+00
    1.0343708280956658e+01 -1.5044913756189946e+00
    1.6209230973626052e+01 -1.4773103861853183e+00
    2.2264715604912890e+01 -2.2444526713620867e+00
    1.7817633865740888e+01 -2.0196627496501907e+00
    8.4556297289066880e+00 -1.6266826125935825e+00
    1.3749255424370467e+01 -1.3429657781257749e+00
    1.2259020506012183e+01 -1.6223894227320292e+00
    1.7151719102002776e+01 -2.3651191472705424e+00
    1.2708949356241357e+01 -1.6410479436780145e+00
    1.1304933737661862e+01 -2.1685053128386054e+00
    1.0584839000565262e+01 -1.2334839967464513e+00
    1.6142038907511285e+01 -1.9097290420279640e+00
    1.4497351163973173e+01 -1.4647868573679850e+00
    1.2679545976756620e+01 -1.3704329269436257e+00
    1.0330665298690318e+01 -1.3674214653184404e+00
    8.8900570650736963e+00 -1.6629880978973650e+00
    1.0361867840222457e+01 -1.9289325028809925e+00
    9.5199472633276425e+00 -1.6126943700871901e+00
    9.1398391076178207e+00 -1.8445736372341799e+00
    9.9027623826505735e+00 -1.4964775381641373e+00
    1.1515836772820403e+01 -1.5603772318136955e+00
    1.2430760393016717e+01 -1.4631140810123884e+00
    1.1361571331422551e+01 -1.3429654684905934e+00
    7.8236824249986698e+00 -1.4060258620838155e+00
    1.0686218111457359e+01 -1.5845976522291922e+00
    1.6380939929717460e+01 -1.8151502365165482e+00
    1.4357094132261006e+01 -1.2733340226467469e+00
    1.0892075217190355e+01 -1.2553315502522620e+00
    2.4833003736984871e+01 -1.2968064442267346e+00
    2.0766331843163943e+01 -1.3347300878284982e+00
    2.0283891073952475e+01 -1.3927779780371492e+00
    7.5785740939808965e+00 -1.1443910627191030e+00
    9.0905774771473116e+00 -1.7887890299570024e+00
    1.2834240844620563e+01 -2.3062468240382925e+00
    1.1766802351822067e+01 -1.8819435408163074e+00
    8.5896123699673428e+00 -1.3203518120572584e+00
    7.6580937947367662e+00 -1.2657442075654932e+00
    1.8765665468242016e+01 -1.5128233202116363e+00
    1.4278644569213167e+01 -1.1371015393165693e+00
    9.3178823778044375e+00 -1.0197946418157837e+00
    7.6712204835064659e+00 -1.4146469094879834e+00
    1.2842660528856467e+01 -1.2045156849257035e+00
    1.1260174373378547e+01 -1.5493578780543076e+00
    1.3260976678832815e+01 -1.9338297721168982e+00
    1.2278568931520098e+01 -1.5552132811436972e+00
    9.3912859763372740e+00 -1.4783439930514028e+00
    1.6337871114446063e+01 -1.6166114277779287e+00
    1.2752064030916598e+01 -1.1481322569465793e+00
    1.1723831166497030e+01 -8.9242044531879527e-01
    1.2020887979318795e+01 -9.7636960559584385e-01
    1.1408075680424984e+01 -1.4023915345075320e+00
    1.0171830785982879e+01 -1.8699143423342548e+00
    1.0250282048830501e+01 -2.2889105964231500e+00
    9.6750883299990615e+00 -1.9833641941659130e+00
    9.4362567297816629e+00 -1.9483468438632194e+00
    9.4429394143750454e+00 -1.4041019514000406e+00
    1.1497422666236886e+01 -1.4156075097209322e+00
    9.4413144760295005e+00 -9.7301167497755392e-01
    1.1266427097318218e+01 -1.1460733836180059e+00
    1.0008820835774610e+01 -1.5493092655861309e+00
    1.0827170391699450e+01 -1.7658689943323977e+00
    1.4688188390006449e+01 -1.5641618481666868e+00
    1.3401336249674797e+01 -1.2253125387807855e+00
    1.2398457981567713e+01 -1.1380265617224721e+00
    1.8989642436783445e+01 -1.1664733891068162e+00
    2.0430968387481585e+01 -1.0784604144941690e+00
    8.5672465095935273e+00 -8.1129829223428629e-01
    7.6207183086687271e+00 -1.3154041617640466e+00
    8.9253197402504476e+00 -1.6972418924616539e+00
    9.3270028386701078e+00 -1.6428148493888965e+00
    1.0182907637770988e+01 -1.1841587309813397e+00
    1.1309637856995531e+01 -1.2901038015962103e+00
    8.7023857226237897e+00 -9.9712516318532074e-01
    1.0860585587718994e+01 -8.9600721769570846e-01
    1.1796678397424532e+01 -9.0379322618550040e-01
    7.2114014220663325e+00 -9.0670567014176051e-01
    8.4468259186524666e+00 -1.7572352111150056e+00
    9.3557139018329991e+00 -1.1507509486259502e+00
    8.8519296254007465e+00 -1.4198176556927977e+00
    1.0048915215125911e+01 -1.6056793355102543e+00
    1.2404578947453526e+01 -1.6141639973116579e+00
    1.0738170324066227e+01 -1.4185134530525867e+00
    1.0439650935844671e+01 -1.1476677724791862e+00
    1.6100446262999121e+01 -1.4937477600431028e+00
    1.1588533741648169e+01 -1.0588210677109613e+00
    1.1292178332442369e+01 -1.1073302633398199e+00
    9.0534336834674232e+00 -1.4733061910206082e+00
    8.8514793095558861e+00 -1.5009736316624911e+00
    1.0407297169810890e+01 -1.3652756073208101e+00
    9.4600742968973410e+00 -1.4821144206170271e+00
    9.2355015770669162e+00 -1.5284861337658258e+00
    8.7916302628829488e+00 -1.2724546732488979e+00
    9.4420898943804712e+00 -1.1733763755964601e+00
    1.1541868282827725e+01 -1.4127912376939737e+00
    9.3837277008319067e+00 -1.5260151435486757e+00
    8.5136843382001803e+00 -1.4523055421051259e+00
    8.8236078947668304e+00 -1.3676964069090314e+00
    1.1758647955589847e+01 -1.0054106453745801e+00
    1.1653996996341382e+01 -1.1209740679406837e+00
    1.0856371672196202e+01 -8.9235609232823232e-01
    2.2273328040469355e+01 -1.0848919105793864e+00
    1.2862703709661757e+01 -8.5465837010526102e-01
    8.6406893669993963e+00 -1.1000153491383082e+00
    1.0002368133146701e+01 -2.1253696574302388e+00
    8.9527737586537093e+00 -1.7124279537443698e+00
    1.1531774941392699e+01 -1.8921468056614321e+00
    1.0278603327599031e+01 -1.1308593386592529e+00
    9.5068387276760067e+00 -1.1793705773902030e+00
    1.1860218389222943e+01 -1.0724145904688647e+00
    2.5244220469451079e+01 -1.3442345445935062e+00
    1.8945412085889469e+01 -1.2517951109338974e+00
    8.7608936640762263e+00 -1.3990714322001310e+00
    9.9412071183088369e+00 -2.3782321246297355e+00
    8.4516837946492132e+00 -1.3525073896906910e+00
    8.9509895181142785e+00 -1.3168455865955342e+00
    1.1667384545777610e+01 -1.1041153230429293e+00
    1.1058369414477299e+01 -1.3255664495551771e+00
    1.0657253735235019e+01 -1.2625597368735049e+00
    1.0681659734305732e+01 -1.1178720403854980e+00
    1.0710378979148917e+01 -1.0737783992865597e+00
    1.0913839757116603e+01 -1.3661863802240670e+00
    1.0325495404461417e+01 -1.7004727361136083e+00
    8.7773454867851761e+00 -1.4161851374016390e+00
    1.0835468249222320e+01 -1.4392739577200657e+00
    1.0613173343575250e+01 -1.2252321378446553e+00
    8.4041725825088420e+00 -1.0812530427747997e+00
    9.6015587450487310e+00 -9.8325693963375294e-01
    9.6898671031427099e+00 -1.0310685999035030e+00
    1.0479343089138077e+01 -1.1818357878162911e+00
    9.2906439006046071e+00 -1.5274856548487277e+00
    8.5869787662786230e+00 -1.6524372669860758e+00
    7.3947139430123583e+00 -1.4295403277039835e+00
    1.2883038248385200e+01 -1.8030291079060419e+00
    9.6214410363452849e+00 -1.1760356511972818e+00
    1.2370816720999150e+01 -1.1219409411592953e+00
    1.2057145938037047e+01 -9.2860191698742145e-01
    2.0569978427929037e+01 -1.0618635495522390e+00
    1.8131850098920939e+01 -1.0961807490885578e+00
    9.7296292000347773e+00 -1.5389774348433058e+00
    1.0024278025603058e+01 -2.3552509212742367e+00
    7.8963297923067000e+00 -1.7245343586521651e+00
    1.1058205311443347e+01 -1.5146047048824034e+00
    8.8722777792478951e+00 -1.0677655842046108e+00
    1.2027373149995704e+01 -1.0169059682102743e+00
    1.7108788350435990e+01 -1.0494079736631448e+00
    1.9807441410064193e+01 -9.9106079562718397e-01
    1.4446746556144298e+01 -8.8959232008212374e-01
    1.0533401968203997e+01 -1.5161372017020944e+00
    8.7692010861764462e+00 -2.3158200725360940e+00
    7.7477914650290716e+00 -1.2096211557385068e+00
    1.7754725219265552e+01 -1.8525511097405183e+00
    1.0738062327915221e+01 -1.2058431162633092e+00
    1.2328204578862781e+01 -1.0920603660273693e+00
    1.1099822913715009e+01 -9.5612578406556592e-01
    1.1754525473714985e+01 -1.0971098650894722e+00
    1.3020119819295870e+01 -1.1256678624493468e+00
    8.4883295377518220e+00 -1.2538347465260227e+00
    8.0517040331497736e+00 -1.4368735230933520e+00
    8.2913958438831568e+00 -1.4174210866838153e+00
    1.5182563375814972e+01 -2.0639468633560019e+00
    9.9170501577623362e+00 -1.3669687393017009e+00
    1.0397284033481357e+01 -1.0002219701401556e+00
    1.1276406576121111e+01 -1.0138509709102119e+00
    9.9926693625174146e+00 -1.0602632823601927e+00
    1.0391410469696297e+01 -1.1930313898656475e+00
    9.0005560878551130e+00 -1.4859598858576524e+00
    7.6771255722111302e+00 -1.4467405126729542e+00
    8.4273793015377976e+00 -1.9666880756636405e+00
    8.6948744521009971e+00 -1.3175898824576973e+00
    8.8650129164869913e+00 -9.2030727765385267e-01
    1.7741942374828447e+01 -1.0568570925240488e+00
    1.8732048318576989e+01 -9.8518049791210849e-01
    1.9142116007871945e+01 -8.7594087381421393e-01
    1.6149132825632780e+01 -7.9879134952910769e-01
    1.2616973723722335e+01 -1.4470693797567724e+00
    8.6111816286094331e+00 -2.1223260752722357e+00
    1.2132283540834013e+01 -3.3008502762206873e+00
    8.7327010597138752e+00 -1.4817271087564838e+00
    1.0940661616587349e+01 -1.1027507125329559e+00
    2.5350039571780759e+01 -1.1473453065628478e+00
    2.6367598772386096e+01 -1.1092602878598787e+00
    4.0853360657911352e+01 -1.3797770823813946e+00
    2.7132539509815647e+01 -1.1173333694035148e+00
    1.2581135943643195e+01 -1.4405957422811113e+00
    9.3007017242564665e+00 -2.3856247282063188e+00
    8.6630055062122793e+00 -1.6551036127454211e+00
    1.0899844505007133e+01 -1.7308181254065915e+00
    1.1016223344684068e+01 -1.3775773398434152e+00
    1.3822921541934875e+01 -1.1660894111131543e+00
    1.7703058210022906e+01 -1.4202727084245159e+00
    1.4076434899432535e+01 -1.2171658385705748e+00
    1.2014450662642560e+01 -1.3037049754581669e+00
    1.0999292122612196e+01 -1.6131586749602005e+00
    8.7637042180634914e+00 -1.6666916270162964e+00
    9.2946831806217283e+00 -2.2579547382082850e+00
    1.2237184617494020e+01 -2.4016871459707447e+00
    1.1552311146635379e+01 -1.2174691291724908e+00
    2.0113415547343919e+01 -1.2771546763507069e+00
    1.6530565373084677e+01 -1.2301773154495736e+00
    2.4575480218191853e+01 -1.5071411473136558e+00
    1.3017534193136241e+01 -1.2566950334179146e+00
    1.1705078201102632e+01 -1.7953152909050136e+00
    9.0976814507968040e+00 -2.0099950988615767e+00
    1.4152409818367575e+01 -4.2037431492466411e+00
    7.6865468925304672e+00 -1.2449909701812454e+00
    1.1102421614400091e+01 -8.6916072341193140e-01
    3.2366091520809761e+01 -1.2251169473827523e+00
    5.6677095226902971e+01 -1.4038337410717951e+00
    4.2056629019413592e+01 -1.0206711333424894e+00
    3.6541154136152649e+01 -1.3196742107067549e+00
    1.9658446876421319e+01 -2.0034864270287778e+00
    9.3535103318859871e+00 -2.4835317279905067e+00
    2.8125494709359813e+01 -9.1392145372155973e+00
    8.5368916517814171e+00 -1.3053050635363270e+00
    1.9866897777018465e+01 -1.1280608284427014e+00
    2.3644728619678055e+01 -1.1258598369073489e+00
    2.9634795917905652e+01 -8.9910818399688752e-01
    3.5601233579179492e+01 -9.0198409233268972e-01
    2.5321858913380755e+01 -1.2185992395407337e+00
    1.3230602034626804e+01 -1.6140238288628446e+00
    1.1272302730276099e+01 -3.1770334413061798e+00
    1.1052752830272576e+01 -2.8289057586365516e+00
    1.1601578624115341e+01 -2.2183140518347884e+00
    1.6152489419430644e+01 -1.1878077749656601e+00
    2.5655672958263295e+01 -1.3139297572560551e+00
    2.5635819906388555e+01 -1.2711234954819826e+00
    2.3496175507865249e+01 -9.9171362341142155e-01
    1.3223199764996185e+01 -9.5126592947436905e-01
    1.2688486849510436e+01 -1.4927851850508549e+00
    1.0469163021118446e+01 -2.2398025414422378e+00
    1.2579194283581817e+01 -3.2304886362606879e+00
    9.8350234570961330e+00 -1.7786588841895459e+00
    1.5628128441016647e+01 -1.2099216684627485e+00
    1.5370149592878391e+01 -1.0692264112751366e+00
    2.0906873934343487e+01 -1.0258378375333472e+00
    2.9331634921368700e+01 -1.2659189319388169e+00
    1.6950541494560902e+01 -1.2181845729764751e+00
    1.3355378713104646e+01 -1.5970190204274481e+00
    1.0636903641345356e+01 -2.8460488291470600e+00
    2.9115903207790122e+01 -9.5746347592800376e+00
    1.1199829974480622e+01 -1.2978572766343170e+00
    1.4079822769780153e+01 -7.7733122108078834e-01
    2.8629555226557812e+01 -1.0895930450760947e+00
    4.4159620591621582e+01 -1.2980482369933732e+00
    4.3426119907655853e+01 -1.1094397994262895e+00
    2.7075271643562274e+01 -1.3869428750125994e+00
    1.7292893170760372e+01 -1.9596931270274669e+00
    1.1657454821737462e+01 -3.3805635219175345e+00
    2.1639766717069371e+01 -6.9057112212633749e+00
    1.2672721010770266e+01 -1.6383808219634350e+00
    1.5777590027411563e+01 -8.5357156075846519e-01
    2.6824843712692765e+01 -8.8390649128473120e-01
    2.9997893247558814e+01 -9.0179000981619584e-01
    4.7710823595642907e+01 -1.2492693541150115e+00
    3.5652723602844226e+01 -1.8675347644115396e+00
    1.3839672224397452e+01 -1.8125271863621970e+00
    1.6272969503037427e+01 -4.9524710981774236e+00
    1.4889262857863796e+01 -4.0924211019377719e+00
    1.1902251688548324e+01 -1.6742882251262661e+00
    1.4474827260552919e+01 -9.0561799599361281e-01
    2.3679649245346724e+01 -1.1150441643661151e+00
    2.2940091809539734e+01 -9.3795473584939226e-01
    2.2180452762604183e+01 -9.7940297009792321e-01
    2.0868197918501956e+01 -1.2301853406505852e+00
    1.2883316714513278e+01 -1.4136006262599679e+00
    1.3400140269496962e+01 -3.7596737933338749e+00
    2.0027926762547843e+01 -5.6900114295804398e+00
    1.3112557200660383e+01 -1.7784934474942371e+00
    1.5208872341975182e+01 -1.0066315344841799e+00
    3.4460635775432252e+01 -1.0582025811749929e+00
    2.9159656289846119e+01 -8.9018284709953233e-01
    3.7319643650199716e+01 -1.2942393903635845e+00
    2.8570065195793692e+01 -1.3605454987767351e+00
    1.2758619787627374e+01 -1.5399047714562439e+00
    1.7036826599828942e+01 -5.2341526910314062e+00
    1.8454163075006125e+01 -5.7798340108525892e+00
