<?xml version="1.0"?>
<opencv_storage>
<opencv_ml_ann_mlp>
  <format>3</format>
  <layer_sizes>
    3780 15 3</layer_sizes>
  <activation_function>SIGMOID_SYM</activation_function>
  <f_param1>6.6666666666666663e-01</f_param1>
  <f_param2>1.7159000000000000e+00</f_param2>
  <min_val>-9.4999999999999996e-01</min_val>
  <max_val>9.4999999999999996e-01</max_val>
  <min_val1>-9.7999999999999998e-01</min_val1>
  <max_val1>9.7999999999999998e-01</max_val1>
  <training_params>
    <train_method>RPROP</train_method>
    <dw0>1.0000000000000000e-03</dw0>
    <dw_plus>1.2000000000000000e+00</dw_plus>
    <dw_minus>5.0000000000000000e-01</dw_minus>
    <dw_min>0.</dw_min>
    <dw_max>50.</dw_max>
    <term_criteria>
      <iterations>3000</iterations></term_criteria></training_params>
  <input_scale>
    8.5878414011376130e+00 -2.3280182266658329e+00
    1.3505692675628724e+01 -1.2076402249069869e+00
    1.5668072712016464e+01 -7.2032518197550555e-01
    1.7948965320352634e+01 -5.3412064404069859e-01
    3.2928128642012375e+01 -1.0714132161366667e+00
    2.5027395043497787e+01 -6.7589581433241830e-01
    1.1267578535249132e+01 -6.6725371761874352e-01
    1.3738149862462238e+01 -1.3235963199912624e+00
    8.6881639507807016e+00 -2.4413089632597211e+00
    9.1812559317221307e+00 -2.7084366510469100e+00
    1.2114196311976638e+01 -1.1869761480760834e+00
    1.8912044864967516e+01 -8.1769437374798370e-01
    1.8563027030206737e+01 -5.3595617585587874e-01
    2.4833885194793112e+01 -7.9009872548857696e-01
    2.3884018646319490e+01 -6.1782769655975012e-01
    1.1494446953670028e+01 -7.0805730278265488e-01
    1.1437955275427884e+01 -1.3011959362020693e+00
    9.7124872483639688e+00 -2.9597822427742972e+00
    1.0343632834966154e+01 -2.5923550117317689e+00
    1.4145395491455485e+01 -1.1257463469508224e+00
    1.7399017106000581e+01 -7.8643588098345663e-01
    2.3707811526556963e+01 -7.2983939158042443e-01
    2.5363604855847580e+01 -8.5491607147711512e-01
    1.4434071284318424e+01 -7.3394225459674900e-01
    9.7634188520613350e+00 -7.7867775782529203e-01
    1.0049582655268374e+01 -1.5771306007687280e+00
    9.3902284548462625e+00 -2.6212956605079132e+00
    9.0127562237109657e+00 -2.4425240491747160e+00
    1.3559687416667083e+01 -1.2667314040013997e+00
    3.0885014967847688e+01 -1.2485852592040030e+00
    3.2308882288351533e+01 -9.9060551914946771e-01
    2.8411005570094130e+01 -1.0845136634596582e+00
    1.5043869550775126e+01 -7.3761259424681525e-01
    9.6514339969931608e+00 -7.8610177443589591e-01
    1.1337727235250391e+01 -1.6703487404302679e+00
    1.0050842796843638e+01 -2.9456004926885200e+00
    8.5221218857278664e+00 -2.2923527699615476e+00
    1.3493590291721407e+01 -1.1096944483025257e+00
    2.9002441144646049e+01 -8.6148824462286078e-01
    4.1141042808430512e+01 -7.3916484902389334e-01
    2.9572673063812672e+01 -7.9015292805464044e-01
    4.1786527828113904e+01 -7.2486815364083013e-01
    1.4916253998912573e+01 -6.0384794050792612e-01
    1.0627105518711774e+01 -1.1960902128088060e+00
    9.4790052300949572e+00 -2.7856588695490254e+00
    1.0248861511961122e+01 -2.9340300989643811e+00
    1.2119646466256638e+01 -1.0158575893456179e+00
    2.3205304140386072e+01 -8.8025368942237037e-01
    3.4404719740434238e+01 -6.7454785931029226e-01
    2.9563466750862485e+01 -8.9146949084664495e-01
    2.9976130195514617e+01 -6.2827354983785599e-01
    1.6629233802675678e+01 -6.9262481275920440e-01
    8.9236674514643841e+00 -1.2108060636126217e+00
    1.1096653238486388e+01 -3.5355396921867479e+00
    9.7368271713524255e+00 -2.6099627060998678e+00
    1.3769291037226866e+01 -1.3196916387999156e+00
    2.8073877242558574e+01 -1.1256646426810923e+00
    4.4554006183969932e+01 -9.9748868015510217e-01
    2.9923609118735602e+01 -8.8966681482939480e-01
    3.4452986097521951e+01 -8.9726785077438120e-01
    1.7323909711670108e+01 -8.8156628812168258e-01
    1.2116374747316847e+01 -1.5177988851409800e+00
    1.0202128726353756e+01 -3.0164571803774134e+00
    1.0547472767385365e+01 -3.0783636049599137e+00
    1.0112752948818857e+01 -1.1073087307296123e+00
    2.1172920932944127e+01 -9.9961205248101759e-01
    3.5477674984874604e+01 -8.2901275140820041e-01
    2.7891878069207344e+01 -8.1026176109772019e-01
    2.2951411888115754e+01 -5.9456025245237099e-01
    2.0648388515213178e+01 -9.5375421987563602e-01
    1.0359677843352644e+01 -1.5971128459402588e+00
    1.4757763605127852e+01 -4.8785206180686620e+00
    1.0009775278904044e+01 -2.6544149075693513e+00
    1.5564283977788472e+01 -1.0140418823666779e+00
    4.1739242716433608e+01 -1.0163214107509841e+00
    5.0421634644816649e+01 -6.5905551720280464e-01
    3.0640338045495238e+01 -8.6903473172629064e-01
    3.1122395842675651e+01 -5.9680833968835900e-01
    1.5480642352237664e+01 -6.4770500879473214e-01
    9.6846540221556587e+00 -1.3232988027840635e+00
    1.1108538925225703e+01 -3.4088094501185342e+00
    1.0374826834936147e+01 -2.8490914117416670e+00
    1.7962419301624298e+01 -1.3210212668700980e+00
    3.9585188590637877e+01 -9.3659540697755428e-01
    5.0892044692019049e+01 -7.5680483134416021e-01
    3.5690963917946618e+01 -9.9474625882815781e-01
    3.4262167326426258e+01 -6.2652915856457281e-01
    1.5570184545137908e+01 -8.0486901330355864e-01
    8.6865934151573185e+00 -1.2407305507211632e+00
    1.2584177324379645e+01 -3.8822765610094860e+00
    9.9249510100459073e+00 -2.6349234480658623e+00
    2.0911611964954584e+01 -1.3974715652729426e+00
    5.2492046136572263e+01 -1.3483722658727122e+00
    4.2809872677754058e+01 -8.4789803153394794e-01
    3.1906127739717714e+01 -8.1878778340661862e-01
    2.8108322336842996e+01 -7.4485162432371110e-01
    1.6269600640665434e+01 -8.4189731955931957e-01
    9.7729023491952862e+00 -1.6215530080252192e+00
    1.4002161834039555e+01 -4.6395386682589459e+00
    1.0592276884281251e+01 -2.9359310977590320e+00
    1.6634823599098407e+01 -1.3361337373815876e+00
    4.5106599922567256e+01 -1.2232628982020497e+00
    3.7043927107469372e+01 -8.5543316282343140e-01
    3.4056028463992583e+01 -9.1548971700600446e-01
    2.7496657650644572e+01 -7.8357566202882123e-01
    1.8265577523921074e+01 -1.0896828232919955e+00
    9.5237943333634476e+00 -1.7714931235287841e+00
    1.8205284996788578e+01 -6.1965258515722468e+00
    9.4329003479838658e+00 -2.3391252278910968e+00
    1.9829176666442013e+01 -1.2905492839622630e+00
    3.3265169206166341e+01 -8.3058052930640081e-01
    4.1782343696864217e+01 -6.6778999006285578e-01
    3.2606890517387761e+01 -8.3240760795383451e-01
    6.4439650691773721e+01 -9.3710809031425435e-01
    1.4475372483511983e+01 -6.7954989525076648e-01
    9.5594212112834853e+00 -1.1403386008551644e+00
    9.8047307352661619e+00 -2.6919945518862103e+00
    1.0010688072759532e+01 -2.6950328018866156e+00
    1.7882752075098086e+01 -1.0808581761199616e+00
    2.5976551666697056e+01 -7.3806904167939258e-01
    2.5142275990691292e+01 -5.2570438815253917e-01
    2.2075925361450917e+01 -7.4072730267612152e-01
    3.1783945386575173e+01 -6.7453658276348660e-01
    1.1010441870512494e+01 -6.5302742124990665e-01
    8.5183070459382844e+00 -1.1604617781427928e+00
    1.2015962599754364e+01 -3.7497570283095509e+00
    9.0596513309981006e+00 -2.4164753684667626e+00
    1.3544630842591030e+01 -1.1584096686516121e+00
    2.6594461763182913e+01 -8.3787627602694403e-01
    3.8600339323134612e+01 -7.2400564040405768e-01
    3.6031365270306310e+01 -8.4788406850378528e-01
    4.7330465192349578e+01 -1.1856804015758615e+00
    2.2099237522267838e+01 -1.1982289019220063e+00
    1.0167989106051408e+01 -1.6232965654677456e+00
    1.2055836009435515e+01 -3.9032623761620244e+00
    9.4860580252082780e+00 -2.6483033403404970e+00
    1.1552715394127727e+01 -1.0381256612904146e+00
    2.0674134582885582e+01 -8.4788924365419382e-01
    2.5230971898702066e+01 -6.6259494441307287e-01
    2.4322133220549933e+01 -7.4655977888861491e-01
    2.4932582027555807e+01 -9.1977137949433885e-01
    1.0298605539960894e+01 -8.1856842169915145e-01
    9.3467980793175798e+00 -1.6435492412964408e+00
    1.5790340486923796e+01 -5.3632716483028684e+00
    9.6777869792168296e+00 -2.3126857664065974e+00
    1.9657608824931565e+01 -9.1400854187350600e-01
    4.1437825058313436e+01 -8.0312896337033846e-01
    4.2975166588218713e+01 -6.4768080263253802e-01
    3.3964899177857419e+01 -8.4792688818788586e-01
    2.9940552610946167e+01 -5.7585634278934539e-01
    1.5923039647605489e+01 -7.4138150998424013e-01
    9.2857584515362923e+00 -1.1242035613060621e+00
    1.0967415396618978e+01 -3.2949542624405130e+00
    9.6509190178569657e+00 -2.3600502953872993e+00
    2.1194448409336427e+01 -1.1244020184508861e+00
    4.8050136672823449e+01 -9.6858131473040110e-01
    5.8175280133709173e+01 -8.3124706181049379e-01
    3.1160058409369075e+01 -9.4921005511076717e-01
    3.2511196761790160e+01 -7.2228066172058680e-01
    1.8563066941863426e+01 -9.2522100480238445e-01
    8.7933354593989588e+00 -1.1769577009549863e+00
    1.1482265230182870e+01 -3.5080344414218456e+00
    8.1991509606030775e+00 -2.1614120728038597e+00
    1.1936092542474915e+01 -9.1503333382350061e-01
    2.4232252311990337e+01 -7.7231922393719565e-01
    3.2432310031205404e+01 -8.0191659616731847e-01
    2.8984082383167337e+01 -8.1315129395244501e-01
    2.2643641226309889e+01 -7.7018998519058990e-01
    1.2005785923974916e+01 -7.5452638957616958e-01
    9.5667661797814674e+00 -1.4262181419669120e+00
    1.4688895637626665e+01 -4.9394766604358402e+00
    9.0862843379798566e+00 -2.6388299670275654e+00
    1.1024040551392812e+01 -1.0289556908955912e+00
    2.5937882373079603e+01 -8.7182815128542823e-01
    4.0589132857535994e+01 -9.1555698634316474e-01
    2.0442739915177015e+01 -6.9053419938362748e-01
    1.9141224038537818e+01 -7.1697391207626004e-01
    1.2554891675921924e+01 -8.5238279730238520e-01
    9.5195723368930931e+00 -1.6600067005122290e+00
    1.6128431071946412e+01 -5.6126623137274079e+00
    1.0096360394115329e+01 -2.3706019930331554e+00
    2.6755872230394214e+01 -1.2782163931589541e+00
    4.4006623094582039e+01 -8.7266298287990862e-01
    6.4062494956611246e+01 -7.5885299539282203e-01
    3.3628908076874168e+01 -9.0224282978437953e-01
    3.2204277093605207e+01 -6.4389654436607069e-01
    2.1217934038498864e+01 -8.7171190382408503e-01
    1.0236022470812193e+01 -1.1861736117960626e+00
    1.0270203080574985e+01 -2.8299349293279401e+00
    9.3686735907855230e+00 -2.2514456714722151e+00
    1.5884545476332683e+01 -1.0020793528699574e+00
    2.7996910125525229e+01 -8.0549568752701695e-01
    3.5045568178917677e+01 -7.4596960060661910e-01
    2.9316530846118678e+01 -9.1038653837036065e-01
    3.2349426950786423e+01 -6.4375409433301545e-01
    1.6653746715280498e+01 -7.7039392253315486e-01
    9.4760321531510172e+00 -1.3718696902896037e+00
    1.0845929975542788e+01 -3.2441863217706888e+00
    9.6215255794977388e+00 -2.7149425653310062e+00
    1.0710048984363118e+01 -9.4020875827087058e-01
    3.2413500359274323e+01 -8.8332047169872419e-01
    6.4183108209000423e+01 -8.8865867651707420e-01
    2.6640110994261601e+01 -6.3475447026887466e-01
    3.2820944146375489e+01 -7.8632000485400089e-01
    2.4492799879430187e+01 -1.0847588279888940e+00
    1.0972601749824793e+01 -1.6272592312187268e+00
    1.4209077853368267e+01 -4.8011121748514620e+00
    9.8825616468251187e+00 -2.8609227501734034e+00
    9.0982653516289904e+00 -9.3946795752272383e-01
    1.9481890744627911e+01 -7.8979553772951949e-01
    1.7674439036354666e+01 -5.4710309047605976e-01
    2.0693782125800311e+01 -6.2785379215154469e-01
    3.3369069742825950e+01 -8.1509871162563918e-01
    1.7636509545060783e+01 -9.4468266759109754e-01
    8.8163947061231358e+00 -1.7722880132579402e+00
    1.6727090546760568e+01 -6.0964207106924277e+00
    8.8934577894630067e+00 -1.8488006661270664e+00
    2.0050952696761517e+01 -1.0302208493274581e+00
    2.5041242107532057e+01 -7.2285262383141413e-01
    3.1634745317796188e+01 -7.1164967811896174e-01
    3.9143470295709179e+01 -1.0742864110012078e+00
    4.3063163983944797e+01 -8.4658438378262890e-01
    1.6802122856721105e+01 -7.5660618093262888e-01
    9.0152465400590014e+00 -1.3611070956864117e+00
    1.0318242068221966e+01 -2.9584410460758601e+00
    8.7191827140778244e+00 -1.9970576524766019e+00
    2.0531143879405917e+01 -1.1326051224556510e+00
    3.4187329308302381e+01 -1.0348670621568954e+00
    3.7078068533641300e+01 -8.2635660237436859e-01
    2.8305118011725206e+01 -9.3600802608591327e-01
    2.5547951734587773e+01 -7.5489134811526493e-01
    1.4473148533612409e+01 -9.0935041392750771e-01
    8.2314696039548814e+00 -1.2870288225347450e+00
    1.1325615158740851e+01 -3.1192654645821882e+00
    8.0856824844255861e+00 -1.9533904790329570e+00
    9.7430625715698636e+00 -9.1182603967297915e-01
    1.8057654597338093e+01 -7.1626378873597762e-01
    1.7501839764090416e+01 -5.8271224470109750e-01
    2.0673018113304735e+01 -6.1522975558997439e-01
    3.3149664556971295e+01 -8.1285803265229928e-01
    1.8322864562015010e+01 -9.4553188486233919e-01
    8.7999947832969596e+00 -1.7776612137730663e+00
    1.3340418200608021e+01 -4.5224646011876874e+00
    8.8313666761379146e+00 -2.1885230696702802e+00
    1.0009709052644963e+01 -9.2335166556198012e-01
    1.7605718204533609e+01 -8.0262938383812055e-01
    2.1698587960084421e+01 -7.2681868034923613e-01
    1.8582134909533227e+01 -6.5740752213124110e-01
    2.8025369362973553e+01 -9.0702410476398176e-01
    1.8930715886168109e+01 -1.1722156470221043e+00
    9.1226690885913477e+00 -1.9950919893491126e+00
    1.3402671664089375e+01 -4.6407918201314411e+00
    8.8088837180466122e+00 -1.8313864313717869e+00
    1.8446581296036364e+01 -9.7381858960751422e-01
    3.2094871377304713e+01 -8.8715055817120148e-01
    4.9310062031342170e+01 -8.1839251406106750e-01
    3.4474143387982956e+01 -9.1736914901439681e-01
    5.1522499900497927e+01 -1.0143575958772286e+00
    1.5875944517148101e+01 -9.3255902206028896e-01
    7.9586332321236419e+00 -1.1197666093608383e+00
    9.7418050009444030e+00 -2.4918736272450355e+00
    8.8359520531719902e+00 -1.8887189455478692e+00
    1.3843301726906017e+01 -1.0043991396087633e+00
    3.1883609082439811e+01 -8.7624738509809452e-01
    3.8136430347832494e+01 -6.4944190470312291e-01
    4.0609869004015451e+01 -9.9571426292017373e-01
    4.1507903809014572e+01 -9.0410205584979009e-01
    1.2592966415159912e+01 -9.3205363862175716e-01
    7.1242137772348011e+00 -1.2004086846354973e+00
    9.6764865264628188e+00 -2.5032627646729648e+00
    7.9504214227740366e+00 -1.9063370151027732e+00
    1.0543265746760174e+01 -8.9768375564266489e-01
    1.8096615282513099e+01 -8.0673363264400211e-01
    2.1349400775683293e+01 -6.8766600496003427e-01
    2.5434884375008636e+01 -7.6930171813498993e-01
    3.3147054245212892e+01 -9.6444443644703015e-01
    2.0072351319155871e+01 -1.2237823847922527e+00
    9.3117732682671459e+00 -1.7078309163591101e+00
    1.1623708722627670e+01 -3.9990668488200125e+00
    7.3017567965257797e+00 -1.8270852077983055e+00
    8.1347106433623448e+00 -8.4585647589726287e-01
    1.7330844533418762e+01 -7.8775936470037589e-01
    2.1595489086837727e+01 -6.8491020671859260e-01
    3.5007596583452909e+01 -9.3090459476053111e-01
    3.0736811639297226e+01 -1.1050975492253792e+00
    1.4853210532277684e+01 -1.1983629003421852e+00
    8.1288831939794850e+00 -1.7670690965938562e+00
    1.1585827352973386e+01 -4.0031335557240331e+00
    7.8747391183285629e+00 -1.6172540693529109e+00
    1.2640546001641683e+01 -9.2711007571014459e-01
    3.3899452146047636e+01 -8.9668088402789559e-01
    4.0899890412017633e+01 -7.2038211013138898e-01
    5.1286677486386964e+01 -1.1107297334502484e+00
    4.5979471724331972e+01 -9.5228011585477201e-01
    1.4164660842809880e+01 -9.4159427958235864e-01
    7.2937418888746111e+00 -1.1761954022758674e+00
    8.9394933138856363e+00 -2.1898738320195328e+00
    8.0799069939860857e+00 -1.7896903044784238e+00
    1.1620262569977569e+01 -9.7200374314935689e-01
    2.9153324155507267e+01 -9.7854544008683542e-01
    3.0615075712547544e+01 -6.7969565034067647e-01
    3.0013432128322950e+01 -9.3972973982581565e-01
    2.4477699596382134e+01 -6.9623391649544353e-01
    9.5234823254787706e+00 -7.4886100175188397e-01
    7.3343327934696863e+00 -1.2167212295277183e+00
    9.7146994920629588e+00 -2.4510156605449254e+00
    7.7363630547110871e+00 -1.5971447601486377e+00
    9.1511163017318680e+00 -8.5528540640452078e-01
    2.2226604234131070e+01 -7.7657383164967364e-01
    3.7141805159376084e+01 -8.8370202985565782e-01
    4.3635199803480198e+01 -9.7869367017572106e-01
    3.1844819589809031e+01 -1.0236513749624960e+00
    1.1790722013898579e+01 -9.7668862977964754e-01
    7.6426294373908634e+00 -1.6335863482365311e+00
    1.1556248803290618e+01 -3.6590706852749291e+00
    7.6969809095901303e+00 -1.7635013434607567e+00
    9.3800977195212578e+00 -9.8080510608756166e-01
    1.9398325097630739e+01 -7.9008545567668131e-01
    2.2184415803116067e+01 -6.1435494630805154e-01
    2.1452518064225490e+01 -6.3369449482640272e-01
    2.8500571778408830e+01 -8.6032487197194341e-01
    1.2909973968151217e+01 -1.0433985555183751e+00
    7.9711792538401962e+00 -1.8394569561341958e+00
    1.2083644160054355e+01 -3.9345639399126369e+00
    8.5799624219149031e+00 -1.7911378696290106e+00
    1.2832640928279075e+01 -9.8728380501202406e-01
    2.8675177398491130e+01 -1.0300350028889946e+00
    2.8299086608059259e+01 -6.8401928667003520e-01
    2.4251053735447510e+01 -8.4902462535791856e-01
    3.2461346656474547e+01 -9.5311240508483974e-01
    1.2144581522193302e+01 -8.2994466418054147e-01
    7.6322711600016850e+00 -1.1370540459397691e+00
    1.0515531311740178e+01 -2.4973786743954971e+00
    8.3451252447330972e+00 -2.0312773969334232e+00
    1.1676283453176843e+01 -1.0891604482430928e+00
    1.7958234424288861e+01 -8.8320495841655244e-01
    2.6616950680121917e+01 -8.5947209799727675e-01
    2.3492948417898546e+01 -9.9137121261662930e-01
    2.2456854886203622e+01 -9.3543948174427416e-01
    1.3067460119190047e+01 -1.1084811840702098e+00
    8.0151709472520931e+00 -1.2045354493860410e+00
    1.3215930826301989e+01 -3.6487065865324828e+00
    7.9082155755745278e+00 -1.7621150539951902e+00
    1.1266469375509667e+01 -1.0315586332564182e+00
    2.3021785790379088e+01 -9.2568154366647604e-01
    2.3652555302747576e+01 -6.2914357426900103e-01
    1.9748131868821734e+01 -6.5331225126480885e-01
    2.4904882405725541e+01 -7.9341552170746132e-01
    1.4016952963045886e+01 -9.9876447252166245e-01
    8.0771127558282512e+00 -1.7683669861050078e+00
    1.1004378625069863e+01 -3.4153808387548330e+00
    8.0654378514825105e+00 -1.9319631149023371e+00
    1.1769590422133534e+01 -1.1446237579626704e+00
    1.6266188657537683e+01 -9.0281537162400916e-01
    2.2139314723824228e+01 -8.4624038364587073e-01
    2.3521340369169724e+01 -9.3291252034750516e-01
    2.3436857741050794e+01 -1.0097369434680632e+00
    1.0655668346017121e+01 -1.0692827470970054e+00
    8.1500452333341826e+00 -1.7528504619946481e+00
    1.2560909492445024e+01 -3.9355090619317377e+00
    8.7904022214005533e+00 -2.1438954854648227e+00
    1.0629625945873041e+01 -1.1912295247112961e+00
    2.1733334797702849e+01 -1.0258507924936529e+00
    3.2725834125709810e+01 -9.9236405997662103e-01
    2.3933390762324276e+01 -1.0469236847811958e+00
    1.8675230822798106e+01 -8.8838743265984177e-01
    1.2884087312205709e+01 -1.0491481935108440e+00
    8.8628375395994592e+00 -1.1571689225904174e+00
    1.3123354395973289e+01 -3.2594651115491762e+00
    8.6681110433658883e+00 -2.2516747362994041e+00
    9.7483954154408821e+00 -1.3657234753312693e+00
    2.7941114964789453e+01 -1.3279292344401730e+00
    3.4557398577984422e+01 -1.0407546918201720e+00
    1.5983518590635667e+01 -8.7259307031138889e-01
    1.1244018132086650e+01 -6.4352400648695918e-01
    9.8113049733901168e+00 -8.5526743707139385e-01
    1.0223952843181792e+01 -1.2412107900016076e+00
    1.0554294293875625e+01 -2.5880652198426120e+00
    8.3143848394824893e+00 -1.9312152215640845e+00
    1.2299669482885498e+01 -1.3522626119200924e+00
    1.5928396956711415e+01 -9.4441837680220109e-01
    2.4129267167964134e+01 -8.9036646664911179e-01
    2.2769933563919597e+01 -8.8753932999089136e-01
    2.0910867676700779e+01 -8.8642492345785029e-01
    1.1574901401660091e+01 -1.2009614978755656e+00
    7.7081670589284341e+00 -1.4630110030373442e+00
    1.2416438740559096e+01 -3.3723227814220551e+00
    7.9619383063298983e+00 -1.9622968303741257e+00
    9.9466375572147747e+00 -1.3486841074348366e+00
    1.9273389091697734e+01 -1.2411006434673200e+00
    2.2535469612543896e+01 -8.2475351783653394e-01
    1.6023958801051254e+01 -7.6053041243759201e-01
    1.1760385467583363e+01 -7.1171570874283763e-01
    1.0040132251173020e+01 -1.1344550668938218e+00
    7.8654407809584690e+00 -1.4336765907919564e+00
    1.1669974494451882e+01 -2.9471356984797383e+00
    9.3485121084524039e+00 -2.5044803862531175e+00
    1.0949839933017678e+01 -1.4755287888492477e+00
    3.0172739077578392e+01 -1.4191460606240553e+00
    2.8167345167369142e+01 -9.2672130023238919e-01
    2.0908281252528997e+01 -1.0354851699591654e+00
    1.5600518851584484e+01 -7.4608266104412979e-01
    1.3223510868186084e+01 -8.3693845214125251e-01
    1.2642044506677376e+01 -1.3628039413890960e+00
    1.0133075747564474e+01 -2.4449655486409312e+00
    9.3678577885232350e+00 -2.5874800417001822e+00
    1.0135020761175891e+01 -1.5672793959804163e+00
    1.2691401304863998e+01 -9.5927024942989081e-01
    1.4709522700050240e+01 -7.3421516417709143e-01
    1.2394646703720664e+01 -9.2507733157802130e-01
    1.7746332526770107e+01 -9.6314520237801327e-01
    1.9636926383212575e+01 -1.3818562304061475e+00
    1.4124661932142104e+01 -1.7365965185637333e+00
    9.9262180365903792e+00 -2.5118419718555205e+00
    8.5929935318513788e+00 -2.1014738932763026e+00
    1.0111103345968788e+01 -1.2671198304991513e+00
    2.5159651138391659e+01 -1.3533536151114036e+00
    3.2251048038435940e+01 -1.0709738099062500e+00
    1.6363722256308947e+01 -8.0539292975617205e-01
    1.4153425800879463e+01 -8.4874684982353144e-01
    1.0839223425662029e+01 -9.9432874373962865e-01
    8.0919930515317411e+00 -1.2544888300067638e+00
    1.0262975449068643e+01 -2.3553605575989440e+00
    1.0709672157720973e+01 -2.7943557028253285e+00
    1.1092181209372736e+01 -1.5081790250694871e+00
    1.7123347510901421e+01 -1.1188669228029222e+00
    2.2266261150417900e+01 -8.9093883044518529e-01
    1.2604241289686213e+01 -8.1898455496716560e-01
    1.2354270017567762e+01 -8.3859218310931050e-01
    1.0380406437296886e+01 -1.1464328347864829e+00
    9.6901503437637277e+00 -1.5714684311430411e+00
    1.0958683637804398e+01 -2.9467261494516879e+00
    1.0337405773819878e+01 -2.7125346771709480e+00
    1.0552576072981003e+01 -1.4914029033551977e+00
    1.4262496282646769e+01 -9.6487438520237445e-01
    1.8575101420627881e+01 -7.5104248631396908e-01
    1.3413492085469059e+01 -8.8670577452171295e-01
    1.6189177061732408e+01 -8.2764838411915331e-01
    1.6493216480356796e+01 -1.1475463619090989e+00
    1.6285897912365584e+01 -1.8045759871303755e+00
    1.1452457163340419e+01 -2.8249792395056872e+00
    1.1959513312327132e+01 -3.2854719174326994e+00
    1.0653246810237777e+01 -1.5078155245094371e+00
    1.6687196257587310e+01 -1.1723245950482182e+00
    3.0855107696094645e+01 -1.2034112530900904e+00
    1.7439253430733604e+01 -1.0803761384145529e+00
    1.2840204582364512e+01 -8.2543970660670851e-01
    1.2639214611838671e+01 -1.0545104330143764e+00
    1.1108218450420322e+01 -1.5614709295260030e+00
    1.1878046103366621e+01 -3.2588425168849096e+00
    9.9228488408077986e+00 -2.6226918048156667e+00
    1.1502937497067956e+01 -1.4008794285045563e+00
    1.6841631076700835e+01 -1.0251893088250605e+00
    2.8345888538535707e+01 -9.1649426166775128e-01
    1.4204993960421085e+01 -7.7528609822471073e-01
    1.3064676294342163e+01 -7.6943657365557339e-01
    1.3140047475282614e+01 -1.1853123069408802e+00
    1.1567471235384323e+01 -1.5269290454724671e+00
    1.0482233052138017e+01 -2.6182286241290296e+00
    9.2692344953417134e+00 -2.4717238086985875e+00
    1.2697462554151162e+01 -1.5495936913992989e+00
    1.7189681456317839e+01 -1.1460529100703720e+00
    3.3319240709760670e+01 -1.2170865942221458e+00
    1.4867540317979600e+01 -9.0108679588123730e-01
    1.2593144224529771e+01 -8.7106252681904273e-01
    1.1962186878884898e+01 -1.2321322240366874e+00
    1.0342104256504458e+01 -1.5788213355231575e+00
    1.0093128298645759e+01 -2.6689580620093132e+00
    9.9979181325939539e+00 -2.4505710437793140e+00
    1.0948219704652917e+01 -1.3510993708444636e+00
    2.4845853122174582e+01 -1.5220732112081381e+00
    2.9385127019355913e+01 -1.2019166232433671e+00
    1.7470345246027279e+01 -9.8666108688375165e-01
    1.4520063517766943e+01 -8.9962673245725877e-01
    1.5561905054723695e+01 -1.1104179196097934e+00
    1.0958093796081609e+01 -1.3767445533925755e+00
    1.1243955390757726e+01 -2.8304732414582441e+00
    1.1771358175930771e+01 -3.3253019893195312e+00
    1.0972809455499078e+01 -1.5105180362617823e+00
    1.9135394042428381e+01 -1.1802286228575267e+00
    2.2150204119546572e+01 -8.8525338472962034e-01
    1.6109562154586598e+01 -9.2470954202057021e-01
    1.3118764682636350e+01 -7.2600958374580804e-01
    1.3464353686143360e+01 -9.8221807289094454e-01
    1.0511987657089820e+01 -1.3828976157371413e+00
    1.1329329470553127e+01 -3.1842788893859733e+00
    9.3118726330729142e+00 -2.3787720240620698e+00
    1.6933677093715893e+01 -1.7495173168172069e+00
    2.5698906489954460e+01 -1.3909391178785142e+00
    2.4699145443099496e+01 -1.0496831884318689e+00
    1.4080038576612218e+01 -8.2860560701269104e-01
    1.3946244802129009e+01 -9.1397759618050134e-01
    1.7091701482200612e+01 -1.3043259913474099e+00
    1.0857678980964739e+01 -1.4003551743077505e+00
    1.0692302463985653e+01 -2.7349844648590009e+00
    1.2872237840956954e+01 -3.8276317551984285e+00
    1.1413122332029989e+01 -1.7472309564251218e+00
    2.4933608875809966e+01 -1.6882294008984358e+00
    1.8850579801302572e+01 -1.0156238727072382e+00
    1.7491849567934992e+01 -1.0000098349740509e+00
    1.4202361267808323e+01 -8.6704226615357982e-01
    1.5455034330098236e+01 -1.1914516027035680e+00
    1.0108878945402502e+01 -1.4088617314608753e+00
    1.2546792192892656e+01 -3.6969822607950964e+00
    1.0878652172126094e+01 -2.8541341268238050e+00
    1.2455678612293877e+01 -1.6859822669282407e+00
    1.9053924665505882e+01 -1.0544872312655249e+00
    2.7175461991235004e+01 -1.0048315028003689e+00
    1.9530856428713605e+01 -1.0820746417959008e+00
    1.6018957306128243e+01 -7.0021446212789751e-01
    1.5807961384836018e+01 -9.2750308168819040e-01
    1.3883198120746821e+01 -1.4792850271246247e+00
    1.1211449588961770e+01 -2.9390527148465955e+00
    1.1488884384216853e+01 -3.1703073101345929e+00
    1.5004872126300906e+01 -2.0302793416278710e+00
    2.0649258975251875e+01 -1.3435385347299968e+00
    2.2139994426177800e+01 -9.1248341506060482e-01
    2.6481832948927913e+01 -1.4774788074133705e+00
    2.3881359222735504e+01 -8.6497584419324169e-01
    1.6079260909683772e+01 -9.8771564589345262e-01
    1.0992235874499988e+01 -1.3632065101121411e+00
    1.2303665494403722e+01 -3.2622347612739291e+00
    1.3089356152204155e+01 -3.8429994704323240e+00
    1.0932821257671538e+01 -1.8202934759476042e+00
    2.2015331234641941e+01 -1.4929053175753544e+00
    2.0402547991928493e+01 -9.6662932871865170e-01
    1.8854349069685590e+01 -1.0085449599561231e+00
    1.6374245288818926e+01 -8.2017490578566499e-01
    1.5469091387807619e+01 -1.0372379955249995e+00
    1.3505867477075748e+01 -1.4676709593930566e+00
    1.0413403550759238e+01 -2.7888233336852273e+00
    1.5697077872059026e+01 -4.9094829163319345e+00
    1.0781959655474200e+01 -1.7305645211643652e+00
    1.5205408020849028e+01 -1.1701100919827718e+00
    1.8854110522148531e+01 -9.2232592901182042e-01
    1.6086916975008307e+01 -1.0061907186432906e+00
    1.9623249271545987e+01 -9.4400440615779446e-01
    1.7483925894223571e+01 -1.1131411449574278e+00
    1.4974296224955726e+01 -1.6539035638346271e+00
    1.1302077731986406e+01 -3.3292427825991484e+00
    9.7768615520483788e+00 -1.9536306331599436e+00
    1.6622748303736874e+01 -1.0016703658779063e+00
    2.5146764316336689e+01 -8.5098125556468929e-01
    1.8920213868032754e+01 -5.2272343451633640e-01
    1.9962018390838825e+01 -6.2276837871341717e-01
    1.4422304113330332e+01 -8.6135797619583354e-01
    1.1265330217581708e+01 -9.6699727822979575e-01
    1.0258533275244119e+01 -1.6954907183535770e+00
    1.0260608975605388e+01 -2.4681876294783320e+00
    9.2179935656500529e+00 -2.0543417563246922e+00
    1.7195814296256678e+01 -1.2664954352473006e+00
    2.8846350036446957e+01 -1.0336163221788190e+00
    2.1743061750069071e+01 -6.5681321494982348e-01
    1.9284301870588045e+01 -7.5611182578601721e-01
    1.3208263659980215e+01 -7.6561104260173685e-01
    1.1934000010623235e+01 -1.0033110580648370e+00
    1.1247396814196529e+01 -1.6107888918422295e+00
    1.0513605092700503e+01 -2.6822369753871782e+00
    7.4237192614502039e+00 -1.7644027041766228e+00
    1.5087204072818031e+01 -1.3074425036378969e+00
    1.4747525244757902e+01 -9.0449732529842752e-01
    1.5405511773330234e+01 -7.7961621310726359e-01
    1.6521096299937888e+01 -9.7607155708788396e-01
    1.3000043463235528e+01 -1.0073660365694228e+00
    1.1579369172886663e+01 -1.3676848382738920e+00
    1.0073167927666740e+01 -2.1602433690455598e+00
    9.3315782151818638e+00 -2.7822211718819543e+00
    8.4773017647940279e+00 -2.2583274303771947e+00
    1.5808621669080038e+01 -1.4704101514734904e+00
    1.9182128104586777e+01 -1.1136539139045305e+00
    2.0450019173868572e+01 -9.0052877990998381e-01
    1.9494114238870370e+01 -1.0492091005915973e+00
    1.3016696663195431e+01 -9.5253133455866301e-01
    1.2527635942880286e+01 -1.3876114690819754e+00
    1.0669859424365976e+01 -2.0382959340886999e+00
    1.1877362146259065e+01 -3.7826235224318356e+00
    1.1066952096164336e+01 -2.5631742827743600e+00
    1.8657996895740052e+01 -1.3769815595147417e+00
    2.6541470139834683e+01 -9.2654922319166777e-01
    4.2829909608087000e+01 -1.0049926731740253e+00
    3.0705948158643253e+01 -9.0215260690516119e-01
    2.8689498174121141e+01 -8.4079477663211033e-01
    1.8253150172792967e+01 -1.0007169598030199e+00
    1.1023092839882516e+01 -1.3807086899124394e+00
    1.0882374542833995e+01 -2.8694397113512937e+00
    1.1665642778321590e+01 -3.0411365386240048e+00
    1.7836247597427636e+01 -1.4314763561105937e+00
    4.0160908506792786e+01 -1.2112137214620451e+00
    5.5881400835683159e+01 -1.0125214219878682e+00
    3.2867907076980515e+01 -8.5891122989815216e-01
    4.6179773742775467e+01 -1.0586076947374137e+00
    2.0977062291894391e+01 -1.0188078048083302e+00
    9.9027554919192458e+00 -1.4770660177428760e+00
    1.5527317061129381e+01 -4.7228983186152380e+00
    8.8179029788520200e+00 -2.4104720633456225e+00
    1.4219939573899754e+01 -1.2986583323549121e+00
    1.9706043003176863e+01 -9.2791539632283615e-01
    3.7306365880125092e+01 -1.2142566775113475e+00
    2.3749896294884724e+01 -9.2435754978004980e-01
    1.5184586840012285e+01 -7.8290963475495934e-01
    1.5449940891873050e+01 -1.2738275391715623e+00
    1.0138309020064662e+01 -1.6015521922796330e+00
    1.1985753292757813e+01 -3.8545713390931748e+00
    9.4299380659781118e+00 -2.8134432919273062e+00
    1.4989451960686152e+01 -1.7144665966605033e+00
    2.2013464877546696e+01 -1.0524769689227529e+00
    2.4584698272032824e+01 -8.3676772323729276e-01
    2.4607770057849578e+01 -1.1277551507045791e+00
    1.5938325793449554e+01 -1.0220145678013821e+00
    1.3423401872349878e+01 -1.2008815273253748e+00
    8.8970037162278999e+00 -1.6067695094193064e+00
    1.7042380602217158e+01 -5.7656232137852186e+00
    1.1628507224206121e+01 -2.6373205394192221e+00
    2.6556001691528735e+01 -1.4798255075996603e+00
    5.8362129597679022e+01 -1.1401729857294265e+00
    7.2757513798768869e+01 -1.0232988221269308e+00
    4.6227206223173177e+01 -9.0568569142247080e-01
    5.2234137436885284e+01 -1.1338553698153151e+00
    2.2505986832881792e+01 -9.7519048289343624e-01
    1.0297153632548161e+01 -1.4700752887923161e+00
    1.1938768020986222e+01 -3.4883618559585994e+00
    1.1928621940195447e+01 -3.0454856327918827e+00
    1.7707536994018657e+01 -1.2383029740620959e+00
    3.1455092022055847e+01 -8.6152110711738750e-01
    4.5218258428642464e+01 -9.0834198522605392e-01
    2.7965860378004326e+01 -7.3139587321209043e-01
    4.4820674128004093e+01 -1.0639644122339436e+00
    2.9468534728706899e+01 -1.3713559260002479e+00
    1.0287275531429996e+01 -1.5120600186564777e+00
    1.2220895531290942e+01 -3.6053275816195698e+00
    8.8554952580627511e+00 -2.4932147763225929e+00
    1.2412404298018890e+01 -1.3174796073602317e+00
    2.5324475218772076e+01 -9.9658370870880308e-01
    2.1522893675796656e+01 -7.0436610762167529e-01
    1.8947052103880033e+01 -7.5703295802665449e-01
    1.4455546464438957e+01 -8.0074414519255976e-01
    1.7955083583852232e+01 -1.4325024604143135e+00
    9.9632227973670471e+00 -1.5758592880666440e+00
    1.2637021958878670e+01 -4.1022924348395708e+00
    1.0076901082814425e+01 -2.9725095682543485e+00
    1.0445935222617976e+01 -1.3085259146317458e+00
    1.9043932944453541e+01 -9.7322098048090189e-01
    1.9511844130557048e+01 -7.8224903984616445e-01
    1.5351319295289297e+01 -6.4557429406364364e-01
    1.7391416673637249e+01 -8.3742423008509725e-01
    1.3936043160800066e+01 -1.1302275575454976e+00
    1.0409535196634875e+01 -1.6380158302337171e+00
    1.2567835894506219e+01 -4.1781900017321174e+00
    9.9662534210617988e+00 -2.2816898334449389e+00
    1.8247400317761389e+01 -1.1176813154997089e+00
    4.4254257302542882e+01 -9.1430033529923305e-01
    5.8496752031117467e+01 -8.1287652459569049e-01
    5.6400395866881006e+01 -1.0412460044706322e+00
    6.4886577917587928e+01 -1.1427860395005820e+00
    4.2192815466331759e+01 -1.4124284808342169e+00
    9.7788689279051937e+00 -1.1831473587561063e+00
    9.0611348203509010e+00 -2.4894798510798122e+00
    9.5614573807248107e+00 -2.4210098424585351e+00
    1.5285989641193455e+01 -1.1397228749973958e+00
    3.2187742649816848e+01 -9.5889617476610289e-01
    4.6414811699044158e+01 -9.1804387358831119e-01
    4.2562872005040468e+01 -9.2363795433567775e-01
    3.3823359779470451e+01 -9.1743924580530856e-01
    2.1294176018672815e+01 -9.5984741727615897e-01
    9.1516488723934888e+00 -1.2166607922455968e+00
    9.6451497956909780e+00 -2.9301745859551169e+00
    9.4219064155875873e+00 -2.7337764947743950e+00
    1.0555014320760463e+01 -1.0311322287923339e+00
    2.7725346362513974e+01 -9.8745707412568173e-01
    3.3348675792844787e+01 -9.4387460562678815e-01
    2.6462658976686718e+01 -8.2122572297221907e-01
    2.3048746687740103e+01 -7.1593348849140814e-01
    2.1940427506922287e+01 -1.0929109690728529e+00
    1.1359725541182021e+01 -1.4164646375679362e+00
    1.0655278230608966e+01 -3.5059797598124280e+00
    1.0656162826564561e+01 -3.3709444319806199e+00
    1.0185840129304696e+01 -1.0740064467884614e+00
    1.9713512242061736e+01 -8.0792176401487026e-01
    2.8953074207309346e+01 -8.5470211696954124e-01
    1.9761308823513378e+01 -6.8581114061531467e-01
    1.5957547333655496e+01 -5.8688463187476603e-01
    1.5720077051576595e+01 -8.7820368403613003e-01
    9.9229654382262744e+00 -1.4794092546177902e+00
    1.3384840853844306e+01 -4.7178364620898758e+00
    9.0238852552440196e+00 -2.0826585794611057e+00
    1.8598887022719826e+01 -1.2313604944730496e+00
    2.4564496595301588e+01 -7.4482421564217005e-01
    3.2952566704063848e+01 -6.9990001188664630e-01
    4.0863837303188077e+01 -7.6641898941754627e-01
    4.0771632960845594e+01 -9.2139602613021521e-01
    2.1896707734998010e+01 -7.5923542206669026e-01
    1.1690809048296785e+01 -1.2180370619585810e+00
    9.1188987534522390e+00 -2.5980716759751461e+00
    1.0048609509122953e+01 -2.7245165718637905e+00
    1.0909374040162977e+01 -8.9826403626541862e-01
    2.0269624376385504e+01 -7.2319149451501452e-01
    4.9895403241866859e+01 -8.1748290370042020e-01
    3.3619186989940687e+01 -6.1042118010367064e-01
    4.1697763384944004e+01 -7.8886266687044915e-01
    3.0191122913680093e+01 -9.0343589281832481e-01
    9.2662708608665056e+00 -1.1198071809837296e+00
    1.1709320297454989e+01 -3.6679343895291874e+00
    9.4428904554600557e+00 -2.6168619161253401e+00
    1.5425491450756416e+01 -1.2552382025928894e+00
    1.9201224891285147e+01 -6.7420761798700557e-01
    4.0176345486935737e+01 -8.1188036176246747e-01
    3.6199619188641300e+01 -7.6326287098812828e-01
    2.0568629281298119e+01 -6.1317006603932944e-01
    2.2409222777362029e+01 -8.5065408026221301e-01
    1.1116488786256950e+01 -1.3097002786337995e+00
    1.2732552327689795e+01 -4.4474139937869115e+00
    1.2461119467261096e+01 -3.8662126613720065e+00
    1.0333762136205879e+01 -1.0350584648341654e+00
    1.5137994341111437e+01 -7.1517125888307220e-01
    4.0558673561353558e+01 -7.7028892094870705e-01
    4.1706058388501134e+01 -7.1091719817041454e-01
    2.8585913690413317e+01 -5.1219395605730256e-01
    3.2370225419511257e+01 -9.6750732905498593e-01
    1.0352896139846953e+01 -1.4407481084752833e+00
    1.9661429974129121e+01 -7.2751965504661991e+00
    1.0241963016501627e+01 -2.5981333364654629e+00
    1.0740493760008119e+01 -7.8378033433409611e-01
    3.4108746020458732e+01 -7.6899044866990796e-01
    3.8282985496923942e+01 -4.9076186457366971e-01
    3.4068471158415285e+01 -5.0342917298370260e-01
    5.1315176978020524e+01 -6.6893006026053059e-01
    4.6418349201552537e+01 -9.9250417317157014e-01
    1.0248707847465035e+01 -1.0309094935045211e+00
    1.0453499498575418e+01 -3.2320166419938885e+00
    1.0045092352628881e+01 -2.6781697407301115e+00
    1.0445275081606148e+01 -8.2680019876392208e-01
    3.5635442776295733e+01 -8.0084912832149791e-01
    3.3260662965798417e+01 -6.1884630134542473e-01
    4.0871594510574965e+01 -6.5022221734393004e-01
    6.6871281974117025e+01 -8.9527897661913813e-01
    2.5312081736129088e+01 -7.6979308403059654e-01
    8.4693371412188974e+00 -1.1596147007716358e+00
    1.1391459493973322e+01 -3.7145418054076007e+00
    1.0255546437124204e+01 -2.8735177046648683e+00
    1.1485500740792389e+01 -9.7620730342192796e-01
    2.2542148402044059e+01 -7.5553716241580426e-01
    2.6333595369060681e+01 -5.0559994800193375e-01
    3.0325935102717281e+01 -4.6512369215568922e-01
    7.2655718692597176e+01 -7.8717557766521884e-01
    4.5576258115655726e+01 -9.3479039858083235e-01
    1.4415749824870160e+01 -1.5105599242752750e+00
    1.9299660810710744e+01 -7.0033725086156107e+00
    1.0497893643884026e+01 -3.0289624282675689e+00
    1.3803122793539485e+01 -1.0724198676555849e+00
    3.6303988560140006e+01 -9.6914405256241121e-01
    3.2240387615396216e+01 -6.8115176470310368e-01
    3.3487266745997381e+01 -5.4484010505791403e-01
    4.6713994542993404e+01 -6.6064795402581189e-01
    3.1356112951003809e+01 -8.3334173522620414e-01
    1.0877821361081311e+01 -1.3625052150488490e+00
    2.0083285300949839e+01 -7.3177181380195906e+00
    9.1296046664483885e+00 -2.0960461685814566e+00
    1.2270525313726553e+01 -8.3923848900938469e-01
    4.7176666205641475e+01 -9.7143994279327806e-01
    4.4280620728916979e+01 -6.9015397064892825e-01
    3.8749203481040304e+01 -5.6027978771078435e-01
    6.0071515974464312e+01 -7.5647466075426040e-01
    2.1979139180387531e+01 -6.9820656899499489e-01
    8.8053684032499486e+00 -1.2923343202712507e+00
    1.1127452832922375e+01 -3.5874616405862678e+00
    9.5529970885225115e+00 -2.1300954440141306e+00
    1.8309950657562744e+01 -1.1055934872755599e+00
    2.9496713829070377e+01 -7.8009121578507779e-01
    3.5506013696467598e+01 -6.4430280831558639e-01
    3.5516110205423544e+01 -6.3819423216695803e-01
    4.0486734923866692e+01 -7.0497988373360765e-01
    2.2038530131249129e+01 -8.0362198535134466e-01
    9.0003828079629002e+00 -1.4693789577409127e+00
    1.0922840693408576e+01 -3.5636370088815257e+00
    9.6168610411417497e+00 -2.6252559341264341e+00
    1.5147402156992367e+01 -1.0258994566848081e+00
    3.7208695869041698e+01 -9.1128645554928178e-01
    4.2331923209862573e+01 -7.3276165232296553e-01
    3.2480417072196389e+01 -4.9988622501037439e-01
    4.5219486652483091e+01 -6.3098710975014016e-01
    3.5105269596075082e+01 -9.3090720218002565e-01
    1.0379710557947318e+01 -1.3441167081560119e+00
    1.9955192716254608e+01 -7.2560028808278112e+00
    9.4341861688191937e+00 -2.6932405065330540e+00
    1.6724613171139325e+01 -1.1520830285493751e+00
    3.2001516215492572e+01 -9.5160753691636935e-01
    3.7757150650210988e+01 -8.3675024825709299e-01
    2.7207409005571506e+01 -6.3993190855281712e-01
    2.7195582902000766e+01 -6.2119510738767747e-01
    2.7878044846099108e+01 -9.2514539056821399e-01
    1.0394210953073777e+01 -1.5133864798559615e+00
    2.5509101793538395e+01 -9.3837180779984077e+00
    1.0298645354672955e+01 -2.1577799233243815e+00
    1.7817507976481807e+01 -1.0514757971622801e+00
    2.7634369512989757e+01 -7.7423044010958153e-01
    4.1770347994796644e+01 -8.1202807497013607e-01
    5.1539510746756797e+01 -9.0535120918118417e-01
    4.0873392770554929e+01 -7.8123069203623019e-01
    2.7321738080104328e+01 -9.3653753252558458e-01
    1.0277308009854876e+01 -1.5896382587899247e+00
    1.1650263091225517e+01 -3.8699827486250209e+00
    9.0278215196166745e+00 -1.8403317634041407e+00
    1.7486310903666567e+01 -1.0051212897113813e+00
    2.9154358292497445e+01 -7.6257119221616110e-01
    3.4412952389697388e+01 -6.8327783111685569e-01
    4.0201500504444923e+01 -8.2884113072389798e-01
    2.9532082001865117e+01 -7.6415185316908207e-01
    2.5866423121402534e+01 -1.1103281689173286e+00
    8.9084726973426687e+00 -1.6766042541662372e+00
    1.1104191933893439e+01 -3.6188339703284069e+00
    8.9067598001952213e+00 -2.4352442832217962e+00
    1.8582064335910459e+01 -1.0971327930040222e+00
    3.2643307609899253e+01 -8.5014013656033005e-01
    4.1711019473564114e+01 -8.1255623522811093e-01
    4.9598351211311396e+01 -9.7808243551457508e-01
    3.6653507003214223e+01 -8.1707208467198411e-01
    3.2093722722772803e+01 -9.7164296622001967e-01
    1.1568059370372099e+01 -1.6812745112594603e+00
    1.8581940858115676e+01 -6.8919471278692157e+00
    9.4949642011516779e+00 -2.4281776590922157e+00
    1.7693566664917373e+01 -9.7567898544901244e-01
    3.5087312272083572e+01 -9.2419158949678248e-01
    3.0667659666690561e+01 -6.2812753108526798e-01
    3.6917625689046211e+01 -8.6001881139674874e-01
    3.0681521682999950e+01 -9.1232622330159829e-01
    2.6419079124862350e+01 -9.4959086702469264e-01
    1.0537005263741577e+01 -1.8327633057293087e+00
    2.4517872386593783e+01 -9.3032180540124045e+00
    9.8082998104549048e+00 -1.5144773201931867e+00
    2.2258283395326139e+01 -9.8789983562870165e-01
    4.7858792353000631e+01 -8.6566113777899401e-01
    6.9382104031989186e+01 -9.9441653710821942e-01
    4.6613228899660939e+01 -9.1017148921033075e-01
    3.4423819980016233e+01 -8.8160121762572063e-01
    2.0609862771381550e+01 -9.5926966878323217e-01
    8.9608707219281527e+00 -1.7224035472814307e+00
    1.0028085954930258e+01 -3.2070013243138371e+00
    1.0033565718049189e+01 -1.7634120858295295e+00
    1.4067735278171465e+01 -8.5330142498998429e-01
    3.0259553628479054e+01 -7.2628822298750073e-01
    4.8255913169582449e+01 -8.1614550788860896e-01
    4.5645055823773959e+01 -8.8745302111104163e-01
    4.3447356622792078e+01 -9.9493604807316161e-01
    1.5635749090325289e+01 -8.8192640654802379e-01
    8.2306304141284663e+00 -1.7572452835594772e+00
    1.1213200464160449e+01 -3.6535532603609444e+00
    8.4034645186289403e+00 -1.8195587093744587e+00
    2.2922260739849147e+01 -9.7938141340149298e-01
    3.7358052457799324e+01 -9.3726652001922062e-01
    4.9091435362442468e+01 -8.7108630140082921e-01
    3.7950259873085898e+01 -9.0411332422560708e-01
    2.2947567100932027e+01 -7.5218232472226998e-01
    2.8374734896550756e+01 -1.0391477911009188e+00
    1.1700048730422390e+01 -1.9085003717913411e+00
    2.1705503594898651e+01 -8.3078060031313772e+00
    8.9190132639058479e+00 -2.2151313990122565e+00
    1.2794221868656171e+01 -8.1750861148904452e-01
    2.5621238151897252e+01 -7.5883029071821184e-01
    3.4136454680462542e+01 -6.7664339159003284e-01
    5.1007303974523815e+01 -9.1734496576892199e-01
    3.7465767464561864e+01 -1.0149099785698983e+00
    2.3332246268482873e+01 -1.1318328817809675e+00
    9.6651683643919597e+00 -1.9971595957296500e+00
    2.0533433438072205e+01 -7.8522180934201549e+00
    1.1739454785081914e+01 -1.7388026127372280e+00
    1.6485758433779310e+01 -8.3677700434788815e-01
    4.0250603236544229e+01 -8.2233919423596002e-01
    4.5953198587269789e+01 -6.6079700128915220e-01
    4.1129960530438915e+01 -6.9317504183051371e-01
    5.7551453254343237e+01 -9.8616644452296820e-01
    2.1428822524943289e+01 -1.0019893716247494e+00
    8.2580897132568776e+00 -1.6457781773634708e+00
    9.9447878471169524e+00 -2.9501408319278570e+00
    1.0475754853433322e+01 -1.6908686754780402e+00
    2.4257313721124607e+01 -1.2278949326968729e+00
    3.8453899132704109e+01 -1.0332834040823158e+00
    3.9748549603621761e+01 -7.6520899327261627e-01
    4.6015643489550072e+01 -9.4649223220168455e-01
    5.7996085961539265e+01 -1.2229446844621825e+00
    1.4929332919883230e+01 -1.0344542001158215e+00
    8.0122364455344020e+00 -1.8360953661423005e+00
    1.0487362082994686e+01 -3.2470903806763363e+00
    8.9808437079041035e+00 -1.9757802482555944e+00
    1.4613412949259903e+01 -7.8346932647219603e-01
    3.6034652891617419e+01 -8.2646834917280543e-01
    4.1393069403517259e+01 -7.3772298385871604e-01
    5.7801569922175489e+01 -7.8496617266936775e-01
    4.5591377163418485e+01 -9.1299113180310854e-01
    2.3975859678412839e+01 -1.1500664575508175e+00
    9.0422015246726737e+00 -1.8583229046816092e+00
    1.5937358417976707e+01 -5.8494511530365996e+00
    8.7684535692998580e+00 -1.9913357009276587e+00
    1.5275152012173498e+01 -8.5743011768026012e-01
    1.6833203536377511e+01 -5.3576007347977561e-01
    4.1314882382615174e+01 -7.6782083282361080e-01
    4.8196560092172263e+01 -8.4611891055371646e-01
    4.5328384368810767e+01 -1.0626066940069880e+00
    1.7260726494528772e+01 -1.1556238310641547e+00
    9.9047648513727022e+00 -2.6318122222075866e+00
    1.4204299450228348e+01 -5.1801493547213413e+00
    1.0781892122573968e+01 -1.4172943930358579e+00
    2.1928448603093734e+01 -1.1648398473222630e+00
    3.1535814829531809e+01 -9.2871957265214711e-01
    4.2545614394751354e+01 -8.2318446889735108e-01
    5.3411328002771050e+01 -1.0044795004354390e+00
    4.6623222580540670e+01 -1.0016800141413442e+00
    1.4246283375462699e+01 -9.4191111751851953e-01
    7.3897165986315789e+00 -1.6546447530904165e+00
    1.0310073144202081e+01 -2.7460491355046122e+00
    1.0269664644151668e+01 -1.5440320968226646e+00
    1.2900246438893751e+01 -9.2258826032705610e-01
    2.5478043574367007e+01 -9.5013131345879365e-01
    2.8751164342057315e+01 -7.1934625133698227e-01
    3.6343332698769323e+01 -8.8885757099813445e-01
    2.7183660003273928e+01 -8.7260691636539955e-01
    1.2042468721759816e+01 -9.1780745175574519e-01
    7.7417817883653948e+00 -1.5971701512371783e+00
    9.9757048123245724e+00 -2.5174336353344957e+00
    8.8543386285774908e+00 -1.6822788070246990e+00
    1.4070856854895704e+01 -8.1863525409150684e-01
    2.2291888317220145e+01 -7.0514929591315512e-01
    5.4049156091542784e+01 -9.6734287121445828e-01
    4.2106866646468077e+01 -8.1246410022561455e-01
    4.2571576050093128e+01 -1.0097575748628564e+00
    1.2422349370488107e+01 -9.6172885657815677e-01
    9.7626930895417878e+00 -2.7492557831429796e+00
    1.3079958188044394e+01 -4.5286067469226294e+00
    8.5062101274167876e+00 -1.5320235688322059e+00
    1.1752725622582517e+01 -8.3880463457340682e-01
    2.7398190133247638e+01 -9.5079526257340286e-01
    2.5720188437902191e+01 -7.7244422543316049e-01
    2.3638671201999838e+01 -8.3970055847748870e-01
    2.3738057510192728e+01 -1.0049008530357602e+00
    1.0386298457967193e+01 -1.0675876145059542e+00
    9.5711845701289189e+00 -2.8942874223520145e+00
    1.0727425026792575e+01 -3.6137983944967602e+00
    8.9245129045362805e+00 -1.5192350940332660e+00
    1.3337835072847881e+01 -1.0511926013731419e+00
    2.5877457776588138e+01 -1.0038187536128806e+00
    3.9000797733743561e+01 -9.8184007091824321e-01
    3.3665204860023195e+01 -9.2134613424553113e-01
    2.0131915466922255e+01 -7.7579221433919932e-01
    1.1396118319744556e+01 -8.8775911522308559e-01
    7.8919603390498398e+00 -1.4710841850116119e+00
    1.0629346332119646e+01 -2.3869756821960539e+00
    8.9994516032527905e+00 -1.7681009951290809e+00
    1.5242393575041838e+01 -1.3102387993212312e+00
    2.7214026902881084e+01 -1.1082982413576012e+00
    4.0587700234097298e+01 -9.9687560395250208e-01
    1.8895323000954658e+01 -6.9306259316561969e-01
    1.2232410673297210e+01 -6.1764116112024614e-01
    1.0010321759906004e+01 -8.9610778427696758e-01
    9.0632248114395662e+00 -1.5209935005959550e+00
    1.0986293451352346e+01 -2.4319848887848350e+00
    7.3879581430520789e+00 -1.3327940928760680e+00
    1.2589227314186559e+01 -9.4810681663629781e-01
    2.8690342578792372e+01 -1.0595710178555207e+00
    2.2755553687250437e+01 -7.3238475792946200e-01
    2.5993312064236548e+01 -7.7473637677654361e-01
    2.1017398337247258e+01 -8.6077952599180507e-01
    1.0379087466243663e+01 -1.1053485858684045e+00
    1.0332537354708466e+01 -2.8988128433299671e+00
    1.0335050722028846e+01 -3.2871405357389563e+00
    7.3800365563081005e+00 -1.5294583203507965e+00
    1.1974137917872959e+01 -1.1253877816306475e+00
    2.4128618130664336e+01 -1.0351454733667267e+00
    2.2170192528371540e+01 -7.3384101872452412e-01
    1.8949966679124433e+01 -7.0189917385412481e-01
    1.2529212533438555e+01 -7.2606696274783988e-01
    8.9901558347098032e+00 -1.1429478345730961e+00
    1.0253060326089814e+01 -2.8615306972015646e+00
    9.8591163777518922e+00 -3.0481051075824794e+00
    1.0871891712115634e+01 -2.2227751855567690e+00
    1.1281741909966669e+01 -1.0768473929901230e+00
    2.0802878466232762e+01 -1.0055214040037130e+00
    3.5695723332968321e+01 -9.0687845172299042e-01
    2.0276358257238723e+01 -7.8982810112886370e-01
    1.2497527297183035e+01 -6.5863942576349099e-01
    9.5189692081250428e+00 -8.7886928480177817e-01
    1.1541196896695485e+01 -1.6605809461840526e+00
    1.1172383881116648e+01 -2.5721950281535713e+00
    1.1251044594146306e+01 -2.6183898044526823e+00
    1.6046791752060287e+01 -1.8043431776500798e+00
    1.8299025596867406e+01 -1.1437956405399825e+00
    2.8104888622744600e+01 -9.0985983879233523e-01
    1.4423408929014608e+01 -7.5204639921338923e-01
    1.5652269177670254e+01 -8.5342457145713746e-01
    1.4566245325493885e+01 -1.2579160467885575e+00
    1.1039077453409934e+01 -1.5137530647110555e+00
    1.1039990026061954e+01 -2.6719129386311531e+00
    8.0668762007073838e+00 -1.8211675364856830e+00
    1.9119545778189813e+01 -1.6914943861920722e+00
    2.7816974689348491e+01 -1.1974756708415146e+00
    2.9569069201753852e+01 -9.3582851457350080e-01
    2.2044013092767386e+01 -9.3483875495434288e-01
    1.3547045692366540e+01 -8.6106150555988470e-01
    8.4063506400005341e+00 -1.0947191434972960e+00
    9.4175995838018185e+00 -2.1572167460914793e+00
    9.9783861479505536e+00 -2.7143529843379102e+00
    9.5017686065351583e+00 -2.5002630228233937e+00
    1.1747579560787427e+01 -1.5627117252208516e+00
    1.7854211174741305e+01 -1.2997144438612411e+00
    3.0278431220823112e+01 -1.2923194261860107e+00
    1.7006289442171141e+01 -8.8829321073483825e-01
    1.3230469549527218e+01 -9.4088865833968893e-01
    8.4503211972670709e+00 -1.2453064664884819e+00
    9.9579312887406939e+00 -2.1339952026019455e+00
    9.7198140377875717e+00 -2.7944095130808204e+00
    1.2081237844713511e+01 -2.9902081875952518e+00
    1.5228074218676564e+01 -1.6653187788922270e+00
    2.3150173020056179e+01 -1.3160647389132347e+00
    3.1927855784570525e+01 -1.1088549171377207e+00
    2.0810564238208556e+01 -9.4063707871611890e-01
    1.9631313252401384e+01 -8.6484991726681371e-01
    2.2031769229920588e+01 -1.2283527739752089e+00
    1.1840852614285687e+01 -1.2094637818986049e+00
    1.1452829466942203e+01 -2.6587933406400639e+00
    1.3436179881960012e+01 -3.6390422391484893e+00
    1.3539619802608319e+01 -1.7519941916848998e+00
    1.6111191928412357e+01 -1.1365630340189581e+00
    1.5185626670123012e+01 -8.7687691628922670e-01
    1.5959390183910507e+01 -9.0465118412469747e-01
    1.4131127843490511e+01 -7.7488386695098543e-01
    1.4135843921343541e+01 -9.6369910403961667e-01
    1.3852702512058553e+01 -1.3593542856879941e+00
    1.2940745781455403e+01 -3.3601297561838170e+00
    1.0317662521763490e+01 -2.8084911364286000e+00
    1.2116592655978266e+01 -1.6135602709126702e+00
    1.4445323711727799e+01 -1.0754825372093277e+00
    2.4126949213461298e+01 -1.1672628063140000e+00
    2.1643277017294128e+01 -1.1239656313269486e+00
    1.5310381917649961e+01 -9.4545118097557024e-01
    1.2113808556192751e+01 -1.2369388306108628e+00
    1.1010697261346840e+01 -1.6719590240949045e+00
    1.0812158045615591e+01 -2.9717120038093432e+00
    1.0272885562464946e+01 -3.0171161305868579e+00
    1.1063969901460384e+01 -1.7190803496696134e+00
    1.4068673421710809e+01 -1.2073064232037116e+00
    1.2179794565217412e+01 -9.6183184276067146e-01
    1.4270769287950994e+01 -1.0725756273769826e+00
    1.4501273861353441e+01 -1.0965830320578265e+00
    1.1983484102520144e+01 -1.2449819210250801e+00
    1.0460700294650676e+01 -1.5488814441338503e+00
    9.1843573392400746e+00 -2.5666572607103451e+00
    1.1109902696628197e+01 -2.6826274230513878e+00
    1.0548347331416787e+01 -1.3604775500714690e+00
    2.1716588216099833e+01 -1.3510379545432261e+00
    1.9264084533900832e+01 -9.1583726974645419e-01
    2.4066252571509970e+01 -1.0067608380873305e+00
    1.7490367702851838e+01 -7.5219231476130044e-01
    1.7603892338424014e+01 -9.9014306269012453e-01
    2.0417969445445102e+01 -1.5817394264416746e+00
    1.1912462020718888e+01 -2.5747752675636590e+00
    1.3783526835149750e+01 -3.6385985403871852e+00
    1.1095116062600422e+01 -1.6020540180277076e+00
    1.6523780463800961e+01 -1.2172346685134423e+00
    1.5327767375171739e+01 -8.3261867730376216e-01
    1.1762079528478720e+01 -6.6890370508341135e-01
    2.2333487438177581e+01 -8.4908418881043435e-01
    2.0338021840045631e+01 -9.5023966628136924e-01
    2.1198352709241217e+01 -1.6661384560022530e+00
    1.3366667376247438e+01 -3.1428424112293469e+00
    9.4998616228494992e+00 -2.6984125198757511e+00
    1.2735381044207575e+01 -1.8577671313724637e+00
    1.8659372691400609e+01 -1.4730179053008663e+00
    1.5683258385186946e+01 -1.1439311815247821e+00
    1.8528649554663886e+01 -1.2277837399957849e+00
    1.6114244374807438e+01 -9.9958998437162583e-01
    1.4851838134062595e+01 -1.2571434607104168e+00
    1.3557001014272050e+01 -1.6386999103998103e+00
    9.5330658142423630e+00 -2.4046527006672802e+00
    1.2219423531735140e+01 -3.8515131828431990e+00
    1.3480533111712550e+01 -2.5930059486294970e+00
    1.3157245411660922e+01 -1.5672255930218784e+00
    1.1841908196850078e+01 -1.1844242941750001e+00
    9.1371569202048519e+00 -1.1446589294089040e+00
    1.2600928627217629e+01 -1.0142172304115007e+00
    1.7952199627268275e+01 -1.3527863873046704e+00
    1.0268363105889502e+01 -1.2935554848175899e+00
    1.0715270419400074e+01 -3.0403886875183770e+00
    9.7923865470928249e+00 -1.9780239055903985e+00
    1.3801813876152053e+01 -1.2295224649376109e+00
    1.0813277926335536e+01 -9.7049615345693985e-01
    1.1392677713168858e+01 -9.3945870117417207e-01
    1.0495861928025924e+01 -9.7966749820285437e-01
    1.1474862392175064e+01 -1.0711478131311503e+00
    1.5979068280071125e+01 -1.5511963334915648e+00
    1.1282628335040885e+01 -1.6986550347555156e+00
    9.7617598068501366e+00 -2.3044764501501813e+00
    1.1381800479747593e+01 -2.7680628459211261e+00
    1.5322493892223381e+01 -1.5915298854847471e+00
    1.7112570489599552e+01 -1.2135739856376382e+00
    2.0421953086455158e+01 -1.2074910434020085e+00
    1.6160915972547535e+01 -1.1024462887668736e+00
    1.3971647919984088e+01 -1.0277747517768425e+00
    1.9880085475131498e+01 -1.7078095081183560e+00
    9.8949889141201464e+00 -1.5506717081467036e+00
    1.2098639009310483e+01 -3.2254510364493965e+00
    7.8572430472527568e+00 -1.5003667224987292e+00
    1.4598247926436418e+01 -1.2246723927648362e+00
    1.2369337643291059e+01 -1.0672262087140711e+00
    1.1016612426639314e+01 -1.0781189698509364e+00
    8.4856602827656555e+00 -1.1708919366441104e+00
    8.3055556023026593e+00 -1.0417455976744299e+00
    9.9651113913363414e+00 -1.1225558793252144e+00
    1.2076946249517395e+01 -1.4353645115154088e+00
    7.9112458702563835e+00 -1.5907462014770575e+00
    9.2335963925585585e+00 -1.9560941022571574e+00
    1.7404024103690237e+01 -1.7866446934149882e+00
    1.7580574466033095e+01 -1.4566800226065979e+00
    1.3178202307081492e+01 -1.1795929853252469e+00
    1.0267721913993077e+01 -1.2784458011301163e+00
    1.0179756153517213e+01 -1.2185707243430830e+00
    1.2575993834763530e+01 -1.5201618032828619e+00
    1.0186713731218360e+01 -1.5517734900216646e+00
    8.8024548891008276e+00 -1.9640465172091641e+00
    9.6597120696161785e+00 -2.2859763031304148e+00
    1.6741131915845628e+01 -1.4687981794994256e+00
    1.7677939708847937e+01 -8.9421693175548933e-01
    1.8203755140196339e+01 -7.6494708296442193e-01
    1.7722859198710076e+01 -8.6827771231242823e-01
    1.7213657007779485e+01 -9.3737808090129693e-01
    1.6091106796089566e+01 -1.2092570207717936e+00
    1.0667945352256710e+01 -1.5030960688164294e+00
    1.1632011936570073e+01 -3.1810414466957386e+00
    9.2338429957330241e+00 -2.2380128222986584e+00
    1.3268533163404422e+01 -1.4334937245522115e+00
    1.6730892646999113e+01 -9.3976350723823454e-01
    1.5867379712478003e+01 -7.7319126864666721e-01
    1.2666295315392892e+01 -8.3450164013321981e-01
    1.3754698823981526e+01 -1.0389504217826544e+00
    1.2335937950627006e+01 -1.2244693854665250e+00
    8.9046388299361787e+00 -1.5084945410250166e+00
    1.0486937930359776e+01 -2.8320315464483037e+00
    8.0594834471143439e+00 -1.6662103591373298e+00
    1.8875272387494025e+01 -1.6747275069594776e+00
    2.0590397596480507e+01 -1.3782489664383608e+00
    1.3517049361805329e+01 -9.2193110685464963e-01
    1.0319268178972068e+01 -1.0162746629588588e+00
    1.2222187165078331e+01 -1.0927125869925620e+00
    1.3510191964160875e+01 -1.1992965982333348e+00
    9.7106323420356002e+00 -1.4405462219396961e+00
    8.3468537202726285e+00 -1.8497578727171153e+00
    7.5433636871938257e+00 -1.6823056812663695e+00
    1.0522880949824668e+01 -1.2956487354994870e+00
    1.1984064057541412e+01 -1.0330749456512898e+00
    1.0535174070465827e+01 -9.7350546392304793e-01
    1.0276372446821403e+01 -1.0896104020296900e+00
    1.2287518396222444e+01 -1.1183120288530359e+00
    1.0520482809612000e+01 -1.0914967652262477e+00
    9.8704514102247689e+00 -1.4877688522596353e+00
    7.7261079233114813e+00 -1.8303117324182232e+00
    9.9076625221282146e+00 -2.1513740756524626e+00
    1.3800635143499408e+01 -1.2617949137140749e+00
    2.3149125742364653e+01 -1.0326179844448249e+00
    1.7950092648959586e+01 -7.3596347491269121e-01
    1.5556113346096542e+01 -7.2518123650396948e-01
    1.6299098856185452e+01 -9.3141407475715621e-01
    1.4418140373299213e+01 -1.1269374234709357e+00
    9.6154448850200573e+00 -1.3351803795086863e+00
    9.3218744418680224e+00 -2.3746499277070532e+00
    1.1046232049194932e+01 -2.7454242728976213e+00
    1.0564630832991041e+01 -1.2200250743131749e+00
    2.6186364286692136e+01 -1.1867328982438607e+00
    2.1242761397576139e+01 -7.4717465926565207e-01
    2.4844778617797527e+01 -7.9814090687678430e-01
    1.9839147956243078e+01 -9.1014318164589803e-01
    1.2193229489379503e+01 -9.4904095301877589e-01
    8.8018072443354001e+00 -1.3726609302490906e+00
    1.1428018114304068e+01 -3.3235377230053782e+00
    7.8294712498389893e+00 -1.6636862124204372e+00
    1.0203279346996496e+01 -1.2672657130458271e+00
    1.4414084126891421e+01 -1.1737811421306401e+00
    1.2851778215053669e+01 -9.3049103619608153e-01
    1.1538660055121531e+01 -8.5509087893792834e-01
    1.0960540836300950e+01 -8.1356230400932028e-01
    1.0657166160128662e+01 -9.2978102574572419e-01
    9.9254307703400322e+00 -1.1624556192378988e+00
    7.4735620672708647e+00 -1.6835482494380851e+00
    1.0111713354709872e+01 -2.8221864299335513e+00
    7.9301235255899787e+00 -1.2506869497576676e+00
    1.0363597514139061e+01 -9.8077050728397286e-01
    1.6155061329327324e+01 -9.1034489068238988e-01
    1.6291442168792546e+01 -8.3445862315966290e-01
    1.5919029213922997e+01 -9.1605434962236953e-01
    1.1795013361082713e+01 -9.4057764380081876e-01
    1.0708226615574512e+01 -1.3732264418109665e+00
    9.4389968106291420e+00 -2.5886195397496126e+00
    1.0758702192205158e+01 -2.6228420719582739e+00
    1.5090837318570420e+01 -1.1622062964517259e+00
    3.2172536337674849e+01 -8.8811498644436360e-01
    4.4599016013736374e+01 -8.9511250969891010e-01
    3.4961508271645016e+01 -8.0779642585317024e-01
    3.0322496172213445e+01 -9.0677450665122072e-01
    1.8989505827395824e+01 -9.0381846400264743e-01
    1.1135820915594859e+01 -1.2413213859275622e+00
    9.4427519867888758e+00 -2.7552512081750522e+00
    1.2761499546492823e+01 -3.6812450829414898e+00
    1.2386268961662747e+01 -9.9510617345818453e-01
    2.4190787763483929e+01 -6.8903336909069957e-01
    3.9103871480921747e+01 -7.5110916601843702e-01
    3.4633867800705289e+01 -7.9205870858348804e-01
    1.9521830256508462e+01 -6.0831738374681199e-01
    1.8098677623169625e+01 -8.4944394112283472e-01
    1.0450038986013158e+01 -1.2890858278724369e+00
    1.4137821433337425e+01 -4.5570877331393076e+00
    9.6985864202835437e+00 -2.7089428140401139e+00
    8.3794330479591856e+00 -1.0767092155495508e+00
    1.3686622178432428e+01 -7.8840490206522074e-01
    3.0082776205947237e+01 -8.4322343558896296e-01
    2.1927399411203588e+01 -6.4005633049018429e-01
    1.5818813767735707e+01 -6.5428686672714265e-01
    1.3820707855840991e+01 -7.6822439841180079e-01
    1.3069453909288637e+01 -1.2098067661994276e+00
    8.9134373348554075e+00 -2.4102868342289336e+00
    1.2462844311205261e+01 -3.8557615833535839e+00
    8.3828702092448761e+00 -1.1435716506532787e+00
    1.4523033111933390e+01 -7.9636844931937134e-01
    2.5369878557882316e+01 -8.6673317213614420e-01
    2.3979717474795738e+01 -7.9755950678242393e-01
    1.3997706738644968e+01 -7.1153753989466295e-01
    1.3674858096112684e+01 -8.6797440838906836e-01
    1.1186281139560181e+01 -1.2408007374848233e+00
    1.2948252938608036e+01 -4.1398947672319482e+00
    1.1010436340937844e+01 -2.8324719189574736e+00
    1.7808399844604974e+01 -1.0956807254803389e+00
    3.2477449955991716e+01 -7.8820472321528645e-01
    5.7696121460180123e+01 -7.7996814096200029e-01
    6.0379433676671653e+01 -8.0871161771466415e-01
    4.7236928849490866e+01 -7.8522416362792158e-01
    3.0972075000707559e+01 -9.4135959591084006e-01
    1.0245732449793620e+01 -1.1049098621913407e+00
    1.6133015202086668e+01 -5.1747338888495644e+00
    1.2287589317611459e+01 -3.4283286098168766e+00
    1.5556011582329637e+01 -1.1304368420815087e+00
    1.8976371573136177e+01 -5.9601119978195616e-01
    4.9443013580721441e+01 -7.9190845133921062e-01
    5.7591640749925411e+01 -7.4761571393977222e-01
    4.8701987396792617e+01 -6.7920063315915591e-01
    3.3662516570534684e+01 -9.2155684545206185e-01
    9.4677666178330409e+00 -1.2544780062195242e+00
    2.4583525578369546e+01 -8.2952857023947377e+00
    1.2798196498318228e+01 -3.9290667295819688e+00
    1.2707767877578759e+01 -1.2447498579948666e+00
    1.7585578626067161e+01 -7.6885647551928016e-01
    3.0535690223638007e+01 -7.6612210982810625e-01
    2.8143776133717875e+01 -6.8566030326227967e-01
    2.1308391286679615e+01 -7.4145245310898789e-01
    2.2224320623586074e+01 -9.3571674573745056e-01
    1.1278692287269534e+01 -1.1707208015012247e+00
    1.3788367328663366e+01 -4.3329072878775108e+00
    1.6998473277196648e+01 -5.5257973554275930e+00
    1.1033118588691938e+01 -1.2153220150915593e+00
    1.8810065102899664e+01 -7.7595241441608820e-01
    4.0392910300796075e+01 -8.8356111489815670e-01
    3.1968369614538766e+01 -7.8227420857819285e-01
    2.4932096515601867e+01 -7.4873851912150491e-01
    2.4342168355787390e+01 -9.4460942313615659e-01
    1.2090486221894700e+01 -1.4891280489649521e+00
    1.8339419164889225e+01 -6.2137969386685521e+00
    1.1429720103112775e+01 -2.8465795893820895e+00
    1.6252881991618221e+01 -8.9980508549172855e-01
    2.3011880788151792e+01 -5.7517325069697756e-01
    4.4542521939600775e+01 -6.7002450025298399e-01
    8.4031898895404609e+01 -7.7392185094189703e-01
    1.0893316444857783e+02 -1.1295586021581661e+00
    5.9726878946304105e+01 -1.2314878635972213e+00
    1.1804817279982865e+01 -1.2265897290840335e+00
    2.3594089933048910e+01 -8.1713837989924230e+00
    1.1739022929180734e+01 -3.0667570454377202e+00
    1.4367334069700133e+01 -8.1632563177441464e-01
    3.3561153255451302e+01 -6.9955218419682408e-01
    3.6835911252922351e+01 -5.9830252327092037e-01
    9.4663960473117072e+01 -8.4494381185595702e-01
    7.0511335757624437e+01 -9.2140622602473443e-01
    4.3622321204839665e+01 -9.8805704171303643e-01
    1.0724782873608186e+01 -1.2565198850571373e+00
    2.0599729484623531e+01 -7.1255574216091730e+00
    1.5735531039455237e+01 -5.0474045990191172e+00
    1.3270100073823787e+01 -1.0360101027885109e+00
    4.6046248370892044e+01 -1.0005729208970942e+00
    5.1639832692200621e+01 -8.5348781566899556e-01
    4.7076196312804640e+01 -7.6891284388237247e-01
    4.9636265491764355e+01 -9.5014862989110027e-01
    3.6795485552175329e+01 -1.1201236322705770e+00
    1.2444135242995669e+01 -1.3853965505311234e+00
    1.3455256114525284e+01 -4.5126702560935064e+00
    2.0497294917365316e+01 -6.7361126608068593e+00
    1.2884869931495809e+01 -9.0723578642867242e-01
    4.2380096972589641e+01 -7.9114784599076637e-01
    4.9792962150199187e+01 -7.5929984192150368e-01
    5.4464652036914067e+01 -7.5446453591021123e-01
    2.9376239468757692e+01 -6.7337165730712922e-01
    2.4389013761080868e+01 -8.4204642274288932e-01
    1.0647627754097128e+01 -1.5627595411477679e+00
    2.4850021205432508e+01 -8.7370486352147623e+00
    1.2474439232771189e+01 -3.1036887193593037e+00
    2.7751263359270393e+01 -1.2162171742680408e+00
    6.3374399443384689e+01 -8.2355917853897220e-01
    6.8624330095615917e+01 -6.4719316018015138e-01
    1.3083816093727103e+02 -8.6751143913322926e-01
    9.3609108146318377e+01 -8.7581501864588784e-01
    7.0639223133445327e+01 -1.1484317188977260e+00
    1.4079856129001330e+01 -1.4261939894632489e+00
    1.7316817653502124e+01 -6.1457173647805288e+00
    1.2254892928349093e+01 -3.3190606998363430e+00
    3.0335591146090024e+01 -1.2857031381424455e+00
    6.4283849934283651e+01 -9.5290693996871612e-01
    6.3902636493148457e+01 -7.5020231064958975e-01
    8.3491998377533633e+01 -7.2635735730532669e-01
    4.6760501729637717e+01 -5.6265145267186756e-01
    5.4664365371197391e+01 -1.0407558748964338e+00
    1.4902549499189348e+01 -1.5583308604165962e+00
    2.0758354554441539e+01 -7.4331382115818148e+00
    1.4252310619796519e+01 -4.3935143075044421e+00
    1.8026165951222083e+01 -9.4210368463365979e-01
    8.2791702736854049e+01 -8.6455798239332293e-01
    1.0370353176328317e+02 -7.8925143650351048e-01
    1.0881650972395647e+02 -8.1766288396570541e-01
    6.9250911628419701e+01 -8.3790900236210308e-01
    4.6257732275992439e+01 -9.9929154670725395e-01
    1.3073276905192506e+01 -1.6689933868413893e+00
    2.8123762270807799e+01 -1.0363180913557327e+01
    1.2656089321576667e+01 -4.0800031327875246e+00
    2.4789025965536432e+01 -1.0771037751835486e+00
    8.3293908810607917e+01 -9.3442568172372387e-01
    9.3388646496362483e+01 -8.0266411515605984e-01
    1.7955343812975380e+02 -1.1165229398000425e+00
    1.0774949634642464e+02 -1.0990178441047191e+00
    5.9340320777858707e+01 -1.2566001714549042e+00
    1.2159142427875908e+01 -1.6882982915268088e+00
    3.3897508198703761e+01 -1.2618696258388557e+01
    1.2423380294092464e+01 -2.7535488604350911e+00
    2.7308444524818853e+01 -9.6201145373934227e-01
    5.2389345503440516e+01 -7.4072522970530486e-01
    4.7033636955686198e+01 -6.2905484121194177e-01
    1.0507925485735348e+02 -1.0189242829948670e+00
    8.6180369464971477e+01 -9.8303993320659355e-01
    4.8459826229277603e+01 -8.9875959078062895e-01
    1.3891593918509230e+01 -1.3514027371469186e+00
    1.6688434333168832e+01 -6.1881527127259206e+00
    1.0965640865104220e+01 -2.3201728857057398e+00
    2.3852169111748182e+01 -9.0928927589282493e-01
    6.6405687746890479e+01 -1.1188311176698127e+00
    5.3983889973140670e+01 -7.8394049106730657e-01
    5.9362183282806534e+01 -8.7218932520280212e-01
    5.9563353273464756e+01 -9.8633794221792470e-01
    4.1839348396750651e+01 -9.2107385359891492e-01
    1.3864676255322188e+01 -1.5507753897759595e+00
    1.7628893216185723e+01 -6.5610202216135924e+00
    1.0351228850303061e+01 -2.9637051159827918e+00
    3.3105601244650600e+01 -1.1419910866602447e+00
    6.6323996782280716e+01 -8.2169432743841408e-01
    3.8822377563375973e+01 -4.7307462973343883e-01
    1.0000787368705767e+02 -8.0025162983968434e-01
    9.1064772154075627e+01 -9.5099707698550162e-01
    4.7307136458616945e+01 -1.0438720232261092e+00
    1.1751513326293210e+01 -1.4741253754238564e+00
    2.5199947871604515e+01 -9.8638058230041992e+00
    1.0187122517770046e+01 -2.9840816421358771e+00
    3.8028823844977829e+01 -1.3770178407040896e+00
    4.2270472091828694e+01 -7.2721503437916046e-01
    4.8350722809422727e+01 -6.5856160883624293e-01
    5.9339656176440016e+01 -7.5296702573422292e-01
    5.5309833858331032e+01 -7.4925096059238316e-01
    3.8963668391171197e+01 -9.4836995423321180e-01
    1.0582747883749423e+01 -1.5807398770916585e+00
    2.5199947871604515e+01 -9.8638058230041992e+00
    1.2583868323653380e+01 -2.3932248830779863e+00
    3.1558236398696774e+01 -9.5088426490910583e-01
    7.1174119485549127e+01 -1.1860482190367181e+00
    7.1719734141704450e+01 -9.2774526767788379e-01
    5.6840408145401810e+01 -7.9834989401989631e-01
    5.1521774095199376e+01 -8.5509642236787042e-01
    3.8529994829370835e+01 -8.5738867893824422e-01
    1.4583002117811267e+01 -1.4867688633687735e+00
    1.4580423705415903e+01 -5.3908162622529252e+00
    1.2157780618120144e+01 -2.6124605296340340e+00
    3.5696040764093645e+01 -1.2009184910795903e+00
    5.7351460213789245e+01 -1.0962143118397976e+00
    5.6984383653752765e+01 -7.7378750675155705e-01
    8.2621743851403906e+01 -8.9419320118056433e-01
    7.6287354475761774e+01 -1.0894099986616781e+00
    2.1892659626265488e+01 -6.9416272601387408e-01
    1.0280508409488270e+01 -1.4137538285292683e+00
    1.4713201546308277e+01 -5.4723448728923110e+00
    1.2507602559255487e+01 -3.4109870223721925e+00
    4.6211338374382876e+01 -1.4387144938428913e+00
    5.9704927755271029e+01 -8.7065809628201429e-01
    7.3309444947263430e+01 -7.9627058365101622e-01
    5.8886416277861599e+01 -6.9439264817648327e-01
    3.5826845056492154e+01 -4.7163042547836964e-01
    3.3203848421265057e+01 -7.4562961239835113e-01
    1.4464192780361913e+01 -1.8265191745306586e+00
    2.2220913300795491e+01 -8.8792468424280884e+00
    1.1963953063119508e+01 -3.4687424872918702e+00
    3.9411760559644641e+01 -1.4513466955905547e+00
    4.9991724929217497e+01 -1.0017035630479025e+00
    5.5730433175827983e+01 -7.2727541558702846e-01
    5.9763210279699379e+01 -8.0349546607520439e-01
    5.3254764362524732e+01 -8.4780063977836795e-01
    2.9137765777081231e+01 -9.7073435381290807e-01
    1.0481637252133439e+01 -1.6292877338121505e+00
    2.2220913300795491e+01 -8.8792468424280884e+00
    1.3276774921060568e+01 -2.3111540086846509e+00
    3.7356164047347853e+01 -1.0746892327818907e+00
    4.3312679829177164e+01 -8.5460883074622895e-01
    5.9361241196854316e+01 -8.6292042845478811e-01
    1.0541735305597052e+02 -9.5117184104298336e-01
    7.7498531550018015e+01 -9.3276656951380699e-01
    2.0232566772107614e+01 -6.6001839461159995e-01
    1.0534973926076598e+01 -1.4447573109587954e+00
    1.2740966277736021e+01 -4.4463359588530773e+00
    1.1183550515809186e+01 -2.1392446147729216e+00
    3.0357531086578174e+01 -1.1348616273837657e+00
    2.4853456224617052e+01 -6.9005021473305472e-01
    5.0532272067055104e+01 -9.0169519207137749e-01
    6.3413657134491316e+01 -8.1928373775643282e-01
    4.5478431952132937e+01 -7.3700172023316701e-01
    1.8012765501771863e+01 -7.7857258483740643e-01
    8.0686416002762957e+00 -1.5797409343486315e+00
    1.4518783188686767e+01 -5.1838875240314675e+00
    1.2098257347023898e+01 -2.8755085132696130e+00
    2.5931911607589580e+01 -9.9436930784660049e-01
    3.1716388012109210e+01 -7.5886671459792610e-01
    4.7976150132399944e+01 -7.7328419652012981e-01
    9.6901891634366805e+01 -1.1269301568494863e+00
    8.3467138627592746e+01 -1.0412909553568717e+00
    2.6222712824015137e+01 -9.4448699274552461e-01
    1.0910179927990450e+01 -1.6838875766140786e+00
    2.0232531505119443e+01 -7.6657530603931114e+00
    1.1299056886388371e+01 -3.0557687689788144e+00
    1.4669662279564868e+01 -8.9793429769438715e-01
    2.1362904082381707e+01 -7.2691803678816691e-01
    3.0780635878903087e+01 -8.1442915626697776e-01
    4.8802524269416061e+01 -8.4699017719323044e-01
    5.7335741527533905e+01 -8.4964780853915145e-01
    1.2962698423469218e+01 -6.7351330511407093e-01
    8.8968675921465934e+00 -1.8293329828812561e+00
    2.0232531505119443e+01 -7.6657530603931114e+00
    1.2594842253558607e+01 -1.9512296050243332e+00
    2.7527478049574128e+01 -9.9659359448086871e-01
    4.2972143068556960e+01 -8.3337332434427780e-01
    1.0911843216825952e+02 -1.1772180170219115e+00
    1.2448166060270277e+02 -1.1372951383829744e+00
    8.2013238099609396e+01 -1.0580931353530718e+00
    1.3167159336199154e+01 -7.3940887905641572e-01
    8.4334946614495507e+00 -1.7735692547497244e+00
    1.3189175410277786e+01 -4.5284468207344259e+00
    1.1932136455098485e+01 -1.8140888574930574e+00
    2.5782968329594937e+01 -1.0154538011349103e+00
    5.8653626092496282e+01 -1.0278682318192516e+00
    5.1432129449006624e+01 -8.2053329628155802e-01
    6.2873402211099581e+01 -1.0270846303503616e+00
    4.4720936542750614e+01 -1.0550829423502568e+00
    1.1190889495742532e+01 -9.1619981275913875e-01
    8.2763086467158349e+00 -2.0703034081002745e+00
    1.1169906866660886e+01 -3.6670491188520713e+00
    9.8774814761485636e+00 -2.2621876636875018e+00
    1.5507637185031983e+01 -8.4169259206420244e-01
    4.0199347888152957e+01 -9.9839921471655835e-01
    5.8339586130666632e+01 -9.2657617307220086e-01
    6.0200797709044600e+01 -7.1327670522560471e-01
    5.4765489210262082e+01 -6.9177442213854934e-01
    1.6277046853599973e+01 -7.4369776626954109e-01
    9.0175471495058392e+00 -1.6868090004518457e+00
    1.5622458179903997e+01 -5.5081189291687114e+00
    9.1025666373599741e+00 -2.1025628239045799e+00
    1.9530191277325578e+01 -1.0819197160121321e+00
    5.1540561447989973e+01 -1.1359453266269253e+00
    5.8129157416467166e+01 -9.3037706038481549e-01
    8.0198490542799121e+01 -1.0618671918652496e+00
    5.5173703829932450e+01 -9.6824325427220348e-01
    1.3413831430348957e+01 -8.7349375758209158e-01
    8.6177167581008902e+00 -1.8830189409711551e+00
    1.2850799272426372e+01 -4.5014761614341063e+00
    1.1335397010151985e+01 -1.4696400094504776e+00
    2.6715618596377915e+01 -1.0797836976092730e+00
    7.0315488012465380e+01 -1.1870748592690532e+00
    4.4945549067978952e+01 -7.1310498831639857e-01
    4.8107349470266335e+01 -8.1575429523091758e-01
    2.8722460061664698e+01 -7.7634140484290382e-01
    1.0435743973127682e+01 -9.1384777062219480e-01
    8.5851459120043625e+00 -2.1948604132685192e+00
    1.0315928236964236e+01 -3.0695246353778605e+00
    9.8726007025077571e+00 -1.3392807398394853e+00
    3.0099288267746111e+01 -1.3601391692180711e+00
    5.5044237123989930e+01 -1.2123790414675817e+00
    3.8612874491761225e+01 -6.3497352655922201e-01
    2.6594055373837922e+01 -5.4615322895825491e-01
    1.3052141980989843e+01 -5.5643179470004522e-01
    7.1199479630102633e+00 -9.2929118967775604e-01
    8.5994942890262536e+00 -2.3342651487654149e+00
    8.4065751399588802e+00 -2.2898955253761124e+00
    8.6909722508045668e+00 -1.6682742121706391e+00
    1.5866785846722603e+01 -9.1048163510649704e-01
    5.3286334534928372e+01 -1.0535607501722803e+00
    5.4060098198502374e+01 -8.3616385849736541e-01
    5.2338521855227164e+01 -8.1086538612265657e-01
    4.1939351374814258e+01 -8.5269204413831168e-01
    1.2842821793766609e+01 -8.9575822878544287e-01
    9.3998511365905753e+00 -2.0848502272057932e+00
    1.0362374820818527e+01 -3.3352862657151383e+00
    8.4482775965687704e+00 -1.5198126569829611e+00
    2.0286933136834143e+01 -1.1160269373516689e+00
    4.2973704193403663e+01 -1.1670939699021861e+00
    5.4453816627581233e+01 -1.0467444775332082e+00
    4.4085989931920601e+01 -8.9426984519919295e-01
    2.1486655582908959e+01 -7.8351716623026424e-01
    8.9875693914874049e+00 -1.2047647815321030e+00
    9.1408183152026954e+00 -2.3476973964704775e+00
    9.7911971378067104e+00 -3.0038229383187778e+00
    9.9005716060271602e+00 -1.3378896765933848e+00
    3.3880342991402451e+01 -1.3992890498155217e+00
    3.8159073211863209e+01 -9.4858100400239820e-01
    3.3052678337491159e+01 -6.3801125919082857e-01
    3.5948752871630305e+01 -7.6560992673545369e-01
    1.4024943757245932e+01 -6.4539133198974485e-01
    7.2802489809459416e+00 -1.0222874265772237e+00
    8.6041401842192595e+00 -2.0920539122895701e+00
    8.1458184473898001e+00 -1.9099179131897710e+00
    8.9457540498856005e+00 -1.3899583833926010e+00
    1.5851169750184386e+01 -9.6752176267316792e-01
    4.2726036765479407e+01 -1.2823419681667660e+00
    5.4799657003392255e+01 -1.1106004522746353e+00
    5.0994929953936129e+01 -1.0956655403518645e+00
    1.4479155255650097e+01 -6.7907729715909826e-01
    7.6059525285724314e+00 -1.0124770795907354e+00
    9.1099995467031647e+00 -1.9709839055617453e+00
    7.9595914612973298e+00 -1.7665622297246391e+00
    1.0209851853470656e+01 -1.3808916548174701e+00
    1.8826619309948075e+01 -8.4949330699079717e-01
    2.8919330087324784e+01 -8.4969667499962465e-01
    3.0915400740702534e+01 -7.6210926753600394e-01
    3.4617372072829156e+01 -8.5343964751509671e-01
    1.3808389861244798e+01 -7.1486052639004527e-01
    7.1656819255247708e+00 -1.3209276643710890e+00
    8.6397994670910947e+00 -2.3237146086612359e+00
    8.3824296955164446e+00 -2.2203681176871779e+00
    9.1896343994814540e+00 -1.2446731785154908e+00
    1.6720780274552357e+01 -7.8461641714133634e-01
    3.2323659119633703e+01 -8.7564552064751000e-01
    4.7479621520960244e+01 -9.5428828756910622e-01
    3.2936023223606078e+01 -8.1172102225277931e-01
    1.0751281242624914e+01 -7.5773353893930262e-01
    6.7061785017625066e+00 -1.3263691079391879e+00
    9.3573783906042962e+00 -2.7463801236656642e+00
    7.0962623204907684e+00 -1.7076695322286308e+00
    8.5240550394369468e+00 -1.5606489436277091e+00
    1.4472936442325139e+01 -1.0704831031175812e+00
    3.0689185226966785e+01 -1.1813894480687912e+00
    4.3473301935762159e+01 -1.2126993869668821e+00
    3.4809331435132790e+01 -1.1110774792077402e+00
    1.3062941963023185e+01 -7.3635518979219028e-01
    8.0284620459518035e+00 -1.0699231173402579e+00
    8.7239848789631704e+00 -1.7894692031202462e+00
    1.0044352890199693e+01 -2.3359524086394781e+00
    8.5734874359998887e+00 -1.7117955115522361e+00
    1.3899951401538630e+01 -1.1655669185297075e+00
    1.6582526582116010e+01 -8.5248439774398699e-01
    1.7041100077228737e+01 -8.8114778218475542e-01
    1.5310403272360283e+01 -8.1819010285184568e-01
    1.1377755400247077e+01 -8.4387228368349354e-01
    1.0159240582781116e+01 -1.2003054348339937e+00
    9.5884439773476000e+00 -1.4690263826341934e+00
    9.2085299740786049e+00 -2.0555293022608807e+00
    1.0894771934784570e+01 -1.5368955787423615e+00
    1.9205322328401902e+01 -9.4221543190705803e-01
    4.0015323407674003e+01 -1.0329163827874577e+00
    5.5299053675349931e+01 -1.0953864738719250e+00
    3.4493256911105973e+01 -9.8991855003649809e-01
    8.5264873376484971e+00 -8.0802115392442653e-01
    7.5209121825677316e+00 -1.5631602834561218e+00
    9.3705641362317404e+00 -2.5350214861670834e+00
    7.9052300119201560e+00 -1.8747470452829145e+00
    9.6275094456515760e+00 -1.4557590050945892e+00
    2.1222365304363645e+01 -1.2257865522556473e+00
    2.1296537751810348e+01 -7.8955913140624556e-01
    1.7326812293066073e+01 -6.5594858336748629e-01
    2.5645868284513057e+01 -1.0437061754548582e+00
    1.0079970157867596e+01 -9.7304125720528112e-01
    8.1788116126338544e+00 -1.7247108153694519e+00
    9.0212260170734293e+00 -2.3142177939701716e+00
    8.1131083558338464e+00 -1.8768764109769505e+00
    8.8241277223075016e+00 -1.7044278024524169e+00
    1.6880540304158458e+01 -1.4372643648739829e+00
    2.5433323652923388e+01 -1.2570777163877143e+00
    1.9728209420297194e+01 -1.0212881227012465e+00
    1.3881208658600739e+01 -9.0465434703074976e-01
    1.3121812056801945e+01 -1.0343407304101073e+00
    1.3034565140066857e+01 -1.3257641752538392e+00
    1.1762298756168223e+01 -1.3752010443709990e+00
    1.1073828315807670e+01 -2.1143875901005988e+00
    1.0129806902664855e+01 -2.4128944941224977e+00
    1.2623751221636761e+01 -1.8123994577183522e+00
    1.4429865948847283e+01 -1.5535557046483464e+00
    1.1206827692830995e+01 -1.2956578267416818e+00
    7.4234190179976709e+00 -1.4110298650161943e+00
    8.3896939082258051e+00 -1.1202356950976362e+00
    1.0606014014498074e+01 -1.1107384253176609e+00
    1.0914369725936735e+01 -1.2118509195557214e+00
    1.0451352481726900e+01 -2.0990828710698639e+00
    9.8104683680122715e+00 -1.2429432661364075e+00
    1.7666068266959439e+01 -1.0411101526456563e+00
    3.8745060998098907e+01 -1.3191683129233829e+00
    2.6422923835537826e+01 -1.0589530292412876e+00
    1.3089476513881069e+01 -9.2419283921916995e-01
    1.1637195320145791e+01 -1.3099545925286409e+00
    9.0730420588419314e+00 -1.6322246448479545e+00
    9.0992679490509509e+00 -1.6720260732871652e+00
    8.8226620813559506e+00 -1.5637620730383359e+00
    9.1112189629806366e+00 -1.3434259524949861e+00
    1.1817196825359026e+01 -1.0634232419523166e+00
    1.8164627406994455e+01 -1.2127938040588142e+00
    1.3078271984810577e+01 -1.2278851758556628e+00
    7.4630131455664408e+00 -1.5062149001889507e+00
    8.3817081172811534e+00 -1.8911687341892629e+00
    9.1466389883346260e+00 -1.7092692357413848e+00
    9.2391789009717744e+00 -1.4757225064690791e+00
    1.0050244555322271e+01 -1.5374373095457301e+00
    8.2852369663087160e+00 -1.1120101122392549e+00
    1.9417804522521408e+01 -1.2565175397709021e+00
    2.4759539791178703e+01 -1.5879156459090791e+00
    9.0051419277400004e+00 -1.1505269825032518e+00
    7.9955135547821357e+00 -1.3424275528963725e+00
    9.0611047884001241e+00 -1.1479786654262603e+00
    1.2906401613545817e+01 -1.2529688808363599e+00
    1.2268958514995761e+01 -1.1751116722202022e+00
    7.5650406088424811e+00 -1.1372433038904168e+00
    9.6144893390841162e+00 -1.2387974709108869e+00
    1.4811057229162003e+01 -1.2504215481860528e+00
    1.6291527177492668e+01 -1.3767954337680799e+00
    9.3172064650859987e+00 -1.1656130028036487e+00
    8.4986280663849048e+00 -1.4690774430611513e+00
    9.6122026544052090e+00 -1.3717520611860887e+00
    1.2341443739254300e+01 -1.5294755227784491e+00
    1.0184388024122686e+01 -1.3436912239486252e+00
    7.9641839341135743e+00 -1.2623206514463525e+00
    1.1124255478861700e+01 -9.7399122903743318e-01
    1.4308208352804007e+01 -9.6484281038795672e-01
    1.9708298573348618e+01 -1.4509579345401449e+00
    1.0026371572508298e+01 -1.7537653423864978e+00
    1.0227263381234637e+01 -2.5120432053405186e+00
    1.0227442979096406e+01 -1.9138675722152221e+00
    1.3813275063866911e+01 -1.4874069145820563e+00
    1.0629391925886145e+01 -1.0503737492538625e+00
    9.2670474441924426e+00 -9.2378207479091601e-01
    1.1627866695473591e+01 -9.7509677855770316e-01
    1.0838225269318878e+01 -1.0313003676893895e+00
    1.1540330596198098e+01 -1.3714070124808437e+00
    9.7976213551687579e+00 -1.9610378200768561e+00
    9.7435038889983705e+00 -2.5421292579212182e+00
    9.7737126696197212e+00 -1.9252243756387375e+00
    1.1459754673935395e+01 -1.4533263880618175e+00
    1.0497399023530166e+01 -1.1292693362448734e+00
    1.0930292578924067e+01 -9.5658610546586698e-01
    9.1222585964073435e+00 -1.2484304506726684e+00
    1.7984726724973736e+01 -1.4641805075775522e+00
    1.6224866385112595e+01 -1.2487827006922021e+00
    1.1886151560715625e+01 -1.0431053156724992e+00
    9.1735559891677365e+00 -1.2800564854101935e+00
    1.0036551053187768e+01 -1.1382191079824993e+00
    1.4066062538677127e+01 -1.2878879314393121e+00
    1.0725200198132349e+01 -1.2616055845150400e+00
    8.4214407749286497e+00 -1.2231514769510961e+00
    7.6050056098116086e+00 -1.3528713936154462e+00
    8.8346924365149331e+00 -1.2509882764770497e+00
    1.0237363780463786e+01 -1.0917662354911304e+00
    9.1691792022718843e+00 -1.0523793831900452e+00
    8.5732531703943256e+00 -1.1797384749982338e+00
    1.1442585648189805e+01 -1.0857352729710685e+00
    1.3212809060734468e+01 -1.1493098082917244e+00
    9.1499326974813329e+00 -1.1700901227881935e+00
    7.4476345770416197e+00 -1.2930179757139890e+00
    1.0493398344444534e+01 -1.0359651193212343e+00
    1.0415042689100069e+01 -1.1682038915618302e+00
    9.9168096442131226e+00 -1.2997700084486652e+00
    9.6903251057649342e+00 -1.5020532263726600e+00
    8.3588492682036382e+00 -1.6822505356306856e+00
    9.1797944376038423e+00 -1.4716641159242554e+00
    1.1117984336372739e+01 -1.2653867683736337e+00
    1.1598434053587500e+01 -1.1925490256582985e+00
    1.3800398945751244e+01 -1.1867016364085714e+00
    8.2048222167477203e+00 -1.2267843054145815e+00
    8.6316954004604849e+00 -1.2209730205352718e+00
    8.6732403423711766e+00 -1.2502513668506046e+00
    9.6153835691373466e+00 -1.4757506599411057e+00
    8.6149575194381747e+00 -1.6372922935000749e+00
    1.1332001478514277e+01 -1.6769434622543113e+00
    1.2973899436241485e+01 -1.4563985602404259e+00
    1.1774828794242811e+01 -1.5280098153643231e+00
    8.8155720161015463e+00 -1.2192800230105709e+00
    8.2347923706300534e+00 -1.4543118997613571e+00
    9.9966327391839975e+00 -1.3507089637398955e+00
    1.0369066383256717e+01 -1.1298281457786765e+00
    1.1617126986847824e+01 -1.0201774848682617e+00
    9.4603783702695949e+00 -9.2341810658066392e-01
    1.3777529767828884e+01 -9.8909419659609032e-01
    1.7193128577041858e+01 -1.1909666184971959e+00
    9.7824410032941689e+00 -1.0227014933050464e+00
    7.0175201895721022e+00 -1.2024538308384822e+00
    9.1704188295737286e+00 -2.2070710124639308e+00
    9.3457379677005683e+00 -1.6375952404633731e+00
    1.0106979223465805e+01 -1.2419783175483485e+00
    1.1934452817263880e+01 -1.0211237152610799e+00
    1.2877756121186646e+01 -9.7707076091356360e-01
    1.6017608263236706e+01 -1.0905966774093687e+00
    1.4247202350025379e+01 -1.2035957871137934e+00
    1.1273405782680214e+01 -1.3153130473075401e+00
    7.6910719850764808e+00 -1.4801548941287621e+00
    8.7600132748601336e+00 -1.3262099199684025e+00
    1.0644364954719467e+01 -1.3724325959672712e+00
    1.1828221065878402e+01 -1.4096335416347290e+00
    1.0645838412380201e+01 -1.3481494657599808e+00
    9.3747583847902085e+00 -1.5376903967326103e+00
    1.1828027586594565e+01 -1.5455377368387981e+00
    1.5864389287587038e+01 -1.5106402594254822e+00
    1.5281090916074081e+01 -1.6002796171693250e+00
    1.1888444123114466e+01 -1.4683421267369456e+00
    8.9735851615544533e+00 -1.5830864042550017e+00
    9.6653592651012232e+00 -1.8005260764461690e+00
    9.5612908953684528e+00 -1.6977883475868361e+00
    9.8010031167749645e+00 -1.5343957511644220e+00
    9.3169275672478449e+00 -1.5779364671642842e+00
    1.1805757288985141e+01 -1.5840995131465065e+00
    1.4532231953075128e+01 -1.5268378041790176e+00
    1.1596585419497391e+01 -1.3688026889164031e+00
    1.1034054595482187e+01 -1.5258968434891393e+00
    9.4804976353303871e+00 -2.3557412432086653e+00
    9.6622204148574244e+00 -1.6885645308206652e+00
    1.0249177955144898e+01 -9.8250486930499981e-01
    1.6746088352661097e+01 -8.6971870546387631e-01
    1.4053798449068386e+01 -7.0289796925213277e-01
    1.5159597319368284e+01 -8.1107886862465806e-01
    1.4154669303871577e+01 -1.0104673243797853e+00
    1.3590559438290294e+01 -1.2720173851757748e+00
    7.9513364659094607e+00 -1.6388617315151355e+00
    1.2118193858509589e+01 -3.4061842216755123e+00
    8.5975578202873812e+00 -1.4776791299112548e+00
    1.1087434876168096e+01 -9.2976407217012269e-01
    1.7292752554223714e+01 -9.2773361944872268e-01
    1.4879170163913777e+01 -7.4484351500289880e-01
    1.4525851775628789e+01 -9.0211718643987970e-01
    1.5214874894327783e+01 -1.0948112482839829e+00
    1.4707876238934558e+01 -1.3753655972589596e+00
    8.9000169972693506e+00 -2.1996725041909508e+00
    8.1664908809753118e+00 -1.4470869427559157e+00
    1.0348710233218041e+01 -1.6728119201859917e+00
    9.9979916343180761e+00 -1.4046428602721632e+00
    1.1804540654795467e+01 -1.3616046822518444e+00
    1.0330242043473755e+01 -1.2314007198816634e+00
    1.2030780597532226e+01 -1.3196905758659525e+00
    1.2596117408980103e+01 -1.2050795111160408e+00
    1.1692998776021724e+01 -1.1641189373632781e+00
    1.0950083283669002e+01 -1.4673415338976910e+00
    8.7853345961185827e+00 -1.8717218248221266e+00
    9.3562416354857305e+00 -1.5486730313328396e+00
    1.0519750373586048e+01 -1.3108336722114586e+00
    1.1905648355985488e+01 -1.3502625864466051e+00
    1.0158495394344843e+01 -1.2439440385776377e+00
    1.2469000477015733e+01 -1.4920738174446853e+00
    1.4302108546148423e+01 -1.5516046376923005e+00
    1.6202693559267004e+01 -1.7306833891215587e+00
    9.4887528649041712e+00 -1.7552548837293132e+00
    1.1573666406112515e+01 -3.3125014484337103e+00
    9.0630080534180451e+00 -1.3176089920156848e+00
    1.3400416236378494e+01 -9.1458497261924043e-01
    2.2594898413643538e+01 -9.5306107708141452e-01
    1.9532035868405838e+01 -7.6649919228350072e-01
    1.2992452661560490e+01 -7.6910652194898776e-01
    1.5357955036641211e+01 -9.7397619130544777e-01
    1.3365640022408035e+01 -1.3287397811566832e+00
    8.3577644706552494e+00 -2.1909140839402923e+00
    1.2237440185372650e+01 -3.6754696650449108e+00
    9.6432310213035493e+00 -1.4781706048203587e+00
    1.6575163597874219e+01 -1.0318882193475043e+00
    3.0881393658456901e+01 -9.7917148125274667e-01
    2.6200909509151231e+01 -9.5257997457244148e-01
    1.6977471413683382e+01 -8.6120391722492751e-01
    1.4968466119137915e+01 -9.0724920368290618e-01
    1.2914140507132686e+01 -1.4493586094602751e+00
    1.0857542307468709e+01 -3.0748805401969297e+00
    9.8307917526836324e+00 -2.0823629686973915e+00
    1.1112408692169794e+01 -1.4876169753647832e+00
    1.4126110919444693e+01 -1.2992069760089475e+00
    1.5006817233137228e+01 -1.3376015014579601e+00
    1.2948004588458517e+01 -1.2345687709134989e+00
    1.2093903322345231e+01 -1.2670669554966307e+00
    1.3710948877373795e+01 -1.4137995881639371e+00
    1.4884136752841282e+01 -1.5835615786590991e+00
    9.2859617240356584e+00 -1.7689316110887130e+00
    9.3586251909109865e+00 -2.1330616364786521e+00
    9.4772121727199305e+00 -1.4433611393489094e+00
    1.0677318791999367e+01 -1.1704697188485473e+00
    1.3993811288208359e+01 -1.2205761415272511e+00
    1.1768335311703504e+01 -1.1650528097406601e+00
    1.1227654006329242e+01 -1.1539911031461600e+00
    1.3764063031981987e+01 -1.4414645549554812e+00
    1.5061844751594082e+01 -1.9255184875092104e+00
    9.5764276261263710e+00 -1.9287631851016191e+00
    1.1951334839692430e+01 -3.5666324683944901e+00
    1.0655759507199379e+01 -1.2870045243251276e+00
    2.7622916284178597e+01 -1.0339405048291692e+00
    4.9990770432703634e+01 -9.9085861290309074e-01
    4.7198296664230874e+01 -1.0514989739836289e+00
    1.7520309649766237e+01 -6.1429361268160032e-01
    1.5821555324758140e+01 -9.0480266214802951e-01
    1.2184866944914047e+01 -1.3927280628362693e+00
    1.1547283625991104e+01 -3.3644388070889875e+00
    1.3429238030013581e+01 -4.1910975534867019e+00
    1.0318286630999250e+01 -1.1207002645141773e+00
    2.9992704935269760e+01 -9.1328083381026193e-01
    3.4230034883057790e+01 -6.6680533853969182e-01
    3.2381012117399614e+01 -6.4420388964755149e-01
    1.7126177356660758e+01 -5.8613022441724738e-01
    1.2375444933377040e+01 -7.3314650553383276e-01
    1.0270266797193555e+01 -1.5184638163570039e+00
    1.5156824075377571e+01 -4.7962709189643773e+00
    1.0754065894916041e+01 -2.2863000950827765e+00
    9.9838811408902917e+00 -1.3238283304521796e+00
    1.3534736115167442e+01 -1.0056952817746121e+00
    1.9472067151695125e+01 -1.0783745311149697e+00
    1.4295686588127657e+01 -9.3246612376479177e-01
    1.3801253326522051e+01 -9.7559208325765434e-01
    1.2789820442731781e+01 -1.2224284689199898e+00
    1.1788878611747222e+01 -1.6165085538336810e+00
    1.0504882675192244e+01 -2.0638665587403313e+00
    1.0720744327059158e+01 -2.6733537738210953e+00
    9.1494837902480413e+00 -1.2012812933057544e+00
    1.1527871919625397e+01 -8.1487928509831509e-01
    2.7462110063293114e+01 -1.1493783830123487e+00
    2.4795403863121955e+01 -1.0169481989534241e+00
    2.2219499717108711e+01 -1.1656041928555849e+00
    1.1419505167859880e+01 -1.1434716088066317e+00
    9.2003535726868115e+00 -1.6674858796589302e+00
    9.9802173981074400e+00 -2.5832620866140661e+00
    1.3096937267208492e+01 -3.9873158512748699e+00
    1.3017396716033559e+01 -8.6624244975902176e-01
    6.7357563514945440e+01 -9.1643294905090689e-01
    6.7256209596443554e+01 -7.4212814922554449e-01
    4.8860328483527113e+01 -6.9118792467052559e-01
    3.2640279068775044e+01 -7.1655156367536366e-01
    1.3826186583518293e+01 -6.3030054443636019e-01
    1.0484244815929213e+01 -1.3184634640072110e+00
    1.5627585973012106e+01 -5.4443721804551597e+00
    1.1696038272159898e+01 -3.5536001478185777e+00
    1.8186205287960426e+01 -8.7319132395513077e-01
    9.8772781802066916e+01 -1.0413375325334393e+00
    6.0970494090250376e+01 -7.7094461208165266e-01
    4.5825027533993577e+01 -7.0214080843426185e-01
    4.4117118119897469e+01 -7.5591191464588159e-01
    1.8138819587224866e+01 -7.0587645698422996e-01
    9.8173398291796055e+00 -1.2453112067829297e+00
    2.2074633266229704e+01 -7.9272621422714131e+00
    1.0251148885122168e+01 -2.3507447549084945e+00
    1.1567606667271313e+01 -1.1076695486881318e+00
    1.4143686936190116e+01 -7.1494914046152580e-01
    2.2997406845301594e+01 -7.8872315723297537e-01
    2.6864951925854736e+01 -8.7773972357688534e-01
    2.1692910676863740e+01 -8.6813484201377511e-01
    1.0650835315502169e+01 -8.9721108784122994e-01
    1.2512577681826370e+01 -1.8467728113588142e+00
    9.6698696532628787e+00 -2.6058581424231599e+00
    9.6284647362930720e+00 -2.3845407243335006e+00
    1.1878847780566117e+01 -1.0925647980497146e+00
    1.6795083612000379e+01 -8.1344805935001263e-01
    1.6803457039137694e+01 -6.3856809634947453e-01
    2.2136065498665570e+01 -8.4253872121699114e-01
    2.9304278461768373e+01 -1.0665575596974721e+00
    1.5597180746027055e+01 -9.5774630466515476e-01
    1.2718843920362561e+01 -1.7891101392782705e+00
    9.9552851524699122e+00 -2.9283501102317175e+00
    1.0590593516466098e+01 -2.9258625500727602e+00
    1.6732311395230891e+01 -6.5683465651624506e-01
    6.2892262519549782e+01 -7.7875820488519776e-01
    7.7197275468510014e+01 -7.9696776515489665e-01
    8.1980719266610464e+01 -8.8836262627057683e-01
    9.6862929846457916e+01 -1.0098223612758299e+00
    4.0910664651616599e+01 -9.9893835171427703e-01
    9.2776394827117876e+00 -1.0785830550896458e+00
    2.4235931631556991e+01 -9.1222693806169683e+00
    1.1471796276453178e+01 -3.4914097707249097e+00
    2.2590374369805932e+01 -8.7979462069749015e-01
    2.0627488460659148e+01 -4.2530127569371529e-01
    1.1055385961864876e+02 -9.9610923513900207e-01
    7.0522154083991396e+01 -7.7966643499292365e-01
    1.0055605680914067e+02 -9.6126767164714444e-01
    3.8259592306545201e+01 -9.8731448933298604e-01
    8.3831508602527016e+00 -1.2732475192558137e+00
    2.4235931631556991e+01 -9.1222693806169683e+00
    9.6876919065863412e+00 -2.2460059428214807e+00
    1.2164267863886494e+01 -9.5164473757218482e-01
    2.3472823342360801e+01 -8.1394022716469050e-01
    1.9570655184036756e+01 -5.2141904387475779e-01
    3.0609896410787083e+01 -7.4883859375308248e-01
    4.2561901428408611e+01 -9.8400810534931404e-01
    3.2714351554442295e+01 -1.1699569295100964e+00
    1.2615795081193033e+01 -1.4269823186090054e+00
    9.9064626129987428e+00 -2.9785623267992052e+00
    1.1973337082948065e+01 -3.1404159069322581e+00
    1.6191941115390389e+01 -1.1007845099269480e+00
    2.7236068482314369e+01 -9.1362047916123723e-01
    4.2211677792218552e+01 -9.2025029217722132e-01
    6.0410377368170010e+01 -1.1668053427471030e+00
    4.7684341932107401e+01 -1.0440741770728625e+00
    2.7555560970734604e+01 -1.0656687241464300e+00
    1.1664035276953197e+01 -1.5893791758623388e+00
    1.5088437119526999e+01 -5.1208714557394259e+00
    1.2840307487603564e+01 -3.4389233163637303e+00
    4.1134991342913224e+01 -1.1637578515559828e+00
    4.1122948102222253e+01 -5.7513869370219428e-01
    1.2245410999517070e+02 -8.1007883980058126e-01
    1.0785026240129800e+02 -8.2871193691317535e-01
    1.0241124360197212e+02 -7.8899325208318094e-01
    4.3292209587505944e+01 -8.0600554977802019e-01
    1.1492434198833752e+01 -1.3997581756270523e+00
    3.1127835295460450e+01 -1.1649700794673095e+01
    1.3072539566350562e+01 -3.7955392730796973e+00
    4.2659358353826853e+01 -1.2578763336722913e+00
    8.0775547098156935e+01 -1.0390139046145275e+00
    5.3282749955679684e+01 -4.8773356771597970e-01
    7.1307666681230842e+01 -7.7203715595430633e-01
    4.3027197881568362e+01 -6.4104619573744515e-01
    3.6800202746903672e+01 -9.1976743762111668e-01
    9.9466574035382322e+00 -1.3844683591037517e+00
    3.1127835295460450e+01 -1.1649700794673095e+01
    1.3237835295378771e+01 -3.1654172859251450e+00
    2.5562592284114835e+01 -1.3085299070433676e+00
    2.9827334198620576e+01 -8.5018101382503297e-01
    4.0046391281984434e+01 -8.2544903461575758e-01
    5.7581341370759404e+01 -9.2950152456646129e-01
    6.9518931194581356e+01 -1.1887871064340905e+00
    4.3959530224425905e+01 -1.3172324809999432e+00
    1.1749014453943639e+01 -1.4739871216585467e+00
    1.4137551855808010e+01 -4.7650787406124060e+00
    1.2427209829487046e+01 -3.4551075727091325e+00
    1.5364066870726329e+01 -1.0365096660609912e+00
    3.0637214869787183e+01 -9.3957553080067469e-01
    2.2164772014479205e+01 -6.1110923169311038e-01
    2.6524617214870286e+01 -5.5635980626393877e-01
    3.5679687091215406e+01 -8.9727488790286714e-01
    3.0324634678555547e+01 -1.1349969209107109e+00
    1.0057209572922085e+01 -1.4874238331765492e+00
    2.7196819140937055e+01 -1.0023075371099804e+01
    1.4170859277673591e+01 -3.4224416606047576e+00
