<?xml version="1.0"?>
<opencv_storage>
<opencv_ml_ann_mlp>
  <format>3</format>
  <layer_sizes>
    3780 15 3</layer_sizes>
  <activation_function>SIGMOID_SYM</activation_function>
  <f_param1>6.6666666666666663e-01</f_param1>
  <f_param2>1.7159000000000000e+00</f_param2>
  <min_val>-9.4999999999999996e-01</min_val>
  <max_val>9.4999999999999996e-01</max_val>
  <min_val1>-9.7999999999999998e-01</min_val1>
  <max_val1>9.7999999999999998e-01</max_val1>
  <training_params>
    <train_method>RPROP</train_method>
    <dw0>1.0000000000000000e-03</dw0>
    <dw_plus>1.2000000000000000e+00</dw_plus>
    <dw_minus>5.0000000000000000e-01</dw_minus>
    <dw_min>0.</dw_min>
    <dw_max>50.</dw_max>
    <term_criteria>
      <iterations>3000</iterations></term_criteria></training_params>
  <input_scale>
    9.1522797994329448e+00 -2.0445475618113309e+00
    9.6412274951313783e+00 -1.1289543460700515e+00
    1.1977813912875147e+01 -8.3997267213819748e-01
    1.6694514176085423e+01 -6.0680517283652546e-01
    1.8078943898710811e+01 -7.8225345982363848e-01
    2.2710974566262944e+01 -6.3156648275328087e-01
    2.1218934135453296e+01 -9.0839200221929739e-01
    1.1193064609847434e+01 -1.0236347211246339e+00
    8.3891293795301216e+00 -1.8229794131613870e+00
    8.9180392622413329e+00 -2.1415154955014990e+00
    9.0875126143261085e+00 -1.2438319335551231e+00
    1.1703213977805349e+01 -9.0992874544212932e-01
    1.6426914388172303e+01 -6.6675192037281517e-01
    1.6129176711615482e+01 -8.5207020186194959e-01
    1.8930099602328724e+01 -6.1771346891830625e-01
    1.5345818919673142e+01 -8.6429922347524235e-01
    1.0212216950630426e+01 -1.0837555386538378e+00
    8.3956486925185700e+00 -1.9167790663493018e+00
    8.3856308333200591e+00 -2.2883113303486038e+00
    9.2664249081818255e+00 -1.3141688332206141e+00
    1.0301662951511220e+01 -8.6741490909116326e-01
    1.2418966336723271e+01 -6.4257547466221776e-01
    1.5280578267831636e+01 -7.5893216499755645e-01
    1.9930573401792685e+01 -7.2085064544700950e-01
    1.6204924050060772e+01 -9.1372441749929312e-01
    1.0255128284867794e+01 -1.1698572639262217e+00
    7.8223192282362994e+00 -2.0636629406122085e+00
    8.2922402641963124e+00 -2.3941434208692174e+00
    8.5755020965695135e+00 -1.4076699489083635e+00
    1.0540632439512930e+01 -9.5291612394632730e-01
    1.2990165050338664e+01 -7.0835681324236699e-01
    1.4606660363920001e+01 -8.0606220104773418e-01
    1.7560943065314031e+01 -7.2790131858798879e-01
    1.4901248481970534e+01 -1.0179168896614348e+00
    9.6457452711008340e+00 -1.2207425530637164e+00
    7.9718393329997985e+00 -2.2239415189758844e+00
    9.4366487845397415e+00 -2.1086370207747231e+00
    8.9820694721011503e+00 -1.1325634139776357e+00
    1.2504232601601815e+01 -8.6492784395215172e-01
    1.7460533411225608e+01 -6.2563928925991263e-01
    1.5761101767746979e+01 -7.7586804129742826e-01
    2.6014617704130490e+01 -7.4017856937617443e-01
    1.8097616390278127e+01 -9.0067191150716608e-01
    1.1344334372767346e+01 -1.0921083360423205e+00
    8.7203202123351957e+00 -1.8709581055815452e+00
    9.9810498013856019e+00 -2.5647948351154795e+00
    8.8607402603836469e+00 -1.2140050602526000e+00
    1.2390600389854693e+01 -9.5563013124850094e-01
    1.8287242916791758e+01 -7.0156403260483347e-01
    1.6398188359958326e+01 -8.6507053239974407e-01
    2.8122769420903730e+01 -8.2066291324877461e-01
    1.6840195310288525e+01 -8.6806378694668040e-01
    1.2030857433168169e+01 -1.1934611468527123e+00
    8.7437494453089872e+00 -2.0679533532011436e+00
    8.3333004142630038e+00 -2.2861982163473935e+00
    9.2283651438970793e+00 -1.3515686008900389e+00
    1.1475947933520583e+01 -9.4379946469834619e-01
    1.4056250224487075e+01 -6.6516629822925266e-01
    1.5560627314154594e+01 -7.5999954534120806e-01
    2.0675247798246350e+01 -7.5470411489982159e-01
    1.3595114803954447e+01 -8.7799939582102537e-01
    1.0359819858948111e+01 -1.1773287937980914e+00
    7.7994802049203562e+00 -2.0664360457379640e+00
    9.1392009463788852e+00 -2.7475665914698864e+00
    9.0516860851273204e+00 -1.4115013376553667e+00
    1.1152265915052370e+01 -9.9859799122978543e-01
    1.5912703604276706e+01 -7.8746479525767787e-01
    1.5597445625619745e+01 -8.5622917855621083e-01
    2.1293484454019104e+01 -7.6251481894706541e-01
    1.3070199458334242e+01 -8.5795349298158230e-01
    1.0224858082750817e+01 -1.2708363124172584e+00
    8.6567117176688022e+00 -2.4774975087083848e+00
    9.4892092253542053e+00 -2.3109054582727100e+00
    9.8145585051561177e+00 -1.1338730972405575e+00
    1.4247422046768827e+01 -8.7630682197575571e-01
    1.9833783260844321e+01 -6.2761005531020098e-01
    1.7647620837891310e+01 -7.9538594510381500e-01
    2.9807390444521218e+01 -7.6163906841382478e-01
    2.0385524258287305e+01 -8.7699090077014741e-01
    1.3411112836834889e+01 -1.1380874300608146e+00
    9.0961466159959112e+00 -2.0064241060715182e+00
    9.5661383717152120e+00 -2.5385299037083802e+00
    9.9655153743702343e+00 -1.2151687519104242e+00
    1.4552559772901491e+01 -8.9438389047256406e-01
    1.8993075191589785e+01 -6.4186468067862279e-01
    1.5633904767554487e+01 -8.3501917055453989e-01
    2.2650506688954174e+01 -7.2529847723082230e-01
    1.5103083403423438e+01 -8.5068032749800027e-01
    1.0430735479127648e+01 -1.1363295509863260e+00
    9.5014253617736113e+00 -2.3184560978719140e+00
    9.2086647672603732e+00 -2.7359692907532862e+00
    9.7811837445815240e+00 -1.3514254513858821e+00
    1.2864024819462408e+01 -9.5647900863706103e-01
    1.7205637563326729e+01 -7.1181073368887271e-01
    1.9887402414503494e+01 -8.7362274165657672e-01
    2.5243489787666974e+01 -7.9249844061973929e-01
    1.7117829371415549e+01 -9.1293542820441165e-01
    1.0812960516670650e+01 -1.1727276873876020e+00
    8.4796236361189621e+00 -2.2716177892690088e+00
    9.7569251163223303e+00 -3.0653913006270801e+00
    8.8311202879752919e+00 -1.3754949978115827e+00
    1.1458570408177520e+01 -9.0302733509154398e-01
    1.6367131439077838e+01 -7.3060061369849794e-01
    1.5590499018457741e+01 -8.1287348235577883e-01
    1.9518465819878795e+01 -7.7297529983107816e-01
    1.3516438711927117e+01 -8.7157867791799803e-01
    9.4068347101016077e+00 -1.2350005768054919e+00
    8.8097600300762160e+00 -2.5500495613766749e+00
    9.1507806204458717e+00 -2.1697917274779446e+00
    1.0452357112861648e+01 -1.1389854091274052e+00
    1.7874278321294312e+01 -8.6118852337603313e-01
    2.5652432296752856e+01 -6.9744406937203685e-01
    1.8282150719708458e+01 -8.0086302596189285e-01
    2.4016830422058781e+01 -6.9323389637278654e-01
    1.5742832184479751e+01 -7.7522975308043285e-01
    1.3034450896570384e+01 -1.1110591237781349e+00
    9.1406778442906269e+00 -1.9748931574948314e+00
    9.6213824654938414e+00 -2.4922197851069154e+00
    9.4609564612864201e+00 -1.2485490343911445e+00
    1.2474162245021327e+01 -7.9997155095919914e-01
    1.8812566435010922e+01 -6.6186743008916149e-01
    1.5766819825088254e+01 -7.9605561943117420e-01
    1.7024256346012979e+01 -5.8974537841423180e-01
    1.4654519938759194e+01 -8.2594393331016114e-01
    1.3033183996360759e+01 -1.1696153535155496e+00
    8.8963124154335915e+00 -2.1370354254934871e+00
    8.9583546296198175e+00 -2.6448743300715183e+00
    9.1546285382959312e+00 -1.3217294758469673e+00
    1.3685660028210794e+01 -9.3819551211511876e-01
    1.7353388825715179e+01 -7.1548810619474212e-01
    1.8211189748681374e+01 -8.0954975133750062e-01
    2.0948465083256867e+01 -7.0000603569293018e-01
    1.5828220589352286e+01 -9.0498209400402774e-01
    1.1154301480647835e+01 -1.1595006441365785e+00
    8.2736682018032006e+00 -2.1524615151937283e+00
    9.8181533394607285e+00 -3.0863453478583684e+00
    8.2204829517835414e+00 -1.4775906213412247e+00
    9.6095968694148528e+00 -9.1511553429979653e-01
    1.0919977324047277e+01 -6.2909909729908553e-01
    1.4799494056860572e+01 -8.2769700259436463e-01
    1.5829653688734744e+01 -6.5358493166161158e-01
    1.3175637587689161e+01 -8.7976291699284093e-01
    1.0792314881513953e+01 -1.2118994036328605e+00
    7.9209650434443333e+00 -2.1886181082760321e+00
    9.2368877615442599e+00 -2.2066887625170168e+00
    1.0524294334998716e+01 -1.2155196764133309e+00
    1.4413869067444145e+01 -8.1445593981040409e-01
    2.3324233307566747e+01 -6.5157140706922989e-01
    2.4413554083654766e+01 -8.3255643878813312e-01
    2.7491171786648977e+01 -6.2939836320431397e-01
    1.8656035827871733e+01 -7.6047703266660605e-01
    1.5214599884788807e+01 -1.1174625618085499e+00
    8.6745612577297830e+00 -1.9658737820288972e+00
    9.8108834645908960e+00 -2.5820633631667085e+00
    9.0892583451510625e+00 -1.2526563022521662e+00
    1.2042588548404208e+01 -8.3468808097968561e-01
    1.9082153763190519e+01 -6.5024586454616551e-01
    2.2252218767158535e+01 -8.4729663318976789e-01
    2.7175259543609982e+01 -6.9373961966815456e-01
    1.9125712257825626e+01 -8.6115847601620688e-01
    1.3395877664854897e+01 -1.1636556111769467e+00
    8.9686426587468322e+00 -2.1955641990801493e+00
    9.4721925341527697e+00 -2.8601883479365475e+00
    8.9252875208298956e+00 -1.4654490590453921e+00
    1.0384815461546104e+01 -9.2144112879626783e-01
    1.4812170011166128e+01 -6.7376351826740866e-01
    2.0563649105535337e+01 -8.1906095778301580e-01
    2.2313119409846522e+01 -7.1661631347060784e-01
    1.7675973572492659e+01 -8.9252682783189141e-01
    1.2644602996910855e+01 -1.1955097410080617e+00
    8.0455522747567834e+00 -2.0781703758106409e+00
    1.0012439970636056e+01 -3.1376264078130633e+00
    8.0775753927698428e+00 -1.5292841529797394e+00
    9.6412235318250801e+00 -9.8272723562290532e-01
    1.5187901054580834e+01 -7.5955385588884239e-01
    1.8326335853258986e+01 -8.2991171819948528e-01
    2.0026220881477808e+01 -7.6193651871152124e-01
    1.5217634773129685e+01 -9.0393833424537207e-01
    1.1384711938439249e+01 -1.2433837061509452e+00
    8.0761803608311773e+00 -2.1979355925016768e+00
    9.4854496447564269e+00 -2.2858118429926431e+00
    1.0508684938004478e+01 -1.2058702837530282e+00
    1.3683369556639429e+01 -8.0875358744308767e-01
    1.9485326536182505e+01 -6.1115397587880749e-01
    2.2559915930661465e+01 -7.9186202212741252e-01
    2.6682472421723453e+01 -6.9021962757205191e-01
    1.8546062541243945e+01 -8.0907112697296346e-01
    1.4800138448680203e+01 -1.1827629724017032e+00
    9.0903739961648302e+00 -2.0274241902366441e+00
    1.0320139233045520e+01 -2.7246533260322274e+00
    9.7280103338807322e+00 -1.1691630008362837e+00
    1.3949320045129420e+01 -8.9120784969295364e-01
    1.8554098199249534e+01 -6.7865183924637107e-01
    1.7473930726158365e+01 -7.9335950673368338e-01
    2.0621323170443052e+01 -6.6453366405403669e-01
    1.9016701529315551e+01 -9.0323865735619902e-01
    1.1715271808100493e+01 -1.1212519770792149e+00
    9.3170671266309135e+00 -2.3199913764154809e+00
    8.8171334787582296e+00 -2.6270769757082140e+00
    9.0605437611189643e+00 -1.4808080661910239e+00
    1.1843317845948418e+01 -9.9217235400051995e-01
    1.7536767968830819e+01 -7.2273799179788234e-01
    1.7916531760077415e+01 -7.5549798725241735e-01
    2.0293807665672478e+01 -7.6229825595894696e-01
    1.4617986898556527e+01 -8.5471707670853359e-01
    1.0971855008813032e+01 -1.1728277659822395e+00
    8.0117546990342348e+00 -2.0883914355032256e+00
    9.1528188562836412e+00 -2.8073586404780770e+00
    8.8973913078196905e+00 -1.4602287532509137e+00
    1.1593507260105104e+01 -1.0180388035667771e+00
    1.6961059570126999e+01 -7.8676968340391018e-01
    1.7085342327621259e+01 -8.7138497336862519e-01
    1.7475775120171662e+01 -7.9054173670610095e-01
    1.5814339366942290e+01 -1.0182309425961766e+00
    9.8803691847778286e+00 -1.2358622541187521e+00
    8.7301608557207171e+00 -2.5266468480370423e+00
    9.9560880147753270e+00 -2.4680703442162022e+00
    9.8024908976273597e+00 -1.0897943559411611e+00
    1.4816859642152362e+01 -8.3278789133233933e-01
    2.4325097760134270e+01 -7.2253775346699511e-01
    1.9188424566150630e+01 -7.5079104411626219e-01
    2.2460579989686444e+01 -6.1847173561118318e-01
    2.1102840170463708e+01 -8.2249383170154100e-01
    1.3243618327505109e+01 -1.1107478163129063e+00
    9.2765651306212966e+00 -2.1530224497927368e+00
    1.0994927563247195e+01 -2.9781387917842599e+00
    1.0079845469884560e+01 -1.2268608717721361e+00
    1.4320046327497941e+01 -8.5591583156237339e-01
    2.5343412527545343e+01 -7.7203442553507495e-01
    1.7764331609091904e+01 -7.5977238250703638e-01
    1.8451241328913586e+01 -6.1582865151425947e-01
    1.6319024872674621e+01 -7.6567281554189848e-01
    1.3197714813639768e+01 -1.1751440004663798e+00
    9.8213073037472345e+00 -2.5026257739623095e+00
    9.1527083664636937e+00 -2.7152585941279854e+00
    9.4546612907044096e+00 -1.3832957572495743e+00
    1.3009727763956876e+01 -9.6599906443825112e-01
    1.9418213940284573e+01 -8.1292358967597378e-01
    1.9246691218624608e+01 -8.6493494726549724e-01
    1.8936456475616875e+01 -7.1188205716733000e-01
    1.5814682719251042e+01 -8.8653653420573575e-01
    1.0566277589583549e+01 -1.1861132020743275e+00
    8.7186241045004369e+00 -2.3876230773589833e+00
    9.8347403645783498e+00 -3.0333313697772177e+00
    8.4388369658677558e+00 -1.3401646327397292e+00
    1.2090141876473108e+01 -9.6062640421961920e-01
    1.7419766337793835e+01 -7.8483889778690508e-01
    1.5980357666332315e+01 -8.0283581624485811e-01
    1.7466499765434200e+01 -7.4034261699772774e-01
    1.2723699309780875e+01 -8.5296665917192138e-01
    1.0602970264409324e+01 -1.2714255348561214e+00
    9.0056012285063574e+00 -2.6484213970366990e+00
    1.0767619908509491e+01 -2.8273637781914740e+00
    1.0194896094548644e+01 -1.1584890579743947e+00
    1.5385458045183942e+01 -8.0284967563834164e-01
    2.4177265940220359e+01 -6.4170459184033768e-01
    1.7051660889250627e+01 -6.7041504839708166e-01
    2.1019077597683456e+01 -5.6445044377207532e-01
    1.8664944531672067e+01 -7.3616877597318886e-01
    1.4802579114551909e+01 -1.1614890140182621e+00
    9.6892243487753156e+00 -2.3628911095263736e+00
    1.2262595048838470e+01 -3.4396893212940682e+00
    9.3709007888115572e+00 -1.2226261687575835e+00
    1.5093030729672256e+01 -8.5195300203428270e-01
    2.2673263836716394e+01 -6.4670521285313320e-01
    1.6722558311688310e+01 -7.0669801390874376e-01
    2.3418126979974701e+01 -6.0001411839268348e-01
    1.9699526406011831e+01 -8.4403026544822557e-01
    1.1900609582462657e+01 -1.0844486989999134e+00
    9.6467703552355495e+00 -2.4823604615961332e+00
    9.9395674114898309e+00 -3.0298967568827053e+00
    8.9999539097835513e+00 -1.2497775120998837e+00
    1.5744980281361892e+01 -9.7290397835278575e-01
    2.2842245614425423e+01 -7.5766852272283491e-01
    1.4745865060449839e+01 -6.5346331455209061e-01
    1.9939254934949883e+01 -7.1435434687077670e-01
    1.6603836791918159e+01 -8.7638621601699107e-01
    1.1664469848473043e+01 -1.2097823344951200e+00
    8.6487946355992324e+00 -2.4098031858867537e+00
    1.1583919746227144e+01 -3.7057911617709078e+00
    9.3716758539986653e+00 -1.4050684575675472e+00
    1.3932537717184152e+01 -9.6447016277361874e-01
    1.9160031839627827e+01 -7.1165859285021904e-01
    1.5154228663636429e+01 -6.4621128889863999e-01
    2.0625693838860336e+01 -6.8804793132582343e-01
    1.7098794112032166e+01 -9.0974201501812735e-01
    1.0807751742825937e+01 -1.2136535075529920e+00
    9.4371926233296222e+00 -2.7926275478600422e+00
    1.1334720110799344e+01 -3.0497683628921761e+00
    9.7524807738068624e+00 -1.1214799656396586e+00
    1.6760162194917729e+01 -8.1664886947339255e-01
    2.7383086755054816e+01 -6.7975294476396497e-01
    1.9993729463640307e+01 -7.3296739846533221e-01
    3.0845624286963776e+01 -6.4049202949324036e-01
    2.0553793521776267e+01 -8.2670314782902155e-01
    1.1930229074617243e+01 -1.0201868123043005e+00
    9.9264638185088820e+00 -2.4106727824265599e+00
    1.1935074715276411e+01 -3.3536108587665039e+00
    9.7949697334899035e+00 -1.1767685475546328e+00
    1.6795045881298122e+01 -8.4195076885166553e-01
    2.4247598148151578e+01 -6.3361468170106783e-01
    1.6951140261742943e+01 -6.8515833337560950e-01
    2.5217774086053979e+01 -6.3024740737145590e-01
    1.8079963592346100e+01 -8.1883893384011408e-01
    1.1743789804779327e+01 -1.1402069303618039e+00
    1.0772714641325814e+01 -2.8835587746421161e+00
    1.0806238075423819e+01 -3.4342995284433990e+00
    1.0077209694623493e+01 -1.3218126116731839e+00
    1.4229622575646326e+01 -8.9102895314063124e-01
    2.2079271021486033e+01 -7.1566910361656644e-01
    2.0911054360932930e+01 -7.1617007247445497e-01
    2.8218933905866436e+01 -7.0843927579840504e-01
    1.7952497581830247e+01 -8.7939543953565680e-01
    1.1571175087527761e+01 -1.1802326058152814e+00
    9.7749255552765231e+00 -2.7941876478260435e+00
    1.1473601446872816e+01 -3.7256681018735414e+00
    1.0038756853090996e+01 -1.3989564149659184e+00
    1.3198365067270739e+01 -8.8392019198458827e-01
    1.9036859731515090e+01 -6.7722850653641919e-01
    2.0342784282179576e+01 -7.8548990480265835e-01
    2.4140254732963268e+01 -6.5280336460928912e-01
    1.8696791632405525e+01 -9.8807595013925686e-01
    1.0823942255552119e+01 -1.2509174019015468e+00
    9.7841595327504098e+00 -2.9775491734934305e+00
    1.1084794933442689e+01 -3.0186668728135220e+00
    1.0886707225558045e+01 -1.1483654092436020e+00
    2.0672642185896354e+01 -8.9814258630124300e-01
    3.0430672602115934e+01 -6.4539967501714646e-01
    1.9400805982254010e+01 -6.9810093660246197e-01
    3.0553687075753931e+01 -6.3147207846081022e-01
    2.1910265588230384e+01 -8.0792850137754990e-01
    1.3856698145325106e+01 -1.1418735406623137e+00
    9.9546455898607284e+00 -2.5903428222800877e+00
    1.2019324941719878e+01 -3.5350582686716820e+00
    1.0525873260621333e+01 -1.1292591078519427e+00
    1.9216749285528685e+01 -8.5497264729070777e-01
    3.1551112781367198e+01 -7.0884157552295313e-01
    1.9547949621531519e+01 -7.6153712398316842e-01
    2.6919231540040457e+01 -6.3763190634777733e-01
    1.9976004820961826e+01 -8.2823265930016476e-01
    1.3090661514347239e+01 -1.2266216991651209e+00
    1.1001362402725469e+01 -3.1351385409872705e+00
    1.1719623616928475e+01 -3.6733822789011126e+00
    1.0386395090896270e+01 -1.3134814762349032e+00
    1.5252943011207860e+01 -8.9655096975890036e-01
    2.1813912653334171e+01 -6.6349667119060018e-01
    1.9791486969090592e+01 -7.2074393891632516e-01
    2.2076457999533567e+01 -5.1913176304950426e-01
    2.0014438406433193e+01 -8.9003224368134815e-01
    1.1982660684506955e+01 -1.1982364742888569e+00
    9.8278199397793617e+00 -2.8667919101910009e+00
    1.2777917888424369e+01 -4.1788574810555694e+00
    1.0634357741549108e+01 -1.3545903215095378e+00
    1.4839991436270903e+01 -8.9282527387714827e-01
    2.3620156062015546e+01 -6.6046311557325632e-01
    1.6888926778216398e+01 -6.3422911113375868e-01
    2.4870158966164745e+01 -6.3201842098969163e-01
    1.6874268098603100e+01 -8.3134813537879493e-01
    1.1096152493659387e+01 -1.2310202551010496e+00
    1.1379831198114463e+01 -3.6046984642437283e+00
    1.1130924552173516e+01 -3.0743240472435081e+00
    1.2808639025362556e+01 -1.1758502358884257e+00
    2.2531186980395130e+01 -7.9828640290004937e-01
    2.7595923667091363e+01 -5.7716570233820830e-01
    2.2748532512480022e+01 -7.5270643105303381e-01
    2.4656191971874403e+01 -5.6525305584791652e-01
    2.2522904651548252e+01 -8.2050377862972301e-01
    1.4591919295353723e+01 -1.2202068711392651e+00
    1.0770393713219359e+01 -2.9286866156399567e+00
    1.1018291482294538e+01 -3.2308107969982083e+00
    1.1602785322536862e+01 -1.1912407301906229e+00
    1.9692521989482643e+01 -8.2039000790521377e-01
    2.7491885109061261e+01 -6.3854415433812706e-01
    2.1371798019477247e+01 -7.4113094321374684e-01
    2.5686833781858379e+01 -6.2819437366533415e-01
    1.9001023497976760e+01 -7.9932914296360691e-01
    1.2176742249971817e+01 -1.2217955961677662e+00
    1.0643409463741170e+01 -3.0180890550375810e+00
    1.1723342218077773e+01 -3.6868070582424370e+00
    1.0833222640107341e+01 -1.2781673190662957e+00
    1.9675436819911873e+01 -9.2801176528322904e-01
    2.6420554818968476e+01 -6.4957800577981029e-01
    2.0110168379932492e+01 -6.6197164804184971e-01
    2.3789705009253503e+01 -6.1854265936514874e-01
    1.6769552682900915e+01 -7.3287341387690830e-01
    1.1970754044552542e+01 -1.1866825487276711e+00
    1.1014870729903697e+01 -3.3348888690075933e+00
    1.2693673156793377e+01 -4.1559114417168876e+00
    1.0337836201857106e+01 -1.3888226484104420e+00
    1.4856150321289659e+01 -8.4806010536027177e-01
    2.5997594782585534e+01 -7.4655353773785249e-01
    1.8302765922924667e+01 -6.7032600215936367e-01
    2.1006761711804867e+01 -6.2013093832883281e-01
    1.7378337946044983e+01 -8.4692360601716610e-01
    1.1884218487109978e+01 -1.3458465127774861e+00
    1.1778772622796318e+01 -3.7327207068393764e+00
    1.0828890219943775e+01 -2.9217405142331461e+00
    1.1554938900304657e+01 -1.0851146405420617e+00
    2.0609767854753461e+01 -8.1948627157819598e-01
    3.5462304233523390e+01 -7.0516797644090812e-01
    2.2676895742328956e+01 -7.1713139981972518e-01
    2.5293496871424907e+01 -5.3532870875709393e-01
    2.1632342754456904e+01 -7.8934547306552039e-01
    1.3761280757854720e+01 -1.2537493708811003e+00
    1.0326061287530546e+01 -2.7830856878181645e+00
    1.1840305047377479e+01 -3.4573549811279087e+00
    1.0471609686090632e+01 -1.1176881465313917e+00
    1.7124745389896557e+01 -8.2344522370659334e-01
    2.7595694644541492e+01 -6.5801655037726592e-01
    2.2112963236688806e+01 -8.0751764821943572e-01
    3.4039956040223259e+01 -7.4280584451265674e-01
    2.2417434413259802e+01 -8.8813700656574879e-01
    1.2726278044916988e+01 -1.3119093717153623e+00
    1.0956608769449126e+01 -3.1158515815142240e+00
    1.1102749283578738e+01 -3.3842627892352843e+00
    1.0996339742449251e+01 -1.2869580124623152e+00
    1.7034347741446368e+01 -8.9745945731013310e-01
    2.2566690691808081e+01 -6.4652905617967538e-01
    1.9659746943816195e+01 -6.3961622320744993e-01
    2.3360196434258540e+01 -6.0455159587742202e-01
    1.6801472733938283e+01 -7.7909943788375113e-01
    1.1451888299479211e+01 -1.2503994497144872e+00
    1.0771519232002573e+01 -3.2265479651413460e+00
    1.1490674090341745e+01 -3.6611374466585702e+00
    1.0486222186711435e+01 -1.3652931091311946e+00
    1.3953111619184954e+01 -8.8067190416603558e-01
    2.0413246329425249e+01 -7.2867054065160519e-01
    1.8021031595733774e+01 -7.0871715418416559e-01
    2.3986676968473965e+01 -6.9132201140653005e-01
    1.7631419989526542e+01 -8.8186905181158748e-01
    1.0707920808206376e+01 -1.3578248224575986e+00
    1.1091973418019586e+01 -3.4940140683044096e+00
    1.0903480889050707e+01 -2.9534109489732412e+00
    1.1462003848294868e+01 -1.1015568310493600e+00
    1.7484090440266062e+01 -7.9867666678608729e-01
    2.3209580483695984e+01 -5.7826256058743264e-01
    2.3674422792196580e+01 -8.2120616660088963e-01
    2.6936146574676609e+01 -5.7361277339656136e-01
    2.4222616079283114e+01 -8.6274872205115827e-01
    1.3228052478086493e+01 -1.2119620259751001e+00
    1.0128643650238960e+01 -2.6955074268349324e+00
    1.1976075012575325e+01 -3.4289243758003374e+00
    1.1336600624634388e+01 -1.2390958235327643e+00
    1.5752251484107816e+01 -8.4991409587545164e-01
    2.3621749946800993e+01 -7.2680949221133828e-01
    2.2265771043549076e+01 -8.9248739470825156e-01
    2.6838765408558036e+01 -7.1976401411784241e-01
    2.0363428612458133e+01 -8.9769638951695252e-01
    1.1196625761057252e+01 -1.1993906054388062e+00
    1.1423420963917790e+01 -3.2343710289474914e+00
    1.1459022801641064e+01 -3.4709996595200665e+00
    1.1521279433588770e+01 -1.3697116591420286e+00
    1.4802836765394614e+01 -8.5262396593459411e-01
    2.4447919407362605e+01 -7.6183963529021781e-01
    2.1821360286976756e+01 -7.8912027064088053e-01
    2.4928291520945965e+01 -6.5331710245935626e-01
    1.8059623796356046e+01 -8.0581885137574838e-01
    1.1886818070826749e+01 -1.3123587326484956e+00
    1.1093175791623109e+01 -3.2798812652452489e+00
    1.2394624825964595e+01 -3.8947698810697631e+00
    1.0002309934888244e+01 -1.4224327386048836e+00
    1.5085852656076501e+01 -9.6123335256289977e-01
    2.4736306975810351e+01 -8.1034028702349636e-01
    1.8971634695850053e+01 -7.8529595007072994e-01
    2.2646790054242647e+01 -7.1817201227904648e-01
    1.4747361039141019e+01 -8.5961497436388401e-01
    1.0229877413087527e+01 -1.4016737872955956e+00
    1.2397532790007723e+01 -3.8741704198511138e+00
    1.0505034259147173e+01 -2.7307484701363900e+00
    1.3249714083285147e+01 -1.1983317251826511e+00
    2.3269152372243237e+01 -9.3408519834996484e-01
    2.8112454294975915e+01 -6.6162153812674585e-01
    2.1783355602226731e+01 -7.5486663228265172e-01
    3.2948531029466970e+01 -8.0046088113860570e-01
    2.0062461523279378e+01 -8.8684127801852120e-01
    1.2748059352692243e+01 -1.2371618233011947e+00
    1.0163424789880894e+01 -2.7272340303062226e+00
    1.0817956600015815e+01 -2.9912152074950171e+00
    1.1526365420026046e+01 -1.2217003174350840e+00
    1.7562889108029733e+01 -8.2783672504513495e-01
    1.8576095843842676e+01 -5.5564298115863331e-01
    1.7442112409659295e+01 -7.4827216886290004e-01
    2.7003438622372411e+01 -7.7889243073797487e-01
    1.4512906936307584e+01 -8.2393213717053282e-01
    1.0431428552059099e+01 -1.2394959396964358e+00
    1.1018375318940905e+01 -3.1327643338851372e+00
    1.1554923365615819e+01 -3.4460758637073261e+00
    1.1597413630598542e+01 -1.4152538956565748e+00
    1.9851740604511811e+01 -9.9151550652403231e-01
    2.5767421825471619e+01 -6.9524696015494947e-01
    2.0660710421030352e+01 -7.3965332222688507e-01
    2.5614903332667492e+01 -7.5938064002129047e-01
    1.6843991663933327e+01 -9.0276651970703392e-01
    1.1271642843086729e+01 -1.3914066356295114e+00
    1.0918939845936395e+01 -3.2128357481721919e+00
    1.1940851562955304e+01 -3.7266441731590398e+00
    1.1071199145918863e+01 -1.4973026420641766e+00
    1.6218882334900648e+01 -9.0964160758013979e-01
    1.7397925316874058e+01 -6.6274259721611106e-01
    1.5656227774541991e+01 -7.3508262349077813e-01
    1.6589122117504573e+01 -6.7766425795095864e-01
    1.3748809898905243e+01 -8.8017355299723987e-01
    1.0623317603251321e+01 -1.4946036090102863e+00
    1.1784593609206308e+01 -3.6779178731506712e+00
    1.0453533567792064e+01 -2.6437483610182135e+00
    1.3664083644781277e+01 -1.2385235666938568e+00
    2.1908337945429462e+01 -9.1760973441958837e-01
    2.1488208568161191e+01 -5.9951816328623697e-01
    1.9583541151536284e+01 -7.2557228963508014e-01
    2.6778468474788252e+01 -6.7730191311720522e-01
    1.8464044477029056e+01 -8.4631068586164149e-01
    1.2150182930073923e+01 -1.2039477504163578e+00
    1.0308205048132280e+01 -2.6940023385050531e+00
    1.1073614700353982e+01 -3.1061336509376147e+00
    1.1979777877038559e+01 -1.2466342874308269e+00
    1.6520006590588160e+01 -9.0536244114071440e-01
    1.6176396487190736e+01 -6.3537066223369609e-01
    1.3455974557746341e+01 -7.2674124292497089e-01
    1.8221010194732827e+01 -6.2359952312935663e-01
    1.5693797731174907e+01 -8.0214638877638222e-01
    1.1541938490332761e+01 -1.2283701476803255e+00
    1.0977743918212933e+01 -3.0688251637376207e+00
    1.0700093276718365e+01 -3.0757048190576270e+00
    1.2344095263860671e+01 -1.4354941189896369e+00
    1.6116201237339283e+01 -8.8407393782246146e-01
    1.8452300923764156e+01 -7.0902050822101093e-01
    1.5949486572726993e+01 -7.0869367572569997e-01
    1.7956586035067787e+01 -6.5165668205277594e-01
    1.6326484145896710e+01 -8.7245585012312721e-01
    1.2002923080661258e+01 -1.4081697185188389e+00
    1.0796890478780115e+01 -3.1025059993364148e+00
    1.1796326666517965e+01 -3.5973389240360976e+00
    1.0065536719005021e+01 -1.3713206279965966e+00
    1.1624883677772825e+01 -8.9162022868219470e-01
    1.3289845800345777e+01 -7.4057816368814844e-01
    1.1478557608244518e+01 -7.2774459661602608e-01
    1.5069309301620599e+01 -7.2821453917981505e-01
    1.5814848386379168e+01 -9.6420779957072367e-01
    1.0856276228019681e+01 -1.3760682093220271e+00
    1.1151306044288726e+01 -3.4472439512846247e+00
    8.7805449297691283e+00 -2.0768480018505220e+00
    9.4418586989426760e+00 -1.1882657733052735e+00
    1.0022756939610197e+01 -8.1932712164327581e-01
    1.2037151152195555e+01 -6.6518804691397038e-01
    1.3525265363744920e+01 -7.1398754239000595e-01
    2.2583826162801977e+01 -8.1486772583809486e-01
    1.6704983612432436e+01 -9.4612367457889335e-01
    1.0235337515178738e+01 -1.0673381755019551e+00
    8.3024935338143049e+00 -1.8642320452148560e+00
    8.9157911772218839e+00 -2.2754904916732457e+00
    9.4230400024094010e+00 -1.3144807187835299e+00
    1.0282501970106768e+01 -8.9241062872430454e-01
    1.2147611895577581e+01 -6.9513024935748413e-01
    1.3082591462280407e+01 -7.9667251878777456e-01
    2.0529134985088699e+01 -8.7499601309430264e-01
    1.5042847297443570e+01 -1.0069359089518672e+00
    1.0165482345965607e+01 -1.1893445203522910e+00
    8.4674852087852361e+00 -2.0250914191737963e+00
    8.0532943704191027e+00 -1.7451561488540088e+00
    8.5385242158991570e+00 -1.1343168355432030e+00
    1.1188271636583419e+01 -9.0923996516726635e-01
    1.1453449378876570e+01 -7.0723889644140070e-01
    1.1033680110178185e+01 -7.6562769576684897e-01
    1.7489337483507406e+01 -8.5961909962290473e-01
    1.2282144234307051e+01 -9.4119690181030913e-01
    9.0681855909373326e+00 -1.1290628838364092e+00
    8.2148896926166142e+00 -1.7759044702800255e+00
    8.2132929839644433e+00 -1.9009525543366446e+00
    8.7747732013555719e+00 -1.2916132277455308e+00
    1.0893177015621239e+01 -1.0189450157574806e+00
    1.1564017486638463e+01 -7.8147081055676604e-01
    9.2116609559459395e+00 -7.8912777132645995e-01
    1.4827098428693583e+01 -8.6475218546222032e-01
    1.1064355564105224e+01 -1.0050266147884217e+00
    8.9684013910413434e+00 -1.2821760028630711e+00
    8.2955585471064879e+00 -1.9319376128619750e+00
    9.0144781202339015e+00 -2.1373310017183309e+00
    9.9899472249204528e+00 -1.2233170172571273e+00
    1.2537154921155661e+01 -9.1316214699838449e-01
    1.5155461770748676e+01 -6.7988660865732864e-01
    1.3517839326834954e+01 -7.1844389252885110e-01
    2.0936073251531784e+01 -7.5440685788465656e-01
    1.4752832070387290e+01 -8.7901490860809117e-01
    1.1659826148548040e+01 -1.1803925822307222e+00
    9.0272500508144748e+00 -2.0460347171893858e+00
    9.4400571336386569e+00 -2.4469207146594067e+00
    9.6408906239669268e+00 -1.3433752401677403e+00
    1.1589305797225100e+01 -9.3830797022601331e-01
    1.4235938309265524e+01 -7.2752942899778661e-01
    1.2089380603990326e+01 -7.2891530708973995e-01
    1.9131404224673609e+01 -7.0309197617517538e-01
    1.2940493467013734e+01 -8.2870128816946231e-01
    1.0883817116250132e+01 -1.2488661367771203e+00
    8.7588914737221515e+00 -2.2052221871036388e+00
    8.3722042667161265e+00 -1.9463551094661080e+00
    9.6900695642874943e+00 -1.3103437547290737e+00
    1.2462971111656135e+01 -1.0396686104867763e+00
    1.3820049262101998e+01 -7.9345488753334315e-01
    9.9284640371077124e+00 -7.6488499004578225e-01
    1.6319121231384326e+01 -8.0490080837677902e-01
    1.2697230644074166e+01 -9.8205901694544706e-01
    1.0262686720123387e+01 -1.2856204356016527e+00
    8.2219933663493148e+00 -1.8359781600696707e+00
    8.6665319111176888e+00 -2.2197560657003756e+00
    9.0083924215414140e+00 -1.4392579302602573e+00
    1.0322801926938602e+01 -1.0392185118497235e+00
    1.1696209917889195e+01 -8.2445498265348083e-01
    9.8622765898533107e+00 -8.4303317739853545e-01
    1.5801193738856114e+01 -8.8294249871641728e-01
    1.2483992660647681e+01 -1.0063556111925294e+00
    9.7514637828458923e+00 -1.2875956738807715e+00
    8.1207438710081519e+00 -1.9565124125814628e+00
    9.4051953766983782e+00 -2.3418098203568301e+00
    9.9609458806847737e+00 -1.2780747921568305e+00
    1.3253942473432232e+01 -8.9450399621221477e-01
    1.7033972479938406e+01 -7.2182596103213281e-01
    1.5974498024742807e+01 -7.1350372937101514e-01
    2.3201987188153780e+01 -6.4160303225285864e-01
    1.6917689893761477e+01 -8.1292115315787761e-01
    1.2234278804751186e+01 -1.0986288918554439e+00
    8.7434111317542627e+00 -1.9296663397074933e+00
    9.7193768825014608e+00 -2.6316317207510593e+00
    8.8137352750604840e+00 -1.4524740274940249e+00
    1.2756150618304133e+01 -9.8304827288753915e-01
    1.5624601105320014e+01 -7.2013972304354756e-01
    1.5139265909487598e+01 -7.1002451194397764e-01
    2.1012899977163006e+01 -7.0058428276355178e-01
    1.6253112923907345e+01 -8.7211796533023844e-01
    1.1205696134082272e+01 -1.1533309895623045e+00
    8.7192995760843122e+00 -2.0775193079998604e+00
    8.4626370668662432e+00 -2.0912324193524299e+00
    9.8915999204975105e+00 -1.5105079244295465e+00
    1.0748091043469378e+01 -1.0306820917389943e+00
    1.2970396620219166e+01 -8.3495828263175820e-01
    1.2273574004745218e+01 -8.3909060776610966e-01
    1.8517943143969113e+01 -8.5424527078692281e-01
    1.5018930008626331e+01 -9.2428144549367708e-01
    1.0811291344713545e+01 -1.1187792384227031e+00
    8.0367329685492148e+00 -1.7514664646901896e+00
    9.1568620305885950e+00 -2.4679344271164623e+00
    8.2412350966558101e+00 -1.6148471543574208e+00
    8.6887568090068790e+00 -1.1157583694819329e+00
    1.1400269597108052e+01 -9.1255285686654164e-01
    1.0934782944581064e+01 -8.4735958859223570e-01
    1.5643494225226876e+01 -8.2468767575326762e-01
    1.4342670658604954e+01 -9.3252232257460332e-01
    1.1170545718588313e+01 -1.2185631721204904e+00
    7.8897536543650890e+00 -1.7956802953205286e+00
    9.2643343244641887e+00 -2.2047036231119339e+00
    9.2748512410708770e+00 -1.3608565889645912e+00
    1.3583827063524078e+01 -9.4993570242383452e-01
    1.7825934284095549e+01 -7.3270378329141272e-01
    1.8615297431294767e+01 -7.2301099662046520e-01
    2.7421002633545882e+01 -7.2185213022447126e-01
    1.5506353168824369e+01 -7.2782409778667445e-01
    1.2562662317943825e+01 -1.0282059660346436e+00
    8.5238656506220654e+00 -1.7962604399399751e+00
    9.6746036836146434e+00 -2.5147840041773843e+00
    8.6161593410673962e+00 -1.4971077548029477e+00
    1.0175646874389654e+01 -9.7938646210491331e-01
    1.2224951053960595e+01 -6.8338519916950757e-01
    1.7925500695348497e+01 -8.1731295143270577e-01
    1.9584339044989456e+01 -6.8900744866178976e-01
    1.2355104261004573e+01 -7.0733356859886365e-01
    1.1114665576730854e+01 -1.0381621732251354e+00
    8.2396646111106282e+00 -1.8512817004845781e+00
    8.8657793994928529e+00 -2.2014924144347301e+00
    8.6378246185080005e+00 -1.5558903770967234e+00
    9.7148480039156286e+00 -1.1316777516192962e+00
    1.1741728989977194e+01 -8.4219128359185080e-01
    1.2763405522811007e+01 -8.1350748208487977e-01
    1.9965854506773908e+01 -7.9870248204337513e-01
    1.6617817122178270e+01 -8.5159216608147392e-01
    1.2148915887695365e+01 -1.0745235950470851e+00
    7.9791698331794105e+00 -1.5342965478916568e+00
    9.3566718351342377e+00 -2.4857395488889620e+00
    8.6825995724064828e+00 -1.8182651441304738e+00
    8.4707680494942235e+00 -1.2062239430216894e+00
    9.9397464236970023e+00 -8.6503257312774540e-01
    1.1520317232043300e+01 -8.5137328151562741e-01
    1.6402102384768792e+01 -7.7373563877564311e-01
    1.4117481401711728e+01 -9.0404758251319051e-01
    1.0698044582236637e+01 -1.0953837866895728e+00
    8.0150233655448240e+00 -1.7174865747203352e+00
    9.4348150744169264e+00 -2.3287411306306680e+00
    9.4845902404432856e+00 -1.4089312310951960e+00
    1.1233320153839216e+01 -9.5625561599563025e-01
    1.3767822409295901e+01 -6.3893560019033724e-01
    1.9793263111495936e+01 -7.1621896632454185e-01
    2.2932761827108219e+01 -6.7133367786824705e-01
    1.6506134794922374e+01 -7.4016475339776777e-01
    1.2788970841361897e+01 -1.0183645024128405e+00
    8.3296549308094185e+00 -1.7048559367581642e+00
    1.0637586453220047e+01 -2.8456428213181639e+00
    8.5184630129626040e+00 -1.5158694216500936e+00
    1.0642535718671873e+01 -1.0370435586561386e+00
    1.3727040806171585e+01 -6.9312752779764475e-01
    1.5746115076058455e+01 -7.1677622387306272e-01
    1.8733493719006443e+01 -7.0308183884193376e-01
    1.5399200411081845e+01 -8.6266439911262205e-01
    1.1662905255869118e+01 -1.1206130530573208e+00
    8.4186737437799426e+00 -1.8612116241967471e+00
    9.1531653590393187e+00 -2.3033024991514908e+00
    8.9079400645110276e+00 -1.6447746219656969e+00
    9.8962398983189992e+00 -1.1829401456207767e+00
    1.1301053248584205e+01 -7.9549665959712812e-01
    1.2571247490526472e+01 -7.6017759904466198e-01
    1.7998893337946996e+01 -7.6824745413178286e-01
    1.6041790112503762e+01 -9.0158387793622186e-01
    1.2890460589289692e+01 -1.1437564950871137e+00
    8.7138624847486845e+00 -1.7074316834294627e+00
    9.4954144900644586e+00 -2.5714429521910742e+00
    8.8142651661579823e+00 -1.7747082302202304e+00
    9.1111689768668711e+00 -1.1798103500446711e+00
    1.2071474037987834e+01 -8.6265532005343459e-01
    1.2009327373339890e+01 -7.8141613026562085e-01
    1.5544451258694792e+01 -8.3097613257368363e-01
    1.4872447358507451e+01 -1.0395430603333078e+00
    1.1041979466743129e+01 -1.2253962699409218e+00
    8.3565487791190751e+00 -1.8800358739003844e+00
    1.0204455303391539e+01 -2.5885828825748205e+00
    8.8678446420604882e+00 -1.3530824460716824e+00
    1.2466188230102777e+01 -9.7601944276271302e-01
    1.6032848376922917e+01 -6.5641243041961916e-01
    1.6515289188343576e+01 -7.0231203099090811e-01
    1.9717581463348491e+01 -7.0780237065833296e-01
    1.7444219760323332e+01 -8.5257561908013901e-01
    1.3303305264774265e+01 -1.1356013896621771e+00
    8.7046307624316750e+00 -1.8470476802822602e+00
    1.1387689480848069e+01 -3.1062192785339118e+00
    9.2814616588887322e+00 -1.5173453510689154e+00
    1.2912088980053127e+01 -1.0670141583292667e+00
    1.7221821685618625e+01 -7.7440192658733231e-01
    1.5529537734571370e+01 -8.0203368819909815e-01
    1.8290786654997767e+01 -7.8607117704012985e-01
    1.5881163496384582e+01 -9.0678123999966542e-01
    1.0948834909358181e+01 -1.1201590743505030e+00
    9.7189645914054470e+00 -2.3489174366419956e+00
    9.0341743554699274e+00 -2.3163911609390735e+00
    9.4459011429195350e+00 -1.7186185114149679e+00
    1.1463521776864344e+01 -1.1855079911428446e+00
    1.3446214816289329e+01 -8.1064662996458592e-01
    1.2879207856556645e+01 -7.8063900706671807e-01
    1.4912047513407568e+01 -7.8795158379372354e-01
    1.4886038306802586e+01 -9.3469412530924934e-01
    1.1044148882008820e+01 -1.1369865148508660e+00
    8.2545937857570415e+00 -1.7222227324490313e+00
    1.0477621027519161e+01 -2.8769839578575147e+00
    9.5818716219342459e+00 -1.8703414716838915e+00
    1.1151484590131997e+01 -1.2419689693377987e+00
    1.3645542972165311e+01 -9.3022676461830556e-01
    1.2342328756919871e+01 -8.9773242409996279e-01
    1.4012145612493784e+01 -8.3940966934589367e-01
    1.4482285835410272e+01 -1.0573217026737189e+00
    1.0599642118484251e+01 -1.2472220978884392e+00
    8.6541034994210904e+00 -2.0132435622294738e+00
    1.1435125720069070e+01 -2.9531433692232754e+00
    9.5660259611134499e+00 -1.3401562361109522e+00
    1.3651624795750489e+01 -9.5933197170046958e-01
    1.7627891348764400e+01 -7.6053379832993273e-01
    1.7939454857579488e+01 -8.3880600462507271e-01
    1.9502287135575177e+01 -7.6738949641245935e-01
    1.7099319458768086e+01 -9.1081513812733483e-01
    1.1953761281930040e+01 -1.1943497746269618e+00
    9.7885773141573864e+00 -2.2821392014862258e+00
    1.0723755939462968e+01 -2.8321711082069765e+00
    9.8681637368970243e+00 -1.3535704432118458e+00
    1.2598403347599213e+01 -9.1356321871990043e-01
    1.7727359310381793e+01 -7.5156517772020026e-01
    1.5637695173610398e+01 -7.5073433845576576e-01
    1.6008884894194939e+01 -6.7662388275530572e-01
    1.3005546436898841e+01 -8.1460758901011421e-01
    1.0583952476633135e+01 -1.2161759080846966e+00
    9.7366521267550183e+00 -2.4051831904057863e+00
    9.9230831592457207e+00 -2.6530566707366794e+00
    9.3855776948861340e+00 -1.6352649650854907e+00
    1.3547458699364999e+01 -1.2580783010336276e+00
    1.6211861325505801e+01 -8.9716420111076334e-01
    1.4839476229752091e+01 -8.8938298423171136e-01
    1.7439505518040416e+01 -9.2655605183595124e-01
    1.4081510203326928e+01 -1.0366619065106324e+00
    1.0804188119683724e+01 -1.2673559657544708e+00
    8.7771981705057396e+00 -1.9760908816254148e+00
    1.0528489676399914e+01 -2.9248140211861946e+00
    9.0727834971120274e+00 -1.5515134102583825e+00
    1.1568590715306900e+01 -1.0929683074057230e+00
    1.3838862559257999e+01 -8.2414815832565247e-01
    1.3325028907161840e+01 -8.3973912740208467e-01
    1.6091211729080456e+01 -8.5736832059455803e-01
    1.2991918759436050e+01 -1.0575665205635820e+00
    1.0036168169877213e+01 -1.3960248937911430e+00
    9.1296760145211859e+00 -2.2605367136276535e+00
    9.3284600246416609e+00 -2.3526614800858052e+00
    9.8465675881979227e+00 -1.1721739527410200e+00
    1.5643143510506334e+01 -8.7296880764111995e-01
    1.9033493782909876e+01 -6.5423474052709230e-01
    1.6455143170159932e+01 -6.1981580076226472e-01
    1.8687202494249291e+01 -6.3986624626401956e-01
    1.5050593764460974e+01 -7.5102611692386756e-01
    1.1454262979667616e+01 -1.1172824608019403e+00
    9.9543991051406735e+00 -2.3806590678592761e+00
    1.0829427750870911e+01 -2.9909510148667042e+00
    9.5115153765693421e+00 -1.1801769273622467e+00
    1.3876631998546822e+01 -8.3243748765890713e-01
    1.6443648374377666e+01 -5.7449421082208418e-01
    1.4505129901032626e+01 -5.4967730193445086e-01
    2.3776303858548882e+01 -6.6016110035135611e-01
    1.8304384562933116e+01 -8.2196580165527000e-01
    1.1468354424796575e+01 -1.1205176641077514e+00
    1.0167125658519087e+01 -2.6795261916605297e+00
    9.6351846230975386e+00 -2.6248444703507521e+00
    8.6827763598881607e+00 -1.3663943969093912e+00
    1.3401967616395883e+01 -1.0199113291111923e+00
    1.5161854964936909e+01 -7.7186575843900185e-01
    1.4996215430631912e+01 -7.4662615442652047e-01
    1.7216969086176320e+01 -7.5340826398353078e-01
    1.4488990672336056e+01 -9.8040257226130068e-01
    9.1256535546846358e+00 -1.2246354314304160e+00
    9.1352449510989242e+00 -2.2548063817856399e+00
    1.0320907118318503e+01 -2.9472288957658686e+00
    8.9928846228621335e+00 -1.3760773470788421e+00
    1.2462816712896606e+01 -9.5908192899581024e-01
    1.4989249997012420e+01 -7.1560669562229451e-01
    1.3793991252185059e+01 -6.7376150403800728e-01
    1.8010858030623062e+01 -7.6874373105841143e-01
    1.4884738946297224e+01 -1.0479832401350158e+00
    9.3120507771671797e+00 -1.3337323476974801e+00
    1.0026593089440953e+01 -2.7415364580231349e+00
    1.0461841320780374e+01 -2.8397642527376403e+00
    1.0552174583588538e+01 -1.1175350466639111e+00
    1.4782308988479276e+01 -7.7661379194755198e-01
    2.1336366594091892e+01 -5.7767388542551379e-01
    1.7749880180306256e+01 -5.2382590329308332e-01
    3.3628251515393089e+01 -6.3730419052226572e-01
    2.6825139460888490e+01 -1.0095493008333907e+00
    1.2015042928001327e+01 -1.0756636118887153e+00
    9.6219025777680134e+00 -2.4478010599511864e+00
    1.1157507847902698e+01 -3.1606251604708038e+00
    9.5617008806584600e+00 -1.1635243626614535e+00
    1.5477231824598954e+01 -8.1425610359524625e-01
    1.8634208094011793e+01 -5.8472872069588444e-01
    1.8824266254829077e+01 -6.3789798527488095e-01
    2.4968584137504862e+01 -6.0003769071548863e-01
    1.8270763940072953e+01 -8.6338523456746230e-01
    1.1759787343135486e+01 -1.1476930672565391e+00
    1.0030101829202906e+01 -2.6455591621645609e+00
    9.8371805992894359e+00 -2.7705472601451295e+00
    9.3863773645632893e+00 -1.2341342466228955e+00
    1.5710165738717169e+01 -9.4010531254977214e-01
    1.6918386330153556e+01 -6.5231399783166744e-01
    1.4133999873288174e+01 -6.1724702574786339e-01
    2.3621263871883791e+01 -7.9332469372696579e-01
    1.3427903067531430e+01 -9.1840253234725078e-01
    9.2058834735676811e+00 -1.2032426650919368e+00
    8.9569936039852589e+00 -2.4479145527077875e+00
    1.0632659364296153e+01 -3.1502094574183648e+00
    9.5744726198354737e+00 -1.2939382002087281e+00
    1.4434832679599078e+01 -9.2545384285659016e-01
    1.5537617561739031e+01 -6.8801938255256490e-01
    1.4292045385845075e+01 -7.1933977461290266e-01
    2.0337863273936751e+01 -7.9662639197837504e-01
    1.3182579944830449e+01 -9.8324604614449740e-01
    9.5709938355754627e+00 -1.3310450603614590e+00
    9.6516426925988181e+00 -2.7417534578512281e+00
    1.1099185150421532e+01 -3.0962085676717348e+00
    1.0718186729545224e+01 -1.1642934973868351e+00
    1.8433030127243978e+01 -8.3526129268616633e-01
    2.0766274515392169e+01 -5.6280592072443036e-01
    2.0656716344148961e+01 -6.3424617705509401e-01
    2.4188298382733663e+01 -5.2542099961256905e-01
    1.8133731174683941e+01 -7.8680912498209765e-01
    1.2283738179876767e+01 -1.1010985376704820e+00
    1.0351631581057246e+01 -2.7084051517391781e+00
    1.2200073398532243e+01 -3.5781853688890024e+00
    1.0824774552485840e+01 -1.2173952775759695e+00
    1.8411937629073616e+01 -8.7791105631455790e-01
    2.1912428997078464e+01 -5.5617105231182629e-01
    2.1173692909566036e+01 -6.2835151443578552e-01
    3.2341338224241014e+01 -6.3269765936436206e-01
    1.8765621356372147e+01 -8.1597301452810267e-01
    1.2284858595432530e+01 -1.1707979749263011e+00
    1.0924643775658742e+01 -3.0795870361782076e+00
    1.1338838333429115e+01 -3.3765150410181275e+00
    1.0416022611156734e+01 -1.3592388253753835e+00
    1.8308021371949703e+01 -1.0431894044828387e+00
    1.9986708502254704e+01 -7.6898453957986657e-01
    1.5569220690529896e+01 -7.1528153675804451e-01
    1.8909820889739954e+01 -6.9045947729792900e-01
    1.2873327917797162e+01 -8.4432336606568748e-01
    1.0156485361961186e+01 -1.2949400152101334e+00
    9.6722188116982277e+00 -2.6897219374664769e+00
    1.2006381146261022e+01 -3.6767921770326129e+00
    1.0104116860086160e+01 -1.4197522523164157e+00
    1.7002205090574744e+01 -1.0396547886822534e+00
    1.8261952527702149e+01 -6.9935244975348487e-01
    1.6605492530228826e+01 -7.2351324233740744e-01
    2.6261292826171168e+01 -7.7159085209800482e-01
    1.8555842996017130e+01 -1.0573271432966282e+00
    1.0469068826201953e+01 -1.3501648575774781e+00
    1.1154216108381249e+01 -3.2950763163065617e+00
    1.1703073508953919e+01 -3.3275074981116575e+00
    1.1494875169173069e+01 -1.1870785542384916e+00
    2.2145324781850288e+01 -9.1355248248145149e-01
    2.1758096592609320e+01 -5.2991357221675528e-01
    2.1797470321616302e+01 -6.1641393950556023e-01
    3.8389524307118123e+01 -7.6004243561609197e-01
    2.1950577622340138e+01 -8.0749778607058298e-01
    1.2727889854214533e+01 -1.0872154427407330e+00
    1.0587668879977238e+01 -2.8245507371769909e+00
    1.1648026162114942e+01 -3.4782112645447736e+00
    1.0469820342904544e+01 -1.2567905814951728e+00
    1.7021312631541189e+01 -8.5229705422397750e-01
    2.6961969574188092e+01 -7.2255202324749335e-01
    2.3559401787570849e+01 -7.4649813513753061e-01
    2.6366867828321258e+01 -6.8453246861900119e-01
    1.6162896254195903e+01 -7.2404566354143052e-01
    1.2687137560897654e+01 -1.1642541029999569e+00
    1.1576391127374162e+01 -3.2845556028842950e+00
    1.1893198782602472e+01 -3.6645568389284811e+00
    1.1255294095638783e+01 -1.3759698287633026e+00
    2.0461210677376716e+01 -1.0522432549059384e+00
    2.0328249256385231e+01 -6.7148143620213940e-01
    2.0034182139660917e+01 -7.1885888557051913e-01
    3.1682135632320467e+01 -8.5406837768619825e-01
    1.9729880229674858e+01 -9.5522006337754062e-01
    1.2144274715281917e+01 -1.3211514685924375e+00
    1.1347463991651912e+01 -3.2761555520361800e+00
    1.1739813306198164e+01 -3.7073541922058291e+00
    1.1527099077037025e+01 -1.5632015302032460e+00
    1.7658774345941527e+01 -1.0093131112246601e+00
    2.5259865924327634e+01 -8.4428841381437592e-01
    2.1046265858406251e+01 -8.6791544355398698e-01
    1.8375265881472643e+01 -6.9379254632964893e-01
    1.2636276551073351e+01 -8.1942009081014444e-01
    1.0704813962883408e+01 -1.3149260049376115e+00
    1.2041961205495118e+01 -3.7327656454562708e+00
    1.0644993691187913e+01 -2.9908637599064352e+00
    1.1568263551075232e+01 -1.2087491917632771e+00
    1.7378877029006759e+01 -8.1341390311310280e-01
    2.2845443405439028e+01 -6.1681362235013759e-01
    2.6543323043942472e+01 -7.3464687462239986e-01
    1.9937041551405972e+01 -5.5608654534922430e-01
    1.5526903789715062e+01 -6.9013372754701785e-01
    1.3583543736663170e+01 -1.1928078385512355e+00
    1.0878267413264282e+01 -2.8679833926773712e+00
    1.0667656329480909e+01 -3.0881806903865110e+00
    1.1747904467433967e+01 -1.3012876114644953e+00
    1.7620467824069834e+01 -9.1016263726965096e-01
    2.0427009770739943e+01 -6.5710152024121882e-01
    2.2781893719209680e+01 -7.3511667240148049e-01
    2.2680800951248866e+01 -6.4120742159560795e-01
    1.7860552594813793e+01 -7.8479621832506619e-01
    1.1868442502837349e+01 -1.2299840246698357e+00
    1.1075245060054378e+01 -3.1033774483912957e+00
    1.1297143087492886e+01 -3.3746738914208669e+00
    1.2928378031205273e+01 -1.5308407526631089e+00
    1.7703953692919779e+01 -9.4446724223916811e-01
    2.2044036134694995e+01 -7.5084421520266220e-01
    1.8115131677983022e+01 -7.3653883650939633e-01
    1.6272063838620763e+01 -6.3683393999082150e-01
    1.2602804758700740e+01 -8.0336304510288647e-01
    1.1553966955321162e+01 -1.3140550975309455e+00
    1.0545472114328438e+01 -3.0539586714370746e+00
    1.0959156024802883e+01 -3.3810200122447345e+00
    1.1775088198105085e+01 -1.4796924460898602e+00
    1.7654587082788815e+01 -9.7996125699144554e-01
    2.1189594220556000e+01 -7.4602210024675319e-01
    1.6627788287504373e+01 -7.1963175850947836e-01
    1.5772574250396639e+01 -6.6384827976826710e-01
    1.3289413028674456e+01 -8.6445575693908561e-01
    1.1029341144863947e+01 -1.3927660610757917e+00
    1.1407944513450488e+01 -3.4888676916363570e+00
    1.1548665281402457e+01 -3.1861772249596427e+00
    1.2063810285643868e+01 -1.2350543786615238e+00
    1.8001104470893914e+01 -8.4300120727377681e-01
    2.5079211839484991e+01 -6.7995577522594419e-01
    2.4312317495658103e+01 -7.4604004046802663e-01
    2.9804623772539724e+01 -6.6327937250738556e-01
    2.1641251721023711e+01 -7.8858518937934852e-01
    1.3456962427777148e+01 -1.2112040146854472e+00
    1.1001616583702342e+01 -2.9592992992660783e+00
    1.2293872322069342e+01 -3.6037252861191718e+00
    1.0411080090523106e+01 -1.3183753490537835e+00
    1.7238614501820862e+01 -8.7222573418884186e-01
    2.8226993930132647e+01 -7.3309113882240373e-01
    2.0313879579099162e+01 -6.8979622911372307e-01
    2.6354687995810071e+01 -6.6384334909955522e-01
    1.7682486785747848e+01 -8.0396373470198434e-01
    1.0809669693008521e+01 -1.2419391168102394e+00
    1.1210915213749905e+01 -3.2015192719548535e+00
    1.1549781882416587e+01 -3.4820587065075377e+00
    1.2441113525581782e+01 -1.4385712510215272e+00
    1.8434485843629169e+01 -9.3396824047473159e-01
    2.2869735115494073e+01 -7.0632534519859835e-01
    1.5281093870836001e+01 -6.4693883858313050e-01
    1.7285810635745641e+01 -6.1950653511550746e-01
    1.4722051670823291e+01 -8.2013843734906988e-01
    1.1721271753549038e+01 -1.2863509610852015e+00
    1.1170846342809476e+01 -3.2755248779185067e+00
    1.2497223892712709e+01 -3.9098702088501396e+00
    1.1688346914821880e+01 -1.5783216827839783e+00
    1.9119409988443362e+01 -1.0664449100620284e+00
    2.5323393235174347e+01 -8.5238728739789493e-01
    1.6465117705500859e+01 -7.5340592690324959e-01
    1.8344678874973773e+01 -6.8060946179654003e-01
    1.6054457979658810e+01 -9.3791423005812591e-01
    1.1803378684713868e+01 -1.5016439503661421e+00
    1.2548881837969692e+01 -3.8535380041072993e+00
    1.1731218523996901e+01 -3.1930354868120574e+00
    1.2447887100567032e+01 -1.3545503033348054e+00
    2.4476417826589351e+01 -9.4654548043050268e-01
    2.6455078523588831e+01 -5.8468048130272054e-01
    2.2983318669133514e+01 -6.4770273127277267e-01
    2.8332526453025395e+01 -6.4568830973722502e-01
    2.2127242465955213e+01 -8.9285649535579970e-01
    1.1913890268841538e+01 -1.2166689866633549e+00
    1.0686408552526363e+01 -2.8509745769621833e+00
    1.1761358123417025e+01 -3.3902672775812492e+00
    1.2278974714747479e+01 -1.4904427564433802e+00
    2.0112028947610604e+01 -9.2510588643275693e-01
    1.7600044233542164e+01 -5.8087219557337511e-01
    1.4935657136300351e+01 -6.0999951422759735e-01
    1.7177139746694781e+01 -6.1644642450179998e-01
    1.6994805691502229e+01 -8.3529577749787531e-01
    1.1842842363436450e+01 -1.3658724161258000e+00
    1.1082500265161299e+01 -3.1102976683760497e+00
    1.1341901872148931e+01 -3.3398937361168142e+00
    1.3210955011504705e+01 -1.5117370995706345e+00
    2.3646638147389364e+01 -1.0736370160756581e+00
    2.7498346865481331e+01 -8.0971935310248977e-01
    1.5697061961513512e+01 -6.6774342401023445e-01
    2.0364114951348117e+01 -6.5189486415550035e-01
    1.8743360789712423e+01 -9.4170614389636331e-01
    1.1132548796959940e+01 -1.2881136455154631e+00
    1.2204114573839856e+01 -3.5781076465955586e+00
    1.2987500309537836e+01 -4.0426907730764166e+00
    1.1400596271121234e+01 -1.6263383413682373e+00
    1.8046002194151264e+01 -1.1083949200215915e+00
    1.7215055356467730e+01 -7.3719366532796848e-01
    1.2788834404318040e+01 -7.1408833854789355e-01
    1.4291892822356218e+01 -6.8592446754878533e-01
    1.5362570612072894e+01 -9.7555605065261197e-01
    1.1362222678452273e+01 -1.5256561183375794e+00
    1.2482203220684845e+01 -3.8203315176230790e+00
    1.0713945265732537e+01 -2.6972422264505367e+00
    1.4513788794373049e+01 -1.4267820392707795e+00
    1.8283916544480679e+01 -7.9484967050170219e-01
    1.8159378707342402e+01 -6.2398264186049657e-01
    1.4845465114109412e+01 -6.0058513010501846e-01
    1.6404798047537575e+01 -5.5457219897873355e-01
    1.9333169578766746e+01 -7.3963527545456009e-01
    1.4240613919780749e+01 -1.2062594547056622e+00
    1.0237483046879406e+01 -2.4725218241586115e+00
    1.1566317369790630e+01 -3.2205407707327289e+00
    1.1444660509819347e+01 -1.4171372341949875e+00
    1.4174116614602285e+01 -9.5679267136787760e-01
    1.3740491653711233e+01 -7.4329115248232513e-01
    1.1092496453229117e+01 -7.0299594977870183e-01
    1.3032063572863317e+01 -6.4734830939508192e-01
    2.0344841636596254e+01 -9.1975382538529882e-01
    1.2701473070867523e+01 -1.2241821388126051e+00
    1.0843534136874624e+01 -2.8859107945139924e+00
    1.0333021857777306e+01 -2.8235455055563445e+00
    1.1745609612497459e+01 -1.5031674745866896e+00
    1.7821695407313062e+01 -1.0602304687174229e+00
    1.6051576718998792e+01 -8.0559468751714491e-01
    1.2452616408317484e+01 -7.7439111074506706e-01
    1.3193430403501502e+01 -6.8923987959758193e-01
    1.7891813520245393e+01 -9.5089610163282523e-01
    1.3271989907216520e+01 -1.3871440913960544e+00
    1.0163240159597207e+01 -2.6533274079349236e+00
    9.7756924104213994e+00 -2.8272959878188035e+00
    9.7065767157100193e+00 -1.5883511188741968e+00
    1.1353442209689439e+01 -1.1660812725638008e+00
    1.0041667891378479e+01 -9.2408305655311551e-01
    8.6116602036788024e+00 -9.5551329286257269e-01
    1.0285993818621012e+01 -8.2584985778482201e-01
    1.6020948272050244e+01 -1.0244307759457001e+00
    1.2794694612421752e+01 -1.3586722306850250e+00
    9.5124849929762316e+00 -2.5899081861651969e+00
    8.5900717239532121e+00 -1.5534107641807384e+00
    9.3872571613550040e+00 -1.1820359726217555e+00
    1.1267766847541719e+01 -1.0055866837329515e+00
    1.0431386149336600e+01 -7.3125504855188683e-01
    9.5336589913469787e+00 -8.8094001971386726e-01
    1.3662631080087445e+01 -8.4775541191205606e-01
    1.1675074473352455e+01 -1.0567735771148348e+00
    9.9592542729839675e+00 -1.2749696398239034e+00
    8.4447934101129771e+00 -1.5704391719636273e+00
    8.2093460554699327e+00 -1.6553075723224031e+00
    8.9823059711058324e+00 -1.3712026142928262e+00
    1.0858946424947849e+01 -1.2338162146416414e+00
    1.0231416072942578e+01 -8.6799736637699010e-01
    8.8117968757045482e+00 -9.3853993685771864e-01
    1.2549730751515636e+01 -9.0488928551453307e-01
    1.1123511058586811e+01 -1.1326803228738327e+00
    9.0017085073611423e+00 -1.2896757648279054e+00
    7.9720014688182799e+00 -1.5892890241097717e+00
    8.7812516613849070e+00 -1.3933314180735956e+00
    1.0265314979148672e+01 -1.2498002235681562e+00
    1.1371661361807893e+01 -1.1763654908564445e+00
    9.7622236454752240e+00 -8.6012910409586563e-01
    8.6793378384559663e+00 -1.0584120554032947e+00
    1.1736534699639142e+01 -9.3861868896841349e-01
    1.2436794055840393e+01 -1.2400004097898576e+00
    1.0408317080368889e+01 -1.2286289696530610e+00
    9.1494294015017754e+00 -1.4795972392698000e+00
    8.2094308575712223e+00 -1.4080346150075886e+00
    1.0095328833889617e+01 -1.4355541268208460e+00
    9.7509974107614550e+00 -1.3566604840324663e+00
    8.6743999872669626e+00 -1.0030924169899238e+00
    8.2071736522877980e+00 -1.1917131449819689e+00
    1.0337157228084376e+01 -1.0047808061067744e+00
    1.1301711070296001e+01 -1.3362713695072914e+00
    9.4194334017931780e+00 -1.3499873402096656e+00
    8.3242717380447093e+00 -1.4305272910665148e+00
    8.5053082287715966e+00 -1.6114211602388766e+00
    9.8225008056231431e+00 -1.2826540571719098e+00
    1.2232402337668482e+01 -1.1685095884442305e+00
    1.2317762844510089e+01 -9.1026809463372149e-01
    1.1166706875403142e+01 -9.3731306317695606e-01
    1.5087499128938402e+01 -8.5121848405658018e-01
    1.2268329796138886e+01 -9.9132277692359794e-01
    1.0602961435393329e+01 -1.2116335805923635e+00
    8.2437376177388888e+00 -1.4965565234921059e+00
    8.5694671875722790e+00 -1.8848567898746160e+00
    9.6590150832828883e+00 -1.4940090142793983e+00
    1.0056571630371540e+01 -1.2081499880240185e+00
    9.7286094590613885e+00 -9.2666055892254862e-01
    1.1012107790942647e+01 -1.0529553035215318e+00
    1.3313326755877361e+01 -9.0838053863308310e-01
    1.2607209301420140e+01 -1.1218059665341928e+00
    9.8513075990209771e+00 -1.2549017864342711e+00
    8.0680664803534334e+00 -1.6485950154633968e+00
    9.0748364817706939e+00 -1.3630049731082348e+00
    1.0751415443561719e+01 -1.3332679081265009e+00
    1.0366901448890889e+01 -1.3377842606918193e+00
    9.5585181759782607e+00 -1.1021788035319555e+00
    9.5639791787708806e+00 -1.1811641528196908e+00
    1.2190985758173642e+01 -9.7610447405292877e-01
    1.3121332297877562e+01 -1.2185548779536928e+00
    1.0760721798415917e+01 -1.2888852389280183e+00
    8.8914283866482560e+00 -1.3268101859576062e+00
    8.7383548935268216e+00 -1.5049053770666758e+00
    9.3312832013685814e+00 -1.4652271525507825e+00
    8.7931815935392059e+00 -1.4000232443771228e+00
    8.1287735312188669e+00 -1.2280912908066561e+00
    8.2966328809500602e+00 -1.2858773402988710e+00
    1.1017242395342477e+01 -1.0408374251089580e+00
    1.1840856953084472e+01 -1.2251827108479469e+00
    1.0270021291511007e+01 -1.3302087103269233e+00
    8.2394593383895405e+00 -1.4198048731124839e+00
    8.9022816081179634e+00 -1.7011318409089049e+00
    1.0251368293334163e+01 -1.4852621802836581e+00
    1.0079467954190655e+01 -1.1441110465264839e+00
    1.1030619669395961e+01 -9.3288022540813120e-01
    1.2333705119915113e+01 -9.6661340675112684e-01
    1.5246464691226361e+01 -8.6905226592482354e-01
    1.5545120660180956e+01 -1.0099825907007793e+00
    1.1653142759809887e+01 -1.1059744238059619e+00
    8.3968996128043241e+00 -1.4572152229881581e+00
    8.9977226560095129e+00 -1.9442443590693412e+00
    9.1983054255739152e+00 -1.6541534994777951e+00
    9.1906906075153945e+00 -1.3117630559266051e+00
    1.0015144346735870e+01 -1.0199853367536531e+00
    1.0878707404842059e+01 -9.8760071705575481e-01
    1.2840950097283487e+01 -8.9505359405433493e-01
    1.3883944104496335e+01 -1.0056516280608430e+00
    1.0661085022472809e+01 -1.1364279517925111e+00
    8.2017010540330464e+00 -1.5133872230985095e+00
    9.1826421798065123e+00 -1.4129524906711834e+00
    9.3693181324461925e+00 -1.3959428018590030e+00
    9.4939443936837691e+00 -1.3523860646083643e+00
    9.0331220356327488e+00 -1.2093334278360239e+00
    9.3946190792033555e+00 -1.1966533515366884e+00
    1.3075078850490877e+01 -1.0191278819788241e+00
    1.4584156186758968e+01 -1.1432865853263960e+00
    1.1182219271428620e+01 -1.1065277538126683e+00
    8.5747975969611421e+00 -1.2469760824100737e+00
    8.6502309186632669e+00 -1.6210935328295901e+00
    9.1093548536256659e+00 -1.5882627460504926e+00
    8.9004873460547245e+00 -1.5048957255210247e+00
    8.8450649371888659e+00 -1.3649890626373007e+00
    9.0639011839213559e+00 -1.2420162349963688e+00
    1.2456882974493590e+01 -1.1676689551454038e+00
    1.2483628631675671e+01 -1.1343763169350995e+00
    9.9608665776419301e+00 -1.1652052075531327e+00
    8.2933656545006667e+00 -1.3185131407491086e+00
    9.4326050629978404e+00 -1.8358407639827166e+00
    9.8371725973796291e+00 -1.5793652823115061e+00
    9.5571254593232418e+00 -1.2218414422759372e+00
    1.1112815331323450e+01 -9.8936745372297519e-01
    1.1412815555959254e+01 -8.8602234767450549e-01
    1.6437553064075431e+01 -8.9157757092851819e-01
    1.6158115814530763e+01 -9.3907673788123702e-01
    1.3259691001595268e+01 -1.1548488789513600e+00
    9.0348209307566449e+00 -1.3876546859417882e+00
    9.5095553612792152e+00 -2.0953904733381341e+00
    1.0470851311812625e+01 -2.1350211965869526e+00
    9.6789298266497621e+00 -1.4453303418685073e+00
    1.0176514860624959e+01 -1.0527457140186189e+00
    1.0550677736783504e+01 -9.4187980361203194e-01
    1.3525093866539514e+01 -8.7426763738398117e-01
    1.2946791127163214e+01 -9.9315544518510801e-01
    1.1494260544217051e+01 -1.2092859292994691e+00
    9.2194553516943731e+00 -1.5951191118042602e+00
    8.7425716998493126e+00 -1.4759349591379129e+00
    9.8038975489500224e+00 -1.5543620320325233e+00
    1.0226765704404123e+01 -1.5157844079069154e+00
    9.9734803809289012e+00 -1.2823618441504507e+00
    9.3997313896711230e+00 -1.0930470407422734e+00
    1.2946111620774673e+01 -1.0335688971431127e+00
    1.3805484886070891e+01 -1.0423275175912046e+00
    1.2098807257261020e+01 -1.1677655820483002e+00
    8.9137578963973496e+00 -1.2366856033022802e+00
    8.5708479324299152e+00 -1.6808587520963778e+00
    9.2270838978071943e+00 -1.7586807627387995e+00
    9.1053790936392094e+00 -1.5966260764324525e+00
    8.9760247369483626e+00 -1.3489352941296235e+00
    8.5556985179232150e+00 -1.1607872504189189e+00
    1.1601207806539335e+01 -1.0743106105561744e+00
    1.2588981265982678e+01 -1.1812157192694970e+00
    1.1645049509249700e+01 -1.3151646578416532e+00
    9.1273857735570054e+00 -1.4274005037613806e+00
    9.8702987438491174e+00 -2.0600364924408487e+00
    1.0457374377277871e+01 -1.9680181222437121e+00
    1.1036133795973045e+01 -1.4061096410579015e+00
    1.1855216064441816e+01 -9.8829103199656509e-01
    1.1630997362493666e+01 -8.9164219835881475e-01
    1.5582166257916063e+01 -8.9434118521652584e-01
    1.4989366533275103e+01 -1.0376694294656248e+00
    1.2731344147194667e+01 -1.1953019061458516e+00
    9.8814292384147180e+00 -1.6302677244126693e+00
    9.7099751914843502e+00 -2.1988934614338809e+00
    1.0103292480366337e+01 -2.0397764091209734e+00
    1.0092369622565297e+01 -1.4198714438019810e+00
    1.0729677557390900e+01 -1.0113863228603999e+00
    1.0827955713713052e+01 -9.4444534095033295e-01
    1.4496170013895608e+01 -9.6580720349811855e-01
    1.5840362000558365e+01 -1.1616639411475664e+00
    1.2600447443744262e+01 -1.3520503416945040e+00
    9.7721662399042515e+00 -1.7854403633174414e+00
    9.3168456752323152e+00 -1.6780791639009620e+00
    9.7062928527752153e+00 -1.7117198015651032e+00
    1.0069008633018077e+01 -1.5717306366153601e+00
    1.0212927088841624e+01 -1.2922536321532667e+00
    9.9973441481361220e+00 -1.1440020400575106e+00
    1.2753317256270813e+01 -1.0458918754106774e+00
    1.3886508423778263e+01 -1.1810186586492124e+00
    1.2975773859434307e+01 -1.3228372064611047e+00
    9.6880898827571631e+00 -1.3948080978617112e+00
    8.7700561876374508e+00 -1.7186162912080105e+00
    9.2963165170827882e+00 -1.8055587367781327e+00
    1.0004925860344333e+01 -1.7282466702646846e+00
    9.7792426885975043e+00 -1.3541412314865819e+00
    9.3940526609747987e+00 -1.2129347325774620e+00
    1.1995767868305172e+01 -1.1573962433583103e+00
    1.4839691973417475e+01 -1.3179645277982843e+00
    1.3015075275989103e+01 -1.3916485594972738e+00
    9.0978189519829780e+00 -1.3994759369502054e+00
    9.4866189017302087e+00 -2.0525530970121828e+00
    9.4775515142148770e+00 -1.7747947477084982e+00
    1.1178530701988896e+01 -1.3686098213453706e+00
    1.1317842220213212e+01 -9.8261872632526592e-01
    1.1865137333169331e+01 -9.6576229382492496e-01
    1.3389961817881831e+01 -8.9944568664575675e-01
    1.7311026992495442e+01 -1.1536312015369545e+00
    1.4008351077540551e+01 -1.3729306738556273e+00
    9.6149881946056706e+00 -1.6575516508410375e+00
    1.0324345640553364e+01 -2.4134133347586997e+00
    1.0026459826595445e+01 -1.9755390370045742e+00
    1.0580949666390790e+01 -1.4287754491147409e+00
    1.2190218634627522e+01 -1.0892429510660340e+00
    1.1920494602094214e+01 -1.0782331262243385e+00
    1.3999538532338573e+01 -1.0017038369557025e+00
    1.3453613345198555e+01 -1.1366954865892891e+00
    1.1714010336218442e+01 -1.3624379687896104e+00
    9.3165419524459310e+00 -1.8286305752274346e+00
    9.7249192457372899e+00 -1.7403294786813726e+00
    1.0610990708529787e+01 -1.8363849967375079e+00
    1.0354275459429710e+01 -1.6093637608946625e+00
    1.0088732701418913e+01 -1.2451072609567622e+00
    1.0123145298168993e+01 -1.2078932388173871e+00
    1.2689669237218327e+01 -1.1463225645977322e+00
    1.5324248342572210e+01 -1.2412709228698517e+00
    1.4517990555547803e+01 -1.4512545367970948e+00
    9.8451927494425142e+00 -1.4300412849612827e+00
    9.5846203901981966e+00 -1.9570718697667973e+00
    1.0872009566452908e+01 -2.0003966213411202e+00
    1.0475694248180531e+01 -1.6077567757276170e+00
    1.0314751810757258e+01 -1.2503525438565759e+00
    1.0510744758754068e+01 -1.3006866190425408e+00
    1.1870203085299790e+01 -1.1200225827778199e+00
    1.4463156251301733e+01 -1.3318170262714621e+00
    1.2288082801662643e+01 -1.5017570328330889e+00
    9.7216686763333957e+00 -1.7155384759861425e+00
    9.9519880764935333e+00 -2.3464619648224665e+00
    9.8369887365534918e+00 -1.7051078247942435e+00
    1.1766270772789960e+01 -1.2863606501141380e+00
    1.4160315183813312e+01 -9.7590674565348312e-01
    1.4237305459105880e+01 -9.8254071459165082e-01
    1.4691280537069002e+01 -8.9026002200384136e-01
    1.3862385922948178e+01 -1.0856887859504700e+00
    1.2240422895513699e+01 -1.3311517374375610e+00
    9.6881619783742678e+00 -1.8184712169117885e+00
    1.0243110553645998e+01 -2.5629962029473869e+00
    9.4483726563871784e+00 -1.6669361154269167e+00
    1.1953503616432474e+01 -1.2467289517967397e+00
    1.2246606692022896e+01 -9.2979614794940046e-01
    1.3268197503801096e+01 -9.5300061323765783e-01
    1.4992928284616792e+01 -9.2489654698891366e-01
    1.4278114048834874e+01 -1.1764201194757011e+00
    1.0740942473371215e+01 -1.4045519944312546e+00
    9.2181330731231217e+00 -1.9495164699071328e+00
    9.6006636044220564e+00 -1.9323510827676378e+00
    1.0378020723479986e+01 -1.6897743478160820e+00
    1.1340625804888020e+01 -1.3842343679066258e+00
    1.2122805616628080e+01 -1.1210614122809521e+00
    1.2058368331993178e+01 -1.1476043660096804e+00
    1.2942164730273916e+01 -9.8981948809142017e-01
    1.4561177566910127e+01 -1.2272661066508865e+00
    1.2356865354378323e+01 -1.4272034854343871e+00
    9.7599697024079042e+00 -1.6833508511568858e+00
    9.6989368105051952e+00 -2.2584559825410446e+00
    9.9435963186964855e+00 -1.7753303579341584e+00
    1.0919473120268293e+01 -1.3492503750211848e+00
    1.0614298659481692e+01 -1.1145662925233206e+00
    1.0592567328225767e+01 -1.0933009098229398e+00
    1.2013444210397857e+01 -1.0127464157011752e+00
    1.2853103975527533e+01 -1.2995283079541771e+00
    1.0393766553723829e+01 -1.4620946809622701e+00
    8.9739722505338086e+00 -1.8740409098757635e+00
    1.0013011109073711e+01 -2.2380385790888000e+00
    9.8510699591455637e+00 -1.4211576920457756e+00
    1.3174342509236526e+01 -1.0730534522884159e+00
    1.4926770380966033e+01 -8.7814011393991442e-01
    1.6427907498342453e+01 -8.5507536618025626e-01
    1.9350669825965394e+01 -8.9725521313880396e-01
    1.5597122342816384e+01 -1.0286837011307763e+00
    1.0257296625362777e+01 -1.2452920377145711e+00
    9.4947169969996050e+00 -1.9082604237765106e+00
    1.0538703952939597e+01 -2.6631677908264524e+00
    1.0030890276222935e+01 -1.5981652386562546e+00
    1.2276907706577790e+01 -1.0819906439998461e+00
    1.4430110762105704e+01 -8.3301444077253162e-01
    1.6855105479036091e+01 -9.1054950388920020e-01
    1.6879216141576023e+01 -8.6869239185558556e-01
    1.3639181247572772e+01 -1.0592749287673875e+00
    9.2992742849550556e+00 -1.3509835741544791e+00
    1.0181490861848909e+01 -2.4102084057040054e+00
    9.1667096600837255e+00 -2.0959716319377120e+00
    1.0268028633565548e+01 -1.6297104705544239e+00
    1.1661640407739133e+01 -1.1955092515915395e+00
    1.1261286639119161e+01 -9.4485411568102862e-01
    1.3288371085508617e+01 -1.0138962328505154e+00
    1.4027947746298491e+01 -9.6745987295539559e-01
    1.2918451279985108e+01 -1.0645547319590496e+00
    1.0525062998639013e+01 -1.2683036209418643e+00
    9.1506579722582249e+00 -1.8208155896004843e+00
    1.0492811662464899e+01 -2.8239261917428320e+00
    9.8908862689669483e+00 -1.8459001855669057e+00
    1.0861108493015273e+01 -1.2381021966965726e+00
    1.1336599184853117e+01 -9.4466096059500104e-01
    1.3042138406666240e+01 -1.0497234235490751e+00
    1.4842643101373001e+01 -1.0453480001546795e+00
    1.4055334743453034e+01 -1.2077469727782291e+00
    1.0120588114336348e+01 -1.4727077125317110e+00
    9.2564626722983245e+00 -2.1964964208315170e+00
    9.7084145956469570e+00 -2.2901896041297012e+00
    1.0568591136670857e+01 -1.3329454578060937e+00
    1.5929687321434098e+01 -9.9074105403069768e-01
    1.6499277416755906e+01 -7.1760230831594674e-01
    1.8341348746493612e+01 -8.1242741871790913e-01
    2.2493099246084462e+01 -9.1330176573320487e-01
    1.5607678327102061e+01 -1.0715552058791744e+00
    9.4168060419066180e+00 -1.2664917800895310e+00
    9.5303804704693533e+00 -2.1831693487591268e+00
    1.0164595803737024e+01 -2.6094721250438822e+00
    9.7112674642070846e+00 -1.2928013904457756e+00
    1.5750816744478099e+01 -1.0243463106878561e+00
    1.6477397223139246e+01 -7.7366975584834818e-01
    1.6550914199660578e+01 -8.3147193686857224e-01
    1.8400115094049532e+01 -8.3905205964445229e-01
    1.3560508811126214e+01 -1.0804786753510083e+00
    9.8164294801400604e+00 -1.3923368191057923e+00
    9.8839065070179277e+00 -2.3621042422987237e+00
    1.0704430997403222e+01 -2.8157718420603324e+00
    9.7530251365542906e+00 -1.6244429454746045e+00
    1.4668008653094777e+01 -1.2678669087548460e+00
    1.4525712242086069e+01 -8.8701036357389940e-01
    1.5553695517878756e+01 -9.4626674327791993e-01
    1.6340577484041503e+01 -9.0939864835835094e-01
    1.4116427154922750e+01 -1.0969819198317146e+00
    1.0687032503023760e+01 -1.4470805479533755e+00
    9.6792212366131167e+00 -2.2645199452042868e+00
    1.1534230658239526e+01 -3.1852648291292067e+00
    9.2767861459744818e+00 -1.6471022094311982e+00
    1.4170585876037993e+01 -1.2600283704532393e+00
    1.5781788543169419e+01 -9.9600082218505204e-01
    1.4650635684352221e+01 -9.6433437816357226e-01
    1.4676303706609509e+01 -9.4387295594885312e-01
    1.2753973185785553e+01 -1.1428032204782201e+00
    9.8969446595866870e+00 -1.5612166839944905e+00
    1.0685076769452657e+01 -2.7133527336305807e+00
    1.0922438843108575e+01 -2.7420753559898210e+00
    1.1131053314524419e+01 -1.3515332568335361e+00
    1.8529484232678339e+01 -1.0852542192835530e+00
    1.8776820259892183e+01 -7.9929048176421924e-01
    1.8401701940984513e+01 -8.1928261208496678e-01
    2.2391236523587423e+01 -8.5030701752007698e-01
    1.5503791532027293e+01 -1.0350407066441520e+00
    1.0376268838343865e+01 -1.3338865165239968e+00
    1.0772118340467941e+01 -2.5758864100625880e+00
    1.0950927158403500e+01 -3.0036070235283638e+00
    1.0553304171154705e+01 -1.3803354345547385e+00
    1.7053579460340053e+01 -1.0054497486908918e+00
    1.9716061474825622e+01 -7.6677644925019051e-01
    1.8293571959225932e+01 -7.5499135263320516e-01
    2.7832102346748957e+01 -8.3643369908597365e-01
    1.9518986561501077e+01 -1.0575051329730012e+00
    1.1276797251666167e+01 -1.4315189157921373e+00
    1.0853813683015280e+01 -2.7592294784294040e+00
    1.0996277997756589e+01 -2.9489985057211530e+00
    1.0319224229778104e+01 -1.6091850542478650e+00
    1.5411161470045302e+01 -1.1484686607932455e+00
    1.5900099991377649e+01 -8.9949365224174183e-01
    1.6527633238201375e+01 -9.6891265526504655e-01
    1.6474328399455299e+01 -8.9542647231522021e-01
    1.2807173132347758e+01 -1.0829333623326267e+00
    9.0930764425003812e+00 -1.4175544467627692e+00
    1.0270856240786339e+01 -2.6238445729644067e+00
    1.2592441729126998e+01 -3.5984304242972440e+00
    1.0553264970835933e+01 -1.6520984859196490e+00
    1.4050327848990284e+01 -1.0703991923735561e+00
    1.5585476482073560e+01 -8.2604822168670111e-01
    1.6873837029218340e+01 -9.4863769755955785e-01
    1.9011078054632513e+01 -8.8667177878174674e-01
    1.4481907153077191e+01 -1.0981689851969465e+00
    9.7486152840737770e+00 -1.5587116922215896e+00
    1.1350486068777792e+01 -3.1797296076050263e+00
    1.2297433910731945e+01 -3.4244823282054027e+00
    1.2097734987164401e+01 -1.4000529081510471e+00
    1.9287276824620960e+01 -9.9318443696917991e-01
    1.9582043091991753e+01 -6.7117338708582130e-01
    1.9803713492073143e+01 -7.0135747200862131e-01
    2.6425485327878302e+01 -7.4571193355034415e-01
    1.9328515876059630e+01 -9.4622064011109386e-01
    1.3202047229313582e+01 -1.4696782023186035e+00
    1.1399450807838170e+01 -3.0157445373369320e+00
    1.2637248024070907e+01 -3.6619176681938725e+00
    1.1956824050286260e+01 -1.4657665231753738e+00
    1.8802264888876760e+01 -1.0681524790022245e+00
    2.2014787848332997e+01 -7.8556302833671177e-01
    2.1158117094874793e+01 -8.4170489765027046e-01
    1.8821022603172974e+01 -7.0995475341414926e-01
    1.5031701636044422e+01 -9.4063995151740420e-01
    1.2855288733945413e+01 -1.5664604046750141e+00
    1.3167196197058670e+01 -3.7504687773255179e+00
    1.2552173931149492e+01 -3.4839990915736805e+00
    1.1396638150697207e+01 -1.5362301977063286e+00
    1.5685029511805688e+01 -1.0470835606996352e+00
    1.5727265956843395e+01 -7.4576318347319526e-01
    1.4965355471462548e+01 -7.7093825137731375e-01
    1.9429166661038575e+01 -8.2894988005102588e-01
    1.5034284287168909e+01 -1.0104662023517745e+00
    1.0038006527667170e+01 -1.4157193720550638e+00
    1.1842745568419941e+01 -3.2967099117149488e+00
    1.1436094807549438e+01 -3.2334926839494340e+00
    1.1369873091889206e+01 -1.4570588208424884e+00
    1.6109961587468622e+01 -1.0514337853328508e+00
    1.8435832787784033e+01 -8.5312533825100956e-01
    1.6769152766907386e+01 -8.5873713799747808e-01
    1.5934018744892041e+01 -7.9599598688537632e-01
    1.3071325783733100e+01 -9.9523312797914310e-01
    1.0337996035741279e+01 -1.5652752785024886e+00
    1.1852477273761508e+01 -3.4090908649430687e+00
    1.1667674667946860e+01 -3.2339532505059427e+00
    1.3584035501833517e+01 -1.4364308029807009e+00
    2.1417942765612100e+01 -1.0538628093114000e+00
    2.3048069040451619e+01 -7.6674077277252328e-01
    1.8420037491714623e+01 -7.5067549197783279e-01
    1.6985553040844525e+01 -6.9828247507505004e-01
    1.3795904343038421e+01 -8.9167105173939176e-01
    1.3374345027576522e+01 -1.5021873367331595e+00
    1.1642939469953417e+01 -3.1780368236684802e+00
    1.1258677254125613e+01 -3.2302428314703651e+00
    1.3129752435666697e+01 -1.4369580530801489e+00
    2.0868281519321719e+01 -1.0384568985750005e+00
    2.0804087951672994e+01 -7.3331067407360462e-01
    1.6528649323108798e+01 -7.3567467253024710e-01
    1.5294516566906761e+01 -6.7652071473999964e-01
    1.3905265099958577e+01 -9.4583557112286498e-01
    1.2031113037871323e+01 -1.4732566967079144e+00
    1.1925502328475343e+01 -3.4345842022973958e+00
    1.0515156108662403e+01 -2.8019873984150303e+00
    1.3055644709656251e+01 -1.3814051953172108e+00
    2.0832455234310217e+01 -1.0862662439209811e+00
    2.0701800042737858e+01 -8.0315255998593316e-01
    1.6841967367913288e+01 -8.0896356536014402e-01
    1.4515190359396474e+01 -7.4711936488648711e-01
    1.2710548729034564e+01 -9.8583730101190981e-01
    1.0308337721816761e+01 -1.5063350357104077e+00
    1.1521607448323543e+01 -3.2373033771697477e+00
    1.0153596338099955e+01 -2.7533463287792039e+00
    1.3051705685406253e+01 -1.4156174933513648e+00
    1.8687542121000174e+01 -1.0006522003884097e+00
    1.8978831171768658e+01 -7.6928383077973794e-01
    1.4554621330337998e+01 -8.1054352160539744e-01
    1.4167626251962881e+01 -7.9879954135464415e-01
    1.2575404988031972e+01 -1.0785366455740135e+00
    1.0405000845818941e+01 -1.7232670919549240e+00
    1.1579147299973616e+01 -3.3886969651711034e+00
    1.0504221467759242e+01 -2.8711619894733893e+00
    1.2874133479090144e+01 -1.3425164611062592e+00
    2.0723329225426518e+01 -9.9355483277990286e-01
    2.3420424383874213e+01 -7.4477787128914630e-01
    1.7553078083555011e+01 -7.2684884460432997e-01
    1.8642304730850523e+01 -7.3142792215513597e-01
    1.5272598405389163e+01 -9.2960204136037605e-01
    1.2224563853629361e+01 -1.4240315162518868e+00
    1.1251728677036356e+01 -3.0800417987796362e+00
    1.0571850045495285e+01 -2.9445492833417481e+00
    1.1496618829485071e+01 -1.4100402417540168e+00
    2.0105020601240465e+01 -1.0957756658893667e+00
    2.1693456977661310e+01 -7.9820813511448341e-01
    1.7245566249834329e+01 -8.0087371440309263e-01
    1.7467764597322496e+01 -7.5021899077928678e-01
    1.7004142738403168e+01 -1.0822424347739781e+00
    1.3162965694579645e+01 -1.6994868394615392e+00
    1.1916811299972261e+01 -3.4431846241252968e+00
    9.8486441063860521e+00 -2.4200644321507365e+00
    1.4087764260819490e+01 -1.3152518469196626e+00
    2.0540050823591383e+01 -1.0310525987281316e+00
    1.9457518676493994e+01 -7.9060845096595900e-01
    1.4233686624306225e+01 -7.8666383948647245e-01
    1.2689141535293311e+01 -7.6128962737031913e-01
    1.1856127654823933e+01 -1.0079573600892555e+00
    1.0150301009981222e+01 -1.6040153028848319e+00
    1.0695084125809290e+01 -2.9859708399420399e+00
    9.2625484292035747e+00 -2.3260413512362281e+00
    1.1508686909565217e+01 -1.3059765395955065e+00
    1.8694903952478576e+01 -1.1215003876898475e+00
    1.6194852094863450e+01 -8.1512475851173727e-01
    1.3119528120394291e+01 -8.5435716897814340e-01
    1.2063513127403283e+01 -8.3929810850556774e-01
    1.1318501113934964e+01 -1.0696468954650502e+00
    1.0628647994112448e+01 -1.7604913402722102e+00
    1.0697022443680515e+01 -3.0300608446775565e+00
    1.1162464584881997e+01 -2.9272376636458390e+00
    1.3149423606935949e+01 -1.4136763233719687e+00
    2.2396992280269199e+01 -1.0680310683125667e+00
    2.3022446618295401e+01 -8.0456504676637952e-01
    1.6623324611316505e+01 -7.4433273532256072e-01
    2.1123304076723350e+01 -7.8193256591643923e-01
    2.0016102816691767e+01 -1.0674533032104410e+00
    1.3413066301499759e+01 -1.5268801409778032e+00
    1.1711900207826753e+01 -3.2058540143160208e+00
    1.1710009297880594e+01 -3.2624843085894830e+00
    1.1398241300623363e+01 -1.5540015505081668e+00
    1.6396450574537774e+01 -1.1006132445536891e+00
    1.4075332354491938e+01 -7.8010584741867872e-01
    1.1470480277098504e+01 -7.6669839581852917e-01
    1.4502226009393052e+01 -7.5732835288479461e-01
    1.8167244770643546e+01 -1.1736600564888833e+00
    1.2573920140417435e+01 -1.6230493762709695e+00
    1.1418246843912609e+01 -3.2159006660723315e+00
    1.0821293261099756e+01 -2.6147009623821416e+00
    1.4237040714543149e+01 -1.4451142604855971e+00
    2.1724557533397380e+01 -1.1636768213474327e+00
    1.7850742706313330e+01 -8.6433070340154372e-01
    1.3757170980552933e+01 -8.5941067953051042e-01
    1.5018773445938937e+01 -8.9914544408244979e-01
    1.3283706901370717e+01 -1.0783597402058178e+00
    1.1657091784846671e+01 -1.6238930470017390e+00
    1.0630453317969296e+01 -2.8772963609493254e+00
    1.0574832610969032e+01 -2.7723615509590869e+00
    1.1475281018538887e+01 -1.4655778971773696e+00
    1.5777335587351363e+01 -1.1293837871109660e+00
    1.2707315634990263e+01 -8.9737748526023020e-01
    1.0115521528071540e+01 -9.1869823394299455e-01
    1.1782432616068032e+01 -9.0366447687789997e-01
    1.4577426151702040e+01 -1.2762404789446962e+00
    1.1296361565153893e+01 -1.7586268178582065e+00
    1.0980446032383950e+01 -3.0828708908148950e+00
    1.0347000059377240e+01 -2.3200382722659669e+00
    1.1757898674788320e+01 -1.3280665596099781e+00
    1.9313164395816976e+01 -1.1713131306448255e+00
    1.4975573878768309e+01 -9.2484197402738400e-01
    1.0509315120538421e+01 -8.4989808975711401e-01
    1.2986381503802527e+01 -7.8986736859449902e-01
    2.1051147814651177e+01 -1.1832835530381574e+00
    1.4574560970934304e+01 -1.3835708258332584e+00
    9.7753907034911922e+00 -2.1634088546171490e+00
    9.3106052648592588e+00 -2.1963612674428088e+00
    1.1083555639196220e+01 -1.5675878341827747e+00
    1.4325523826527498e+01 -1.3803789973611584e+00
    9.1001756051385918e+00 -1.1169145849197071e+00
    7.0378656862519060e+00 -1.1248216263038442e+00
    8.4729683612600510e+00 -9.2355306090958977e-01
    1.5494823056394804e+01 -1.0583846812076267e+00
    1.3571161752854284e+01 -1.2541217480295741e+00
    8.8931072682266361e+00 -1.9549388946563637e+00
    9.4412399270026857e+00 -1.8507267189096159e+00
    1.3342568647866095e+01 -1.3088302475066604e+00
    1.9383801491172921e+01 -1.1805416041938117e+00
    1.3231966910288907e+01 -1.0025737602746028e+00
    9.1261992650644608e+00 -1.0034322538021627e+00
    1.1007706217680786e+01 -9.7288095843725675e-01
    1.5263947447793644e+01 -1.1334365340974628e+00
    1.3014720539002727e+01 -1.4168320467663491e+00
    9.2047878148221329e+00 -1.9299103203436210e+00
    8.1194693130862508e+00 -1.5261041935642827e+00
    1.0821927679046627e+01 -1.2599057376798808e+00
    1.1559298688200796e+01 -1.1394597952285193e+00
    9.2959712221322714e+00 -1.2694922162480504e+00
    7.3232675048351759e+00 -1.5573751459668814e+00
    8.1816814871583414e+00 -1.2904277035411367e+00
    1.3273666294174980e+01 -1.1536869937544272e+00
    1.3665953032218553e+01 -1.3002746102894271e+00
    8.4085416663539476e+00 -1.5742397382184230e+00
    9.2380802548138625e+00 -1.3472025645469214e+00
    1.1840221648375932e+01 -1.2486188751054321e+00
    1.2650265703875904e+01 -1.2709531853592986e+00
    1.0869780053122469e+01 -9.6322311338532984e-01
    8.9711356856713369e+00 -1.1815270785582976e+00
    1.1715704204748688e+01 -1.0179572669189916e+00
    1.2161070961208569e+01 -1.2642541397154432e+00
    1.0491456954341368e+01 -1.1709592495188041e+00
    8.7683566225277048e+00 -1.3201350265903695e+00
    9.4073218654925288e+00 -1.4223659718285127e+00
    1.1000959168173202e+01 -1.3936176828963638e+00
    1.1294718661445419e+01 -1.5169497655003297e+00
    8.5855360509430056e+00 -1.1384182591099408e+00
    8.4366848646325909e+00 -1.4754646084168175e+00
    1.0169592498984505e+01 -1.1493508285971898e+00
    1.1348044667046787e+01 -1.3811873427692010e+00
    8.7258705691606107e+00 -1.1879661069682639e+00
    8.2741321217515029e+00 -1.2930125107945163e+00
    9.6680891227818915e+00 -1.3836072080262813e+00
    1.1229234299274626e+01 -1.2352127219170965e+00
    1.2027304973262089e+01 -1.3632040774867953e+00
    9.4153721058746331e+00 -1.0611815080026636e+00
    8.6874250114347173e+00 -1.3957467318877457e+00
    9.8385895773640968e+00 -1.0509061068703709e+00
    1.2154122789559297e+01 -1.2905807335261203e+00
    1.2062659388700167e+01 -1.2465529455088429e+00
    9.7725080836700400e+00 -1.3282677778935410e+00
    9.0161591957760354e+00 -1.3155894188067454e+00
    1.0247346996482957e+01 -1.3108682262707836e+00
    1.0577553296636061e+01 -1.5248814179772063e+00
    8.5759728252530572e+00 -1.3699806845563418e+00
    8.5044711478880330e+00 -1.7871702266368124e+00
    9.1243080972890862e+00 -1.2964010557974774e+00
    1.2342129935313150e+01 -1.5040940380808383e+00
    1.0317861526973829e+01 -1.2399931318697932e+00
    8.8869660583692038e+00 -1.2724949879767338e+00
    1.0606190047220196e+01 -1.2108334788884045e+00
    1.1233655026358749e+01 -1.1639840393315228e+00
    1.1046704904213076e+01 -1.3151847303141015e+00
    9.3816256361052375e+00 -1.2016701847016498e+00
    9.4066978974987077e+00 -1.4098732826842753e+00
    1.0956173564847674e+01 -1.0451209761007805e+00
    1.3876415278788077e+01 -1.2266627939341028e+00
    1.0464304001296291e+01 -1.0788507478286899e+00
    9.3333287923591612e+00 -1.1204880994394439e+00
    9.7620614262231218e+00 -1.2946257669293459e+00
    1.0677169923623191e+01 -1.3554609658944050e+00
    1.0293802389171129e+01 -1.5108512445919051e+00
    8.3902034629876727e+00 -1.3890717385626432e+00
    8.1791931880844153e+00 -1.5378300220082948e+00
    9.8238440791250241e+00 -1.1417638848767304e+00
    1.1022078143766821e+01 -1.1892580868289606e+00
    9.3795844536132122e+00 -1.1050298857725125e+00
    8.5636729631504505e+00 -1.1552755028947193e+00
    9.4290995221107181e+00 -1.0580781681969493e+00
    1.2693748239722373e+01 -1.2003610888826752e+00
    1.1516596418456915e+01 -1.3433718680228557e+00
    8.9485640825614325e+00 -1.3169357170806875e+00
    8.9854349926490080e+00 -1.7082336271345291e+00
    1.0377957356763938e+01 -1.2577767888664724e+00
    1.4606358637158703e+01 -1.3239859166525239e+00
    1.2538279982697707e+01 -1.1047882626064605e+00
    9.2433032833459219e+00 -1.0282138024995544e+00
    9.2177202760005574e+00 -1.1277292078839558e+00
    1.0749442277502066e+01 -1.2114534772506902e+00
    1.0531875368926665e+01 -1.4326754208661610e+00
    8.5580298979257101e+00 -1.5105240644618059e+00
    8.3057234593992799e+00 -1.8837766684042623e+00
    8.6635802932534478e+00 -1.4038606573443924e+00
    1.0232073814945618e+01 -1.2385537394474904e+00
    1.0437836633766898e+01 -1.1522117577697193e+00
    8.3898193973611601e+00 -1.0488221243426619e+00
    9.5087531318316483e+00 -1.1420394564907630e+00
    1.0524581061099738e+01 -1.2186612937382799e+00
    1.0408200445367889e+01 -1.3147639038159782e+00
    8.9672697199564322e+00 -1.2791560542746938e+00
    8.7378274991294944e+00 -1.4007585111583056e+00
    1.1104210929333373e+01 -1.0517723169427862e+00
    1.4811194961421691e+01 -1.1951690236223502e+00
    1.1759061334381153e+01 -1.0493189096062088e+00
    9.1846237406843763e+00 -1.0635265357447521e+00
    8.7790106114355027e+00 -1.3099937038530638e+00
    9.6600248267287689e+00 -1.4708434205991450e+00
    9.8725736860139683e+00 -1.5369062649030820e+00
    8.7812858555610589e+00 -1.5182306577853817e+00
    8.6324769809148663e+00 -1.4781483494827474e+00
    1.1132490744796195e+01 -1.1781383602736446e+00
    1.3021362429142988e+01 -1.1723700433346664e+00
    1.0763561903010025e+01 -1.1222726179631854e+00
    8.6897292733754981e+00 -1.1702535125493858e+00
    1.0115734160627339e+01 -1.0105055062789383e+00
    1.3305107721752005e+01 -1.1921490061408835e+00
    1.2511015037976788e+01 -1.3890689049833527e+00
    8.8881681191802251e+00 -1.4455627576641361e+00
    9.0480228628035597e+00 -1.7741014202947505e+00
    9.8616343598415970e+00 -1.3101366289603265e+00
    1.2076662733261704e+01 -1.2210071216359961e+00
    1.2494768882737988e+01 -1.0994194554688996e+00
    8.9617250594908082e+00 -9.4925664659990416e-01
    9.3728794345850801e+00 -1.0911002388769093e+00
    1.1155153370360962e+01 -1.2685774232708424e+00
    1.0122794475600083e+01 -1.4368856051269905e+00
    8.3232981449683212e+00 -1.5715799938348716e+00
    9.2888845231450645e+00 -1.9943495597007435e+00
    9.5548711096537655e+00 -1.3599825406510655e+00
    1.0470164674504192e+01 -1.2434657501274080e+00
    1.0292329554536659e+01 -1.1323381280299065e+00
    9.1741243333760583e+00 -1.0750567480950484e+00
    9.1930954991889013e+00 -1.2115703171550092e+00
    1.0164563226373597e+01 -1.3508977815647609e+00
    1.0510706427447248e+01 -1.4477648111088923e+00
    9.9221637504101334e+00 -1.4574129478020610e+00
    9.2269948615394473e+00 -1.3509823545261639e+00
    1.2686971652366156e+01 -1.1145490985520445e+00
    1.5633728568412907e+01 -1.1651555645216367e+00
    1.3026430073072342e+01 -1.0814874366855305e+00
    9.7217120246218194e+00 -1.1071230691907858e+00
    8.8179271682297760e+00 -1.3010701614349491e+00
    9.3541734288584433e+00 -1.4363308947554145e+00
    9.4202637812882966e+00 -1.5804552293019622e+00
    8.5359486878315689e+00 -1.4554875938262788e+00
    8.3776842556021638e+00 -1.4585993675974667e+00
    1.0549998668370787e+01 -1.1658029574946087e+00
    1.1818587238302017e+01 -1.0958550443405832e+00
    1.1306427546122800e+01 -1.0853197487787301e+00
    8.8962454935343640e+00 -1.1640970555941921e+00
    9.6076350328898403e+00 -9.7007641938220457e-01
    1.2325733957681068e+01 -1.1704642929103379e+00
    1.1397630610237727e+01 -1.4053400786098160e+00
    9.2831405268394516e+00 -1.5426721462820532e+00
    9.4179493519529078e+00 -1.8073103594050532e+00
    1.0565005384556656e+01 -1.3504292548071484e+00
    1.1971052238206571e+01 -1.2285926674952725e+00
    1.1892300183873740e+01 -1.1024153705662276e+00
    9.8204696499457569e+00 -1.0043380805113511e+00
    9.4057213727621125e+00 -1.0678249638971240e+00
    1.1039963361727793e+01 -1.2229963052721780e+00
    1.0557608310513279e+01 -1.4478004147259773e+00
    8.9770105519939509e+00 -1.6450282611564040e+00
    9.1190298668316814e+00 -1.9793125322617378e+00
    9.5437869791467715e+00 -1.4984051861336281e+00
    1.0886570219701131e+01 -1.3045983637001874e+00
    1.0759757870342222e+01 -1.1553859501955985e+00
    9.2134006883519834e+00 -1.0525334959797692e+00
    9.5197033155186190e+00 -1.2372429530236069e+00
    9.9389084431937977e+00 -1.3831166249311104e+00
    9.8885738574764943e+00 -1.5075087417442339e+00
    9.1048438751592684e+00 -1.3682167208002591e+00
    9.0398469061075861e+00 -1.3523876639835886e+00
    1.2519592139572156e+01 -1.1329341043187753e+00
    1.3321085678191832e+01 -1.1201809616627132e+00
    1.2198324827511252e+01 -1.0545885740368519e+00
    9.5804527914252766e+00 -1.1142415730691200e+00
    9.1249831562365991e+00 -1.3495837678689664e+00
    9.4712024444699754e+00 -1.4964521049232022e+00
    1.0232965013239529e+01 -1.7497224982241348e+00
    9.4995248983239158e+00 -1.4454364369216834e+00
    9.3601320913239867e+00 -1.3984847032578664e+00
    1.0427031284298195e+01 -1.1150321052046526e+00
    1.3878000316991193e+01 -1.2805451166417563e+00
    1.1870055906396006e+01 -1.1409035218846248e+00
    9.3823267220709514e+00 -1.2138418163319020e+00
    9.4645347981610914e+00 -1.0218339836619661e+00
    1.1553654972186267e+01 -1.2067938029877117e+00
    1.1508462886625100e+01 -1.4632281158725224e+00
    9.4700459282345957e+00 -1.5627288178195911e+00
    9.1396615227997255e+00 -1.7798836697513627e+00
    9.3983771987325042e+00 -1.3362939198302948e+00
    1.2597896210833397e+01 -1.2866652138000734e+00
    1.2441811800556446e+01 -1.0697721817858017e+00
    9.6843625789113279e+00 -9.6358661503883691e-01
    8.9544638171351352e+00 -1.1965437349193841e+00
    9.9717331891839152e+00 -1.3013155851251139e+00
    1.0055224807771463e+01 -1.5365348318205503e+00
    8.8573803950347223e+00 -1.5336198001526997e+00
    8.9216012312558917e+00 -1.7861445594006773e+00
    9.3345121614086501e+00 -1.3530493445271017e+00
    1.1944548570899274e+01 -1.2921299427400768e+00
    1.1283133496715395e+01 -1.1038852766377327e+00
    9.4188613523599809e+00 -1.0880618695026720e+00
    9.1743916527220151e+00 -1.3495736076798661e+00
    1.0434478322697833e+01 -1.4980019667453399e+00
    1.0616074924157957e+01 -1.5838299429048392e+00
    9.6437123557739781e+00 -1.2866140226307519e+00
    9.3518146162852602e+00 -1.2701942538457216e+00
    1.1796587218946227e+01 -1.0864151035425307e+00
    1.5789756040043343e+01 -1.2362254686049152e+00
    1.3757543537330793e+01 -1.2481321975134068e+00
    9.9680425653858116e+00 -1.2652172396434425e+00
    8.5107483457720647e+00 -1.5394926064402097e+00
    9.8349510915634557e+00 -1.6244453894629320e+00
    1.0684996541734987e+01 -1.5403770579336504e+00
    1.0367146822636164e+01 -1.3370167111592364e+00
    9.3427073503511320e+00 -1.2916339572997717e+00
    1.0831000516746576e+01 -1.0671052372103804e+00
    1.3790827920854142e+01 -1.2288545675580602e+00
    1.1796761150838798e+01 -1.3161421604418282e+00
    9.1255666131453381e+00 -1.5003679683583180e+00
    8.9333177506204215e+00 -1.2090838032396867e+00
    1.1222925111201262e+01 -1.3709760997751681e+00
    1.0739336079463282e+01 -1.4517434308091945e+00
    9.5322136576179783e+00 -1.3900454820369457e+00
    8.7129754392294476e+00 -1.5112159193055903e+00
    9.9019901314433287e+00 -1.1780928706785323e+00
    1.3251420985828331e+01 -1.2683754950621680e+00
    1.2093252755560179e+01 -1.1370074098142957e+00
    9.4534527750673050e+00 -1.1259391776155723e+00
    8.7345902723232562e+00 -1.4178132783009003e+00
    9.7664229729810774e+00 -1.4663459487624941e+00
    1.0045381415135488e+01 -1.4469490140740640e+00
    9.7975655265041386e+00 -1.4157220654827114e+00
    8.7836972744742958e+00 -1.5399403428293341e+00
    9.2347287226041743e+00 -1.2429705886616544e+00
    1.2697334949043011e+01 -1.4211211672194168e+00
    1.1982036575411666e+01 -1.3420742579714244e+00
    9.0851233088695462e+00 -1.3859144025541916e+00
    8.7565245675607439e+00 -1.5284381846769999e+00
    1.1722921713544183e+01 -1.6097951715737855e+00
    1.1166055519757018e+01 -1.2254781356744955e+00
    1.1472786033976876e+01 -1.1252749808838498e+00
    1.0324782016940784e+01 -1.1274538517321044e+00
    1.2276606868263020e+01 -1.0110547686286637e+00
    1.5235512227310904e+01 -1.1668315088333820e+00
    1.2648250626420214e+01 -1.2692006117464754e+00
    9.6790824819550512e+00 -1.4776476034574177e+00
    8.8493938160182406e+00 -1.8294807806285600e+00
    1.0901558384957777e+01 -1.7652992440173445e+00
    1.1059056737652220e+01 -1.3422719850003051e+00
    1.0674475837938534e+01 -1.2117379661710437e+00
    9.7862211397640877e+00 -1.1367978841979758e+00
    1.0811020520130125e+01 -1.0143906455202192e+00
    1.2379237726949748e+01 -1.1520253274963907e+00
    1.1517428496989080e+01 -1.3641041579393052e+00
    9.0897432150583057e+00 -1.6677235110047397e+00
    8.1122190296692853e+00 -1.3748029098618937e+00
    1.1384178805579133e+01 -1.5078305075193357e+00
    1.1313230159707830e+01 -1.2810296690892840e+00
    1.0755030011365477e+01 -1.2311271142883677e+00
    9.2993607090338699e+00 -1.3550094476918713e+00
    1.0343786404841389e+01 -1.1957239841138201e+00
    1.3851224721866814e+01 -1.3056707679450721e+00
    1.2089888827224035e+01 -1.2289087063523563e+00
    8.6407069192713841e+00 -1.3528063442419926e+00
    8.0206840736389324e+00 -1.6218704883392705e+00
    9.8817517893449729e+00 -1.5762091272508196e+00
    1.0615984678259958e+01 -1.3682370773840595e+00
    9.6646166641999098e+00 -1.2294084168426465e+00
    8.3496992762614273e+00 -1.2889963709535688e+00
    9.0721205670663831e+00 -1.1871658258084632e+00
    1.2581738242978659e+01 -1.3608997787896491e+00
    1.1981667899947555e+01 -1.3836720351478913e+00
    8.2930084647737665e+00 -1.5522143871527589e+00
    8.2609837280937164e+00 -1.7046994970048750e+00
    1.1148824286856332e+01 -1.5335430503051779e+00
    1.2747820355779306e+01 -1.1869886543043553e+00
    1.1594859785056208e+01 -1.0121910382886201e+00
    1.1522064281461118e+01 -1.0045332153855746e+00
    1.3243719270089166e+01 -9.7221150007738388e-01
    1.3589417710957836e+01 -1.0166263552697159e+00
    1.1847324560533881e+01 -1.1654626452610175e+00
    9.3100312951223607e+00 -1.5655801934555711e+00
    8.8166250837419202e+00 -2.1400719325956188e+00
    1.0456849272187455e+01 -1.7156917956187667e+00
    1.1596609623559708e+01 -1.1836805481293222e+00
    1.1045330529996701e+01 -9.3266374530887730e-01
    1.0695196657800119e+01 -9.9259833992997859e-01
    1.1933761998635909e+01 -9.3298244430172661e-01
    1.1960509806478205e+01 -9.8900811204089267e-01
    1.0948031487810580e+01 -1.2900446159215104e+00
    9.1302858181433919e+00 -1.8573523653837947e+00
    7.6994038105507627e+00 -1.5583252846889859e+00
    1.1042717138649977e+01 -1.4657290441140001e+00
    1.2073117499094542e+01 -1.2056100037601072e+00
    1.0092645124101818e+01 -1.0637304057849173e+00
    9.2131482164646616e+00 -1.0872293410132179e+00
    1.0501217267164028e+01 -1.0463326346606072e+00
    1.4636957405760537e+01 -1.2020108342203424e+00
    1.3221464681333078e+01 -1.2130008554794349e+00
    8.2385290573225856e+00 -1.4183094503984193e+00
    7.9702036160672565e+00 -1.7715704261109368e+00
    9.6188668272992324e+00 -1.5080844599241967e+00
    1.1580582334816846e+01 -1.2398233528256819e+00
    9.2931281350105248e+00 -1.0316900212162046e+00
    8.7189121511912013e+00 -1.0587231716291730e+00
    9.9386032069089350e+00 -1.0457632037608917e+00
    1.1958699300816189e+01 -1.1498051179978324e+00
    1.0714843786755367e+01 -1.2627210093879229e+00
    8.4510881921126657e+00 -1.8221267831366625e+00
    9.5205222949165638e+00 -2.2524232685785730e+00
    1.0841464442046799e+01 -1.6265422810655685e+00
    1.4456845344958911e+01 -1.1863177461292960e+00
    1.2060569116192795e+01 -8.1989683044705053e-01
    1.2306725237990340e+01 -8.8121226559256249e-01
    1.3628527403655960e+01 -8.2641575924826660e-01
    1.4714149512435247e+01 -9.7229765669328572e-01
    1.1933677881616836e+01 -1.2960714374332212e+00
    9.7612667765812500e+00 -1.9602568030914180e+00
    1.0549348104810552e+01 -2.6733104175204199e+00
    1.0464797880807204e+01 -1.7046126822185430e+00
    1.4423682885014825e+01 -1.2746080023735333e+00
    1.3740080285177672e+01 -9.9328427471889058e-01
    1.2120055725734428e+01 -9.2821416385375766e-01
    1.2787310654139180e+01 -8.8300076525948301e-01
    1.4268027939263829e+01 -1.0359222681240368e+00
    1.1358757102347997e+01 -1.4487480152585361e+00
    1.0167069404700415e+01 -2.3794048493688900e+00
    8.3277480950448410e+00 -1.8342510682597402e+00
    1.1583045933239678e+01 -1.6315983715731817e+00
    1.3289182190798870e+01 -1.1916287527156273e+00
    1.0694621630545338e+01 -9.3194894936437689e-01
    1.0170786955343335e+01 -9.7339119020233000e-01
    1.1511960603387751e+01 -9.3336994031894494e-01
    1.4210094712432136e+01 -1.1034946796877096e+00
    1.2257799567397774e+01 -1.3446399491961569e+00
    8.6324568341165975e+00 -1.7782804474518841e+00
    8.9078818303800809e+00 -2.1225207693514885e+00
    1.0090075905935548e+01 -1.6057910976898444e+00
    1.2104586138958924e+01 -1.1993929546068125e+00
    1.0864072330380909e+01 -9.9886128180974620e-01
    9.5679487438781514e+00 -9.9518125835252103e-01
    1.1048041509825948e+01 -9.4083395050178165e-01
    1.3199079681955107e+01 -1.1604987982508497e+00
    1.1377751911312268e+01 -1.5502433829765079e+00
    8.8376875854008912e+00 -2.0818502985920810e+00
    1.0289743322808253e+01 -2.3868504905656107e+00
